{
  "format": "ursim-neural-net",
  "version": "1.0",
  "ruleset": "finkel",
  "inputSize": 14,
  "architecture": [256, 128, 64, 32, 1],
  "layers": [
    {
      "neurons": 256,
      "inputs": 14,
      "weights": [
        [0.02464001, 0.54563814, -1.41592312, 0.01881955, 0.01799251, 0.21645881, -0.06433328, -0.06194961, 2.41209173, -0.13065469, -0.19608307, -0.41871238, -0.50487328, 0.08690557],
        [-0.17742015, -0.06743345, -0.56289285, 0.78196114, -0.98459005, -0.30170479, -0.51949626, 0.29248494, -0.12885658, -0.12019157, 2.07698727, 0.43722546, 0.00339388, -0.31355068],
        [0.30222562, 0.03480831, -0.03189136, -0.02043654, -0.32025674, 0.06367373, 0.09695664, -0.04034732, -0.25298792, 0.06335618, -0.19124052, -0.24049737, -0.21310842, 0.03107856],
        [2.16168404, 0.10581779, 0.22361575, 0.58616000, -0.52713269, -1.30869794, 0.91373968, 0.36977214, -2.45095015, -0.17036171, -0.27276781, -0.33994281, 0.54227895, 0.62118638],
        [-0.10075432, -0.16899091, -0.21150897, -0.18660915, -0.19367686, -0.02124748, -0.17048992, -0.03044754, 0.15281221, -0.06960675, -0.24291874, 0.10536259, -0.14119196, -0.17403142],
        [-0.10940245, -0.13008223, 0.18908304, 0.12109011, -0.16303484, 0.01485524, -0.21174282, -0.18786839, -0.15856721, 0.03348988, -0.07324760, -0.14355247, -0.15155424, 0.05763390],
        [-2.42205977, -0.65423232, 1.45575535, -0.61192912, -0.30307776, -0.55572098, -0.09123833, -0.01959326, 1.50251400, 0.68445057, -3.65619540, 0.43192068, 0.03161445, -0.06258472],
        [-5.32070923, -0.08255124, 1.27500927, -0.37020409, -0.37009591, 0.11133371, -0.12106711, 0.10772383, -0.70511276, -0.60400498, 1.50826418, -0.01919405, 0.11529671, -0.11446211],
        [0.22457588, 0.41449419, 0.78700995, -1.10268319, 1.38206196, -0.10109864, -0.60963988, 0.22390372, -0.16111262, -0.21758181, -3.22350383, -6.54299498, 0.19602162, 0.56461674],
        [-0.43363908, -2.10957742, -6.66409254, 0.08214973, 0.14043865, -0.37904054, -0.23475258, -0.32608435, -0.40516758, 0.03952460, 0.62690485, 1.12131608, 0.84838516, -0.46965513],
        [-0.37511602, 0.17582317, -0.26537979, -0.39352641, -0.29766658, -0.58042032, -0.02455704, 0.44617751, 0.09879877, -0.07861414, 0.26576611, 0.04962190, -0.04481662, 0.04750390],
        [-0.48062101, -3.21321774, 0.49869770, 0.05394183, -0.61476338, 0.38017350, -1.08661067, 0.12576558, 0.51221889, -3.27584648, -0.08670280, 1.56126690, 0.07463496, -0.20845059],
        [-3.95220613, -1.76050627, 1.67035615, -0.79807299, -1.18920636, -0.02480751, -0.03571177, -0.78983265, -1.09575415, 0.07910463, -0.20207007, -0.30116835, 1.31211448, -0.48663148],
        [0.12018894, -0.17689484, -0.04782838, -1.41757703, -0.07771810, -1.83427787, -0.03838121, 2.10730815, -1.47141671, -0.25774089, 0.15367478, 1.62859261, -0.79673851, -0.58515358],
        [0.23372869, -0.01082373, 0.21120487, -0.03548220, 0.04783066, -0.03759534, -0.17257193, -0.12527302, -0.02830882, -0.21749717, -0.12416858, -0.23358741, -0.30283475, -0.05571676],
        [1.70098591, -1.75578916, 0.03974501, -0.64004469, 1.02716947, 0.57582915, -0.10193451, -0.09887984, -0.00456886, -0.01366615, 0.07246132, 0.50166899, -3.47373414, -0.20600103],
        [0.22127113, -0.22064018, -5.98902893, 0.06272533, -0.14869183, 0.32315630, 0.73063046, -0.16413844, -0.66064125, -2.21627712, 0.24791774, 0.02532018, -0.04281421, -1.51925468],
        [0.63557613, 0.31775728, -0.31160769, -0.03742728, -0.06740032, 0.02256058, -0.26901790, -0.99144071, -0.75403816, -0.01498687, 0.00871536, -1.94562376, -0.13847877, 0.93259287],
        [0.04777002, -0.18856600, -0.00610309, -1.46118283, -1.69907665, -0.35904869, -0.04458541, -0.11864232, 0.31019282, 0.05762635, -0.11272344, -0.40596136, 0.02572745, -1.12483394],
        [-0.01262527, 0.22477636, -1.87261331, -0.61730587, 1.42891848, 0.31923664, -0.54705089, -1.05860782, -1.44982290, 0.74978298, 0.42709476, -0.20872526, -1.08675766, 0.22015892],
        [0.00459744, -0.65844774, -0.81653309, -0.08498175, 0.13939585, -1.02926219, -1.40582418, 0.26553473, -2.82262516, -1.42019284, 0.42763987, 1.58501649, 0.03861555, 0.02029330],
        [-0.32802665, -0.49476758, 0.70476735, -0.75968754, 0.14027053, -0.22271198, -0.52317995, 0.01990068, -0.16722101, 2.39668059, 0.11895365, 0.08190727, -0.30764610, -0.19706243],
        [0.03305389, -0.01970370, -0.04311563, 0.00896622, 0.02367330, -0.09003980, -0.30434197, -0.27580094, -0.15037194, 0.01534684, 2.49847293, 0.53886473, -0.58496302, -0.75579536],
        [-0.36126837, -0.11590108, 0.31043628, -2.82384658, -0.12275911, -0.30350778, 0.06786698, 1.83735633, -1.65083468, 1.93248248, 0.27886537, -0.78753382, -0.75099725, 0.29113322],
        [-0.03376014, -0.29007474, -0.70194483, -0.10802633, 0.06843779, -0.49355277, -0.33853191, -0.42977798, 0.67976320, 1.24547184, 1.08198237, 0.27525055, -0.14046335, -0.27008256],
        [-0.18344314, -0.15390337, -1.07112110, -0.70325035, -0.60349059, -0.15593627, -0.51568276, -0.18012424, 0.37281570, 0.01099199, 0.70135069, 0.95266056, 0.79285294, 0.51760542],
        [-0.06237335, 1.67013776, 1.66663754, 0.45757705, -0.23215492, -0.06896181, -0.03867303, -0.03804343, -1.44756639, 1.13637543, -1.86675262, -2.04413104, -0.52251989, -0.01054159],
        [1.42373741, -5.40810394, 0.28277823, -0.14082253, -0.25819859, -0.95471418, -0.55413693, -0.31351799, -0.77214134, -0.04241478, 0.53006083, 1.01002979, 0.85870945, 0.14063345],
        [-0.28599334, -0.19533308, -0.10759712, -0.18257803, -0.06925403, -0.07829587, -0.02598942, -0.08709151, 0.24036664, 0.10067653, -0.11466145, 0.08816873, 0.13558508, -0.06971460],
        [0.09176116, 2.00552869, 0.04371806, 1.30099022, 0.52295691, 0.31005758, -0.45044553, -2.50515676, -0.12333234, 0.04215517, -2.51618099, 0.03545170, -0.98032647, 0.08393635],
        [-13.74014854, 0.05884050, 1.22400904, -0.71943563, 0.76574928, -0.27087811, -0.08205672, -0.34016341, -2.36615372, 0.81620991, -0.30199024, 0.59663308, -0.49037853, -0.21966718],
        [0.19831228, -2.35838890, -0.54720652, 0.45210081, -0.34099230, -0.71998274, 0.64215827, 2.45541620, 0.08806247, 0.10476378, -1.00003111, 0.14075176, 0.39160508, 0.34896287],
        [-0.17542849, -0.25253254, -0.40337887, -0.13295154, 0.07605112, -0.05426579, -0.17440332, 0.23765108, 0.06826462, -0.07760410, -0.03333735, 0.04041568, 0.09298038, -0.12048830],
        [3.06759477, -0.62808210, -0.44664463, 0.74151486, -0.68063158, 0.51486838, -0.61971062, -0.10412186, -1.11150885, 0.09630819, -0.36401644, 0.29184440, -0.48722604, 0.27426377],
        [-0.27569574, -0.54793078, -0.34663725, 0.15219778, -1.52612627, 0.12238461, -0.86008370, 0.10168132, 0.27476066, 0.85472536, 1.46809244, 0.45772806, -0.18810518, -0.35658747],
        [-0.52477658, 0.10233008, -0.90420169, -2.48695850, -0.90113056, 0.73207015, -1.01576066, -0.86563540, -2.24175525, 0.21401383, -1.37449300, 0.16652694, 0.12244981, -0.05882287],
        [-0.05402235, -0.19346662, -0.08582433, 0.30295593, 0.11072809, 0.51835024, 1.06192601, -3.25827813, -5.32677221, 0.00316566, 0.31539583, 0.10982257, -0.84182525, -0.68187922],
        [-0.10883339, -0.14870319, 0.02130085, 0.00701433, -0.24035656, -0.03297432, 0.23709781, -0.02934191, -0.22857013, -0.22524841, -0.04762767, -0.25235665, -0.19505964, 0.02862755],
        [0.15313455, -0.24307702, -0.17208092, -0.00776282, 0.01733515, -0.23919418, 0.01545519, 0.03805640, -0.21807221, -0.25586653, -0.09018902, 0.10707417, -0.23071088, -0.12436675],
        [1.80871356, -3.36617160, -0.98811823, -0.78881937, 0.87794763, 1.15128231, -0.60867387, -0.39347610, -2.41517425, -0.46890154, -0.88247377, 1.11213565, -0.35648525, -0.02899795],
        [-2.55693316, 0.06350352, 0.83024579, 0.71806455, -1.68228245, 0.82259816, 0.51579148, 0.00396769, -0.52220142, -3.05833387, 0.59050977, -0.35169393, -1.20520949, -0.12449809],
        [1.37055981, -0.13073902, -0.19337122, -0.41664758, 1.42891884, 0.76351291, -0.48753405, -0.01208596, 0.37176806, -1.54999793, -0.23622793, 0.99732506, -0.14357480, -0.78094107],
        [2.47862601, -0.71113217, -2.16243339, 1.77943158, -0.81502521, -0.05106214, -0.46414933, -0.04588417, 0.40142038, 0.17480578, -3.40014720, 0.50819939, -0.06043037, 0.30628330],
        [-0.33895636, 1.85752738, -0.12209553, 0.19928975, -0.17888421, -0.12601019, -0.27565211, 0.07652111, -1.54780924, 0.97875887, 0.44264415, 0.01827179, 0.14317103, -0.33717912],
        [0.58230948, -0.78597605, -0.03544956, 1.80462825, 0.09901376, -0.40643796, -0.69335920, -0.00463995, 0.05824038, -0.27541792, -2.98117733, -1.44676673, -1.41805005, -0.06631568],
        [-0.35489348, 0.07193588, -0.29495698, -0.00673379, -0.43288440, -0.07148014, -0.23996028, 0.12127085, -0.15354154, 0.28429446, -0.04882452, -0.07602163, -0.01070640, 0.00673092],
        [-0.23696198, 0.01268266, -0.48367909, -1.78523445, 0.05385743, 0.22411704, -0.41221461, 0.27734956, -0.90118665, 1.42879391, 1.80002081, 0.19281201, -0.29440686, -0.61767864],
        [0.09606196, -2.17974949, 0.23027702, 0.26007554, -0.73341209, -0.21387766, -0.54887003, -0.23328927, -0.10473493, 0.80311108, 0.08459003, 1.29927492, 0.59320813, 0.05428530],
        [0.22711714, -0.93980169, -0.16482030, -0.59356380, -0.54376501, -0.36283433, -0.37864897, -0.02608718, -0.17076972, 1.46229541, 0.37717664, 0.68122029, 0.36430120, 0.21013820],
        [0.01624200, 0.04034454, -0.02916066, -0.15863904, -0.29038310, -0.50781268, -0.38064322, 0.01182048, 2.93768191, 0.38293105, -0.22780764, -0.35868326, -0.14871991, -0.33752182],
        [0.14200123, -0.15511498, 0.19882420, -2.06117415, 0.39421842, -0.20124227, -0.12988353, -0.43998155, 0.22039448, 1.03555012, -0.41898972, 0.88345808, 0.39117402, 0.48396978],
        [3.29830432, 0.09266680, -0.15991060, -0.22724073, 0.51239979, 0.34013483, 0.31982926, 0.39959347, 0.20051967, -0.73434943, -0.54738891, -0.21652085, -0.34314996, -0.46538949],
        [0.31359893, 0.09202386, 1.26660061, 0.92573076, 0.90892130, -0.10475385, -0.28401706, -0.01491580, -1.14948118, 0.21467423, -0.40935752, -0.43719253, -0.42078567, -0.29087231],
        [0.36246029, 0.70821697, 1.98428428, -0.28692943, -0.47274193, -0.67205375, -0.19730885, 0.92787683, 1.28157270, -0.05274571, -0.49243253, -0.32429567, -0.25309870, -0.04314448],
        [-0.64208096, -2.67042017, -1.82247901, 0.89211988, 0.06193323, -0.54157043, -0.13196020, -6.13105440, -0.57318014, -1.30994141, 0.07260651, 1.55897439, 0.03360031, 0.00294559],
        [-0.35843483, 0.13798901, 0.17787275, 0.04769108, -0.19618559, 0.05780815, -0.08902213, -0.22243191, -0.09513771, 0.14270014, -0.00496030, 0.00432702, 0.10965687, -0.21284425],
        [0.40378278, -0.03635347, -0.58195519, 0.53035432, -0.20732346, -0.06414917, 0.87823457, -0.37975478, 0.24288775, 0.01122830, -1.08139849, -0.24546847, -0.33222997, -0.30200493],
        [0.57598448, -1.04752767, 1.16164088, -0.03339827, 1.37941778, 0.11719444, 0.01792016, -0.12438937, 0.20354223, -1.36946177, 0.37974826, 0.03071368, -0.68166304, -0.40656802],
        [-0.44352558, -0.11722778, 1.14927197, 0.24138591, -1.42237759, 0.84122485, 0.72049397, -0.28872144, -2.94875693, 0.56363606, -1.18051696, -0.58744174, -0.43070048, 0.52753836],
        [0.06823151, -0.05270483, -3.13969755, -5.90934277, -1.66211879, 0.72771960, -0.33323345, -0.10332101, -5.12069416, -1.62708318, -0.34699747, -0.22667041, 0.21321219, 0.24116938],
        [0.23660982, 0.08197210, 0.10139563, 0.16242461, 0.09576850, -0.20859818, -0.16334271, 0.07282823, -0.10057759, -0.18984661, 0.25163820, -0.25209665, 0.10637403, -0.23623851],
        [0.17663607, 0.13558288, -1.72390783, 0.01880210, -0.07660531, -0.07181807, -0.32535970, 0.31491980, 2.60776782, 0.23506321, -0.14073376, 0.06005931, -0.29523295, -0.10204034],
        [1.12812006, 1.09779298, -0.21988630, -0.57908571, -0.15908580, 1.81157517, 0.05394091, -0.50754416, -0.52254510, -0.66215062, 0.26055557, -0.51655388, 0.08644062, -0.52409256],
        [-0.00684437, 0.05430230, 0.18887997, 0.17880550, -0.13097692, -0.04725321, -0.18061931, 0.29446200, -0.13573462, -0.08470959, -0.04454846, 0.19558419, 0.07293399, -0.25920045],
        [-0.06918194, 0.14089307, -0.12856714, 0.31414813, 0.12718840, -0.10047667, -0.11861267, -0.06317743, -0.31619248, -0.06181344, -0.37454525, -0.02434533, -0.24021471, 0.02737702],
        [0.04424151, 0.72323620, -0.32749695, -1.44103134, -0.14921351, 0.09054328, 1.28658915, -0.24917041, -2.02750087, 0.18904690, -2.56329012, 0.15077265, 0.98643184, -0.56380165],
        [-0.22118315, -0.96196997, -0.16218899, -0.08368634, -1.09267390, -0.64328033, 0.08576418, 3.04404950, -0.11645382, -0.12822866, -0.27468869, 1.65867162, -0.13819288, -0.26442549],
        [0.04332265, 0.18699980, -0.03718610, 0.05080879, -0.11594687, 0.05811462, -0.09987547, 0.03455165, 0.09894630, 0.06001580, -0.03685068, -0.04527287, -0.04418670, -0.08157218],
        [-0.01519414, -0.00680134, 0.36130002, 0.05344322, -0.14491956, 0.11799049, -0.22500546, 0.00424980, 0.07814596, -0.28296131, -0.29719964, -0.19587700, -0.33499679, -0.18664677],
        [-0.32879123, -0.24896123, 1.72183037, 0.18830003, -0.19483611, 0.29133698, 1.08568454, 0.18460631, -0.12589727, 2.04082751, 2.50603294, -7.87498856, -0.57613403, -0.29300356],
        [-0.62699950, 1.85810041, 0.60917306, 0.33788368, 0.44152254, 0.07749230, -0.10839566, -0.61070508, 0.14568383, -2.09061265, -0.15161058, -0.46887022, -0.69175529, -0.31892732],
        [-0.18032745, 0.10532879, -0.29767734, -0.08606729, -0.17207406, 0.02580155, 0.09178043, -0.10349310, -0.02031398, 0.14477721, 0.04658292, -0.13377535, -0.11035841, 0.14790735],
        [-0.80183172, -0.68639451, 0.41771948, 0.83150792, -0.86824077, 0.07325155, -0.15761906, 0.03278739, -0.00583487, -0.82627642, -1.12010586, -4.17941666, 1.67689264, -0.99154633],
        [-0.43912229, -0.75270975, 0.14847142, -0.40308547, -1.99288011, 0.34658915, -0.11591516, -2.00376844, -0.07373686, 2.49593663, 0.13687170, 0.00257336, 0.15947320, -0.41094431],
        [-3.14909840, 0.58969826, -0.38348833, 1.52047920, 0.49745420, -1.57377517, 0.05927216, 0.00970832, 0.15793596, -0.62201238, -1.14302874, -0.81200731, -0.79731208, 0.63297337],
        [1.42776966, 0.00569468, 0.15743305, -0.57554024, -1.29835224, 0.71600407, 0.17569132, -0.66221124, -2.96255589, -1.41841197, -0.38050839, 1.76727271, 0.00397982, -0.54497427],
        [2.09841418, -0.68930876, -0.36698630, 1.30885959, 0.08967107, -0.64140159, 0.04313183, -0.17984985, -0.79970050, 0.25700778, -0.32157582, -1.45418644, 0.15236787, 0.23158960],
        [-0.02117784, 0.11285251, -0.25601402, -1.74185443, -0.50399679, -0.32517365, -0.03623745, 2.03945851, 1.53504419, 0.43374181, -0.20425202, -0.11803310, -0.17474103, -0.05136460],
        [0.45253420, 1.42793369, -0.47559229, 0.53998923, 1.57838309, -1.31395614, 0.35632160, -0.41274804, -0.38933197, -0.41611686, -1.79108500, -0.33222014, 0.55238926, -0.01690040],
        [0.13938478, 0.11666468, -0.20591180, -0.06393583, -0.15033457, -0.06594473, -0.17414320, 0.09632102, -0.22996542, 0.06881255, 0.06641844, -0.10644545, -0.03364211, -0.02848926],
        [-2.10601544, -0.05227778, 0.00186613, -1.01355481, -0.21884242, -0.89655823, -0.43387794, 1.95015144, -0.00448975, -0.00537723, 1.18425941, 0.28422526, 0.71530354, 0.69966936],
        [1.07032716, -0.73219734, -1.44296277, 0.19936213, -0.20858818, 0.06562426, 0.53851759, -0.18946046, -0.19412114, -1.11260462, -1.34134746, -3.60826969, -0.00545403, 0.00727749],
        [0.89700246, 0.06730288, -0.44208598, 0.27164254, 0.67101187, 1.01739693, 0.67669064, -0.34855598, -0.65042663, 0.22030625, -0.42753780, -0.86832178, -0.48122138, -0.55085176],
        [-0.11828282, -0.12679116, -0.28388456, 0.13897204, -0.22615206, 0.04350015, -0.17388363, 0.02184315, 0.01045728, 0.15124725, -0.29746339, -0.04676222, -0.04053473, 0.02861306],
        [-0.18119228, 1.09592950, -0.03246187, 0.10233399, 1.22681522, -0.01238913, 0.25017360, -0.94790792, 0.35523942, -0.46236038, -0.89492106, -0.09580506, -0.65790874, -0.12293587],
        [-0.39744458, -0.14360596, -0.51447672, -3.38579535, 0.60020179, -1.67770076, -0.31827652, -0.34777597, -4.89319611, 0.84294480, 0.21099748, 0.69621783, -0.89312446, -0.04998131],
        [0.41152850, 2.22495556, -9.70480061, -0.38143739, 0.30068368, -0.00910093, -0.16269170, -0.09437686, 0.57946223, -0.61929101, -0.95315790, 1.89779794, -0.85228974, 0.15641078],
        [-0.08371630, -0.15069820, -2.51600242, -5.42602348, -0.08123615, 0.10441119, -0.50113887, 0.03444867, 0.32326448, -0.39684746, -0.10111868, 0.86466557, 0.20960605, 1.01687980],
        [-0.20406486, 0.20989716, 0.10667131, -0.23186734, -0.02808555, 0.14815836, -0.02329378, 0.28223786, -0.09703637, -0.13964029, -0.15063445, 0.23784176, -0.00887946, -0.19225796],
        [0.83569455, -1.83486855, -0.44874793, 2.33530450, 0.10719074, -0.46512568, -0.42258546, -0.79750365, 0.07800229, -0.21576969, -0.91248280, 0.67262733, 0.17550291, -0.11739854],
        [-0.03281152, -0.05528374, -0.02469237, 0.12248638, -0.06602524, 0.04491422, -0.26020944, -0.12952036, 0.06460375, 0.20459819, -0.12121955, 0.02320814, 0.14074618, -0.16874072],
        [-0.09755517, 0.10926703, -0.24874736, 0.24905223, -0.14166398, 0.08431187, -0.25054979, -0.19721135, -0.13176410, 0.12553728, 0.09798288, 0.00533783, -0.02261385, -0.06080773],
        [0.02782153, -0.05122836, 0.04783766, -0.32958320, -0.87825590, -0.55363047, -1.37543845, 0.80038434, -0.44375771, 2.12765694, 0.07914320, -0.87599552, -0.40552858, 0.94811720],
        [-0.10818169, 0.58314520, -1.44195712, -0.45258602, -0.38927543, -0.02128493, -0.41863412, 0.22753674, 0.07254618, 2.05261850, -0.13211702, 0.79171091, -0.07033718, -0.09574048],
        [-0.54611480, -2.66356707, -0.41500199, -0.77883661, 0.84979153, -0.67599642, -0.67965716, 1.19880331, -0.04421059, -0.33571059, -0.15481718, -0.62968034, 1.10563934, 0.57851470],
        [0.23097686, 1.28565919, 0.39862406, 1.17403519, 0.63849521, 0.62725854, 0.24491532, -1.33481956, -0.31510955, -1.15794754, -0.42925882, -0.48167673, -0.34024391, -0.07287763],
        [-0.16024508, 0.10735640, 0.03577331, 0.01577750, -0.24141890, -0.19954360, -0.12707838, 0.22958398, 0.10003906, -0.26523763, -0.08712339, -0.06067578, -0.09849705, 0.09035310],
        [-1.43700576, 0.44501784, -1.32505858, 0.05023141, -1.29858887, -0.52088189, 0.12231129, -0.30792081, 0.99093670, -0.12331740, 1.41667855, 0.24482982, -0.26313320, 0.12652692],
        [0.38063759, 0.06924555, 0.39556822, -0.54458326, -0.06047930, -0.02220502, -0.08253883, -0.20530887, -0.32935241, -0.65681607, 0.29354182, -0.42241085, 0.16202387, -0.12377056],
        [1.68139350, 0.15038346, 1.09444177, 1.44767535, 0.18757506, 0.10763808, -0.05428462, -2.61811709, -0.15511236, -0.19222832, -0.47548884, -0.85764050, -0.42159769, -0.47769031],
        [0.26598144, 1.18033111, 1.78030431, 0.19324701, -0.15401548, -0.36299169, -0.58784813, -0.70904201, -0.01119352, 1.02924263, -0.27519166, -0.67183161, -0.51139116, -0.54125166],
        [0.05204594, 0.11561840, 0.05011469, 0.02344516, 2.09957862, -0.08011132, -0.05649484, -0.56954831, 0.10333683, 0.04464715, -0.05049109, -0.88965541, -0.53153211, -0.35735118],
        [0.14081727, -0.00573309, 0.03156151, 2.15294766, 0.22978121, 0.29826421, 0.15286683, 0.07446434, -0.00893457, -0.03528386, -1.13535178, -0.62151819, -0.48445255, -0.34849837],
        [-0.38403726, -0.00601932, -0.24725981, -0.13553335, -0.59309143, -1.60035193, -1.26873195, 0.30645218, 0.97643775, 0.13236126, 1.08951867, -0.16190633, 0.55105388, -0.02916186],
        [-0.24845438, 0.18749687, -0.60803503, -0.57965881, 0.65603703, -0.75459415, -1.16453874, 1.08632576, -0.17259580, 1.06927288, -1.06550109, -0.20042314, 1.52069283, -0.11624045],
        [-0.16037193, 0.16503771, 0.02786297, 0.43968245, -2.21877289, -0.48997334, -0.80235314, -0.13771814, -5.98577929, -1.65085745, 1.67588615, 0.42353287, -0.21805738, -0.25547686],
        [0.20583113, -0.17217737, -0.88188881, -6.08689404, -0.73972446, 1.23619795, -0.40996489, -0.00283248, -0.10101640, -1.79591596, -0.19199020, -1.08654797, -0.66867536, 0.06282260],
        [-0.05662880, -0.34897995, 0.53817397, -0.17620161, -0.23697695, -0.45991066, -0.19996096, 4.27029324, -0.00416404, 0.09799726, -0.18185714, -0.16504781, -0.58037895, -0.12472934],
        [0.29086721, -1.48231435, -0.66855550, -0.63328016, -0.63899118, -0.51729012, -0.04763999, 0.00813134, 0.32629919, 1.40893507, 0.43377519, 0.56473559, 0.79693121, 0.32235062],
        [-0.37557015, -0.14199193, -1.35425341, -0.10310114, 0.02433716, 0.36633861, 0.02117361, -0.06601278, -0.04949430, -0.35622916, -3.63274384, -0.01366816, 0.50418353, -1.71260655],
        [0.12127939, -0.07296681, -0.03781919, 0.13143599, -0.22330424, -0.09420496, -0.17829317, 0.11768723, 0.11069658, 0.24594077, -0.06644034, 0.03199703, -0.09195414, -0.21007365],
        [-1.95020592, 0.11992051, 0.17990063, -0.33234763, -0.32283673, -0.06270468, -0.56972647, -0.55834728, 0.28665486, 0.06840064, 2.12679720, 0.57170981, -0.37989995, -0.10941028],
        [-2.80624723, 0.98709404, -0.54115641, 0.11727687, 0.48374104, -1.46408474, -0.05079745, 0.26724252, -0.40099916, -5.81386423, -0.26067346, 1.69265258, 0.06646457, -0.14156185],
        [-0.26631948, -0.19876570, 0.10644510, -0.20550361, 0.35360947, 0.60870773, 0.82157022, -0.12261681, -0.12930219, -5.31927013, -0.13590284, 0.07762173, -0.40083736, -0.71558827],
        [-0.11736780, -0.17346641, -0.20397963, -1.75933468, -0.05720854, -0.25958651, -0.89504713, 0.16007568, -0.05211151, -3.32088447, -0.85625130, -0.70534176, 1.21503031, 0.67542994],
        [-3.20630980, -7.30994081, 0.03397707, -0.32910007, 0.14264844, -0.11193687, -0.33589599, -0.48256326, -0.05760143, 2.22200990, 0.06092383, 0.00778296, 0.21351606, -0.43548068],
        [-0.08705859, 0.07238379, 0.03825209, -0.07525624, -0.14550994, 0.24068955, -0.10197991, -0.12546583, -0.23882844, -0.09014283, 0.03436947, -0.22081226, -0.23857501, -0.21032633],
        [0.09923863, 2.09542918, 0.05758357, 0.60909176, 0.84665275, 0.24429855, -0.10502469, 0.57471508, 0.39156216, -1.90454459, -0.21473207, -0.95674181, -0.51133305, -0.08889432],
        [-0.01574924, -0.12613319, -0.25639009, 0.44122067, -1.81180620, -1.56453097, -0.13765810, 0.14357677, 0.02689114, -1.38680434, -2.78457594, -0.60366559, 0.62192416, 0.19211297],
        [-0.86588675, -0.47526735, 0.54130059, 0.09141862, 0.07655711, 1.17236090, 0.60295051, 0.25292373, 0.24898702, -3.26314116, -4.74635077, -0.36271957, -0.05026047, -0.18859608],
        [-1.70128334, -1.02587152, -0.80239630, 1.76525617, 0.36490613, 0.09836470, -0.30712765, -0.27579099, 0.47297746, -0.02290258, 0.00793490, -1.73105669, 0.31748894, 0.08020228],
        [-3.09084272, -5.79367018, -1.14929032, 1.33424735, -0.33564451, 0.18839452, -0.29395601, 0.11054047, -0.31829825, -0.13769977, 0.34076232, 0.40713850, 0.15703897, -0.22294939],
        [0.74058932, 0.49157155, -0.00744495, -0.27030265, -0.10751333, 0.21497402, -0.06314660, -0.70128989, -0.11284296, -0.11907542, -2.24037790, -0.17183383, 0.52356058, 0.87429309],
        [0.06227663, -1.17849886, -1.33424807, 0.18370396, 0.57745236, -0.14796871, -0.35110039, -6.84980297, -0.25478429, 0.02400693, 1.81344855, 0.31066629, -0.23329848, -0.59573829],
        [-0.03298856, 0.14990520, -0.14995739, -0.17468904, -0.03596394, -0.09796466, -0.23625053, -0.16216797, -0.11859463, 0.05495960, 0.22941375, 0.06210116, -0.26595125, -0.19294271],
        [-0.34887221, 0.39369160, -0.99118680, 0.52228767, -0.38730869, 0.27046961, -0.13471873, 1.76261044, -0.99857628, 0.71373248, -0.77253717, 1.47622287, 0.14898011, -0.47012123],
        [-0.41370499, -1.13706219, -5.26123095, 1.82883608, -0.82193285, -0.47938234, -0.04509962, -2.80584264, -0.32535091, 0.58577400, 0.32069761, -0.94615507, 0.70812142, -0.24064410],
        [-0.44074878, 0.04382458, 0.27146730, -0.01378479, -0.05482369, -0.23849089, 0.11300614, 0.09613306, -0.03995989, -0.21598762, -0.42273057, 0.09099115, -0.01579467, 0.02725174],
        [0.12033001, -0.73955214, 0.11037946, -0.66888380, -0.19481121, -0.47244662, -0.60892630, 0.07245857, -0.56359202, -0.08369110, 0.41412416, -0.29402450, 0.28727758, -0.04441093],
        [0.07029390, -0.02331542, 0.07053992, -0.07594843, -0.09735598, -0.34671363, -0.34379756, -0.03323160, 0.00994828, 2.74909353, 0.45119119, -0.42668891, -0.55045789, -0.46020076],
        [-0.53510666, -0.28468451, 0.01330959, 0.22414598, 0.13973495, -0.30813959, -0.07453169, -0.15889902, 0.62461561, 0.12613519, -2.40661502, 0.76676673, 0.28829348, 0.40519235],
        [0.83677346, -1.92550695, -0.25764951, -1.20966196, 1.17891073, -0.08796377, 0.40994188, 0.00674852, -0.18110111, -0.45239186, -0.34243348, -0.58914441, -1.44341612, -0.23871614],
        [0.59772539, 1.45855319, 0.64466172, 0.19421536, -0.19625831, -0.17840594, -0.42535201, -0.38440755, -0.28410408, 0.12681742, -0.89124328, 0.33510554, -0.20792906, -0.27397531],
        [-1.06180918, 0.49407503, -0.00502815, 0.88159758, -0.72104084, -1.25142634, -0.33864808, -0.19170722, -1.40161741, -3.61846328, 1.54763103, 0.41268119, 0.18341297, -0.41685331],
        [0.19943815, -0.14196163, 0.14920235, 0.94291580, -0.05455504, -0.67510885, -0.34511694, 0.10465898, 0.08553354, -0.32842141, -0.15681174, -0.60866457, -0.49220151, -1.34653580],
        [-0.43369585, -2.42777514, -4.64057016, 0.02745870, 0.85982221, 0.01214054, 0.05836320, -0.87612432, -3.05231881, 0.49832448, -0.96467292, 1.06765711, -0.59242111, -0.38142735],
        [0.05877252, -0.03781461, -0.03066774, -0.01332703, 0.07054280, -0.10853788, -0.22026575, -0.02808910, 0.52815318, 0.06692058, -0.11332174, -0.20654775, -0.14220724, 0.09582521],
        [-0.03210447, -0.21927546, -2.79296279, 0.32122311, -1.34169698, 1.12222517, -0.84484941, 0.02448203, 0.07662816, 0.20524456, 1.96764910, -5.04788733, -0.66003484, 0.39997911],
        [-0.00750072, -0.66404873, -8.75505257, -1.57137668, 0.84343433, -0.27409440, 0.56187028, 2.42897940, -2.31818080, -1.12276220, 0.15844125, -0.67202932, 0.61049092, -0.69689691],
        [1.90513098, 1.54991066, 0.01897416, -1.47358167, -0.85312289, -0.11850260, -0.12198704, 0.18513079, -0.04894511, 0.15513529, -0.29388070, 0.10057321, 0.94374007, 0.44869599],
        [-1.66225874, 0.20660053, -0.01613475, 0.42443714, -1.11766040, 0.30706176, -0.85617626, -0.14900871, -4.40122604, -0.56782854, 1.77949500, 0.32490820, -0.33240193, -0.14188315],
        [0.09682846, 0.07898998, -0.14108850, 0.10204998, -0.26557148, 0.22297063, -0.08398025, -0.25265262, -0.23609376, -0.14111036, 0.21659881, -0.12805556, -0.12146871, -0.02072331],
        [0.01113831, -0.07386918, -10.40338326, -1.86511612, 0.73626190, 0.87262988, -0.51697803, 1.25628042, -11.07773209, -0.59452474, -0.37782228, 0.03653719, 0.60179251, -0.04088256],
        [-0.01712567, 0.14822765, -1.29312038, -0.14087264, -0.02049904, -1.25903845, 0.12567154, 1.41747320, -0.23391715, 0.01739204, 1.67186248, 0.10832109, 0.38646910, -0.15703765],
        [-0.05381427, -0.13632359, -0.19786385, 0.16147155, 0.25223807, -0.11995217, 0.08478320, -0.17331536, -0.10278922, 0.01989941, -0.32807705, -0.23570403, -0.42369390, -0.06091398],
        [1.11627042, -3.82103729, 2.35849404, -0.59374923, -0.32162836, -0.26936516, 0.26544130, -1.70877588, -0.84823245, 0.08612429, -0.51512158, 0.29442382, 0.01395774, -0.66814923],
        [-5.23848581, 0.07841410, 0.01506617, -0.02377138, 0.04900979, -0.25629848, -0.39710692, -3.09475851, 0.05626779, 2.78737950, -0.35659516, 0.19879650, 0.04576822, -0.29135105],
        [1.12779164, 1.20546949, 1.17096162, 0.61447877, -0.92044663, -0.54207915, -1.18604434, 0.41038772, -1.01754522, -1.12389851, -0.28121293, -0.40987924, 0.59249568, 0.64098763],
        [-0.01407748, -0.20450075, 0.19276279, 0.13256195, 0.09328422, -0.06165357, -0.20423035, -0.10149482, -0.06225611, 0.09390312, -0.03920570, 0.22068593, -0.20222196, -0.08195671],
        [-10.36505413, -0.06006173, 1.81663418, 0.07647544, -0.75871330, -0.75997412, -0.00411011, -1.57471430, 0.00455473, 0.30752552, -0.96385300, 0.85835004, 0.50985885, -0.24559143],
        [1.33977067, -0.49304292, -0.18347719, 0.10663923, -0.07200730, -1.77639782, 1.39080870, 0.11234105, -0.65329564, -0.08371045, -0.26532289, 0.19915797, -0.43456650, 0.14861770],
        [0.12603910, 0.43419582, 1.41731584, 0.26276052, 0.23986632, 0.19306272, 0.86047053, 0.39600614, -1.75444806, -0.09249160, -0.57937735, -0.58022827, -0.50669706, -0.27940089],
        [-0.15953200, 0.11383112, -1.35517228, -1.95296013, -0.91835707, 0.84422034, 0.58720255, -0.43320817, -0.16797867, -0.28496084, 0.53221524, -1.26953435, -0.04670593, -1.27755558],
        [-0.40038192, -0.93774939, 0.62010401, -0.47188643, -0.49379137, 0.38026872, -0.29606241, -0.68291324, 2.61261463, -0.31867689, 0.04933945, -1.00045431, 0.45237565, 0.40304849],
        [-0.06742696, -0.47779474, 0.29137936, -0.55816084, -0.34043872, -1.59702921, 0.57033485, 0.10796459, -0.82166719, -3.08051300, 1.21341169, -1.79163122, -0.26439345, 0.62109637],
        [-0.17088850, 0.03775874, -0.29459149, 0.03626762, -0.15452878, -0.22308616, -0.26155528, -0.03150253, -0.16256078, 0.51392567, 0.06548655, -0.24269277, -0.12558228, -0.07431567],
        [-1.43386483, 2.19281983, 0.65111089, 0.16928436, 0.02187476, 0.12418228, -0.34282768, -0.40530318, -2.15718532, 0.26722756, -0.05500598, -0.69960964, -0.35220206, -0.28273046],
        [0.04907582, -0.08573180, 0.62118512, -0.01966864, 0.00800133, -0.00313443, -0.01412977, -0.34396726, -0.10318423, -0.49987367, -0.35737127, -0.92474461, -0.12491071, -0.44221866],
        [-0.11348869, -0.30123058, 1.06909144, 0.05228315, 0.45122290, 1.03887165, 0.30937043, 0.12857929, -0.58114856, -0.36565587, -0.28048235, -0.43450806, -0.25044766, -0.58765841],
        [1.61710894, 0.76660532, -0.69251871, -1.25375152, 0.93813521, 0.82659495, 0.55981326, -0.05968547, 0.58600920, -0.83193529, -1.02386856, -0.21878394, -0.06145818, -0.33897239],
        [-0.38081113, 0.39533740, 1.97197843, -4.85998392, -0.90621024, -0.27330282, -0.17264736, -0.15518132, 2.59385133, 0.77941328, 0.12206648, 0.01311419, -0.14401066, -0.23209518],
        [-0.48364961, 0.28793293, 0.88664484, 1.88126063, 0.25089574, -0.49137086, -0.46405855, -0.74850208, 0.32213259, 0.16049612, -0.36063492, -0.37097579, -0.27335674, -0.19209521],
        [-0.06956606, 2.38944626, 0.01018045, -0.13845649, -0.61780113, 0.13034992, -0.23950101, -0.11217812, -0.08863213, -2.22547460, 0.58102190, 0.69307065, 0.06840827, -0.06042351],
        [0.00503371, -0.36155838, -0.36138576, 0.17894736, -0.03339993, -0.08908843, 0.05477404, -0.46732593, -0.05677033, -0.04751356, 0.04460698, 0.06920199, -0.37872583, -0.37788710],
        [-0.40918934, -1.01583469, -3.96161723, -0.71624422, -0.78296012, -0.23933189, -0.63886100, 0.96853453, -0.08337415, 2.07580495, 0.14776579, 0.41669172, 0.30438501, -0.26299769],
        [-1.59764111, -2.16179490, -1.72650743, 0.74578828, 0.92666537, 0.51838523, 0.00695099, -14.39605045, 0.11288212, 0.48060271, -0.56718552, -0.08608693, -0.22157264, -0.70811391],
        [-3.41652751, -0.18164156, 1.87886107, 0.05227052, -0.04459896, -0.14057876, 0.10422964, -0.02991201, 0.55655915, -1.42802966, -0.93240523, 0.59692717, -0.14520119, -0.34146780],
        [0.00301140, -1.12892282, -0.24813241, -0.66770160, 1.05313027, 0.74230546, 0.23788622, -0.07286148, 0.29568207, 0.21645209, -2.50151563, 0.16640343, -1.93858707, 0.37755626],
        [0.15955548, 0.33538553, 0.25609735, 0.00512935, 1.25969899, 0.69887209, 0.38353875, -0.62191993, 0.30630004, -0.20721193, -1.06179619, -0.41178343, -0.57543385, -0.31612459],
        [0.50242883, -0.06709339, 0.02675135, 0.12004970, 0.22517122, -0.30033222, -0.22556385, 0.03323158, -0.31648532, 0.03492638, -0.62266570, 0.05726803, -0.01550618, -0.26665565],
        [-0.08394323, 0.10505766, -0.35317370, -0.34164178, 0.25457144, 0.04289896, -0.09787390, -0.08506691, -0.03236072, -0.32681164, -0.47955495, -0.91742879, -0.40717202, -0.30811799],
        [0.92050290, -0.78434408, -0.59999955, -1.26992214, 0.80125231, 0.31445131, -0.21618722, 0.14137609, -0.40380067, 2.04290581, -0.24127038, -0.11314754, -0.86283100, -0.10843230],
        [0.09912396, 0.22332217, -2.00591350, -0.78259522, 0.30319265, 0.38312024, -1.52601397, -0.11065088, 0.18789060, -0.45131138, -1.61851788, -0.01553703, 0.36599556, 0.19683215],
        [-0.97662574, 2.89376211, 0.11534265, -0.73684353, 0.20221798, -0.15327691, -0.06081920, -0.03225487, -0.21971858, -0.07852791, -0.10138621, -0.01053749, -0.22598335, 0.07465465],
        [0.16445747, -0.08857939, -0.00303330, -0.35846996, -0.22591668, -0.33077443, 0.01666344, 1.03332722, 0.01824650, -2.05004954, 0.21751791, 0.69951183, 0.81338000, 0.66729414],
        [1.84245622, 0.47764602, 1.56633937, 0.30780867, -0.15317157, -0.40661922, -0.06745303, 0.16725791, -1.54980648, -0.25321567, -0.48962948, -0.25498599, -0.40652215, 0.02006615],
        [-0.05260383, 0.04582438, -0.33454356, -0.18205273, 0.00984560, -0.04723997, 0.04555649, 0.01212200, 0.06305224, 0.25300327, -0.13414532, 0.16536504, -0.18807530, 0.15063709],
        [1.84222162, -0.34801719, -0.11196014, -0.03404946, 0.93020600, 0.81936181, 0.60576177, -0.74789941, 0.27115586, -0.99927717, 0.43021363, -0.80496019, -0.40320083, -0.41195035],
        [-0.48479193, -0.70021617, -0.05919462, -0.24677068, 0.06006498, -0.34891087, -0.50378734, 0.98136634, 1.05549717, -0.31221074, -0.03442258, 1.42040837, 0.91911662, -0.40806448],
        [-4.11451244, -0.02812432, 0.01838187, 0.01588280, -0.21055803, -0.08717796, -0.54021955, 0.01437890, 0.00420789, 2.66967487, 0.37867501, -0.55226588, -0.58522123, -0.14547993],
        [0.01209202, -0.04625586, 0.02188823, 0.32216319, -7.11313391, -0.30338353, 0.32151034, -0.25436321, -0.32884777, -0.28664687, -0.50825775, 0.36847803, -3.26141810, -0.61594814],
        [-0.22300938, -0.19878837, -0.11666831, -0.02059996, 0.19340438, -0.15259469, -0.15188001, 0.10886329, 0.17895237, 0.06678113, 0.09080017, -0.25666946, -0.13678566, -0.26540503],
        [0.21799707, 0.16227490, -0.28241780, -0.06115759, 0.11150073, 0.08070376, 0.05722194, 0.07658553, 0.18683463, 0.08199165, -0.17572583, -0.10814290, 0.09486742, -0.18703277],
        [0.33192301, 1.61502302, -1.84873128, 1.46589386, 0.15546565, -0.08372892, 0.04941843, -0.33819026, -0.30316472, 0.36063561, -0.31534865, 0.27978691, -0.21857409, -0.37985533],
        [-0.05815034, 2.53736115, -0.19529916, -0.32216403, -0.07597526, 0.22228810, -0.16069616, -0.59103948, -1.11157727, -0.05195899, -0.47789660, -0.25864047, 0.37489027, 0.22013651],
        [-0.30118823, -0.07124629, 0.00050092, -0.01692511, -1.81899357, 1.37562275, 0.60831332, -0.03602880, -0.02795937, -0.01468421, 0.00080839, 0.02364663, -0.21329887, -0.35614848],
        [0.16492994, -0.46589684, -1.02923238, -0.57459998, -2.04594541, -1.97207344, -0.62511188, -1.34994733, 2.44792986, -0.78914136, 1.66827750, 0.18558097, -0.08426739, -0.39464951],
        [-0.21248040, 2.55507159, 1.19108140, 0.46458670, -0.39296103, -0.42108354, -0.18399227, -0.29460883, -0.03802246, 0.03747905, -0.05789687, -0.47526711, -0.53053898, -0.59248269],
        [1.98727536, -0.66402906, 1.82038200, 0.93542093, 0.30852833, -0.06967784, -0.09617636, -0.42328912, 0.00327744, -1.80975080, -0.39227885, -1.46611011, -0.27487433, 0.00230497],
        [-3.90095663, -0.60139275, -0.10787306, -0.02572287, -0.02083487, 0.05489419, -0.11840124, -1.05759215, -0.05950412, -0.05886186, 0.00394562, 0.30817291, -2.01227975, 1.11042488],
        [-0.30403870, 0.15177922, -1.37980556, -0.22636309, 1.29156959, 0.49714202, -0.45925048, 1.62798452, -0.19229066, -0.02597791, -0.14034806, -1.58958566, 0.25224087, 0.29858801],
        [0.41129449, 0.11470821, -1.68022966, 0.17306960, -1.16220808, 0.14094117, -0.14886357, 1.31292713, -0.15700461, 1.43246305, 0.33517897, 0.05825077, -0.46345246, -0.74129677],
        [-0.85627931, -0.67477965, 1.17516911, 0.86749429, -0.70816809, 0.84309328, 0.17286013, 0.18918326, -0.74760717, -0.29500148, -0.72933918, -0.26673135, -0.41330528, -1.93325675],
        [-0.22135335, 0.16037139, -0.06477433, -1.38394153, -0.29476810, 0.06436031, 0.73092324, -2.08133459, -0.03311825, 1.74345636, -0.12766090, -0.55576152, 0.24656366, -0.39366984],
        [-0.15093362, -0.32984570, -0.33475733, -0.55036318, -0.29681778, -0.65059185, -0.31508365, 0.16231991, -0.21247947, -0.24606918, 0.05509290, 0.14956944, 0.06080273, 0.09827778],
        [-0.24838634, -0.17736360, 0.05956572, 0.69449788, 0.89249432, 1.09341800, 0.13810447, -0.19513813, -2.80778694, 0.12094322, 0.05967789, 0.10111827, -0.67996925, -0.49528322],
        [-0.67237556, 0.04588228, 0.29629093, 0.84794539, 1.07185268, -0.00428294, 0.23140751, -7.38573885, 0.39074212, 0.16225486, 0.21421853, -0.52510893, -0.76861322, -0.46363819],
        [-10.40949059, -0.62657410, -0.51606512, 0.01991910, 0.94797271, 0.31044975, -0.42757416, -1.54574275, -2.01795769, 0.02234509, 1.85629976, -0.83147317, -0.06151142, -0.16608816],
        [-0.10771591, 3.59662676, -2.72578621, -3.98737216, 1.20969081, -0.45509809, 0.01583159, 2.27179384, 1.68904960, -0.75875080, 0.11657362, -0.73147231, 0.35345510, 0.27387187],
        [-0.00045001, -0.18969505, -1.49313486, -0.98697037, -2.42389059, 0.05944235, 0.45438334, 1.65243864, -2.05751657, -0.47092745, 2.23416901, -0.84513164, 0.35342836, -0.29095477],
        [-0.45202816, 0.05150148, -0.27571818, -0.24085450, -0.57532883, -0.64955288, -0.59089041, -0.01675190, 0.71816307, -0.12992942, 0.02907679, -0.13463026, -0.02698530, -0.16467652],
        [0.22696960, -0.12671651, 0.22165489, -0.01316097, 0.00138524, -0.09282739, -0.26606476, 0.04981565, 0.20438117, 0.19409496, -0.03957646, 0.02326342, -0.07537527, -0.25567561],
        [-0.91379130, -0.34904751, -1.21234703, 2.06599998, 0.04100122, -0.64198780, -0.36733359, -0.12855351, -2.81962466, -3.90984678, -0.40618685, 0.22861105, 0.16554472, -0.24592608],
        [-0.24216349, 1.72783780, 1.21420872, -2.69395232, 0.31875613, -0.34543291, -0.64662367, 0.05812197, -0.44160989, -2.35438967, -1.75811589, 0.14476348, -0.59000355, -0.15431537],
        [0.36993685, -0.93402845, 0.26461077, 0.32882056, -0.43196493, 1.19171929, -0.04242542, 2.62574983, -3.75235105, 1.86173868, -0.87058198, -0.72316587, -0.28578642, -0.15238918],
        [-4.89287376, -0.82209373, 0.88292319, -0.22161359, -0.94249672, -0.63696396, -0.30341044, 0.09160960, 0.26291701, 0.58597475, 0.71250647, 0.30564538, 0.36472219, 0.04316695],
        [-0.50320333, 1.65712953, -0.27773625, 0.21523210, -1.17297685, 1.16233623, 0.26035121, -0.88883501, 0.13226579, -0.48173714, -0.03804276, -1.18270051, 0.81675845, -0.66406530],
        [-0.27437845, -0.13708043, -0.25470224, 1.65978897, 1.06899893, -0.02218145, -0.37584868, 1.39301670, -1.92630780, -0.35150605, 0.19907854, 0.05664453, -0.26366934, -0.76502162],
        [-0.02221366, 0.06711809, -0.03370226, -0.19251531, -0.22848570, -0.36750931, -0.42815492, 0.02778293, 3.11691260, 0.12403207, -0.19731407, -0.21940498, -0.52783638, -0.41117305],
        [-0.01265628, 0.03294561, -2.35678315, -0.10262877, -0.62678730, -0.48867637, -0.15766382, -0.29203653, 2.35380483, 0.07836837, 0.35131243, 0.52788907, 0.19094656, -0.05335873],
        [0.11325055, -0.17597023, -0.13246407, 0.04259729, 0.04542492, -0.19534883, 0.24537824, -0.18428656, -0.03019264, 0.23753001, -0.21646464, -0.02780653, 0.02908879, -0.15164416],
        [-1.25769007, -0.15926772, -0.00137903, -0.00383108, 0.28142416, -0.88261354, 0.40143582, -0.41173780, -6.59205866, -0.03853753, -0.00359978, -1.13009369, -0.05769807, 0.33754292],
        [0.44699359, -0.79364920, 1.83670473, 0.37296280, -0.39947274, 0.02941439, -0.40586346, 1.66417265, -0.83610344, -0.25198629, -0.25654826, -0.85484034, 0.13635547, -0.09377173],
        [-0.85499901, -0.17856760, -0.14137684, -0.07651942, 0.12793045, -2.09757829, 0.53161258, -3.92303491, -0.01090120, -0.08525513, 1.25477660, -0.35110435, -0.25226641, -0.03628143],
        [1.32145190, 0.97234684, 2.15132570, 0.06522370, -1.04285872, 0.00736157, 0.43723083, -1.15795338, 0.52811795, -3.33077860, -0.99818623, -0.05550554, -0.16070010, -0.78874725],
        [0.31329376, -0.16214634, -0.07027813, -0.17428890, -0.12008455, -0.28134334, 0.09901052, -0.03042299, -0.25386137, -0.09716069, -0.14165735, -0.31532615, -0.55329120, 0.01063221],
        [-0.03038193, -0.14936125, -0.26216707, 0.13742349, -0.21374875, 0.03718362, 0.03703658, 0.05963546, -0.09066036, 0.26145452, 0.05534030, 0.13475494, -0.20316826, -0.21079108],
        [1.16940320, -0.00854623, -0.81156659, 0.11804715, -0.51461405, -0.63193935, -0.11838498, 0.09031387, -1.28443646, 0.03352971, 0.50083798, 0.90463334, 0.52460563, 0.45600429],
        [-0.06033232, 0.07688397, 2.37158942, -1.59351933, -0.78025806, -0.10045889, 0.12061734, -0.03470376, 0.07661235, 0.58527905, -0.37295446, -0.82122779, -0.05474611, 0.91223067],
        [0.16686705, 0.02688465, -2.03883243, -0.36867106, 0.73768729, 0.41430068, 0.53494859, -0.09840667, 0.14599030, -0.14658442, -0.46287134, -3.78291535, 0.26688617, -1.47266507],
        [0.21260440, 0.04100525, -1.00725031, -0.58089375, -0.22455929, -0.71967626, -0.17454337, 0.30379277, 0.12315056, 0.32192752, 1.05870700, 0.40033308, 0.44586948, 0.28088731],
        [2.78447890, 0.65658718, 0.67818046, -0.15865676, 0.02898446, 0.01750582, 0.56665331, 0.01843774, 0.05789936, 0.07400590, -0.28972727, 0.05989803, -5.52897930, 0.60129440],
        [2.70846295, 1.41090465, 0.12729472, 0.04574364, -0.27413353, 0.14852406, 0.06163947, 0.92727619, -0.61256599, -3.09643054, -0.26311871, -0.94724029, 0.20857874, -0.06495279],
        [-0.54968524, -0.43389553, 0.13113068, 0.25959787, -2.12495065, 0.11340431, -0.37256229, -1.17194617, -0.70033091, 0.30633548, 2.08299780, 0.08387364, -1.16503990, 0.27998713],
        [0.05808679, 0.21098210, -0.03965647, 2.29122329, -5.97966242, -0.57238632, 0.14214957, -0.17543107, 0.32225826, 0.33047345, -0.63204038, 0.02282062, -0.10205355, 0.71231693],
        [-0.77742523, 0.42759630, -0.94452238, 0.57101625, -0.68143576, 0.33348992, -0.05515547, 0.28306657, -0.84685707, 1.69865036, -0.17543650, 0.24736564, -0.30096963, 0.07249477],
        [-3.80924034, -0.49246228, 1.86470163, 0.32072788, 0.44922253, -0.00362013, -0.71836227, -3.05594754, -2.58891845, -0.58416152, -1.47358572, 0.22207768, 0.43023747, -0.05278295],
        [0.22115776, 1.07901621, -0.07059699, -0.00057665, -0.39548105, -0.24986462, -0.02506452, -0.08433081, 0.11965059, -0.05886095, -0.12536147, -0.37233526, -0.36176571, -0.20035407],
        [-0.46370879, -0.11169077, -0.91622704, -0.10162499, -0.94198531, -0.38729388, -0.17538409, -0.94405180, 0.32179296, -0.35355267, -1.16210055, -3.82250071, -0.96713704, 0.45966452],
        [-2.26219392, -0.69163895, -0.15212411, 1.68829107, 0.27201349, 0.05482772, -0.59445632, -0.54691774, 0.07160624, -1.64525938, 0.46991009, -0.74657285, 0.41878784, 0.00183289],
        [0.01757708, 0.15324157, 0.07879469, 0.20308238, -0.25950775, -0.19960168, -0.16421309, 0.13998315, 0.18028510, -0.11179160, -0.07181709, -0.22799054, -0.08280143, -0.17515028],
        [0.09381391, 0.20076805, -0.14433978, -7.69283533, -0.16144104, 0.73668498, -0.89878815, -0.52584535, -0.21833998, 0.46656054, -0.03171888, -1.24708283, 0.97818625, 0.16717039],
        [-0.47911385, -0.96607417, -1.03647995, 0.28046545, 0.68139201, -2.39604974, 0.68898773, -1.81468213, -0.39472368, 0.59893316, 0.79138529, -0.28509149, 0.19218609, -0.24962026],
        [0.09203154, -0.11604889, -0.18985394, 0.00796649, -0.25569290, -0.22858056, -0.22216420, 0.05281255, 0.15888599, -0.25314569, 0.10440800, 0.25968501, -0.20342258, -0.26261851],
        [0.53787327, 0.59664339, 0.20623177, -0.83845240, -0.55437100, 1.09246123, 0.93256354, -3.84166527, -0.70204699, 0.33528218, -0.51987153, 0.10566055, -1.04979551, -0.40626106],
        [0.09250438, 0.11397128, -0.68779135, 0.04491925, -0.01523833, -0.30876875, -0.49808386, -0.16669613, 0.03353149, 2.57149005, 0.38256019, -0.09489983, -0.28605914, -0.23499696],
        [-0.18441634, -2.22233295, -0.47888592, -0.05652284, -1.24166393, 0.08360708, -0.87734240, -0.14472012, 0.22881900, -0.25964215, -0.35015562, 0.05662101, 1.54293394, 0.70540315],
        [-0.00453293, -0.96476471, 0.85174596, -1.41771770, -0.02167985, -1.33759630, -0.35191190, 0.33676445, 1.40215588, -0.23874933, 1.52255833, 0.04501849, 0.11053946, 0.11666957],
        [-0.14411929, -7.30829716, -1.03859103, 1.33839989, 0.42907709, 0.99207103, -0.58660477, -0.33889297, -3.10804415, -0.92941207, -0.55061555, -0.31015781, 0.24138188, -0.62104142],
        [0.15513809, -0.01691978, -0.14790690, -0.02503545, 0.15352094, -0.19638099, 0.04006350, 0.13587339, -0.13240549, -0.22432354, -0.26481125, 0.07748504, -0.28173915, 0.10592070],
        [0.09026752, -0.16602637, 0.04768369, 0.11777674, 0.25080240, 0.08367284, -0.28969127, -0.44568062, -0.26039499, 0.04233845, -0.13173778, 0.08487265, -0.14564218, 0.06268022],
        [-1.01776385, -0.76204389, -0.35067970, 1.58588064, 0.56629753, -0.35989574, 0.21009676, -0.19758141, -0.37506443, -0.58806354, 0.31980422, -0.04449164, -2.29675460, 0.17695299],
        [-0.20301178, -1.92345369, -2.94850683, 1.16554403, 0.24718513, -0.18725520, -1.03102386, -0.30104128, 0.03508439, -4.77785969, -0.89919734, -1.53069711, 0.21610972, 0.78993893],
        [-0.26031455, 0.08583999, 0.19861288, 0.02746125, -0.07337736, 0.07051221, -0.18571836, -0.17889625, -0.20456620, 0.02042472, -0.17440405, -0.09331181, 0.14688998, -0.01544475],
        [1.64393020, -0.52917188, 0.38968739, -0.44626269, 0.95687324, -0.92663777, 1.48479462, -0.61723828, 0.90872139, -1.51507819, -1.02746999, -0.18698150, 0.07783899, -0.39065391],
        [-1.98391342, -4.75542736, 0.31649908, -0.63563758, -1.84654164, -0.08580581, 0.08056330, 1.62498236, -0.66241723, -0.12710400, 1.46912014, -0.08089880, 0.14570317, 0.62697560],
        [-4.06431770, 2.01777887, -1.02378500, -0.21881089, 0.50788832, -1.48131645, 0.41899925, -0.17227985, -0.86090267, -0.21365318, 0.09264416, -0.20783880, 0.41319454, 0.56441253],
        [0.09248251, 0.11498952, -0.16661198, 0.03075656, 0.14704362, -0.10921282, -0.20501873, 0.10661650, 0.07030264, 0.03464255, -0.18717581, 0.14926827, -0.11869600, -0.07636496],
        [0.41174176, -0.66253000, 2.47376108, 0.02719924, -0.47551596, 0.03285907, -0.10445371, -0.34625041, 0.19600189, -1.21215189, 0.03957210, 0.42352805, -0.02553624, -0.18876705],
        [-6.96654940, 2.13984609, -0.74035442, -0.83828843, -0.31869176, 0.11110081, 0.33358705, -0.65937734, -1.01524746, -10.63955212, -1.68511474, 0.58702439, 0.97899282, 0.46310523],
        [0.26192978, 0.02949914, -0.83660305, 0.18574961, -0.08361285, -0.32873115, -0.10146508, 0.08593747, 2.70577455, 0.05997359, -0.15574811, -0.24423565, -0.09218932, -0.49673119],
        [1.54280496, 2.40925002, 0.10217714, -0.08435337, -0.52177852, -0.41537008, -0.34228513, -0.15989457, -0.33848700, 0.35698086, -0.46612793, -0.36595759, -0.50312662, -0.47374776],
        [-0.01471332, 0.06835443, -0.14149670, 0.18847412, -0.24114273, 0.05457523, -0.13215365, -0.06003875, -0.07713494, 0.22173035, -0.21060966, -0.01781934, -0.05841480, 0.11357519],
        [-0.32047909, -0.34366578, -0.15774295, 0.05841170, -0.30476964, 0.00109264, -0.38419902, -0.10784345, 0.01556455, 0.10879795, -0.38923040, 0.09987970, 0.09449957, -0.16979726],
        [-0.18223262, -2.87238026, -0.22444504, -1.16919088, -0.05496585, 0.36292306, 0.24854988, 1.33693159, 1.28554606, -1.22007036, -0.22312930, -0.27773225, -1.62420571, 0.50715792],
        [0.04275141, -0.23694034, -0.01496714, -0.01191373, -1.91323173, -4.35385227, -0.31696072, -3.61117530, 0.32974818, -0.01609915, -0.15852678, 0.07225779, 1.31581461, 0.17286940]
      ],
      "biases": [0.42799953, -0.21791497, -0.19468495, -0.52531350, -0.09074084, -0.09123364, 0.75949764, -0.43429995, -0.31126589, -0.59782696, -0.51913732, -0.11974052, 0.32311705, 1.03397751, -0.01069004, 0.20639159, 0.41300789, 1.11195302, 0.89486676, 0.02554551, -0.01819241, -0.47810772, -0.79606456, 0.68734300, -0.40838459, 0.29489592, -0.05835562, -0.10108232, -0.29763228, -0.76531887, -0.13338630, -0.13750716, -0.02173174, 0.38797864, -0.18460836, 0.96115369, -0.05955241, -0.26748678, -0.10028777, -0.52323925, 0.28563330, -0.73417580, 0.19136521, -0.36542138, 1.05499434, -0.13293669, -0.36432251, -0.44017339, -0.23777652, -0.39456347, -0.65481174, -0.04118313, -0.10617537, -0.42605093, -0.60631198, -0.17083238, 0.69803536, -0.34704673, -0.70309269, 0.49194762, -0.22674030, -0.19679669, -0.64805162, -0.12090147, -0.25155851, -0.74960011, 0.01537134, -0.17831072, -0.10758368, 0.10435773, -0.12467351, -0.33173433, 0.08164997, -0.24398422, 0.48422971, -0.08356078, 0.66348428, 0.00851349, -0.36550787, -0.06673218, -0.39268914, 0.40740234, 0.03515421, -0.06181096, -0.01670699, 0.87078935, -0.21286631, -0.78290075, -0.26030159, -0.34029102, -0.17301935, -0.15327714, 0.64064592, -0.21833596, 0.11916430, -0.40932307, -0.21045558, 0.13981047, -0.05984376, -0.13487110, -0.21494608, -0.03575272, -0.11424708, -0.50380236, 0.39093310, 0.59528142, 0.24642688, -0.44639766, 0.00526003, 1.06718385, -0.17447555, -0.68910068, 0.00228358, 0.25190309, -0.26459041, -0.34974086, -0.20964098, -0.25281072, 0.51937664, -0.72886020, -0.15960902, -0.47827965, 0.22674216, -0.65640086, -0.00386916, -0.55537313, 0.21967626, -0.25176167, -0.35680434, -0.46242958, 0.49428776, 0.27680150, -0.33756033, 0.25705320, 1.35077441, -0.13023604, -0.13500609, 0.42764464, 0.17004658, -0.83085084, -0.02490084, -0.15929410, -0.48017931, -0.94652718, -0.38282540, 0.45400828, -0.36977682, 0.02307464, -0.19059330, 0.04358739, 0.64196223, 0.43867341, 0.34798726, -0.00262121, 0.43333328, -0.10348447, -0.14578600, -0.51123619, -0.31429636, -0.98380703, -0.14151804, -0.60588646, -0.30909538, -0.11134190, -0.31595731, -0.18801636, 0.02381120, -0.50802487, -0.03260482, -0.06319781, -0.20069161, 0.08957157, 0.94385004, 0.01952745, -0.18290688, -0.20334175, -0.33766654, -0.22347993, -0.56322896, -0.46412942, 0.83505017, -0.24717608, -0.25549176, -0.46209043, -0.23478098, 0.30169854, 0.28043795, -0.46339250, -0.55571735, 0.60433406, 0.02678322, 0.35292053, 0.61183953, 0.03030564, -0.36641914, -0.19663554, -0.30184868, -0.51469809, -0.38632619, -0.19792393, -0.08672127, -0.11431316, 0.36756301, 1.61331403, -0.02273779, 0.00801836, -0.59309793, -0.63230711, -0.16058420, -0.12712798, -0.26531604, 0.99125236, 0.11185613, 0.75793320, 0.52225083, -0.12807530, -0.13672806, -0.03315622, -0.06329988, -0.46790966, -0.02607907, -0.47715044, -0.23538545, 0.22678588, 0.26517516, -0.03786442, -0.09507960, -0.19594152, 0.56026238, -0.06607711, -0.20268215, -0.21982329, -0.43841776, -0.24757671, -0.01635073, -0.61502099, -0.29380098, -0.25883836, -0.49137628, -0.14797211, -0.26555386, -0.35212311, 0.08083894, -0.25014782, -0.40853047, -0.16404220, -0.04687328, -0.11477889, -0.17877908, -1.16113675, -0.46699184, -0.23375240, -0.17661963, -0.03059250, 0.52603573, -0.48973656]
    },
    {
      "neurons": 128,
      "inputs": 256,
      "weights": [
        [-2.86663961, 0.24733452, 0.00918329, -3.94839716, -0.04545300, 0.04011222, -4.04797792, 0.34345341, -3.30414319, -0.74189067, -0.12874998, -0.33064058, 0.07494455, -0.02078854, -0.03900887, 1.25715458, 0.42043841, -0.44177467, -0.20399269, 0.04652569, 0.00657436, -1.06911373, -0.52305830, -0.47711942, -0.65981066, -2.64216709, -1.18193150, -0.16011329, -0.05352100, 1.11097300, -0.23465376, -1.48647320, -0.03371304, -1.57046926, -0.11606286, 0.03872421, -0.17899333, 0.01428473, -0.06089224, -4.25800848, 0.19800639, -0.29335919, 1.01629412, 0.22745501, 0.94311696, 0.02075350, -0.07007402, -0.12705521, -0.13570379, 0.15110271, -0.56195456, -0.06561475, 0.06411471, 0.20415789, -1.71273124, 0.03818214, 0.44713065, 0.88647002, -3.30553389, -0.06916268, 0.04663019, -0.24100623, 1.31102884, 0.02650457, 0.07051963, -3.90777755, -0.02615013, 0.04905672, 0.37425402, 0.05851813, -0.62619495, -0.00440543, -0.85064948, -0.12747519, 0.71277881, -0.41509545, -1.09730721, -0.03381852, -0.03789306, 0.06019548, -0.55290252, 0.05383823, 0.42647877, 0.02952292, 0.24558046, 0.05866077, 0.19004242, 0.05747811, -0.01120201, 1.23682141, 0.04414377, -0.03995380, 0.03072169, 0.84822023, -1.79735482, -0.08940452, 0.01057064, 0.28448901, -0.09267909, -0.33796141, 0.95783234, 0.05392946, 0.44466260, -0.40481159, 0.05154193, 0.02493111, -0.23788793, 0.73627800, 0.58144110, 0.06759159, -0.06187218, 0.03486663, 0.26105374, 0.69389123, -0.09221969, 0.10661071, -0.02401926, 1.26566756, -0.00201074, 0.61563331, 0.62814689, -1.14874983, -3.52746034, -0.04789110, -0.05379631, -3.06101370, 1.65245080, -0.05118571, -1.05393612, 0.18702172, -1.38319898, 0.80626190, 0.47723371, -3.02606559, 0.66835696, 0.88648987, 0.00126938, -0.75882339, -2.68808937, 0.08295517, -1.87949944, -0.01942641, -0.03805276, 0.02471836, -0.06263856, -0.26105753, -0.99101084, 0.63652784, 0.05716848, 0.58505315, 0.10571367, -0.33049822, 1.11319220, 1.91412473, -1.05851090, -0.07741144, 0.25991461, -0.13638118, -0.20391695, -1.76696038, -0.19941266, 0.43279001, 0.47772631, -0.05295285, -1.02085912, 0.91917831, 0.03081542, 0.14601418, -0.56905609, 0.02917856, 0.12006796, -1.94867015, -0.09075656, 0.38008302, -1.25416899, 0.01235162, -0.06295054, -0.59794408, -1.40865541, 0.71909183, -0.05651626, -0.05471901, 0.00509559, 0.54065228, 0.65014583, 0.09705855, 0.02863995, 1.35335398, 1.37129879, -0.53169435, 0.00281912, -0.17822666, 0.85666639, 0.57376266, -0.05067436, -1.30397737, -0.63725305, -3.50568962, -0.01399211, -0.02905324, -0.11123528, 0.05060130, 1.69161928, -5.44977093, 0.49683920, 0.63500494, -1.16887367, 0.23412140, -0.96414047, -0.06322037, -0.04689366, 0.03921876, 0.43875173, -2.50717330, 1.79241109, 0.05905497, 0.05879029, 0.45800298, 0.23312773, -1.84812844, -1.12272751, 1.20145535, -0.58724195, 0.13634428, 0.03251398, -0.14253969, 0.96010852, 0.30479008, -0.09364609, 1.67529798, 0.02208360, 0.02616515, 0.02367854, 0.04864257, 0.08797497, 0.57183534, -0.17661031, -0.08878852, 1.58936179, 0.03844203, 0.03171309, 2.32227707, -1.38919485, 0.00969406, 0.25307882, -0.01314665, 0.52436453, 0.01244103, -1.24109828, -5.98798704, -1.08661449, 0.28262019, 0.02459460, -0.00316585, -0.14748502, -0.04657608],
        [-0.62716889, 0.11406269, -0.26679221, 0.66987664, -0.02902443, 0.00291547, -0.39511067, 0.20355880, -1.15292251, 0.21478564, -0.10818591, -0.40488979, 0.44043389, 1.47248137, 0.04965053, 0.09549829, -0.61429805, -0.05723958, -0.15471034, -0.39551613, -1.15153241, -0.19895229, 1.14720058, -0.03688173, 0.83842844, 0.54802382, -0.16013131, 0.20489621, -0.05397402, -0.03561384, 0.33862904, -0.68387550, -0.01528798, -0.50270879, 0.63472903, -0.71145821, -0.44342604, 0.02025527, 0.05627117, 0.17822042, -1.28568947, -0.09204226, -0.23145290, -0.59309137, -2.47029662, -0.04192543, 0.54896289, -0.23080269, 0.41612101, 0.93663716, 0.79671347, 0.11448640, -0.14761972, 0.74662459, 0.01890208, 0.02710627, -0.98304749, 0.92241901, 0.21250567, -0.29638603, 0.03632479, 0.39136404, 1.19952345, -0.01267534, -0.38351053, 2.22609925, 0.67651957, 0.02403659, 0.05295682, 0.31322280, -0.21760476, -0.02547286, 0.15365346, 1.12889206, 3.06231689, -0.09381500, 0.15727223, -0.20415401, 0.63959628, 0.03070354, 0.53339976, 0.24577919, -0.17098834, -0.14707695, -0.59758782, -0.10746826, -0.24800025, 1.16135323, -0.06081781, -3.29545355, 0.00853232, 0.03779496, 1.08975244, -0.39283222, 0.46737429, -0.27861583, 0.03196371, -0.01553498, 0.20174745, -0.59313703, -1.12818420, 0.21892373, -1.71807718, 1.17202485, -0.53197229, -1.65749824, -1.59982920, -1.53114855, 0.56033248, -0.27870604, 0.04456824, -0.19734229, 1.00061095, -0.05854671, 0.02480234, 0.67092317, -0.05016005, 0.75268519, 0.42456803, 1.01403844, 0.37271741, -0.43247375, -0.03861340, 0.59160864, 0.03155205, -0.59257698, -0.56525242, -0.07490370, 0.34638068, -0.51029682, -1.60107458, -0.00348576, -0.82457674, -0.97322804, -1.22697151, -0.63818622, 0.26024380, -0.56431633, 0.66459966, 0.98139852, -0.68411976, 0.00489164, 0.81135494, 0.34181279, -0.29453826, -1.88770175, 0.47848853, 0.06543607, -0.04097268, -1.36419892, -1.47343695, -0.57929486, 1.13794136, 0.88092232, 1.15360689, -0.28152740, -0.92379928, 0.06130032, 0.15581480, 0.77367634, -0.50407946, -0.28432846, 0.84628493, -0.08437324, -0.07066368, -1.32583499, -0.02504085, -0.55148786, -0.71380806, -0.04481395, -0.23508058, 0.76556337, -0.62074101, -0.42897293, 0.38988596, 0.56360024, -0.15712498, 0.62700844, -0.04096855, -0.96841633, -0.14890239, -0.02322320, 0.00679197, -0.86240494, 0.51422971, -0.77653468, -0.97477293, -1.83141994, -0.90520060, -0.88143450, 0.07457686, 1.07152939, -0.01885061, 0.60371774, 0.07726558, -0.63869494, -1.49786222, 1.40117645, 0.69156271, -0.95482433, 0.03844835, -0.04646163, -2.01240993, -1.59421408, -1.72391284, -1.20561957, 0.61187834, 0.57608289, 0.89644307, -0.35797638, 0.02572435, -0.34406644, 0.43430084, 0.59645241, -0.40238407, 0.03849465, 0.03087731, 0.21216996, 0.46483231, 0.42811754, 0.69036102, -0.01845512, -0.01370947, 0.27169397, -0.05177599, -0.33449930, -0.97039896, 0.19963671, 3.42905521, -0.80710965, 0.03599278, 0.39751369, 0.11166918, -0.04609627, -0.71509951, -1.02723956, 1.21787453, -0.22990854, -2.38271213, -0.12471431, -0.10068439, -0.22468841, 0.69515198, 0.02820209, 0.42740649, -0.26696414, -0.13498315, 0.04582980, 0.25545862, 2.07894588, 0.81663597, -2.43247223, 0.03749240, -0.04052621, -2.84631491, -0.27824777],
        [0.25332505, -0.93352145, 0.04469847, -1.12639046, -0.04214964, -0.01937830, 0.42008772, 0.61396974, -0.03447295, 0.41728517, 0.21614946, -0.23741210, -0.86981326, -1.25244987, -0.03487274, 0.08942239, -0.18559332, 0.50299102, 0.25418997, 0.08653778, -3.04842353, -0.54897547, -15.68080330, 0.00617510, 0.40176189, 0.30873913, 0.13707219, 0.21150132, 0.01115856, -2.03130722, 0.49959102, -1.23198533, -0.03396722, 0.03980922, -0.20516761, -1.15120471, 0.50091964, -0.00127400, -0.03154533, -1.20004749, -0.77752805, -0.01312222, -0.00660039, 0.40434903, -0.25742880, -0.06057896, 0.51899761, 0.20102885, 0.05978209, -2.92418957, -0.00400960, -0.79611427, -0.11791303, 0.58508778, 0.35684717, -0.03977082, -2.44498181, 0.51130909, -0.36289272, -1.27002048, 0.06087996, -1.41253543, 0.52177382, 0.06901142, -0.14536515, -0.19417399, -0.72580665, -0.03957544, 0.09609093, 0.51606381, 0.66951478, 0.03303671, -0.38106111, -0.58644474, -0.10530410, -0.10440482, -0.78747284, 1.17805755, -4.30995607, 0.05314691, -0.79999840, 0.38197517, 0.03556142, 0.05706488, -0.90317148, 0.26408821, -0.80921024, 0.46888784, -0.06175743, -1.00791276, -0.03033951, -0.00177116, 1.24667144, -0.20807457, -0.39386338, -0.24818948, -0.05416508, 0.16766106, -0.07207071, 0.34272906, -0.63899863, 0.85775733, -0.85112917, -0.00228921, -2.35464430, 0.15090241, 0.07169183, -0.80545866, 0.11156126, -0.94871897, -0.01021515, -4.95083475, 0.07795505, -0.11538048, -0.10817570, -0.03981478, 0.03712282, -0.28405383, 0.00343094, 0.40614510, -1.11960280, -0.18676025, -5.66596317, -0.63381171, -0.01989498, 0.35395697, 0.03485233, -0.02179149, 0.30210575, 2.23466325, -2.41127563, 0.04628607, -0.31206447, -0.16606802, 0.16356686, -0.52969575, -0.16899639, -0.11515043, -0.20464715, 0.53502315, -0.56606078, -0.00560441, -0.07081436, -1.12403786, 0.08304802, 0.38994527, 1.04336011, 2.25195503, -0.05267645, 0.12070242, -0.09343536, -0.42967212, 0.13731669, 0.08712551, 0.00406500, -0.30485502, 1.00955510, 0.02261933, -0.16285622, -1.22020388, 1.05914438, 0.17460790, 0.08138133, -0.00468638, -0.64145452, 0.09793150, 0.04537804, 0.10642531, -0.06120495, 0.16966259, -0.10925420, 0.25939348, -0.25309297, 0.54332721, 0.49917290, 1.40561593, 0.05686152, 0.46471378, 0.16807660, 2.41317320, 0.07185016, 0.05196211, 0.03396236, -0.59413362, 0.47050980, -0.27506393, -0.99166065, -1.60180831, 0.77642578, -2.19358873, -0.56428188, 0.31933025, -0.12437972, 0.26014307, 0.24328740, 0.17117919, 0.24747142, 0.45938921, -0.74839711, 0.83807391, 0.09174941, 0.05037887, 0.23246287, -0.07570914, -0.30357289, -0.42088702, -0.42474037, -1.21861863, -0.45101571, 0.56064183, 0.04323111, -0.29693970, -2.01815987, 0.28327057, -1.25340092, 0.08926870, -0.04837021, 0.53211951, -0.26578763, 0.02470980, 0.46695101, 0.38287067, -1.07147408, 1.34436607, 0.49646109, -0.20984663, 0.22150223, 0.46774909, -0.00639577, -0.26570958, 0.04273378, 0.02896508, 1.12278938, -0.02867351, -0.10101223, -0.65335810, -0.30628034, -0.68601274, -0.72716981, 0.06222000, 0.01098500, 0.21673493, -0.00698033, 0.00097711, -0.82902056, 0.43474525, 0.61725718, -0.00969761, -0.27894932, -0.87227267, 4.55575609, 0.70493454, -0.00138012, -0.22792901, -2.06346679, -0.79838896],
        [-0.04477477, -0.00210459, 0.00832771, 0.02648849, -0.02981439, 0.02068160, -0.06054657, 0.01491086, 0.05935314, 0.01574844, -0.01807415, 0.01897182, -0.04056670, -0.01972956, -0.03754818, -0.01486343, -0.00124110, -0.05588282, 0.00365857, -0.02855584, 0.04337013, 0.03161544, 0.04560948, 0.04170752, -0.01105471, -0.05945016, -0.05186548, 0.03259993, 0.03065508, -0.04333554, 0.02587662, -0.01364932, -0.03901235, -0.05791988, -0.00809412, 0.03562788, 0.02637727, -0.05291544, -0.02748390, -0.00062517, -0.05582663, -0.04132099, -0.01389670, -0.02988669, -0.04923935, 0.03903881, -0.02243769, -0.05930545, -0.01817534, 0.00432628, -0.04139124, -0.06908070, -0.04436051, -0.06363107, 0.03698700, -0.03390311, -0.06451834, 0.03361768, -0.01981715, -0.03300592, -0.05258412, 0.00596938, -0.00768658, -0.00766797, -0.02375062, 0.02349034, -0.03142981, 0.03548652, -0.02132574, -0.03309280, -0.00899634, 0.00918310, 0.05010571, -0.05591371, -0.00216552, -0.07358704, -0.04226219, 0.00564617, -0.02300617, 0.03343633, -0.04555503, -0.04207356, 0.00929859, -0.04013019, -0.05371082, 0.03898626, -0.02025899, -0.03605440, -0.00760451, 0.01091457, -0.00606879, 0.02221521, -0.00196548, -0.07164429, -0.04094410, -0.03051965, -0.01959886, 0.01830285, -0.01095121, 0.02174554, -0.06260705, 0.00550876, -0.00851893, -0.05607426, 0.04873673, -0.03780657, 0.03218891, 0.03062406, -0.06371680, 0.02128105, 0.02612934, 0.02380096, -0.05828631, -0.04157740, 0.05012403, -0.02359369, -0.02517647, 0.03620005, -0.04751713, -0.00924886, -0.05567505, -0.06056381, 0.04493416, 0.04503084, 0.01739538, 0.04848965, 0.05246760, -0.02929456, -0.00435325, 0.02205434, 0.01478902, -0.05260745, -0.02350270, 0.03956762, -0.06139213, 0.02340041, 0.01628773, -0.02561683, -0.04980851, 0.02151358, 0.04140871, -0.05524746, -0.05357966, -0.05594832, -0.01951507, -0.05364737, -0.00690420, 0.03733783, 0.00575331, -0.01103978, 0.00479668, -0.04831123, 0.01025950, -0.03278557, 0.03967247, 0.04782565, -0.04714631, -0.03255018, 0.00465504, -0.02941466, -0.00680248, -0.07757706, 0.03310861, -0.06073678, -0.00855161, -0.05211308, -0.00980547, -0.04878651, -0.04565414, -0.01640845, -0.07635185, 0.04643601, -0.01478350, -0.04919384, -0.00346616, -0.04168401, -0.04007559, -0.04044604, 0.02149501, 0.05099780, -0.02763845, 0.02209563, -0.04769232, -0.04825398, -0.01228540, 0.02265518, 0.03147623, -0.05332088, -0.01184428, -0.03418662, 0.03542625, -0.04048561, -0.00867794, 0.03332761, 0.03162950, 0.02745668, -0.02361078, 0.04777832, 0.02778923, -0.02332209, 0.00319120, 0.02467941, -0.07010841, 0.05081061, 0.04971099, -0.00730274, -0.06972139, -0.03015443, 0.01844413, 0.01842675, -0.04714097, 0.03304428, -0.00068952, 0.01296669, -0.01624568, 0.01780719, 0.00745343, 0.00383405, -0.05731169, 0.05278273, -0.04504592, 0.04619650, 0.01929974, -0.04748384, 0.02158953, 0.05528406, -0.05553086, -0.01372146, -0.01769280, -0.05533818, -0.01142549, 0.02868113, -0.05833067, -0.04262074, 0.04859873, 0.05354562, -0.07275255, 0.02614772, -0.00487079, -0.02582578, 0.00522179, 0.02248506, 0.04974808, -0.00911765, 0.02521864, -0.01430751, -0.03403808, -0.06109439, -0.04675572, 0.01032788, 0.03403872, 0.01777952, 0.03616367, -0.06798831, -0.03877971, -0.04742546],
        [-0.25510615, -0.17069630, -0.05684436, -0.05628596, -0.00242327, -0.01117034, -0.02328289, 0.07667540, 0.02772208, 0.05042398, -0.09404124, 0.02023808, -0.04170775, -0.03968977, -0.01502622, -0.20338924, -0.03657416, 0.07448947, -0.18149363, 0.02069801, -0.10291190, -0.01378061, -0.09472676, -0.01398456, 0.07872615, -0.04659864, -0.02104017, -0.03729799, -0.07456700, -0.01640082, 0.03116929, -0.02291739, -0.02833529, 0.00893432, 0.05731085, -0.14844349, -0.11567714, -0.01816012, 0.02169926, -0.08037138, 0.02132694, 0.15702613, -0.04388330, 0.00920197, -0.02098693, -0.07878951, -0.00742454, -0.14076811, -0.06431232, 0.23605333, 0.04473076, -0.12100698, -0.22885664, 0.01352200, -0.05623960, 0.05916474, -0.14711711, 0.06132820, -0.00416207, -0.08148766, -0.05639955, -0.03520824, -0.03253115, 0.07093585, 0.04061866, -0.04779441, -0.02227945, 0.01950161, -0.11385375, 0.04336542, -0.11264212, 0.01133105, -0.10541063, 0.02031365, -0.05571391, 0.04647457, -0.11952066, -0.06455541, -0.05544436, 0.05372170, -0.21449049, -0.22487588, -0.03597867, 0.00495274, -0.22556071, -0.04829576, 0.00865137, 0.05046075, -0.00882066, -0.02640619, 0.02006058, 0.00064436, 0.04520653, 0.07321054, -0.03851404, -0.13138203, 0.01186597, -0.07264185, 0.00785442, -0.13717376, -0.02942271, -0.00827854, -0.19871877, 0.03182441, -0.06438489, 0.04539222, -0.22251683, 0.00281472, -0.14328071, -0.04310238, -0.05813566, -0.20754296, -0.00373110, -0.13820061, 0.01159146, 0.03351510, 0.01269940, 0.19952948, -0.02853680, 0.06362767, -0.02654211, 0.02586195, 0.13207422, 0.05190226, -0.02892228, -0.03692135, -0.09127699, 0.03127103, -0.12422909, 0.20612387, 0.11974970, -0.35051590, -0.18481264, 0.01129393, -0.06224319, -0.05337671, 0.03961128, -0.12172432, 0.02314208, 0.02652326, -0.14717904, 0.06275871, 0.02417520, -0.06099306, -0.12422021, -0.04471843, 0.03414258, 0.03225800, 0.04785509, 0.01636750, -0.08070344, -0.03309633, 0.01325098, -0.00790814, -0.12559259, 0.01856381, -0.10130334, -0.07512616, -0.11713712, -0.00598478, -0.26048142, -0.15043624, 0.02311974, -0.27225888, -0.05674094, -0.12875211, 0.04661331, 0.00652570, -0.14676045, 0.04475616, -0.08630247, 0.02192388, -0.05147083, 0.00358849, 0.04542102, -0.08876749, -0.00354557, -0.07560404, 0.00610153, 0.06543019, 0.04008891, -0.02418847, -0.01113639, 0.08118412, 0.04024556, -0.19045457, -0.16230267, -0.30437461, -0.11477775, 0.20770836, -0.05719829, -0.05321627, -0.06114596, -0.14316007, -0.15147124, 0.02855610, -0.10468992, 0.07231115, -0.05229478, -0.03345877, -0.09685955, 0.04538157, -0.12138459, -0.06324805, -0.04951321, -0.04891476, -0.01633499, -0.03670560, 0.22378653, -0.10057494, 0.01553804, -0.13515981, -0.07687278, -0.10200436, 0.02268704, 0.04392486, 0.02175376, -0.06519673, -0.01536659, -0.05319594, -0.08964148, -0.02923064, 0.01314775, 0.00437302, -0.02374764, -0.10391646, 0.03009101, -0.05529880, -0.00316303, -0.04229539, -0.05765360, -0.02993397, -0.12787147, 0.05580815, -0.01443749, 0.14380641, 0.04065048, 0.02862142, -0.08974165, 0.01532500, -0.04296936, -0.02808016, -0.08148157, 0.00810041, 0.04199980, -0.02984547, -0.07970557, -0.05111647, -0.10033417, 0.03733131, 0.15559512, -0.01025615, 0.01116816, 0.00496252, 0.37302786, 0.00513380],
        [0.03425676, -0.01893300, 0.04501624, 0.03919058, 0.04728594, 0.01751204, -0.09090491, -0.00085298, -0.01502527, -0.04238741, 0.01436434, 0.00070321, -0.00362444, -0.02533233, -0.07112054, -0.09193409, -0.05884298, -0.02688425, -0.01912685, 0.03531419, -0.00723450, -0.03946000, -0.12115476, 0.01685151, -0.01318165, -0.04861784, 0.04131730, -0.08695958, -0.07994151, -0.00704326, -0.02814912, 0.03488775, -0.04338451, -0.01938933, -0.04261356, 0.03030022, -0.02196133, -0.02267452, 0.04953179, -0.03796194, -0.01606101, -0.07720772, -0.08730081, 0.02949571, -0.00541234, -0.02111677, -0.09726627, -0.06933685, 0.00966239, -0.01619186, -0.06055887, 0.01105156, 0.04148493, -0.09756094, -0.06296633, 0.01601597, -0.05675769, 0.06270602, -0.07102200, -0.00271594, -0.05940165, 0.04219834, 0.03265093, 0.03184102, -0.04247081, -0.00978424, -0.04708648, -0.03633704, 0.03146160, -0.05708458, 0.03999676, 0.00477802, 0.01968144, -0.03855073, -0.00730776, -0.05199238, 0.02857524, -0.05678915, -0.00487146, 0.02128074, -0.03997043, 0.00348767, -0.06471981, -0.05157952, 0.01138437, -0.08100224, -0.05850204, -0.07025975, -0.00714929, 0.01012571, -0.04366191, -0.06022137, -0.05935743, -0.04155311, 0.03173298, -0.06606649, -0.04594215, -0.03077550, 0.03251199, -0.02065076, 0.02745068, 0.01295409, 0.01406702, -0.05469228, -0.09616234, -0.03363730, -0.05006550, 0.00411913, -0.08744504, -0.06898756, 0.01940455, -0.00562597, -0.05052445, -0.03000193, 0.00448257, 0.01785926, -0.03011569, 0.06971869, -0.09221715, -0.07576924, -0.04311828, -0.02027605, -0.08065649, -0.05800616, -0.03551790, 0.00310638, -0.06637289, -0.04444193, -0.06555269, -0.08009026, -0.07907462, -0.07730821, 0.02680905, -0.03838357, -0.02435111, 0.00614719, -0.03372224, -0.05139268, 0.01678540, 0.02731429, 0.00670278, 0.05406927, -0.01061366, -0.01114969, -0.05381456, -0.07770177, -0.04886980, 0.00106359, -0.05822057, -0.04519384, 0.00475080, 0.00360697, 0.00653175, 0.06859568, -0.01780231, -0.08780839, -0.03561829, -0.05608451, -0.10039766, -0.07601749, 0.00544069, 0.00693232, 0.00810383, -0.08387057, -0.07923164, -0.02114015, -0.08608755, -0.01095652, -0.08483498, 0.00591060, -0.03810776, -0.06683414, -0.03618200, 0.01132628, -0.01465902, -0.07659822, 0.01519144, -0.09293025, -0.07484324, -0.02205346, -0.05749417, 0.03065258, -0.00908967, -0.00170116, -0.06169207, 0.07158810, 0.00685214, 0.02518574, -0.04222595, -0.01820892, 0.04225376, -0.00941950, 0.03896895, 0.02587467, -0.00058212, -0.09740858, -0.04203433, -0.00139997, -0.03451177, 0.01998430, -0.08079017, -0.03412616, -0.01934969, -0.04891747, 0.03161655, -0.01767779, -0.07544360, -0.00906512, 0.04155669, -0.06310497, -0.04231293, -0.00197145, 0.00886608, -0.07209503, -0.05586538, -0.06123781, -0.04690661, -0.05714037, 0.01321542, -0.08989054, -0.10544465, -0.03410222, -0.10152052, 0.02961202, 0.07226928, -0.03096822, -0.01975581, 0.08305760, -0.07036797, -0.03447083, -0.02351288, -0.00132660, -0.04089137, -0.00264427, 0.06284208, 0.00029803, -0.06680144, -0.00753135, -0.06296442, -0.03383146, 0.04284213, -0.01284785, -0.05981348, -0.02162533, -0.10400442, -0.03334144, -0.06471556, -0.01315480, -0.04054145, 0.02851560, -0.02086392, 0.02098200, 0.00497071, 0.02372477, 0.01145621, -0.03640088],
        [0.10486477, 0.35360903, 0.05353086, 0.18493949, -0.00435889, 0.06128541, -0.06383415, 0.69629532, 1.44613850, 0.03933278, -0.25267175, -1.01207161, 0.06276931, 2.43782544, 0.10944678, -0.20303769, -0.46397203, -0.23830782, 0.55386013, -0.07601646, 0.01052877, -2.30979276, 0.33760905, -0.42840081, -0.89284593, -0.49696225, -0.14203762, -0.84376603, -0.20440993, -0.84900689, 0.02309866, 0.19279560, 0.03287429, -0.03262331, 0.02097438, 0.38083026, -0.59536922, 0.04129899, -0.02442075, -0.41736996, 0.08726488, 0.75556868, -0.87983453, -0.38277376, -1.41181624, -0.30920330, -1.70364571, 0.15425625, -0.56770694, 0.52266616, -0.39747733, -0.00075954, 0.06086431, -0.65626127, 0.59171116, 0.07079867, -0.15542521, 0.81588864, 0.14420564, -0.76366329, -0.01262353, -0.15688691, 0.57977480, 0.04703647, -0.23256001, -0.03031107, 0.86391097, -0.05472542, -0.07553259, 0.60519511, 0.16619410, -0.05020835, 0.92477888, -0.31364223, -0.73687035, -1.10579646, 0.12723318, -0.61256337, 1.18541646, -0.03661839, 1.34662354, -1.21625531, 0.18800350, 0.01061648, 0.00013251, 1.66898394, -1.93248129, -0.69130832, -0.05963761, -0.08168911, 0.02875166, 0.04309607, -0.21348910, -3.86128902, 0.56880677, 0.78105229, -0.01495595, -2.24972773, 0.08633409, -0.25495160, -0.13423534, 0.99488509, 0.40370104, 0.09172603, 0.63862318, -0.35358563, 1.57081163, -1.82745767, -1.00304496, 0.06879869, -0.03620241, 1.15141094, -0.14674957, -0.21299209, 0.36513624, -0.04165389, -0.04913830, 0.54313195, -1.03982258, -0.55148292, -0.15904050, -0.88212025, -0.00991655, -1.62662053, 0.00268144, -0.67996013, -0.06468798, -0.21870942, -0.03034899, -8.58331203, -0.48410025, -0.11970808, 0.28054607, -0.75070608, 1.52288544, 0.12409312, -0.06340975, 0.60510182, 1.18146276, 0.20463353, -0.32254961, -0.06779169, 1.15134990, 0.16067734, 0.00577374, 0.27358207, -1.40535665, -0.15167457, 0.04467905, 0.64602041, 0.31980991, 0.36874512, -0.00362371, 0.02421314, -1.54947460, -0.09394532, 0.37785617, -0.00478404, 0.62121558, 0.12760705, -0.19652145, 0.52518862, -0.99099559, -0.05206766, -0.30004752, 0.02433844, 0.27270687, -0.58309323, 0.43517753, -0.17458679, 0.11192315, -0.83637327, 0.61095375, -0.15757115, 0.16432360, 0.15521728, -0.06065951, 0.52830261, 0.26777285, -2.18616128, -0.11027724, 0.02106556, 0.03236619, -1.41597795, -0.74683124, 0.86687326, -0.23918907, 1.43751574, -1.66580617, -0.67385435, 0.72022122, -1.57504869, 2.61183810, 0.00355782, -0.00050074, 0.09023551, 0.06001076, -0.59359360, 0.62394977, -2.71620536, -0.18125758, 0.03023642, 0.06078220, -0.15867482, 0.23456228, 0.54343206, 0.57019103, 0.77146250, 0.84000957, -0.67965066, -0.01289513, 0.35033247, -0.33365107, -1.77438891, -0.30301583, -0.03197438, -0.02773207, -0.67965841, -0.79970622, 0.13501082, -0.51261991, -1.62428808, -0.74930269, -1.81476724, -2.57361722, -2.07974887, 0.18142591, 0.17895451, -0.07391568, 0.19775441, 0.01258408, 0.62989128, 0.37758070, 0.01249365, 0.59509182, -8.57578468, -2.32775807, 1.20998454, 0.51795995, -0.09627704, -0.09390841, -1.37719607, 0.93391401, -0.05712589, 0.79612464, 0.66198575, 0.22053190, 0.04626618, 0.82515252, -0.86287308, 0.61016273, 1.33889019, -0.04767133, -0.49682367, -0.43508384, 0.03508737],
        [0.03988614, -0.01840565, -0.01142350, 0.03774392, -0.03415792, 0.00431939, -0.04760125, -0.05365332, 0.05465156, 0.05460085, 0.01269221, 0.04243343, 0.00724362, -0.05682030, -0.05365979, -0.05527936, 0.04236146, 0.02427858, 0.00038232, -0.00915578, -0.04571331, -0.08370498, -0.00954812, -0.02176393, 0.01312955, -0.09592464, -0.04136317, -0.00134712, 0.01162288, -0.06171175, 0.02276352, -0.01819848, -0.08802743, -0.05016218, -0.00337661, -0.00746708, -0.00931356, 0.05108059, -0.00376233, 0.03222676, -0.07944221, -0.01052793, 0.05094564, 0.03760259, -0.06523031, -0.03627160, 0.01324564, -0.04467869, 0.03054128, 0.02401865, 0.04447111, -0.07824176, -0.04465019, -0.05708674, -0.03116883, -0.07439356, 0.02197873, -0.04056017, 0.00110149, -0.08422907, -0.02231184, 0.05651994, -0.01784629, -0.05833554, 0.01709599, -0.04117870, -0.02065797, 0.00470218, 0.03005025, 0.02431074, 0.02591668, -0.07492108, -0.04351793, 0.01625702, -0.06661307, 0.05300862, -0.01872431, -0.03635953, -0.06960355, -0.00604013, -0.03011743, -0.01138869, -0.01761033, 0.03290884, -0.00072938, -0.01569153, -0.02197173, -0.05268945, 0.00630382, -0.02600219, 0.02506830, 0.03535134, -0.04496283, -0.01865547, 0.03650824, -0.08253712, 0.01275495, 0.02447765, -0.06439919, 0.04444732, -0.05760523, 0.02661167, -0.00355224, -0.05266764, -0.01870500, -0.03830371, -0.02330036, 0.05212033, -0.08107790, -0.05009069, -0.02003092, -0.01358707, 0.03502736, 0.02718777, 0.03664265, 0.03068410, 0.05906375, -0.04216611, 0.00229063, 0.00609961, 0.02424118, -0.05501386, -0.05763410, -0.00173967, 0.00273378, -0.05381943, -0.00044038, -0.03567766, -0.04591872, 0.00582235, 0.05619667, -0.03429541, 0.05204304, 0.02972306, -0.06636961, -0.04659760, -0.03198513, -0.07480643, 0.03114172, -0.04474336, -0.03230662, -0.04494392, -0.05452878, 0.01766809, -0.06698772, 0.02268720, -0.02064431, -0.04693957, -0.04818974, 0.01755658, 0.04278330, -0.03332655, 0.01618229, 0.04138495, -0.06634982, -0.01008839, -0.06349599, -0.01082510, 0.01377299, 0.01416958, 0.00827157, -0.03902542, 0.04828357, -0.02645356, -0.08599200, 0.05579529, 0.00758822, -0.02448637, -0.02642348, -0.05213038, -0.06072687, -0.04615754, -0.02957148, 0.04046661, -0.06219971, -0.08317353, 0.00378526, -0.02288241, 0.00964758, -0.04173871, 0.01167738, 0.02511030, 0.02560929, -0.07239097, -0.02149323, 0.00168211, 0.00783249, -0.01467790, -0.03197094, -0.03616099, -0.03285858, 0.02215802, -0.02225442, 0.03399853, -0.06688298, -0.01085384, -0.03660454, -0.02861649, -0.03442876, -0.04511352, -0.07469020, 0.03493803, 0.04565141, 0.02835296, -0.05615135, 0.00548076, -0.03681434, 0.04235374, -0.00193023, -0.01383942, 0.01672921, -0.00683670, -0.07184123, -0.04295940, 0.03853272, -0.06822293, 0.03222577, -0.02607036, -0.04334167, -0.03342010, -0.00423186, -0.00291909, -0.06751259, 0.04352010, 0.03746152, 0.02987856, 0.02504022, 0.06183982, 0.02635032, 0.04942631, -0.04760693, 0.03191965, -0.04760635, 0.01200923, 0.01223543, 0.03740063, 0.04929843, -0.00025046, -0.01161114, 0.03166360, -0.02865069, 0.02763105, -0.00240334, 0.04695185, 0.02411721, 0.03731894, 0.00982369, -0.00694504, 0.01329758, -0.01266982, -0.01237810, 0.05383486, -0.00468168, 0.00453573, -0.06219551, -0.01276596],
        [0.73215818, -1.09609056, 0.06351657, -0.16888928, -0.04714377, -0.02146242, -1.30253911, -0.57634711, 0.18085890, 0.01923815, -0.27319857, -0.61560708, -0.66127461, 1.40953696, -0.03802279, 0.07522909, 0.46117485, -0.01878311, 0.13184316, 0.36903408, -0.50358999, -0.52645957, -0.81644094, 1.06266129, -0.52615255, -0.38255307, -0.20531093, -0.21616952, 0.20799100, -0.53001010, 0.40496063, 0.41525882, 0.10687010, -0.40723887, 0.20383070, 0.06278231, -0.07732041, -0.01803495, 0.05468315, 0.72497624, 0.33669364, 1.39218998, -1.07022583, 0.41369975, -1.18395782, -0.04463965, -1.41403878, -0.38602048, 0.04514512, -0.50505251, 0.82558858, -0.44673651, 0.99599779, 0.67952460, 0.51031077, 0.00697688, -0.05682877, 0.65941560, 1.25075066, -0.10976107, -0.00881755, -0.40038934, 0.67426598, 0.10996595, -0.14575124, 0.85117966, -0.92758030, -0.01675013, 0.15310799, 1.06123710, 0.80228591, -0.01040289, 0.78096479, -2.38726401, 0.62227482, -1.07219648, -0.01909111, -1.28649378, -0.18099762, -0.06042434, -1.22379971, 1.00615716, 0.92472529, 0.01547547, -0.28353825, 0.12633659, -0.02773495, 0.75188249, -0.00427209, -0.14154105, 0.02719206, 0.01499903, -0.27679172, -0.10343637, 0.06841689, -0.06491970, -0.04784122, -0.80471414, -0.25231025, -0.00065881, -0.71302503, 0.78640056, 0.17115076, -0.51348191, 0.47836900, 1.49580526, -0.22706929, 0.01230804, -0.07407794, -0.67786252, -0.02867249, -0.59630376, 0.25317636, 0.25148362, -3.59462428, -0.00454086, 0.01991394, 1.57384431, 0.24043673, 1.00797176, 0.71473473, 0.01287208, 0.31212899, 0.14948891, -0.00512323, -1.00705254, 0.90052408, 0.08456138, 0.08260801, -1.20614135, 0.48903441, -0.07096945, 0.10794899, -0.25499639, 0.03508787, -0.42241618, 0.01010877, 0.31060815, -0.18564770, -1.41236877, -0.24307077, 0.01584122, 0.19096029, 0.55552536, 0.20220716, -0.08581154, -0.66608816, -0.66431475, 0.04903273, -0.30836901, 0.74267447, 0.39618143, -0.18001449, 1.14276636, 0.32945594, -0.45435363, -0.04531635, -0.11344720, -0.04972536, -1.33129668, -0.15294246, 0.11161129, -2.16362286, -0.07226999, -2.00435781, 0.61314994, 0.57862091, -1.06290925, 0.72468805, -0.04146934, 0.33449218, 0.67290813, -0.42277595, 1.22252500, -0.25854781, 0.07304066, 0.23939216, 0.10046756, 0.00994202, -0.92248011, -0.71779060, -0.01772859, 0.01316078, -0.11251458, 0.63727635, -0.36074984, -0.04232115, -0.09961517, -2.13350320, -0.18626018, -0.93279868, -2.06187129, 0.83321321, 0.13663331, 0.12611170, 0.78429902, 1.11299586, 0.51504588, -0.65063506, 0.59503174, -0.33922732, 0.05686489, 0.27904573, -0.23087437, 0.54532617, -0.25938740, 0.32711491, -0.01753729, -0.20171429, -0.17620343, 0.01201912, -0.37824613, -0.62291765, -0.06575062, -0.19141415, 0.15623115, -0.04905495, -0.22918071, -0.83625817, 0.41243666, 0.13185984, 0.57828879, -0.75250113, -6.24406385, 1.20289850, -0.08224276, 0.51048905, 0.42004725, 0.48432189, -0.78097278, 0.02243732, -0.94257277, 0.03443273, 0.03202520, 0.33534965, -1.15638876, -1.80987036, -0.49465424, -1.58438373, 0.11053512, 0.03830292, -0.52890146, 0.93099988, -0.00146266, 0.09861551, -2.89483929, 0.94864547, 0.04634347, -0.67964572, 1.50911462, 0.66563082, -2.71955085, -0.03516640, -0.00620626, 0.18270625, -3.04688478],
        [0.00670276, 0.00341448, -0.00868408, -0.03469082, 0.00549186, -0.03356937, 0.02854830, 0.00774252, 0.04327647, -0.05341333, -0.04377683, 0.02398250, -0.00376829, -0.02921501, -0.00167480, 0.00011721, -0.02603010, -0.05440807, -0.07651686, -0.03726014, -0.03771505, -0.01133734, 0.01002851, 0.01437874, -0.06674462, -0.03983338, 0.01641973, -0.02340874, 0.01136295, 0.00714888, 0.02551850, -0.01615872, -0.02055161, -0.06909471, 0.00933427, 0.03539677, 0.03817367, -0.04386064, -0.03457666, 0.00736980, -0.08074249, 0.03802010, -0.05384608, 0.00039019, -0.06182317, 0.05033093, -0.02704060, -0.01219329, -0.08931809, 0.00029609, -0.00240302, 0.00609081, -0.03579142, 0.00766798, 0.03137966, 0.02100191, -0.02585091, 0.02997439, -0.07030614, -0.06313521, 0.00201359, -0.04388444, 0.01037543, 0.00938629, -0.00552874, 0.03846573, -0.04490596, -0.00395058, 0.05631164, -0.04129668, -0.04564410, 0.01831984, -0.05605206, 0.02821878, 0.01736664, -0.02318101, -0.00097434, -0.07234588, -0.05153662, -0.01712463, 0.04803504, -0.04275459, 0.00046948, -0.01007883, 0.00402864, 0.00735077, 0.01096086, 0.04110124, -0.02805477, 0.03806695, -0.00192618, 0.04731208, -0.06455682, 0.04478936, -0.00412207, -0.09088778, 0.01934207, 0.02612931, 0.04717197, -0.02898003, -0.02980230, -0.00849853, -0.05333954, 0.00875355, 0.02824568, -0.02407698, 0.01761638, 0.01482831, -0.01926243, 0.00913228, 0.03342425, -0.04275950, 0.03193827, 0.00864082, 0.02775728, -0.02926930, -0.03798251, -0.00310509, -0.08254366, -0.05641890, 0.05246289, -0.04720088, 0.00343268, 0.00107950, -0.02157630, -0.01973596, 0.01376292, 0.03348956, 0.00641963, 0.00795292, -0.06653181, 0.02541157, 0.02224676, -0.02683283, 0.02344802, -0.08605009, -0.05519789, 0.02142181, 0.02973901, -0.06811874, 0.00617943, 0.03533191, -0.03778543, 0.00442218, -0.00418239, -0.04546440, 0.01355917, 0.00418166, 0.06243020, 0.00628693, 0.02065983, -0.07861611, 0.00686573, 0.00933855, 0.01166041, -0.00762082, -0.03813134, -0.04543513, -0.04747006, -0.06657808, -0.04166067, -0.03554338, 0.03182138, -0.05060586, -0.09001884, -0.05478009, 0.05155646, 0.03003967, -0.00591849, 0.01342414, -0.02645971, 0.03373076, -0.04629860, 0.00629843, -0.07313695, -0.02381135, 0.04507959, -0.07133865, -0.06932833, -0.00369777, -0.04703678, 0.05962863, -0.01868164, -0.04551154, -0.00376982, 0.05621307, -0.02001889, -0.02388403, -0.04318204, 0.01578962, -0.00855846, -0.01966812, -0.00755308, 0.03221777, -0.01608917, -0.04121213, -0.08314712, -0.02382884, 0.00356018, 0.01234402, -0.07338563, -0.04728290, -0.08693509, -0.02996563, 0.01357958, -0.06232434, -0.04070820, -0.00197700, -0.02699024, -0.01528633, 0.01815321, 0.00758215, -0.04194511, -0.05799467, -0.08330791, 0.04388107, 0.05362529, 0.02088881, 0.03476097, -0.06671066, -0.07914192, 0.02171132, -0.03948199, -0.05038838, 0.04205917, 0.00640676, -0.03181296, -0.01722735, -0.01805196, 0.00928881, 0.03285757, 0.05323680, 0.00732988, -0.02004890, -0.05585482, 0.04867544, -0.02778003, 0.03563130, -0.02861771, -0.06695749, -0.04446440, -0.03040083, -0.00792320, 0.01248432, -0.02263878, -0.06570414, 0.03823795, 0.05300152, -0.03961105, 0.04596685, -0.04971400, -0.00696448, 0.00132532, -0.00891119, 0.02949687, -0.05851017],
        [0.62185526, -1.29428399, -0.04955929, -1.19686222, 0.05471525, -0.02737641, -0.18098786, -1.01890528, 0.06309713, 0.05627365, -0.03873531, -0.06804604, 0.03228458, -0.19400772, 0.00519211, -0.28607291, -0.52003884, -0.59094781, 0.03440891, 0.31818137, -0.19889109, -0.45458695, -0.74398667, -0.15956974, -0.35689265, -0.48163110, 0.00693554, -1.15193665, -0.09262045, -0.03174053, -1.46792388, -0.50626874, -0.04240905, -2.80037951, -0.15226565, 0.04367812, -0.15126233, 0.03919014, 0.03498774, -0.79593933, 0.06358030, -0.60164708, -0.37376148, 0.35042560, -0.08639520, 0.00426722, -0.08979554, -0.37395352, -1.32703340, 0.80794805, 0.66774660, 0.00904131, -0.72221673, 0.81093049, -1.02701664, 0.00848731, 0.18756983, -0.76049775, 0.09346270, 0.09822452, -0.00463752, 0.97961289, -0.74751145, 0.04945502, 0.07686350, -0.31736010, -1.26593125, 0.00449369, -0.22899786, -0.28583109, -0.00246020, -0.05740661, 0.02733755, 0.26178455, -1.04260361, -0.22077776, 0.82838774, -0.15628189, -1.97341883, 0.06045238, -2.47526121, -0.31158793, 0.10492000, 0.01192877, 0.40987208, -0.09727579, -0.59934008, -0.02866563, 0.00213669, 1.25165951, 0.03927928, 0.02118214, -0.09542625, 0.72053444, -0.65666622, 0.46730599, -0.01323118, 0.67729390, 0.07201768, -2.39312315, 0.14436215, 0.10632720, 0.68768346, -0.68533319, 0.17931773, -0.08762901, -0.01463462, -0.12192298, -1.02108705, -0.28648037, 0.02316006, -0.01365546, 0.05285528, -0.65650207, 0.05041384, -0.36778679, 0.03376469, -0.15014745, -0.06810058, 0.05931250, 0.39178622, -0.73367167, -4.28319025, -1.19394207, 0.01482087, -3.09864497, -0.40353382, 0.11138043, -0.04029708, 0.53672391, 0.97060639, -0.24139535, 0.03104289, 0.02543490, 0.02802914, -0.77729255, 0.19507049, -0.04302134, -0.22480200, -1.53422415, -0.07903475, -0.03183541, 0.02039665, 0.15097782, -0.01746773, -0.37700614, 0.19525217, -0.46566895, -0.02424157, 0.69705284, -0.73823231, -1.28625154, -0.06070624, 0.54039472, -0.18578996, 0.05053180, -1.34472060, -0.04717850, 0.12579925, -0.17202997, 0.09246565, 0.19474688, 0.32233119, -0.01830252, -0.25584367, 0.54387540, -0.23699737, -0.11674794, 0.33121747, 0.10585892, -0.36163095, 1.02149987, -0.08484204, 1.11621749, -0.11904334, 0.25783107, 0.01214353, -0.26992664, -0.40024501, 1.09140027, 0.01558833, -0.01550227, 0.00046178, -0.24982032, -0.48013714, -0.95864284, -0.15101452, 0.27346641, -0.09162089, 1.08854806, 0.22159569, 0.43175286, -0.05558837, 0.75866449, -0.24623460, -0.24830918, 0.17085187, 1.07440424, -0.37237421, 0.05950584, -0.15798625, -0.04281869, -0.59417254, -0.21060035, -0.72202349, 0.62181640, -0.25749743, 0.86359125, 0.36840630, -0.26600692, -0.00111165, -0.64454859, 0.89609319, -0.20537265, -0.09351029, 0.08328813, -0.01285036, -0.68297124, 0.16679801, -0.00094456, -0.66253334, -0.21271597, -0.04092921, -0.15817435, 0.02585406, -1.05279648, -0.40565708, -0.08425285, -0.08521437, 0.68767858, -0.04579610, 0.09450821, -0.08682936, -0.05009853, -0.15096670, 0.41252157, 0.36344022, -1.01190591, 0.35150468, 0.10375325, -0.03680117, -0.72532541, 0.09362535, 0.03685145, 0.01704058, -0.00243918, 0.44756129, -0.02364801, -1.11231422, 0.07228480, 0.74016297, -0.72511852, -0.00592078, -0.03243423, 0.31770360, 0.00128599],
        [0.00881990, -0.06030310, 0.03871584, 0.00158906, 0.00592338, -0.00080518, 0.03358528, -0.03269504, -0.00232711, -0.05000642, -0.02602645, -0.01057522, -0.07268535, -0.04712574, -0.03634650, -0.02383100, -0.06739888, -0.00148662, 0.02640588, 0.03079826, -0.04650930, 0.00358202, -0.03695817, -0.00092683, 0.01281022, -0.04216627, 0.04831926, 0.02755689, -0.04639299, -0.00626412, 0.03080386, -0.07167703, 0.00612119, -0.02011045, -0.03995029, 0.01014128, 0.02104793, -0.02483158, -0.00091466, 0.02321538, -0.01779878, 0.01142632, 0.05436029, -0.06895444, -0.04256947, 0.02837501, -0.03225106, -0.01136218, -0.02236233, -0.00921037, -0.02943419, 0.00609072, -0.02074963, -0.03932936, -0.04303670, 0.00544820, -0.01055087, -0.01713901, -0.03913715, 0.01584253, 0.05141234, -0.06787937, -0.03868953, -0.00591548, -0.04584303, -0.03847793, -0.05488905, 0.02485837, 0.06055968, -0.02186859, 0.02100508, -0.02201577, -0.03215580, -0.07704769, 0.03533440, 0.03388086, -0.05019595, -0.02487899, -0.01748762, 0.01152658, -0.08824833, 0.03568886, -0.00215666, -0.00218999, 0.03550485, -0.02967829, 0.04323960, -0.06498358, -0.00958543, -0.04218483, 0.06130521, 0.03547084, 0.00062293, -0.01750534, -0.06817002, -0.03142873, -0.00533953, -0.02226447, -0.06272506, -0.02743905, -0.01316963, -0.08646255, -0.05178582, -0.02374788, -0.02131385, -0.01204156, -0.02479425, 0.03342165, -0.03777944, 0.04478869, 0.01813923, -0.01953326, 0.03491462, -0.03603594, -0.02684733, -0.03714444, 0.06022990, -0.04641827, 0.00981320, -0.04963948, -0.00362351, -0.03140430, -0.04454625, -0.04553996, -0.03678317, -0.02905643, -0.06702022, 0.06545927, -0.01640209, -0.04776817, 0.04861701, -0.04170438, 0.05592506, -0.03704060, -0.05899133, -0.03258777, 0.05065507, -0.03769125, -0.00496573, 0.03586610, 0.01806796, 0.03251862, -0.05085290, 0.00717307, -0.02985646, 0.00850888, 0.03207337, 0.03800080, 0.05986771, -0.01555640, 0.02474528, -0.02581583, -0.06978489, -0.02925156, -0.02973897, -0.00262114, 0.04992444, 0.02134901, -0.01484108, -0.03219469, -0.06316144, -0.05203895, 0.04207700, 0.01581273, 0.00191497, 0.01906448, -0.06070453, -0.00722820, 0.01137718, 0.03671046, -0.04904184, 0.04524776, 0.02894831, 0.04367537, 0.02400526, -0.02844369, 0.02325557, -0.05879549, -0.00965136, -0.05907902, -0.06607882, -0.02461324, -0.03080869, 0.05149513, -0.04568016, -0.04545077, -0.00634039, 0.05060138, 0.02275976, -0.00471634, 0.04075168, 0.02446148, -0.04139855, -0.06015611, -0.02137026, 0.02078832, -0.06170078, -0.03190779, -0.01698932, 0.01028658, -0.03028389, -0.01120540, -0.01996417, 0.01946688, -0.03782623, -0.03289627, -0.05710680, -0.06173373, 0.00355350, -0.01010720, 0.03727488, -0.06613126, -0.07882710, 0.01203289, 0.00569961, -0.03301736, 0.03362504, 0.00638789, 0.01937627, 0.02726274, -0.08267508, -0.05357929, -0.02271974, 0.02230933, 0.00343093, -0.07644822, -0.05566278, -0.00641995, -0.03861393, 0.04702743, -0.00803509, 0.02373601, 0.03175706, -0.03087866, -0.00694619, 0.01316823, 0.00305967, -0.01730075, -0.03087468, -0.03830243, 0.04544043, -0.03519046, -0.06869271, -0.02607015, -0.00884869, -0.04252543, -0.00724284, 0.03038871, 0.00687619, 0.05506452, 0.05312750, 0.02292208, 0.02787158, -0.03274332, 0.04365879, -0.00669617],
        [1.03170943, -1.55887234, -0.02700313, -1.21780455, -0.04622524, -0.03710191, -0.29560044, 0.06072629, -0.35321030, 0.10863774, -0.26039717, 1.50124061, -3.59276319, 0.03687174, -0.16486229, -0.63196790, 0.39835218, -0.56639481, -1.46525729, -1.96833169, 0.10201399, -0.79847711, -1.00037587, -1.46875739, -0.87538767, 0.39176327, 0.64949232, 0.23926970, -0.12026086, -1.30791831, -1.28186321, 0.31676617, 0.02867978, -0.50546163, -0.18032636, -0.26469505, 0.47415647, -0.04994501, -0.03136735, -0.48867443, -0.38258299, -0.34096259, 0.68773687, 0.21076143, 3.17401028, -0.05983356, -0.29460961, 0.54789394, -2.80435228, -0.36757052, -0.04639803, -0.01607933, -0.90631676, 1.37579989, -0.15630330, -0.03566178, 0.22936682, 0.41137189, -0.51502049, -0.18489850, 0.04938322, 0.56718451, 0.39988333, -0.08603229, -0.09477768, 0.21239066, -0.31410542, -0.05298619, 0.11487427, 0.08286209, 1.37323534, -0.00253414, -0.48387465, -0.10994768, 1.41857779, -1.35736895, -0.54349953, -0.45495242, 0.73873019, -0.06203451, -1.36275756, 1.29778528, 0.22323318, 0.10643446, 0.36814040, -0.13880993, 0.38902545, 0.90960234, -0.03136439, 1.21861434, -0.01205586, -0.05694154, -0.02014872, 0.54060632, 0.38631755, -0.12569506, -0.02318253, 0.92714453, 0.06059645, -0.01708034, 1.28222597, -1.19368434, -1.01571035, -0.17650253, 1.66634786, -0.13786657, 0.62150627, 0.10109480, -1.77373648, 0.44928646, -0.05021299, -0.06303926, -0.95821059, 0.82609475, -1.18192446, -0.39786372, -0.03249165, 0.17068210, -0.13478424, 0.27657878, -2.12946486, 0.54369801, -0.33168739, -2.54863501, 0.05645613, -0.29602057, -1.61573923, -0.16040111, 0.11197387, -0.38147488, -0.08575194, -2.20970082, 0.34510952, 0.37487099, 0.23289815, -0.44126087, 0.02275133, -0.46678802, 0.41842264, 0.86440235, -0.00272507, -0.04466305, 0.65405679, -0.51917702, 0.07763176, -1.93941081, -1.30181396, -0.41056144, 0.02139410, -2.44964266, 0.87379628, -0.38759115, 0.79988760, 0.05460821, -1.31072807, 0.13358276, -0.67737514, -0.13330334, -0.55963290, -0.42248121, 0.12603268, -0.28294739, -0.62376034, -0.04405232, -0.10539805, -0.18414380, 0.04986572, -4.45571041, -0.18658082, -0.04733379, -0.07358360, -4.48957443, 1.23032928, 0.89707881, 0.09084556, 0.09084859, -0.04710043, -0.25650829, -2.86260962, -1.73438513, -1.20015728, 0.02429245, -0.03251236, 0.52408749, 0.38034469, 0.94573474, -0.02432168, 1.95725322, 0.44924954, -1.44081831, 0.39581382, -0.41592333, 0.07809468, -0.95269704, -0.26658005, 0.85760617, -0.31910795, -0.59513146, -0.87023062, 0.03531466, -0.36445579, -0.05434015, 0.13310541, 0.71104598, 0.51075226, -1.83243275, 1.15456939, -0.54649740, -0.17902051, -1.31795502, 0.05157160, 0.55211806, -0.49457502, 0.24200195, 0.48731422, 0.01287443, 0.02530189, 0.67917490, -0.60072219, -3.25734591, -0.32182753, 0.04551614, 1.07144058, -0.50859350, -0.28933960, 0.48000398, -0.35243857, 1.13402700, -1.60656977, 0.20729192, 0.06142280, 0.88087475, -0.08888502, -0.06026098, -0.10704218, -0.50752902, -2.15191388, -0.02226877, -1.12533009, 0.05924191, -0.05511909, -1.48913646, 0.83280122, -0.05585919, 0.77068424, 1.58733308, 0.57737243, 0.05866417, -1.12486148, -0.21329387, 0.14714961, 0.73509663, -0.02061331, -0.27901405, -0.80432177, 0.08461348],
        [1.04092717, -0.00072829, -0.17381541, 0.53367513, 0.00866531, 0.04100484, 4.41884232, 0.65081495, -1.13110876, -0.18227178, -0.04031390, 0.81768715, -1.35320675, -0.13939595, 0.03794823, -0.47441363, 1.49058127, -1.53129315, -0.48108035, -2.06522298, -0.61765569, -0.30128789, -1.08592904, -0.39799845, -0.03959659, -0.64426923, 1.65098584, 1.83449864, -0.00775759, 2.46874905, -0.37054253, 1.38712871, 0.03181113, -0.39761856, -0.40831497, -0.46459767, -0.50355875, -0.04544479, -0.01978482, 0.29262093, 1.25919271, -1.54133964, -0.16558541, 0.20289044, 0.50536013, -0.39509287, -0.11639914, -4.39895105, -1.84243560, 0.48243904, 0.51988685, -0.33534494, -0.56999952, -0.50646216, 0.94012618, -0.13571629, 0.27201289, 1.04671192, 2.37349844, -0.42547804, -0.05197019, 0.09077273, 0.36858517, 0.06917144, 0.13879912, 0.85167241, -0.65648896, -0.00991137, -0.07921621, -1.28358030, -1.25964785, -0.11785339, -2.17113948, -0.06264469, 2.11473250, 0.25296491, -0.26960731, 0.04986279, -3.09160662, 0.04282706, 0.15735225, -1.44541752, -0.28374675, -0.00606601, 0.37138650, -0.24562505, 0.18433887, 0.14438179, -0.02153138, -1.27810621, 0.05955090, 0.01060556, 0.09780631, 1.81430125, 0.25357991, 0.49139908, -0.04562763, 0.39023793, 0.04339511, 0.16450396, -0.22573780, -0.53207618, 0.04649728, 0.20857927, 0.32321227, 0.11052966, -0.52188689, 0.15582748, -3.95101070, 1.36058772, 0.02871231, 0.09005579, -0.22694401, -1.94555247, 0.04472230, 0.30933583, -0.02153858, 2.06201434, -0.26257795, 2.93908453, 0.61894399, 0.11864178, -5.20559216, 0.39499852, -0.00692244, -0.21098290, -0.21459797, -0.06463362, -1.26194108, 0.56975806, -1.88392162, 0.16462582, 0.24240805, -1.89691412, 0.60112816, 0.97926784, 0.29585329, -0.40230218, 0.13674153, 1.10513234, -0.43730140, 0.06413781, 0.01680184, 0.30250141, -0.06268860, 0.25130549, -0.31327865, 0.32745397, -0.00395459, 0.51896089, -1.22469115, -0.60345745, -0.40200198, -0.89011836, -0.01280414, -0.11599428, -0.08615913, -0.18476427, -0.40693465, -0.04856688, 0.48813042, -0.13832073, 1.90964007, -0.30988580, -0.16360430, -0.51051074, 2.08245635, 0.54086781, -0.56281197, -0.14334297, -0.34355643, -1.50360060, -0.03680298, 0.70414472, 0.77251613, 0.09683768, -0.04344850, -0.82410294, -0.98747635, -0.33652630, -0.34319866, -0.01053449, 0.01812070, 1.30193925, 0.59813774, -0.04469279, -0.28181180, 0.49434304, 2.22470641, 2.26229477, -1.06568348, 0.17567386, 1.28631365, -0.07982188, -0.50302035, 0.19724399, -0.00888648, -0.51949853, 0.47331810, -0.20702052, 0.41407236, 0.00457374, 2.18185186, 0.70707726, 0.10283745, -0.60604644, 0.22723378, 1.99345851, 0.24668624, 0.25081518, -0.06008075, -0.04177301, -0.40312955, -0.31265780, -1.76662922, 0.11641548, -0.02047434, -0.53181368, -1.26772296, 1.92626071, 0.08036964, -1.23057532, 3.15770483, -0.10027838, 0.11994869, -0.50176555, 1.08185828, 1.20845914, -0.24058725, 0.82072216, -0.02089827, 0.11556888, -0.36805743, 0.05603913, 0.53770262, 1.35261858, 0.48762062, -0.72207177, -0.77939105, 0.03688251, -0.27659243, 0.69348997, -0.69375640, -0.04768778, 1.47881496, -0.00981001, 0.06175676, 0.01525630, -0.98442656, -5.37312841, 0.19948459, 2.65625572, -0.03047509, -0.00748696, 0.89697766, 0.24757004],
        [-0.28821775, -0.89625299, -0.02254078, -0.29019937, 0.02884572, -0.03713234, 0.53807044, -0.43031284, -0.01409739, -0.47935325, -0.00968097, 0.44523138, 0.19408186, 0.50648206, -0.06384190, -0.15080912, -0.08526507, -2.73984814, -0.13773140, -0.73666275, 0.19431654, 3.80043125, 0.25113514, 1.53928316, -0.34360740, 0.02854772, -0.15443765, -0.11392763, 0.07253809, -1.57726800, -0.23075376, 0.17078902, -0.01159869, 0.21781851, -0.20587955, -0.68799567, -0.08921967, 0.02344093, -0.00825829, 0.77883863, -0.20086701, -0.88000149, 0.53155881, 1.00472319, -0.32954714, -0.03293391, -0.06299201, -1.08594668, 0.03724690, -0.49473262, 0.65424955, -1.46029294, 0.60797524, 0.21950053, 0.12071536, 0.03989606, -0.41817769, 0.93597519, -0.32607111, -0.76739472, 0.00340725, 0.16011001, 0.91461265, 0.03670144, -0.05387024, -0.26553801, 1.38863492, 0.03193935, 0.29001161, 0.03225650, -0.48888943, -0.03727796, -0.55334902, -2.25622940, -1.77372825, 1.07592344, -6.58668518, -0.43693286, 0.34785533, 0.04904206, 0.49358732, 0.10236709, -0.16570865, 0.04523967, -0.84679860, 0.50347275, 1.21797228, 1.40536380, 0.01270865, -0.25380152, 0.02055323, -0.02981084, -2.38996315, -6.08054876, -0.74143565, -0.37174377, -0.00529736, 1.27301776, -0.33687845, -3.85980701, -0.04336463, 1.28930783, -0.57870370, 0.08941936, 1.62918746, -0.00831052, -0.90306437, -0.57554507, 0.21772847, -0.68560147, 0.01125639, 0.49075532, 2.02036738, 0.27806962, -0.95635003, 1.14356172, 0.02268560, -0.63171047, -1.69594491, 1.05620801, -2.94590354, -1.44815493, 0.21554896, -1.29953778, -0.03907612, -1.57152820, -0.70356709, 0.02842361, 0.22088741, -7.46839905, 0.43876052, -0.21440546, 0.05985084, -1.10007560, 0.00982527, -0.49876541, -0.07114452, -0.12605806, -0.02111346, -0.17756806, -0.28424340, 0.00233531, 0.63464612, -5.35890675, -0.36774021, -1.00180340, 0.70745277, 1.00201559, 0.04757981, -0.02907332, 0.84143269, -0.37553999, -0.06186807, -0.97882020, -1.25290799, -0.23352127, -0.84862560, -0.22706336, -0.11064754, -1.50671268, -0.28548625, -3.12956548, -1.16913724, -0.13427034, 1.17620873, -1.61063254, 0.13884553, 0.13550922, 0.12492589, 0.02369291, -0.16708967, -1.80915868, 0.01786603, 0.22753307, 0.09949629, -0.23834069, 0.04243325, 0.05685213, -0.25992355, -7.45976925, -0.00303462, -0.04689861, -0.03377060, -3.71762085, -0.64587325, 0.24944872, 0.12381151, -0.24666883, -0.15473410, -0.11713353, -2.11946106, -0.33061340, 0.06130626, -0.41956595, 0.03440478, 0.07641592, 1.28372443, 0.50100332, -0.18255129, -1.04044557, 0.10015158, -0.04154760, -0.05561245, -0.68754220, 0.59642887, 0.86092567, -1.61307514, -0.39606696, 0.20919126, 0.87194288, -0.01747179, -1.12059069, -1.06296623, -1.28731000, -1.26009357, 0.16133548, 0.04019343, 0.02101849, -3.61734796, -0.01098591, 0.39904988, 0.23287718, -0.04630047, -0.90537316, 0.49769261, -0.97986883, -0.38681009, 0.23280290, -0.27885237, -0.33703002, -0.01848453, -0.53715533, 1.25412965, -0.05607338, 0.50314569, -2.56260157, 0.33989173, 0.80694818, -0.31503108, 0.13445112, -0.00648481, 0.06616063, -1.84529519, -0.01021122, -1.05974174, -0.18193854, 0.57576919, -0.00981820, -1.48319387, -0.39675382, 0.38490561, 0.12931466, -0.01020925, 0.01503088, -0.52431142, -0.97378725],
