{
  "format": "ursim-robust-net",
  "version": "1.0",
  "model_name": "eval_64x32_lr1e-03",
  "ruleset": "Masters",
  "input_size": 14,
  "num_layers": 3,
  "layer_sizes": [
    64,
    32,
    1
  ],
  "activations": [
    "relu",
    "relu",
    "sigmoid"
  ],
  "finish_position": 17,
  "game_threshold": 46,
  "pieces_per_player": 7,
  "epochs": 17,
  "learning_rate": 0.0010011462272084782,
  "weights": [
    [
      0.08686493337154388,
      -2.0933516025543213,
      0.21966858208179474,
      0.37204280495643616,
      -2.37257981300354,
      0.23227843642234802,
      -0.17153829336166382,
      -0.44037729501724243,
      1.796968936920166,
      0.045463088899850845,
      0.1500764936208725,
      -0.1424141377210617,
      1.4973728656768799,
      -0.04258059337735176,
      0.014809289015829563,
      -0.003279722761362791,
      -0.005435983184725046,
      -0.005560754798352718,
      -0.01333423051983118,
      0.0972081795334816,
      -0.2995377779006958,
      0.025761036202311516,
      -0.05058234930038452,
      4.454687595367432,
      -0.6229345202445984,
      -0.9013237357139587,
      -0.765820324420929,
      -0.8082030415534973,
      -0.41578978300094604,
      -0.35218551754951477,
      2.7063958644866943,
      0.47677433490753174,
      0.25797829031944275,
      -0.002519177971407771,
      -0.4087958037853241,
      0.3116346597671509,
      0.2700144350528717,
      -3.1510682106018066,
      0.4519343972206116,
      0.5888512134552002,
      -0.937838077545166,
      0.08852275460958481,
      0.111492820084095,
      -0.04695913568139076,
      0.008658438920974731,
      -2.5997514724731445,
      0.4699341952800751,
      0.8147081136703491,
      1.3247824907302856,
      -0.07353977113962173,
      -0.007426394149661064,
      -0.10091846436262131,
      0.06684600561857224,
      -0.02269657887518406,
      0.04490127041935921,
      -0.6461204290390015,
      0.012636474333703518,
      0.10036535561084747,
      0.0911230593919754,
      -25.843185424804688,
      0.2158491611480713,
      0.5066589117050171,
      0.020228177309036255,
      1.5714765787124634,
      0.5673707127571106,
      0.301250159740448,
      -2.103165864944458,
      0.017569266259670258,
      0.09708476066589355,
      -0.6186665296554565,
      0.04293706268072128,
      -0.03923232853412628,
      0.04593146964907646,
      -0.0009564775973558426,
      -0.03823480382561684,
      -0.001329201040789485,
      -0.013949359767138958,
      0.3251194953918457,
      -0.009513693861663342,
      0.019689474254846573,
      0.013831747695803642,
      -0.015841808170080185,
      3.30043363571167,
      -1.4464799165725708,
      -0.32070258259773254,
      -0.5409862399101257,
      0.38127151131629944,
      -0.2575262784957886,
      2.2832791805267334,
      0.10546454042196274,
      0.3156628906726837,
      -0.5458652377128601,
      -0.3954463303089142,
      0.038444213569164276,
      0.3035273551940918,
      0.2326662689447403,
      -2.9015233516693115,
      0.003720533335581422,
      -27.49036407470703,
      0.8277546763420105,
      0.010661531239748001,
      -0.12449584156274796,
      3.2306625843048096,
      0.2609703540802002,
      -1.1812446117401123,
      -2.3868534564971924,
      -0.24909596145153046,
      -0.04775285720825195,
      -0.12531012296676636,
      -0.015493177808821201,
      -0.02299387753009796,
      0.0012191134737804532,
      0.0055321697145700455,
      -0.4569268226623535,
      -0.07796250283718109,
      0.031827062368392944,
      0.0350639745593071,
      -0.04100249335169792,
      -0.014035788364708424,
      -0.4435519576072693,
      1.43800687789917,
      -0.05133689194917679,
      -0.024751080200076103,
      -0.012966523878276348,
      -0.7010416984558105,
      2.7147552967071533,
      0.29303881525993347,
      -5.652707576751709,
      -4.580953121185303,
      0.2104111760854721,
      0.23412859439849854,
      0.09246652573347092,
      -0.7170314192771912,
      -1.1902034282684326,
      -1.2203545570373535,
      0.3010254204273224,
      -0.01996232569217682,
      0.02869468368589878,
      0.0119680967181921,
      0.5097438097000122,
      0.7007566094398499,
      -0.11831001192331314,
      0.032858699560165405,
      -2.862870454788208,
      0.5983800888061523,
      0.15118896961212158,
      -0.5499553084373474,
      -0.11270829290151596,
      2.413400888442993,
      1.5608397722244263,
      0.9530039429664612,
      -0.086986243724823,
      -0.32198822498321533,
      -0.8124637007713318,
      0.3033472001552582,
      4.878990650177002,
      -1.3066993951797485,
      -0.02136482670903206,
      -0.575742244720459,
      -0.48172134160995483,
      -0.4757480025291443,
      -0.40804100036621094,
      -0.17259599268436432,
      -0.013026101514697075,
      -0.14170174300670624,
      -0.015354376286268234,
      -0.24396958947181702,
      -0.20263540744781494,
      0.2159288227558136,
      0.237472802400589,
      -0.21757788956165314,
      -0.2147025465965271,
      0.14907947182655334,
      -0.22492516040802002,
      -0.16808301210403442,
      -0.08672018349170685,
      0.14056015014648438,
      0.08652758598327637,
      -0.2343919277191162,
      0.1325993537902832,
      -0.12838616967201233,
      -0.24194937944412231,
      2.1774392127990723,
      -1.2478413581848145,
      1.037662386894226,
      -0.5179014801979065,
      0.4366741478443146,
      -0.8233158588409424,
      -0.22951450943946838,
      1.9835255146026611,
      -0.5801746249198914,
      -0.12486791610717773,
      0.3675950765609741,
      0.12315475940704346,
      -0.4885551631450653,
      0.9986442923545837,
      0.4133334755897522,
      -0.8925988674163818,
      0.11762969940900803,
      -0.07949487119913101,
      -0.02531520463526249,
      -1.5901620388031006,
      2.526620864868164,
      1.9451593160629272,
      0.06956169754266739,
      0.049265384674072266,
      -0.5966919660568237,
      -0.02900170348584652,
      -0.038287341594696045,
      -1.4811097383499146,
      0.05233776196837425,
      -0.030718110501766205,
      0.008208515122532845,
      4.3146538734436035,
      -0.495172917842865,
      -0.7273107171058655,
      -0.6329858303070068,
      -0.00460495101287961,
      -0.04346165433526039,
      0.0008592981612309813,
      0.01203691866248846,
      -0.022694377228617668,
      -0.01909114234149456,
      -1.2273674011230469,
      -0.02457480877637863,
      0.022633740678429604,
      -0.00536297308281064,
      0.00440554553642869,
      -0.015890909358859062,
      -0.060883328318595886,
      -0.520616352558136,
      -0.03747766092419624,
      4.659531593322754,
      -0.10096466541290283,
      -0.380298376083374,
      -0.6096162796020508,
      -0.9055287837982178,
      -0.852042555809021,
      0.21740449965000153,
      -0.8257367610931396,
      -0.1506582796573639,
      1.8077659606933594,
      0.009001322090625763,
      -3.0386147499084473,
      0.0709022656083107,
      -0.028092198073863983,
      -0.01567717269062996,
      -0.09061315655708313,
      -0.09484556317329407,
      1.2919992208480835,
      0.3782657980918884,
      1.029462218284607,
      0.6867595314979553,
      -0.3963249623775482,
      -1.9957250356674194,
      0.3274223506450653,
      -0.4505103826522827,
      -0.07276647537946701,
      0.06681664288043976,
      -0.5077389478683472,
      -0.21120759844779968,
      3.204162836074829,
      -0.03385165333747864,
      0.07622584700584412,
      0.24855810403823853,
      -0.5081642270088196,
      -0.044796768575906754,
      0.03549573943018913,
      -0.04242166876792908,
      0.012009033001959324,
      0.007015534210950136,
      -0.01857776567339897,
      -0.02183915674686432,
      0.0825766995549202,
      -0.019239068031311035,
      0.060644906014204025,
      -0.02543073147535324,
      3.8139734268188477,
      -1.1026030778884888,
      -1.309651255607605,
      0.23961886763572693,
      0.5629620552062988,
      -3.1688716411590576,
      -0.2377006560564041,
      0.30607426166534424,
      0.06533949822187424,
      -1.1290721893310547,
      -0.33981558680534363,
      2.359586238861084,
      -0.6152932643890381,
      0.06557796895503998,
      1.2986820936203003,
      0.10852255672216415,
      0.09189494699239731,
      0.32263773679733276,
      0.07202507555484772,
      0.28177985548973083,
      -0.5042563676834106,
      -10.21728801727295,
      0.11586324125528336,
      0.1687658131122589,
      -0.26936930418014526,
      1.5226331949234009,
      -0.23323118686676025,
      -0.13305673003196716,
      -0.0879465863108635,
      -0.1732882708311081,
      0.025945231318473816,
      -0.03229096531867981,
      -0.12711836397647858,
      -0.20473429560661316,
      -0.14147070050239563,
      0.010508537292480469,
      -0.1930759698152542,
      0.06687270104885101,
      0.26638105511665344,
      -0.13744410872459412,
      -0.07136441767215729,
      -0.12168018519878387,
      -0.025205448269844055,
      -0.2079063504934311,
      -0.06686411798000336,
      0.030097221955657005,
      -0.018825767561793327,
      4.507650852203369,
      -0.5534414052963257,
      -0.7072117924690247,
      -0.5315706133842468,
      -0.6425220370292664,
      -0.04347110912203789,
      0.001670955098234117,
      0.00017148282495327294,
      0.02106867916882038,
      -0.05368151515722275,
      -0.024584868922829628,
      -0.8490353226661682,
      0.07214215397834778,
      0.14556539058685303,
      -0.09485163539648056,
      -0.04722771793603897,
      0.21957531571388245,
      -0.05335356667637825,
      -0.12070617824792862,
      -0.0556827187538147,
      -0.10178040713071823,
      0.2028234899044037,
      -0.2696060538291931,
      0.10830347239971161,
      -0.19140997529029846,
      0.026839932426810265,
      -0.7968406081199646,
      4.670355319976807,
      -0.5354340672492981,
      -0.24947938323020935,
      -0.9208505153656006,
      -0.10615837574005127,
      0.031024519354104996,
      0.2505582273006439,
      -0.4436522424221039,
      -0.026285797357559204,
      0.11763393133878708,
      -0.02621811255812645,
      -0.05131487548351288,
      0.040497470647096634,
      -0.39980947971343994,
      0.17272332310676575,
      -0.07752823084592819,
      -0.1431531310081482,
      1.9114221334457397,
      1.26581871509552,
      0.22578193247318268,
      0.11679356545209885,
      0.04157432168722153,
      -0.03597327321767807,
      -2.2471325397491455,
      0.5434057116508484,
      0.37362655997276306,
      -1.555850625038147,
      0.6325153112411499,
      -0.6633354425430298,
      -1.087169885635376,
      -0.4070878028869629,
      -0.22747017443180084,
      -1.4595216512680054,
      -0.1035001128911972,
      0.9596333503723145,
      -0.04301096126437187,
      3.0182862281799316,
      0.911737322807312,
      0.22037208080291748,
      -0.5101727843284607,
      -0.49267372488975525,
      0.009526233188807964,
      -0.04680722951889038,
      0.012664678506553173,
      0.02061918005347252,
      0.01868201605975628,
      -0.06309092789888382,
      0.008516641333699226,
      0.006353394594043493,
      0.03110451065003872,
      -0.02373899146914482,
      3.9457497596740723,
      -0.5576658248901367,
      -1.046154260635376,
      -0.8754689693450928,
      -2.3099048137664795,
      1.099036693572998,
      0.5042319297790527,
      0.21443472802639008,
      0.12814098596572876,
      0.5086513757705688,
      1.4640393257141113,
      -1.6412537097930908,
      0.33479011058807373,
      0.03371097519993782,
      -1.1181124448776245,
      0.3070865273475647,
      0.26610031723976135,
      -1.4943777322769165,
      -0.013518571853637695,
      -0.0624537318944931,
      -0.1421828418970108,
      -0.20397652685642242,
      -0.17319458723068237,
      -0.2583923935890198,
      -0.02795611321926117,
      0.17913207411766052,
      -0.08496144413948059,
      -0.2633555233478546,
      -0.14905717968940735,
      0.020291417837142944,
      -0.05472242832183838,
      0.1355729103088379,
      0.03383354842662811,
      -0.17930620908737183,
      2.5045583248138428,
      -0.9086449146270752,
      -0.17701783776283264,
      0.07837323099374771,
      0.11131078004837036,
      0.11181923002004623,
      -0.08074548840522766,
      0.1434391438961029,
      -1.5235328674316406,
      -0.04648400843143463,
      0.1977967470884323,
      1.8786855936050415,
      -0.8000233173370361,
      2.481762409210205,
      0.07062919437885284,
      0.039637256413698196,
      0.050832245498895645,
      -0.01428978331387043,
      1.6747180223464966,
      0.1921783834695816,
      -3.072801351547241,
      0.23123164474964142,
      -0.07835754007101059,
      -0.041177958250045776,
      -1.8261224031448364,
      -0.463861882686615,
      -0.22148829698562622,
      -16.727983474731445,
      0.05734718590974808,
      0.029519081115722656,
      0.030414411798119545,
      3.4034981727600098,
      -1.197786808013916,
      0.0036815619096159935,
      -0.005181466229259968,
      -0.010230295360088348,
      0.00011571895447559655,
      0.0968133732676506,
      0.02027583308517933,
      -0.982333242893219,
      -1.3148069381713867,
      -27.183984756469727,
      -0.5721254944801331,
      1.8403382301330566,
      0.056596193462610245,
      0.5193073749542236,
      0.4534156024456024,
      -1.319197416305542,
      0.2626428008079529,
      0.13855533301830292,
      -2.5467419624328613,
      0.05959430709481239,
      -0.0026412636507302523,
      -1.2524240016937256,
      4.2369465827941895,
      0.13082700967788696,
      0.09807582944631577,
      -0.0400552861392498,
      -0.41197001934051514,
      2.7410757541656494,
      -0.5528741478919983,
      -0.24550199508666992,
      0.06378263235092163,
      -0.029599584639072418,
      -0.473644495010376,
      0.17250874638557434,
      -0.08327776193618774,
      -0.9700270891189575,
      -2.047982692718506,
      -2.1614954471588135,
      0.4711819291114807,
      0.542241632938385,
      -3.2742559909820557,
      0.4767295718193054,
      -0.42053210735321045,
      -0.0949237123131752,
      -0.06363148242235184,
      -0.41871407628059387,
      2.2597782611846924,
      0.014345902018249035,
      0.9477857947349548,
      -0.19375117123126984,
      0.41345906257629395,
      0.04699825495481491,
      -0.5886189341545105,
      1.7390615940093994,
      -0.2232537716627121,
      1.4840788841247559,
      0.06268032640218735,
      -0.005458200816065073,
      -0.09818189591169357,
      -1.3612626791000366,
      0.3120132088661194,
      0.056301720440387726,
      -1.6445753574371338,
      -0.2966865003108978,
      -0.09763986617326736,
      -0.04913477972149849,
      -0.09465544670820236,
      -0.17265047132968903,
      -0.2209158092737198,
      -0.4153537452220917,
      -0.5096986889839172,
      -0.10166792571544647,
      -0.15172138810157776,
      1.029338002204895,
      -0.23998816311359406,
      -0.31242528557777405,
      0.026144923642277718,
      -0.20824457705020905,
      0.1057668998837471,
      -0.004133766517043114,
      0.004304936155676842,
      -0.035714954137802124,
      3.995795249938965,
      -0.9024644494056702,
      -1.4252218008041382,
      0.045324958860874176,
      -0.01460969541221857,
      -0.0028982367366552353,
      -0.011780601926147938,
      0.04525873437523842,
      0.03646854683756828,
      -0.11358550935983658,
      -0.12120868265628815,
      -0.10628069937229156,
      0.13655436038970947,
      -0.17574182152748108,
      0.02648332715034485,
      -0.015301734209060669,
      -0.25295376777648926,
      0.03861960768699646,
      0.22816571593284607,
      0.11402183771133423,
      -0.0744478851556778,
      -0.23319531977176666,
      -0.1892252415418625,
      -0.06415583193302155,
      0.9842126369476318,
      -0.1480209082365036,
      -1.0929033756256104,
      0.3737300932407379,
      0.256632000207901,
      -0.20917674899101257,
      -1.0820820331573486,
      0.29288238286972046,
      -0.5606021285057068,
      0.22881104052066803,
      -1.3215556144714355,
      0.6177088022232056,
      -0.23873814940452576,
      2.0077881813049316,
      -0.13844946026802063,
      -0.12203136831521988,
      0.08455131202936172,
      -2.8930017948150635,
      0.27481338381767273,
      -0.44342973828315735,
      -0.07008285820484161,
      0.3580330014228821,
      0.04154367744922638,
      -0.07611195743083954,
      1.401659369468689,
      0.002902788808569312,
      -0.12516112625598907,
      2.073169708251953,
      -0.1921938955783844,
      -0.09842006862163544,
      -0.015485674142837524,
      -0.0023229122161865234,
      -0.2434658706188202,
      -0.11067457497119904,
      0.1372993290424347,
      0.20834478735923767,
      -0.040971994400024414,
      0.1354987919330597,
      -0.24737772345542908,
      -0.06640593707561493,
      0.024743109941482544,
      -0.1831464171409607,
      0.005181092768907547,
      -0.18236006796360016,
      2.0199921131134033,
      0.11368124186992645,
      -0.001983719877898693,
      -0.34034234285354614,
      -0.8974910974502563,
      0.19423408806324005,
      -0.45559751987457275,
      2.9935412406921387,
      -0.4806992709636688,
      -0.21420268714427948,
      -0.3006686270236969,
      -0.6873083710670471,
      -0.1673315316438675,
      -0.09579408913850784,
      0.05537397786974907,
      -0.035903334617614746,
      -0.02453519031405449,
      0.00022688017634209245,
      -0.028044695034623146,
      -0.20887508988380432,
      0.14305192232131958,
      -0.14566130936145782,
      -0.08567041903734207,
      -0.01366386003792286,
      -0.02893746644258499,
      -2.434262275695801,
      1.5594360828399658,
      -0.1871136873960495,
      0.1889844387769699,
      -0.003284535137936473,
      -0.08214932680130005,
      0.05420006066560745,
      -0.8359091877937317,
      -4.046150207519531,
      0.30176031589508057,
      0.12141656875610352,
      -0.09159032255411148,
      0.07702034711837769,
      3.1121020317077637,
      -0.8665201663970947,
      0.04157666862010956,
      4.894732475280762,
      -0.10675229132175446,
      -0.6915885210037231,
      -0.7667352557182312,
      -0.5104079246520996,
      -0.7987363934516907,
      -0.10406381636857986,
      0.05245542153716087,
      0.007849947549402714,
      0.02059943974018097,
      -0.12245331704616547,
      -0.44306686520576477,
      -0.5850690603256226,
      -0.0213407464325428,
      -1.3325660228729248,
      -0.09683864563703537,
      -0.03025318868458271,
      -0.011571570299565792,
      -2.5668675899505615,
      0.6555247902870178,
      -0.20692674815654755,
      -0.03393508493900299,
      0.04426482692360878,
      -0.027227088809013367,
      0.019717657938599586,
      0.0011810854775831103,
      -0.020245537161827087,
      0.2277492880821228,
      -1.2259459495544434,
      -7.772626876831055,
      0.1052803248167038,
      0.014465756714344025,
      -0.0102321682497859,
      2.615222930908203,
      -1.1303883790969849,
      0.0871334969997406,
      -0.08019674569368362,
      0.08267174661159515,
      -0.04851597175002098,
      -0.011533036828041077,
      0.04825591668486595,
      0.2558652460575104,
      -0.12476703524589539,
      -0.1675710380077362,
      0.1877405047416687,
      -0.19481807947158813,
      -0.09111207723617554,
      0.0994940921664238,
      0.20283019542694092,
      0.18803973495960236,
      -0.12738104164600372,
      -0.0072907693684101105,
      -0.18502402305603027,
      -0.07947499305009842,
      -0.08398736268281937,
      -0.05186605826020241,
      0.0325373113155365,
      -0.06312314420938492,
      -0.0556953065097332,
      0.15431369841098785,
      -0.054583825170993805,
      -1.0345896482467651,
      -0.8247127532958984,
      0.21198183298110962,
      0.0009651921573095024,
      1.8478466272354126,
      -0.42496198415756226,
      -1.7943826913833618,
      1.4301321506500244,
      -0.296983540058136,
      0.17861691117286682,
      0.05900462716817856,
      -0.6446982026100159,
      -0.008565488271415234,
      2.0000698566436768,
      0.048582226037979126,
      0.2050677388906479,
      0.1859687715768814,
      -0.03770557790994644,
      0.13438023626804352,
      -2.001621723175049,
      0.1569744199514389,
      -1.2593830823898315,
      -0.7817025780677795,
      2.8047683238983154,
      0.05225434526801109,
      -0.18367302417755127,
      1.7304673194885254,
      0.16766348481178284,
      0.0017563558649271727,
      1.1871877908706665,
      0.3476736545562744,
      0.10230157524347305,
      -2.8020846843719482,
      0.15835405886173248,
      0.01088009588420391,
      -2.071596145629883,
      -1.1594915390014648,
      -0.38158777356147766,
      -0.24682117998600006,
      0.0295974500477314,
      0.5983502864837646,
      -0.56492680311203,
      -0.02012362703680992,
      -26.870874404907227,
      0.16246549785137177,
      0.41677066683769226,
      -0.017664873972535133,
      1.784158706665039,
      -0.17694789171218872,
      0.27816686034202576,
      0.02085903286933899,
      -0.1606338918209076,
      -0.2048008143901825,
      0.17893999814987183,
      -0.18949174880981445,
      0.08207529783248901,
      -0.24959613382816315,
      0.13100290298461914,
      -0.08996184170246124,
      -0.21095877885818481,
      0.11658430099487305,
      0.1583334505558014,
      -0.16204196214675903,
      -0.11047597229480743,
      -5.72014856338501,
      0.3017214834690094,
      0.10690370947122574,
      -0.8839677572250366,
      -0.15327943861484528,
      -0.07679454982280731,
      2.536189079284668,
      0.420545756816864,
      0.20427440106868744,
      -0.1932930201292038,
      0.06094321608543396,
      1.057416558265686,
      -0.06843947619199753,
      -1.2701209783554077,
      -0.21047064661979675,
      -0.2254047691822052,
      -0.35310474038124084,
      -0.018126873299479485,
      0.012237227521836758,
      0.9518868923187256,
      0.18734057247638702,
      -0.43400925397872925,
      2.1161298751831055,
      2.9290151596069336,
      -1.2317326068878174,
      -1.0484473705291748,
      -0.22560542821884155,
      -1.620954155921936,
      -0.001841902732849121,
      0.1649802029132843,
      -0.16202130913734436,
      0.0711701512336731,
      0.07151985168457031,
      -0.12869295477867126,
      0.1220143735408783,
      0.22760963439941406,
      0.10359159111976624,
      -0.10163901746273041,
      0.003363281488418579,
      -0.20528005063533783,
      -0.13707369565963745,
      -0.08986906707286835,
      -0.17816570401191711,
      -0.12023378163576126,
      0.019421840086579323,
      -0.18915288150310516,
      0.07207373529672623,
      0.05115535855293274,
      0.06219653785228729,
      -0.16011729836463928,
      0.005882084369659424,
      0.011052817106246948,
      -0.07962764799594879,
      -0.29805395007133484,
      0.16453340649604797,
      -0.19414609670639038,
      0.11583295464515686,
      -0.23296768963336945,
      2.2185521125793457,
      0.16489319503307343,
      0.5049921274185181,
      0.9775875806808472,
      -0.5535591840744019,
      -0.09369578212499619,
      0.1624344289302826,
      0.2707318365573883,
      -2.892181873321533,
      0.29464107751846313,
      0.6788312792778015,
      -0.798722505569458,
      -2.197005271911621,
      -1.2206989526748657,
      -0.01194059383124113,
      1.1923426389694214,
      0.0042568389326334,
      -0.3907383978366852,
      1.2097798585891724,
      -1.9518232345581055,
      -0.8696611523628235,
      0.06417256593704224,
      -0.03319697827100754,
      -0.8321964144706726,
      0.3971348702907562,
      0.9262504577636719,
      0.07572206854820251,
      -0.25023096799850464,
      -0.12007595598697662,
      -0.2232217639684677,
      0.10176810622215271,
      0.10560676455497742,
      -0.18972322344779968,
      0.016701489686965942,
      0.024205684661865234,
      0.045822709798812866,
      0.20292928814888,
      -0.2539140582084656,
      0.19312795996665955,
      -0.15125131607055664,
      3.4864461421966553,
      -0.38268154859542847,
      -0.6678490042686462,
      -0.41393476724624634,
      0.2420499324798584,
      -0.1362183690071106,
      -1.697274923324585,
      -0.03543456643819809,
      -1.6295918226242065,
      0.1740674525499344,
      0.057699475437402725,
      -0.46051186323165894,
      1.9969862699508667,
      -0.0309506393969059
    ],
    [
      -0.20153655111789703,
      -2.9850449562072754,
      -0.4839053750038147,
      -1.1062368154525757,
      -0.07316667586565018,
      -0.6852611303329468,
      0.6392034292221069,
      -0.9300124049186707,
      -0.638460099697113,
      -0.5193794369697571,
      -0.7052718997001648,
      -0.14467039704322815,
      -0.02742619626224041,
      0.32852399349212646,
      -0.44328758120536804,
      3.0846290588378906,
      -1.4979426860809326,
      -1.2835646867752075,
      0.3496095836162567,
      -30.190319061279297,
      0.5650998950004578,
      0.716498076915741,
      0.06733322143554688,
      1.8209398984909058,
      -0.003796535776928067,
      -0.5518348217010498,
      0.09625037759542465,
      0.0350552499294281,
      -7.6907830238342285,
      0.9214401245117188,
      -0.04026654362678528,
      -0.2631567418575287,
      0.47654178738594055,
      1.3616710901260376,
      -0.061259035021066666,
      0.5821149349212646,
      -0.471055269241333,
      0.3158841133117676,
      -1.246177077293396,
      3.5803043842315674,
      -0.03389562666416168,
      -0.506533682346344,
      0.04271832853555679,
      0.06714916229248047,
      -1.005434274673462,
      -1.490305781364441,
      -0.3871378004550934,
      -4.4039201736450195,
      0.33048155903816223,
      1.2777765989303589,
      -0.06166131794452667,
      -1.3946130275726318,
      0.380281537771225,
      -1.012230396270752,
      1.2648075819015503,
      0.0451592355966568,
      2.664557456970215,
      0.5071794986724854,
      0.060328543186187744,
      -0.04059721156954765,
      0.09026078879833221,
      0.08876142650842667,
      0.09445241093635559,
      -0.9657391309738159,
      -0.11350929737091064,
      -0.5732253193855286,
      -0.2612282335758209,
      -0.9837430715560913,
      -0.06918757408857346,
      2.3596577644348145,
      0.38335996866226196,
      0.7686968445777893,
      0.9339076280593872,
      -0.12602874636650085,
      -1.6567051410675049,
      1.5651301145553589,
      -0.021558595821261406,
      -0.9653059244155884,
      0.6651782393455505,
      -2.5248916149139404,
      11.952470779418945,
      0.30084890127182007,
      0.20854976773262024,
      0.14046929776668549,
      -0.19288010895252228,
      -0.8603639006614685,
      -0.14390771090984344,
      0.5449346303939819,
      0.06286947429180145,
      -0.6509985327720642,
      -0.3670579493045807,
      0.04989456757903099,
      -1.3607995510101318,
      1.0373026132583618,
      0.0729752629995346,
      0.40544193983078003,
      -0.7981505393981934,
      -4.693428993225098,
      -0.8291124105453491,
      0.6623977422714233,
      1.6551892757415771,
      -0.5773652791976929,
      0.9168925881385803,
      -2.765038013458252,
      -0.008934840559959412,
      1.6187732219696045,
      -0.14889292418956757,
      0.11338695883750916,
      0.020088085904717445,
      3.859851598739624,
      0.9104511737823486,
      -1.3884466886520386,
      -0.21925467252731323,
      0.32131290435791016,
      -0.06802444159984589,
      0.17460401356220245,
      0.2842633128166199,
      0.3701539933681488,
      -1.0223981142044067,
      0.06802800297737122,
      0.06739073991775513,
      0.44773176312446594,
      0.1192716658115387,
      -0.07948262989521027,
      -1.3299119472503662,
      0.3477979600429535,
      -0.11124947667121887,
      -1.3344086408615112,
      -0.14953678846359253,
      -0.029000258073210716,
      -0.05923174321651459,
      -0.13010765612125397,
      -0.1736132949590683,
      -0.041580963879823685,
      -0.044154372066259384,
      -0.11413820087909698,
      -0.05665605515241623,
      -0.1700592190027237,
      -0.09679436683654785,
      -0.12656502425670624,
      0.07030509412288666,
      -0.013966171070933342,
      -0.09836886078119278,
      -0.0588601715862751,
      0.014477953314781189,
      -0.0637284517288208,
      -0.19812026619911194,
      0.06398101896047592,
      0.027120616286993027,
      -0.03143908083438873,
      0.07456530630588531,
      0.04924049973487854,
      -0.061503976583480835,
      -0.060438863933086395,
      0.06327954679727554,
      -0.0764123722910881,
      0.017766522243618965,
      -0.15205450356006622,
      0.054743364453315735,
      0.012583049014210701,
      -0.14457638561725616,
      0.002321676118299365,
      -0.02826826646924019,
      -0.01959189958870411,
      -0.00926944613456726,
      -0.10307818651199341,
      -0.0725148618221283,
      0.021118540316820145,
      0.05483357608318329,
      -0.08938047289848328,
      -0.09078489989042282,
      0.01103334128856659,
      -0.07554671913385391,
      -0.16154256463050842,
      -0.09280692785978317,
      0.11968918144702911,
      0.036415945738554,
      0.05452447757124901,
      0.06303130090236664,
      -0.0004284138267394155,
      -0.12389335036277771,
      0.03227870538830757,
      -0.08518251776695251,
      -0.09047415852546692,
      -0.04775657132267952,
      -0.10780992358922958,
      -0.11512134969234467,
      0.08855006098747253,
      -0.04796123877167702,
      -0.03470081463456154,
      -0.07637530565261841,
      -0.10604267567396164,
      0.34319695830345154,
      -21.386436462402344,
      0.4962970018386841,
      -0.1595999300479889,
      0.42840173840522766,
      -1.567455530166626,
      0.26630598306655884,
      0.23526832461357117,
      0.32709699869155884,
      -0.1200672835111618,
      0.8565356135368347,
      0.0049401335418224335,
      0.011302760802209377,
      0.5650187730789185,
      0.3427433967590332,
      -0.7927348613739014,
      -8.096633911132812,
      -0.4809064567089081,
      -0.1677905172109604,
      0.1540934145450592,
      -0.5398737788200378,
      -0.0939767062664032,
      0.011196523904800415,
      0.9286144971847534,
      -0.06653366982936859,
      0.09287630021572113,
      1.5971605777740479,
      0.9762216210365295,
      0.7807985544204712,
      0.5070061683654785,
      0.035164326429367065,
      -0.8989614844322205,
      -1.0773922204971313,
      -2.988825559616089,
      0.2349320948123932,
      0.27416113018989563,
      -0.084366075694561,
      0.5196128487586975,
      -2.864614963531494,
      2.2208449840545654,
      -0.05982227623462677,
      -0.2982739508152008,
      -0.47206929326057434,
      -0.09496752917766571,
      0.05515131726861,
      -4.724380016326904,
      0.10671138018369675,
      5.91188383102417,
      0.04852309077978134,
      0.3380269408226013,
      -0.057607948780059814,
      0.3317070007324219,
      0.9318304657936096,
      -0.2295263111591339,
      0.12312045693397522,
      -0.10274083912372589,
      -0.4848526418209076,
      -0.6739251017570496,
      0.0038382261991500854,
      -0.02609601430594921,
      0.1306709200143814,
      -1.2373874187469482,
      0.1082148551940918,
      -0.644199550151825,
      0.08671607077121735,
      -0.009405210614204407,
      -0.08067497611045837,
      -0.12496563047170639,
      -0.00800180435180664,
      0.09010355919599533,
      0.11993809044361115,
      -0.10138608515262604,
      -0.07644785940647125,
      -0.004857615567743778,
      -0.006826123222708702,
      0.08602744340896606,
      -0.0014456212520599365,
      0.007867837324738503,
      -0.0739094614982605,
      -0.10875113308429718,
      0.002543628215789795,
      0.010457085445523262,
      0.01301606371998787,
      0.03136938437819481,
      -0.11567211896181107,
      -0.08650818467140198,
      -0.006027162075042725,
      0.06053350865840912,
      -0.003595873713493347,
      -0.12409427762031555,
      -0.09257301688194275,
      -0.10608965158462524,
      -0.056319594383239746,
      -0.08152732253074646,
      -0.10521553456783295,
      0.11122329533100128,
      -0.09442120790481567,
      0.01645679771900177,
      0.08535373210906982,
      -0.03272588551044464,
      -0.07368656247854233,
      -0.04752236604690552,
      0.012591272592544556,
      -0.0685768723487854,
      0.08300213515758514,
      -0.0850488692522049,
      -0.11491990834474564,
      0.09115219116210938,
      -0.024937063455581665,
      0.05027550458908081,
      0.019948674365878105,
      0.10305419564247131,
      -0.12371303141117096,
      0.11153179407119751,
      -0.10609187185764313,
      -0.09550563246011734,
      0.0038565844297409058,
      -0.09569281339645386,
      -0.09171517193317413,
      -0.08406215906143188,
      0.004977121949195862,
      -0.10148964822292328,
      -0.00746212899684906,
      -0.07697823643684387,
      0.025589510798454285,
      -0.00867055356502533,
      -0.08549293875694275,
      0.026124585419893265,
      0.16683998703956604,
      4.009713172912598,
      0.5671911835670471,
      -0.5414428114891052,
      0.08536450564861298,
      1.0014406442642212,
      -0.04368648678064346,
      -1.0730825662612915,
      -0.3774418234825134,
      1.1038289070129395,
      0.8049700856208801,
      0.7446526288986206,
      -0.056773338466882706,
      -0.07742951810359955,
      -0.9700117111206055,
      0.330831378698349,
      6.094679832458496,
      -0.12277191132307053,
      -0.7111100554466248,
      0.9390829205513,
      0.2810717523097992,
      -0.3857261538505554,
      0.08404490351676941,
      4.1465888023376465,
      0.11180676519870758,
      0.13227714598178864,
      0.6636813282966614,
      -0.08973914384841919,
      0.11768977344036102,
      -0.6644699573516846,
      0.04131411015987396,
      -0.19287492334842682,
      -0.3245658874511719,
      -1.3466408252716064,
      0.6750375628471375,
      -1.1336332559585571,
      0.005989070050418377,
      -0.6160489320755005,
      1.663527488708496,
      -2.387979030609131,
      -0.050095900893211365,
      0.4880225360393524,
      -0.015166978351771832,
      0.08250287175178528,
      0.738783061504364,
      1.7030978202819824,
      -0.934162974357605,
      -14.821854591369629,
      0.5792763233184814,
      -6.2219109535217285,
      -0.08467774838209152,
      0.5092179775238037,
      0.5476459264755249,
      0.04249494522809982,
      -0.03537966310977936,
      0.058795005083084106,
      0.03032340481877327,
      1.1341296434402466,
      -0.023301884531974792,
      0.09935716539621353,
      0.7359912991523743,
      -0.7471983432769775,
      -0.004182144999504089,
      -0.7404923439025879,
      -0.02349047176539898,
      -0.08116359263658524,
      -0.048903897404670715,
      0.008501173928380013,
      -0.10449765622615814,
      0.05037112161517143,
      -0.08454055339097977,
      -0.13029882311820984,
      0.002129900734871626,
      0.010054712183773518,
      0.07023437321186066,
      -0.01636926271021366,
      -0.1111801266670227,
      -0.13148503005504608,
      -0.06171292066574097,
      0.06779535114765167,
      0.01756695657968521,
      0.025250611826777458,
      0.0845736414194107,
      0.0046196989715099335,
      -0.1766410917043686,
      -0.056054215878248215,
      0.03315362334251404,
      0.06196817010641098,
      0.08530093729496002,
      0.022159216925501823,
      -0.014991749078035355,
      -0.1305457055568695,
      -0.11261233687400818,
      -0.05373934656381607,
      -0.09337079524993896,
      -0.1663855016231537,
      0.003315994516015053,
      -0.13302218914031982,
      -0.11802367866039276,
      0.02192876860499382,
      -0.04469454288482666,
      -0.11329802870750427,
      0.010496019385755062,
      -0.043778806924819946,
      0.08627192676067352,
      -0.028264231979846954,
      0.008114887401461601,
      0.010624125599861145,
      -0.08899268507957458,
      0.05512376129627228,
      -0.06449149549007416,
      -0.02354925125837326,
      0.0529525987803936,
      -0.03387477248907089,
      0.005471333861351013,
      -0.08533336967229843,
      -0.10229118913412094,
      -0.07741939276456833,
      -0.1255030333995819,
      0.07075740396976471,
      -0.0534023717045784,
      -0.074462890625,
      0.0789412409067154,
      -0.08462853729724884,
      -0.11710139364004135,
      -0.1056189015507698,
      -0.0020965784788131714,
      -0.1423404961824417,
      -0.6533228158950806,
      4.213213920593262,
      0.5997356176376343,
      -0.11078530550003052,
      -0.6104848980903625,
      2.958043336868286,
      -0.48967865109443665,
      0.6268925070762634,
      -0.03812360391020775,
      -0.1428215056657791,
      0.18458940088748932,
      -2.846841335296631,
      0.06665332615375519,
      0.16101381182670593,
      -0.1735740303993225,
      -0.6175981760025024,
      6.071994304656982,
      0.15182481706142426,
      0.8495799899101257,
      1.2529770135879517,
      0.24337896704673767,
      0.021746480837464333,
      -0.11176545917987823,
      1.1390553712844849,
      -0.008132325485348701,
      -0.5773707032203674,
      -1.4206047058105469,
      1.247842788696289,
      0.30637791752815247,
      -0.7911818027496338,
      -0.03117641806602478,
      0.7157033085823059,
      -0.5097438097000122,
      -0.44249066710472107,
      0.2698679566383362,
      -0.38377630710601807,
      1.3689415454864502,
      0.18928390741348267,
      1.6334764957427979,
      -0.9628676772117615,
      -0.0457078218460083,
      -0.036855246871709824,
      0.9790291786193848,
      0.11810082197189331,
      0.15608710050582886,
      -0.34141090512275696,
      0.11891176551580429,
      -3.0619587898254395,
      1.1120001077651978,
      0.5656252503395081,
      -0.1134195551276207,
      0.9677135348320007,
      -0.7207202315330505,
      3.7954726219177246,
      0.4322052299976349,
      0.0033441781997680664,
      -1.1184295415878296,
      -0.25988197326660156,
      0.0034507066011428833,
      0.04302554205060005,
      -1.282741904258728,
      0.17991144955158234,
      0.11768287420272827,
      -1.214948296546936,
      0.0607435442507267,
      -1.1894488334655762,
      0.09433102607727051,
      -0.3771228790283203,
      -0.19558192789554596,
      1.300618052482605,
      -1.39886474609375,
      -0.5216161608695984,
      1.2253644466400146,
      0.16321198642253876,
      -0.4391613304615021,
      -1.9841110706329346,
      -0.057230010628700256,
      0.5061305165290833,
      -1.119627594947815,
      -18.73258399963379,
      -0.8992123603820801,
      0.8119403719902039,
      0.06458718329668045,
      0.3182433247566223,
      -0.4633938670158386,
      -0.20837871730327606,
      -0.007329004351049662,
      -2.9958934783935547,
      0.03024701587855816,
      0.5381561517715454,
      -0.18243972957134247,
      -0.2694410979747772,
      0.29436665773391724,
      -0.04866547882556915,
      -0.11006338894367218,
      -0.16268479824066162,
      0.3811364769935608,
      -23.27124786376953,
      -0.8925571441650391,
      0.127341166138649,
      0.11081403493881226,
      -0.26000839471817017,
      1.6085312366485596,
      -3.2383923530578613,
      0.053752362728118896,
      0.6017817258834839,
      0.7986589074134827,
      -0.04232928156852722,
      0.205989807844162,
      0.4398912489414215,
      0.3400137424468994,
      -8.55944538116455,
      -1.556463599205017,
      0.5825909376144409,
      0.05868098884820938,
      -0.16750504076480865,
      -0.525891900062561,
      1.441023826599121,
      0.42824992537498474,
      -0.05273421108722687,
      -0.06387441605329514,
      -0.2815046012401581,
      -0.10164053738117218,
      0.02097366563975811,
      -0.6248293519020081,
      0.8664799928665161,
      0.016074970364570618,
      0.6224527359008789,
      -0.4080551862716675,
      -1.4735463857650757,
      0.23772206902503967,
      0.08460812270641327,
      -0.6003350019454956,
      0.9850989580154419,
      0.036734241992235184,
      -0.9554262757301331,
      2.5382144451141357,
      0.35192325711250305,
      -0.32353514432907104,
      2.199664354324341,
      -0.03152994066476822,
      0.4762398898601532,
      -0.4259738624095917,
      -6.797752857208252,
      1.7579094171524048,
      -0.22183135151863098,
      0.4175887107849121,
      3.219193935394287,
      -0.8191947937011719,
      0.10183050483465195,
      -0.12780176103115082,
      2.2623322010040283,
      -0.026476114988327026,
      0.861575722694397,
      0.14696796238422394,
      -2.9165186882019043,
      1.2070420980453491,
      -0.3974135220050812,
      0.10469275712966919,
      0.22489526867866516,
      -0.30534598231315613,
      0.07307928800582886,
      -0.6931885480880737,
      -2.345148801803589,
      0.5354534983634949,
      0.6362196803092957,
      1.6822590827941895,
      -5.510515213012695,
      -0.03185822069644928,
      0.2059611827135086,
      1.0615869760513306,
      -0.010762661695480347,
      1.0727444887161255,
      -40.956851959228516,
      -0.14162875711917877,
      7.984429359436035,
      -0.9268094301223755,
      -1.15220046043396,
      -0.0031119573395699263,
      -1.3006035089492798,
      -1.1268091201782227,
      0.6821877956390381,
      0.2265453189611435,
      -0.10360658168792725,
      -1.7858816385269165,
      -0.33235228061676025,
      0.06773006916046143,
      -0.007594183553010225,
      0.15840570628643036,
      1.1246167421340942,
      -0.03911486268043518,
      -1.04147469997406,
      0.4119650721549988,
      -3.177396774291992,
      -0.6426925659179688,
      -3.7610630989074707,
      2.337056875228882,
      0.1583583801984787,
      -0.21579669415950775,
      -0.3464958071708679,
      -0.36702606081962585,
      0.40670785307884216,
      -1.7034380435943604,
      0.2513992190361023,
      0.06996098905801773,
      0.2110147625207901,
      2.7853939533233643,
      3.3932881355285645,
      -3.620723247528076,
      -0.41367417573928833,
      -0.15967217087745667,
      -1.469477891921997,
      1.0918605327606201,
      -0.2055860459804535,
      0.034715451300144196,
      -1.1296892166137695,
      -0.10343482345342636,
      -1.4286831617355347,
      -6.59910774230957,
      0.824890673160553,
      -2.4133622646331787,
      0.018788481131196022,
      -0.06422138214111328,
      0.8962985873222351,
      0.07536375522613525,
      -0.7510707378387451,
      -4.056288719177246,
      -0.19378463923931122,
      2.8467423915863037,
      -0.2616266906261444,
      1.4701120853424072,
      0.10597459971904755,
      -0.03766848146915436,
      0.5196939706802368,
      -2.2333507537841797,
      -0.09062521159648895,
      0.5611829161643982,
      0.30796775221824646,
      -0.6577122211456299,
      15.343320846557617,
      -0.47937729954719543,
      -1.2539796829223633,
      0.046432431787252426,
      0.5822141170501709,
      0.4646896421909332,
      3.8585009574890137,
      0.900850236415863,
      0.01043805480003357,
      0.1936730295419693,
      0.9101938605308533,
      -0.06329767405986786,
      0.007613342255353928,
      -3.743364095687866,
      0.13421779870986938,
      -0.07298584282398224,
      -0.025291848927736282,
      1.1838469505310059,
      2.126695156097412,
      -0.7628779411315918,
      -0.2615305781364441,
      1.890211582183838,
      -0.024359147995710373,
      -1.0208779573440552,
      1.033785343170166,
      0.6529346108436584,
      0.1887570321559906,
      -0.8175574541091919,
      2.714634656906128,
      0.1013980507850647,
      0.23505692183971405,
      -0.05890747904777527,
      -0.5065378546714783,
      5.311755180358887,
      0.15624786913394928,
      0.8335521221160889,
      1.5965896844863892,
      0.8907787203788757,
      -0.984112024307251,
      -0.10847527533769608,
      -1.4291064739227295,
      -0.07853546738624573,
      0.23320309817790985,
      0.5044255256652832,
      1.2248164415359497,
      0.2702215015888214,
      -0.09632918238639832,
      -0.06857781112194061,
      -0.08321099728345871,
      -1.3442806005477905,
      -1.0193216800689697,
      -0.16484130918979645,
      0.5588862299919128,
      0.31992971897125244,
      0.6051803827285767,
      1.6521387100219727,
      0.7411892414093018,
      -0.0582273006439209,
      0.4356776475906372,
      0.23306137323379517,
      0.10247114300727844,
      -0.5511530637741089,
      -0.22645682096481323,
      -0.462048202753067,
      -11.193891525268555,
      0.7075939774513245,
      0.09665319323539734,
      0.08315598219633102,
      -0.46187254786491394,
      0.6068336963653564,
      -0.12218812853097916,
      0.5454184412956238,
      0.0723046213388443,
      -0.04936136677861214,
      -0.9523662328720093,
      -0.02940613031387329,
      -0.11600033938884735,
      -0.5108501315116882,
      -0.41172945499420166,
      -0.05084697902202606,
      -2.2629990577697754,
      -0.01749417372047901,
      0.5672821998596191,
      -0.5377635955810547,
      -0.435990571975708,
      0.02935660630464554,
      -2.141603708267212,
      -0.317461222410202,
      -0.11003366112709045,
      -0.8462473154067993,
      1.7880027294158936,
      0.3318725526332855,
      3.4452743530273438,
      0.039441123604774475,
      0.15853853523731232,
      -1.4730910062789917,
      -1.8389803171157837,
      -1.716795563697815,
      -0.8212600946426392,
      -0.09531042724847794,
      -4.751630783081055,
      1.051469087600708,
      0.17128722369670868,
      -0.05081723630428314,
      -1.9008069038391113,
      -0.0595073476433754,
      0.14414995908737183,
      -0.42844948172569275,
      0.048609983175992966,
      -0.7317686676979065,
      -0.09904548525810242,
      -0.12299980223178864,
      -0.18567012250423431,
      -0.15557843446731567,
      -0.3719376027584076,
      0.5811954140663147,
      -0.34215936064720154,
      0.18382900953292847,
      -0.11269218474626541,
      1.6979414224624634,
      -3.5243632793426514,
      -0.027105197310447693,
      0.19344529509544373,
      -0.3559698164463043,
      0.11414311826229095,
      -0.3221949636936188,
      0.3851914703845978,
      -0.3427684009075165,
      1.523167610168457,
      1.4121702909469604,
      -21.838970184326172,
      0.11268265545368195,
      -0.25724366307258606,
      0.469616562128067,
      0.6166805028915405,
      -0.09904629737138748,
      0.036842867732048035,
      -0.6160112619400024,
      0.2791904807090759,
      -0.012514665722846985,
      0.036081284284591675,
      -0.8555513024330139,
      -2.051046848297119,
      -0.1012028157711029,
      -1.4059240818023682,
      0.08413011580705643,
      -27.529640197753906,
      0.7398384213447571,
      -0.9663286805152893,
      -0.13011868298053741,
      1.2190086841583252,
      -6.415074348449707,
      0.32138001918792725,
      -0.4478042721748352,
      -0.11808337271213531,
      1.578980565071106,
      -0.6492581963539124,
      0.05681418627500534,
      0.9442790746688843,
      -1.9562108516693115,
      -0.9646987318992615,
      -10.013094902038574,
      -2.0220260620117188,
      2.2311787605285645,
      0.3934105336666107,
      -1.6061997413635254,
      0.7170261144638062,
      0.024491941556334496,
      -1.9314165115356445,
      0.08811073750257492,
      -0.4313890039920807,
      -0.293523371219635,
      3.7927398681640625,
      -3.0595510005950928,
      0.648193895816803,
      0.09500676393508911,
      -1.3358076810836792,
      0.24946139752864838,
      0.7244487404823303,
      1.2684375047683716,
      -0.7886776924133301,
      -1.795629620552063,
      -0.8328500986099243,
      -1.9097161293029785,
      -0.5436432361602783,
      0.08162073791027069,
      -1.8016499280929565,
      -2.36946439743042,
      0.007443428039550781,
      1.1008784770965576,
      -6.181724548339844,
      1.5531060695648193,
      -4.010711669921875,
      0.05759091302752495,
      2.475362539291382,
      -0.0050373077392578125,
      0.5363657474517822,
      2.527071952819824,
      0.5750151872634888,
      -0.6155381202697754,
      -0.11914019286632538,
      1.1643943786621094,
      1.0662137269973755,
      0.0654103010892868,
      -0.03929910436272621,
      0.6561940908432007,
      0.15183983743190765,
      -0.09543468058109283,
      -0.3912448287010193,
      -0.4384528696537018,
      -27.949962615966797,
      0.5302152633666992,
      0.25180041790008545,
      0.30459967255592346,
      -0.8292211890220642,
      -0.06609707325696945,
      -0.12640731036663055,
      -3.388263463973999,
      0.2288615107536316,
      -0.34172502160072327,
      0.01554159726947546,
      -0.06321484595537186,
      0.3572860658168793,
      -0.43906641006469727,
      0.47214895486831665,
      -6.893280982971191,
      -0.4936214089393616,
      0.1693609356880188,
      -0.34862425923347473,
      -0.48819684982299805,
      1.0148710012435913,
      0.020681999623775482,
      0.11259731650352478,
      -0.07092396914958954,
      -0.026088662445545197,
      -0.30949315428733826,
      0.20711259543895721,
      0.4308168292045593,
      -0.14000795781612396,
      0.08651505410671234,
      -0.20682384073734283,
      1.0333374738693237,
      0.040112681686878204,
      0.47567057609558105,
      0.05609589442610741,
      0.4852873384952545,
      -0.08241285383701324,
      -2.7767345905303955,
      -1.3250130414962769,
      -0.008498430252075195,
      0.3277221620082855,
      -0.35131552815437317,
      0.0631103515625,
      0.9808744788169861,
      -35.93634796142578,
      -0.6152997016906738,
      5.066152572631836,
      0.07144402712583542,
      0.8194006085395813,
      -0.025933191180229187,
      -0.049667928367853165,
      -0.4361269772052765,
      -0.22869619727134705,
      0.08113126456737518,
      0.10072523355484009,
      -0.3437096178531647,
      3.438563346862793,
      -0.08048893511295319,
      0.007361195515841246,
      -0.35681310296058655,
      0.1278502643108368,
      -0.01619763672351837,
      -0.3615981638431549,
      -1.4925941228866577,
      5.6603007316589355,
      -0.484516978263855,
      -1.235542893409729,
      0.9321819543838501,
      3.9685142040252686,
      0.6637835502624512,
      -0.17692461609840393,
      -1.4288796186447144,
      -0.780049204826355,
      0.09299606829881668,
      4.961854457855225,
      -0.07649658620357513,
      0.7503347992897034,
      -3.3425912857055664,
      -1.718711256980896,
      6.40887975692749,
      0.4623653292655945,
      -1.0975854396820068,
      0.8733224272727966,
      0.4319128394126892,
      2.8537259101867676,
      -0.12209589034318924,
      -0.1876911073923111,
      -0.11402004957199097,
      -2.9870800971984863,
      -0.7746474742889404,
      0.582269549369812,
      2.6660115718841553,
      0.34529709815979004,
      -0.01695026457309723,
      0.5013170838356018,
      0.2754100561141968,
      -0.89816814661026,
      1.177329659461975,
      -0.5136448740959167,
      -0.36704927682876587,
      0.01596090756356716,
      1.5740638971328735,
      0.823660135269165,
      0.0020394176244735718,
      0.5886430740356445,
      0.40423133969306946,
      0.06650732457637787,
      -1.3395757675170898,
      0.687297523021698,
      -0.5443852543830872,
      5.342455863952637,
      -2.9999234676361084,
      2.968188524246216,
      0.11788087338209152,
      0.6538825631141663,
      0.6327041387557983,
      0.29716405272483826,
      1.4484690427780151,
      0.10460616648197174,
      0.81907057762146,
      0.5434896349906921,
      0.053121671080589294,
      -0.11652228981256485,
      0.2343735694885254,
      -1.1561737060546875,
      0.11052502691745758,
      2.1560587882995605,
      -1.3059622049331665,
      -2.076761484146118,
      -0.3838874101638794,
      0.07156100869178772,
      0.0331633985042572,
      -27.940067291259766,
      0.25085315108299255,
      -0.7353124022483826,
      -0.06596492230892181,
      -0.09670316427946091,
      -0.9093983173370361,
      1.1749602556228638,
      0.031215671449899673,
      -0.7047073245048523,
      -0.7276320457458496,
      0.24531961977481842,
      -0.40947848558425903,
      -0.673244833946228,
      0.08392588794231415,
      -11.466495513916016,
      0.006961347069591284,
      -6.576054573059082,
      -0.0769556537270546,
      3.4093527793884277,
      -0.05364931747317314,
      -0.523552417755127,
      -0.5063525438308716,
      -1.3819024562835693,
      -5.407459259033203,
      1.2655118703842163,
      0.004655063152313232,
      -0.3698614239692688,
      0.01980803720653057,
      1.705154299736023,
      0.10971799492835999,
      -0.43354204297065735,
      0.05325661972165108,
      0.045953456312417984,
      -1.526685357093811,
      2.98771595954895,
      0.021312490105628967,
      -0.3334459960460663,
      0.17438843846321106,
      -0.05920751392841339,
      -2.5602965354919434,
      -1.6106722354888916,
      3.264991521835327,
      -17.099905014038086,
      0.8685159087181091,
      0.685513973236084,
      -0.09168537706136703,
      -0.7667245268821716,
      0.11010423302650452,
      -0.2606831192970276,
      -0.829704999923706,
      -0.09268806874752045,
      0.08172757923603058,
      1.992598533630371,
      -0.07775716483592987,
      -0.09585302323102951,
      0.23521849513053894,
      0.5171003937721252,
      -0.00023114681243896484,
      -2.310352087020874,
      0.4184253513813019,
      -0.6747843027114868,
      0.13324330747127533,
      -0.03218458592891693,
      -1.3492491245269775,
      -0.6928992867469788,
      -0.2820034921169281,
      0.727896511554718,
      -1.7634674310684204,
      0.301997572183609,
      1.9419491291046143,
      -0.6245377659797668,
      0.10536371916532516,
      0.5482687950134277,
      -0.4608272314071655,
      -5.034872055053711,
      4.576661586761475,
      -0.8556728363037109,
      0.23693503439426422,
      -1.4186697006225586,
      -0.10356827825307846,
      -0.6387125849723816,
      -0.10561753809452057,
      -2.439262866973877,
      0.10657167434692383,
      0.5475327968597412,
      0.18103349208831787,
      -0.35861092805862427,
      -0.5052585005760193,
      -0.17210231721401215,
      0.053902387619018555,
      0.26520562171936035,
      -0.3583291172981262,
      0.13958227634429932,
      -0.7979572415351868,
      0.03059294819831848,
      0.2971256971359253,
      -1.8930816650390625,
      0.699629545211792,
      -5.5056867599487305,
      0.021050602197647095,
      0.2863653302192688,
      0.006497246213257313,
      0.04065738618373871,
      -0.400215208530426,
      0.6294439435005188,
      -0.23936043679714203,
      11.157947540283203,
      0.0402783527970314,
      0.5227157473564148,
      -0.061206117272377014,
      0.8833866119384766,
      0.9166439175605774,
      -0.14950966835021973,
      0.12655484676361084,
      -0.08742016553878784,
      0.7062547206878662,
      0.46726056933403015,
      -0.01924070715904236,
      -0.034389518201351166,
      -0.9641806483268738,
      -0.5683930516242981,
      -0.06663855910301208,
      -0.3031494915485382,
      -1.0095983743667603,
      1.6755603551864624,
      0.9442400932312012,
      -4.959717273712158,
      4.406693935394287,
      0.8071346879005432,
      -10.613533973693848,
      0.5656262040138245,
      1.3504955768585205,
      -6.100212574005127,
      0.9152367115020752,
      0.07928314059972763,
      0.08315593004226685,
      0.7949647903442383,
      -1.1484721899032593,
      -5.860225200653076,
      5.358476638793945,
      0.11179182678461075,
      -0.052088573575019836,
      0.4832533299922943,
      -0.8733264803886414,
      -0.3509277403354645,
      -0.05452634394168854,
      2.289827823638916,
      0.016281330958008766,
      0.25011125206947327,
      -0.11301122605800629,
      1.9215922355651855,
      0.09162367135286331,
      -0.7802045941352844,
      0.10477346181869507,
      1.2309057712554932,
      0.40235987305641174,
      -2.3698694705963135,
      0.02554643526673317,
      -0.5486119389533997,
      4.173652648925781,
      -1.367087483406067,
      0.45578041672706604,
      -4.682183742523193,
      -0.047539085149765015,
      0.3118396997451782,
      -0.7363364100456238,
      0.10932448506355286,
      0.40078437328338623,
      3.483220338821411,
      0.3082312345504761,
      5.525812149047852,
      -3.8353066444396973,
      -0.7843593955039978,
      -0.10714007914066315,
      0.8077596426010132,
      1.811577320098877,
      0.6915702819824219,
      0.3466002345085144,
      0.028106778860092163,
      -1.2448623180389404,
      -0.995238721370697,
      0.11401739716529846,
      0.03438309207558632,
      0.11833347380161285,
      -0.9863605499267578,
      0.0881786197423935,
      2.2402074337005615,
      -0.4699176251888275,
      7.996257305145264,
      -0.20704664289951324,
      0.4114002287387848,
      0.5717437863349915,
      -0.5265908241271973,
      -1.8884737491607666,
      0.6078013777732849,
      -0.10911020636558533,
      -1.0241668224334717,
      -2.1271917819976807,
      -1.4988614320755005,
      -0.00233350764028728,
      0.3366290330886841,
      -1.3210835456848145,
      -1.5032057762145996,
      6.582122325897217,
      0.5066738128662109,
      1.095107078552246,
      0.2764939069747925,
      -0.6025176644325256,
      0.5405137538909912,
      0.08050260692834854,
      5.780527114868164,
      -0.10783696919679642,
      -0.28854653239250183,
      -1.259079098701477,
      -0.021921683102846146,
      1.3516130447387695,
      -0.2986275851726532,
      -0.03725370764732361,
      -3.88448166847229,
      0.47018805146217346,
      -0.2902091145515442,
      1.3831660747528076,
      -0.29045096039772034,
      -0.20116540789604187,
      0.2621481716632843,
      1.5661081075668335,
      -1.5707851648330688,
      0.05586056411266327,
      0.10277791321277618,
      -1.0597021579742432,
      0.062302365899086,
      -1.627121925354004,
      -0.6623824834823608,
      0.25767257809638977,
      -1.1536756753921509,
      0.15210787951946259,
      -0.5300516486167908,
      -0.0787670835852623,
      -0.04305541515350342,
      -0.5282405018806458,
      4.323089599609375,
      -0.8046718239784241,
      -0.004278913140296936,
      0.032815687358379364,
      -0.3618229031562805,
      -0.05865168571472168,
      -0.04991399496793747,
      -4.416540622711182,
      -0.7367282509803772,
      0.005811914801597595,
      0.698768138885498,
      -0.16765663027763367,
      -0.08048348128795624,
      -0.09207344800233841,
      -0.06485109031200409,
      -0.0070053027011454105,
      -0.1830098181962967,
      -0.20934367179870605,
      0.023106511682271957,
      -0.03866134211421013,
      -0.010486282408237457,
      -0.045619189739227295,
      -0.0020730753894895315,
      -0.0488010048866272,
      -0.146153524518013,
      -0.22800828516483307,
      0.058592136949300766,
      0.009216606616973877,
      -0.08464404195547104,
      0.006596007384359837,
      -0.0006725613493472338,
      0.03345664218068123,
      0.04465269669890404,
      0.005439206957817078,
      0.04594193026423454,
      0.09815888106822968,
      0.03796255588531494,
      0.00045716200838796794,
      0.005309361033141613,
      0.005811402108520269,
      -0.013808974996209145,
      0.06106819212436676,
      -0.12443582713603973,
      -0.015686459839344025,
      -0.04340333491563797,
      -0.13849857449531555,
      -0.21420183777809143,
      -0.11248444020748138,
      -0.06300705671310425,
      -0.09308917820453644,
      -0.14479535818099976,
      0.08142460882663727,
      -0.09526398777961731,
      -0.04802722483873367,
      -0.0796068012714386,
      -0.09778112918138504,
      -0.11640209704637527,
      -0.08214382082223892,
      -0.09460577368736267,
      -0.03831067308783531,
      -0.1372564435005188,
      0.053085342049598694,
      -0.1733607053756714,
      -0.18708951771259308,
      0.01961662992835045,
      0.028589939698576927,
      -0.10152360796928406,
      -0.18288442492485046,
      -0.20065970718860626,
      -0.11311343312263489,
      0.09215259552001953,
      -0.14251458644866943,
      -0.019455768167972565,
      -0.11305902898311615,
      0.014666825532913208,
      0.41245001554489136,
      -10.820496559143066,
      -0.3719571828842163,
      -0.3451608717441559,
      0.9098237156867981,
      0.9714434146881104,
      -0.19433465600013733,
      -0.46478956937789917,
      -0.6981258392333984,
      0.11723069846630096,
      0.015042887069284916,
      -0.8494414687156677,
      -0.12145767360925674,
      0.5519617199897766,
      -0.37231430411338806,
      1.4317412376403809,
      -2.4071602821350098,
      -0.28445640206336975,
      -0.08355424553155899,
      0.2730601131916046,
      0.8908652067184448,
      0.17631226778030396,
      -0.03044871799647808,
      1.5459766387939453,
      -0.02841787040233612,
      0.006613364443182945,
      1.2829688787460327,
      0.29785817861557007,
      -38.477317810058594,
      0.5494570732116699,
      0.0029749274253845215,
      -0.46195685863494873,
      -0.4715860188007355,
      -0.06057364493608475,
      -0.03754772990942001,
      0.38291600346565247,
      -0.4113042950630188,
      0.1019042506814003,
      -1.3291655778884888,
      1.0215461254119873,
      0.08368930220603943,
      -1.0191874504089355,
      -0.4715045392513275,
      -0.04116088151931763,
      -0.6473361253738403,
      -1.1960692405700684,
      -0.5442090034484863,
      0.08472885191440582,
      -0.20305854082107544,
      -0.060186997056007385,
      0.10302652418613434,
      1.7215675115585327,
      0.7197518348693848,
      2.011793375015259,
      0.13551542162895203,
      -0.00833556056022644,
      0.6489706039428711,
      -1.2894666194915771,
      -0.06347145140171051,
      0.060415852814912796,
      0.38087332248687744,
      -0.012373181991279125,
      -0.03590276837348938,
      -0.29533851146698,
      -0.5698481202125549,
      3.7141196727752686,
      -0.08734884113073349,
      -1.156729817390442,
      0.37358009815216064,
      -1.165425419807434,
      -1.017608642578125,
      -1.661524772644043,
      0.8608508110046387,
      -0.40595901012420654,
      -0.2581273317337036,
      -0.45036011934280396,
      0.03780202940106392,
      0.07556956261396408,
      -0.4256206750869751,
      0.48180362582206726,
      13.408304214477539,
      -1.2684013843536377,
      1.642539381980896,
      2.0880064964294434,
      -0.027993427589535713,
      -0.7013870477676392,
      0.00979322474449873,
      -6.754801273345947,
      0.06281302869319916,
      0.0909419134259224,
      0.374937504529953,
      -3.6505484580993652,
      3.9146087169647217,
      -0.2877221703529358,
      -0.030198857188224792,
      -0.31612634658813477,
      -0.8133864402770996,
      -5.691197395324707,
      -3.2948458194732666,
      -0.6881991624832153,
      -1.1161199808120728,
      1.0662182569503784,
      1.2075899839401245,
      -0.33273908495903015,
      0.024246737360954285,
      1.0904229879379272,
      0.28384703397750854,
      -0.11440789699554443,
      0.3074570894241333,
      1.1646151542663574,
      -0.6765827536582947,
      -2.6364121437072754,
      1.1335029602050781,
      -1.4058425426483154,
      -0.09172172844409943,
      -0.3400464653968811,
      0.37764862179756165,
      -1.2697471380233765,
      0.5129146575927734,
      -0.12320941686630249,
      -0.4121721386909485,
      -2.1066462993621826,
      -0.09292526543140411,
      -0.14063695073127747,
      -2.157564401626587,
      -0.4609490633010864,
      -0.0825100988149643,
      -2.0861306190490723,
      -0.042868390679359436,
      0.03093792125582695,
      0.020236164331436157,
      0.06724810600280762,
      0.008307416923344135,
      0.08169300109148026,
      -0.014053798280656338,
      -0.027763843536376953,
      0.08339917659759521,
      -0.11495783179998398,
      -0.11952569335699081,
      -0.09024298191070557,
      0.09554660320281982,
      -0.00757770799100399,
      -0.10876228660345078,
      -0.11721408367156982,
      -0.09333781152963638,
      -0.009640910662710667,
      0.04916560277342796,
      -0.03725290670990944,
      -0.11002075672149658,
      -0.03848111256957054,
      -0.005639553070068359,
      0.0975874662399292,
      0.04656827449798584,
      -0.06508072465658188,
      -0.19941096007823944,
      -0.1247611716389656,
      -0.0581485740840435,
      -0.07038486003875732,
      -0.006418079137802124,
      -0.057403285056352615,
      -0.17831209301948547,
      -0.04953858256340027,
      0.04580628126859665,
      -0.02353985607624054,
      -0.12670528888702393,
      -0.08461613208055496,
      -0.004415035247802734,
      -0.0028304760344326496,
      0.1105981320142746,
      -0.10147938132286072,
      -0.06074047461152077,
      -0.09639354050159454,
      -0.08008190989494324,
      -0.11036817729473114,
      -0.03753597289323807,
      -0.07972387969493866,
      0.11974691599607468,
      -0.13680918514728546,
      -0.01337103545665741,
      -0.02518198825418949,
      0.13200832903385162,
      0.06021346151828766,
      -0.10020797699689865,
      -0.1082654595375061,
      -0.07573555409908295,
      0.0007473027799278498,
      0.08363233506679535,
      0.05997365713119507,
      -0.15593098104000092,
      -0.004180774558335543,
      -0.10224649310112,
      -0.13806255161762238,
      -0.10600441694259644,
      0.01701887510716915,
      0.05222906172275543,
      0.05613620579242706,
      -0.08386677503585815,
      -0.06916482001543045,
      0.07902290672063828,
      0.001840437762439251,
      -0.05565298721194267,
      -0.059829503297805786,
      0.07938065379858017,
      -0.09277985244989395,
      -0.009775370359420776,
      -0.1681768000125885,
      -0.12947212159633636,
      -0.11388544738292694,
      0.00886239018291235,
      0.022379158064723015,
      0.06679262220859528,
      -0.010196900926530361,
      -0.04268796741962433,
      -0.07569979131221771,
      -0.05003845691680908,
      -0.09601618349552155,
      -0.1035887598991394,
      0.055856186896562576,
      0.06195342168211937,
      -0.003896270878612995,
      -0.05431321635842323,
      -0.12622103095054626,
      -0.05922824144363403,
      -0.03316224366426468,
      -0.00814716424793005,
      -0.15203195810317993,
      -0.11194824427366257,
      -0.10134710371494293,
      -0.014008859172463417,
      0.005038450937718153,
      -0.03863820433616638,
      0.0009002048172987998,
      -0.06373731791973114,
      -0.06031297147274017,
      -0.04293942078948021,
      0.09085629880428314,
      -0.015703605487942696,
      -0.07784316688776016,
      -0.1329379826784134,
      -0.11052514612674713,
      -0.007079899311065674,
      -0.06701784580945969,
      -0.038849323987960815,
      -0.17072321474552155,
      -0.1322639286518097,
      -0.1160164475440979,
      -0.02947026863694191,
      0.03468281030654907,
      -0.12016844749450684,
      0.020108502358198166,
      -0.04997488856315613,
      -0.10046997666358948,
      0.07427257299423218,
      -0.08478403091430664,
      -0.04390883445739746,
      0.0628911629319191,
      0.005753934383392334,
      0.16043829917907715,
      -0.02895164117217064,
      -0.04000350087881088,
      0.007002168335020542,
      -0.06074255332350731,
      -0.04116859287023544,
      -0.027393102645874023,
      -0.2146775871515274,
      -0.04337186738848686,
      -0.04198026657104492,
      -0.029641538858413696,
      0.0337136834859848,
      -0.09335919469594955,
      0.009238163940608501,
      -0.1193738728761673,
      -0.07531213015317917,
      -0.07694583386182785,
      0.012817203998565674,
      -0.08163133263587952,
      -0.13174550235271454,
      -0.03257804363965988,
      -0.07514426112174988,
      -0.11108120530843735,
      -0.11964432895183563,
      -0.11870681494474411,
      -0.04032550007104874,
      0.0352802611887455,
      0.06519391387701035,
      0.024418702349066734,
      -0.08646771311759949,
      -0.1114569827914238,
      -0.07484032958745956,
      0.06156211346387863,
      0.07696681469678879,
      -0.0045135836116969585,
      -0.02576136216521263,
      -0.0947386771440506,
      0.05648651719093323,
      0.18381927907466888,
      -0.11698631942272186,
      -0.06830085068941116,
      0.01734405755996704,
      -0.010845854878425598,
      -0.06511890888214111,
      -0.04729680344462395,
      -0.04261666163802147,
      0.11430957913398743,
      -0.10627288371324539,
      -0.009237785823643208,
      -0.12384320795536041,
      -0.13871802389621735,
      -0.17678551375865936,
      -0.09873388707637787,
      -0.10301218181848526,
      0.10740037262439728,
      -0.0005193261313252151,
      -0.15005658566951752,
      0.042176589369773865,
      -0.07179801166057587,
      0.04869583249092102,
      -0.005956997629255056,
      -0.0694267749786377,
      -0.20017465949058533,
      -0.018360560759902,
      -2.6870014667510986,
      0.6095603704452515,
      0.05580450966954231,
      -0.41642066836357117,
      -3.165923833847046,
      0.6317128539085388,
      1.1835582256317139,
      -0.8051745891571045,
      -0.0859297513961792,
      0.6398164629936218,
      1.2089325189590454,
      0.0999409556388855,
      -0.32221630215644836,
      0.4310242533683777,
      0.4769864082336426,
      -3.245676040649414,
      -0.285386323928833,
      0.36978504061698914,
      0.13694366812705994,
      0.666261613368988,
      -0.07575522363185883,
      -0.008412272669374943,
      2.6920838356018066,
      0.046403709799051285,
      -0.2786632776260376,
      -0.41248685121536255,
      -0.8177712559700012,
      -0.24040307104587555,
      -0.10137243568897247,
      0.03079971671104431,
      0.6891694664955139,
      0.5980063676834106,
      2.199152946472168,
      0.19012600183486938,
      0.7609463334083557,
      0.16030938923358917,
      -0.7743234038352966,
      -1.807510495185852,
      0.026806501671671867,
      -0.0037147551774978638,
      -0.8899589776992798,
      -0.18246550858020782,
      -0.08999994397163391,
      1.7343453168869019,
      -2.227410078048706,
      1.161352515220642,
      4.625848293304443,
      0.9661551713943481,
      0.4476238191127777,
      0.07482139766216278,
      -0.20910675823688507,
      1.026375651359558,
      0.9035738706588745,
      -1.3579926490783691,
      -0.013370826840400696,
      -1.0630242824554443,
      -1.187705397605896,
      0.11828696727752686,
      0.04088713973760605,
      -0.04070162773132324,
      0.8863701820373535,
      0.08577589690685272,
      -1.462782859802246,
      0.6099915504455566,
      2.5207266807556152,
      0.4186554551124573,
      -0.8237475156784058,
      -0.3157394528388977,
      2.1606225967407227,
      0.49354058504104614,
      0.7876284122467041,
      0.38868874311447144,
      0.5155676603317261,
      -0.1638917475938797,
      -2.801370620727539,
      -0.07760580629110336,
      0.6477741599082947,
      -1.6770422458648682,
      -1.6381553411483765,
      1.4245673418045044,
      -1.3679089546203613,
      -1.0464242696762085,
      3.943577527999878,
      -0.08427277207374573,
      0.22244788706302643,
      0.022145990282297134,
      -31.19943618774414,
      0.09097364544868469,
      0.3165462613105774,
      -0.4146239161491394,
      0.09270532429218292,
      3.8480217456817627,
      0.3205445408821106,
      0.08817113935947418,
      0.6451349258422852,
      -0.41950467228889465,
      -0.5151387453079224,
      -0.3663269877433777,
      0.3736949563026428,
      -1.268186092376709,
      -0.6216433644294739,
      1.2365273237228394,
      -5.412678241729736,
      0.06742802262306213,
      0.5810180306434631,
      0.6386408805847168,
      0.053946882486343384,
      0.016068831086158752,
      2.6279478073120117,
      0.9616913795471191,
      -5.952495574951172,
      0.5082209706306458,
      0.28946176171302795,
      0.04807738959789276,
      -0.3255122900009155,
      -0.08397596329450607,
      -0.05739380046725273,
      -0.6308900713920593,
      0.09307192265987396,
      -0.9957685470581055,
      -0.43811795115470886,
      0.02903887629508972,
      -0.03690900653600693,
      -0.47921836376190186,
      0.20190098881721497,
      -0.08199110627174377,
      -0.4804404377937317,
      0.6647624969482422,
      9.32286548614502,
      1.245880365371704,
      -0.40421169996261597,
      -0.45477887988090515,
      -0.0666661411523819,
      1.9127023220062256,
      0.7350896596908569,
      -0.7879281640052795,
      0.4286859333515167,
      1.4924631118774414,
      0.1860182285308838,
      0.04107533022761345,
      0.3568665683269501,
      1.3400212526321411,
      -1.9113731384277344,
      -0.4463367760181427,
      -0.16675099730491638,
      0.08227027207612991,
      1.5740896463394165,
      -1.3457996845245361,
      2.2892706394195557,
      0.029040787369012833,
      -1.2205067873001099,
      0.04150844365358353,
      0.7573897242546082,
      -2.6210856437683105,
      0.153604656457901,
      0.9139160513877869,
      0.029625464230775833,
      -0.055941954255104065,
      -0.6472680568695068,
      0.2665014863014221,
      -1.5687003135681152,
      0.4699024260044098,
      0.1804586797952652,
      -2.2442986965179443,
      0.09612391144037247,
      1.438369631767273,
      -2.8726587295532227,
      -0.007429972290992737,
      0.0622858926653862,
      -1.9648983478546143,
      0.11963383853435516,
      -0.2629321813583374,
      0.883963406085968,
      0.17362819612026215,
      0.6483311057090759,
      -1.6187591552734375,
      0.87762850522995,
      0.025955291464924812,
      0.5955955386161804,
      -0.010619350709021091,
      -0.20432616770267487,
      -0.19376599788665771,
      0.1063193678855896,
      -0.9251163601875305,
      1.337111234664917,
      -0.05929766595363617,
      0.018691612407565117,
      2.4113175868988037,
      0.0692896619439125,
      0.11238184571266174,
      0.07930602133274078,
      -0.6196574568748474,
      2.8160219192504883,
      0.612810492515564,
      -2.4137301445007324,
      -3.7055060863494873,
      4.10992431640625,
      -0.6165457367897034,
      0.015388596802949905,
      2.070955991744995,
      -0.10799864679574966,
      -0.1511220932006836,
      -0.025207383558154106,
      -0.0031558871269226074,
      -0.3424298167228699,
      1.1028640270233154,
      2.9342103004455566,
      -25.308650970458984,
      -0.13937348127365112,
      -0.6825666427612305,
      3.2293684482574463,
      -0.30029118061065674,
      -0.28543296456336975,
      0.10424982011318207,
      -0.18653960525989532,
      0.05866790935397148,
      -0.040530137717723846,
      -0.4205033779144287,
      -0.5445775389671326,
      1.890883207321167,
      0.10179818421602249,
      0.10719488561153412,
      -0.25940749049186707,
      0.4541618525981903,
      -0.04612169787287712,
      -0.4260413348674774,
      -0.16364289820194244,
      1.0277209281921387,
      0.30615174770355225,
      0.36427202820777893,
      0.03268139809370041,
      0.08228641748428345,
      0.5828031897544861,
      2.9895005226135254,
      0.015722185373306274,
      -0.602493941783905,
      -1.3920038938522339,
      0.7240419983863831,
      4.75899600982666,
      -9.88293743133545,
      -0.14779730141162872,
      0.10915189981460571,
      -0.13797350227832794,
      -0.2988274097442627,
      -0.1423220932483673,
      -0.4465843141078949,
      -0.10601440072059631,
      -0.32434162497520447,
      -0.31584635376930237,
      0.10857546329498291,
      -0.015767890959978104,
      0.2346942126750946,
      0.5116889476776123,
      -0.08165867626667023,
      0.7654004096984863,
      0.21963728964328766,
      1.500393033027649,
      -1.597900629043579,
      0.24423828721046448,
      -0.21692006289958954,
      1.4093083143234253,
      -1.8321123123168945,
      0.02109113335609436,
      1.1862627267837524,
      0.6614593863487244,
      0.3709757924079895,
      -4.880034446716309,
      0.056808650493621826,
      0.47965502738952637,
      0.7937769889831543,
      -6.027796268463135,
      7.883049964904785,
      1.148800015449524,
      -0.9764083027839661,
      -1.221167802810669,
      0.33581897616386414,
      1.9822041988372803,
      0.07720644772052765,
      2.6297714710235596,
      0.0907859280705452,
      -1.3479653596878052,
      0.07873760163784027,
      1.1844152212142944,
      1.4590579271316528,
      0.28881916403770447,
      0.08273667097091675,
      0.29499927163124084,
      -0.3855510354042053,
      2.409355640411377,
      -0.579136073589325,
      0.019120441749691963,
      0.7043792009353638,
      -0.7816169261932373,
      0.6772289872169495,
      -0.9313424229621887,
      0.042381301522254944,
      0.0909794420003891,
      -0.04663887247443199,
      -0.058957502245903015,
      -1.1919922828674316,
      -1.716900110244751,
      -0.21677936613559723,
      2.815396785736084,
      -1.2130087614059448,
      -1.7015221118927002,
      -0.050262778997421265,
      -0.048593390733003616,
      -1.631608009338379,
      2.1206443309783936,
      0.7184252738952637,
      0.12354768812656403,
      0.8237824440002441,
      0.7632923722267151,
      0.038701027631759644,
      0.07440657913684845,
      -0.45461228489875793,
      -0.6692931056022644,
      -0.1164262592792511,
      0.8331040740013123,
      -0.2867457866668701,
      -0.25820475816726685,
      -0.16742829978466034,
      0.5079380869865417,
      0.0935378149151802,
      -0.8694041967391968,
      0.06469237059354782,
      -3.1123111248016357,
      -0.3957135081291199,
      -0.32890385389328003,
      -0.02839171327650547,
      0.31999796628952026,
      -0.07422207295894623,
      -0.35487234592437744,
      3.139465570449829,
      -0.19866059720516205,
      1.9521502256393433,
      0.30782201886177063,
      0.16513262689113617,
      -0.7143454551696777,
      -0.370256245136261,
      0.49543702602386475,
      0.005281239748001099,
      -9.562183380126953,
      -0.040873393416404724,
      -0.19862233102321625,
      0.00015593621355947107,
      -0.4593449532985687,
      0.07300199568271637,
      1.2290278673171997,
      -0.0007287412881851196,
      -0.30518999695777893,
      0.23796701431274414,
      -1.2205355167388916,
      0.05951016768813133,
      -1.8920645713806152,
      0.6946035027503967,
      0.15656253695487976,
      -0.0035198130644857883,
      7.983428001403809,
      -0.0027154535055160522,
      -0.42247626185417175,
      -0.26091983914375305,
      0.011347070336341858,
      0.009685893543064594,
      -2.024014472961426,
      -0.6829192042350769,
      -12.259687423706055,
      -25.951007843017578,
      1.5975043773651123,
      0.11628671735525131,
      0.18248258531093597,
      -0.08517543971538544,
      0.07565274834632874,
      0.1952151507139206,
      0.10803212225437164,
      0.8108668923377991,
      0.07661230862140656,
      -0.09796158969402313,
      -0.09548179060220718,
      0.1467403918504715,
      0.6968454122543335,
      0.0789560079574585,
      0.8708195090293884
    ],
    [
      0.1543581336736679,
      0.11535252630710602,
      -0.010423010215163231,
      0.11078726500272751,
      0.12328775227069855,
      -0.11443556845188141,
      0.007405127864331007,
      -0.12228918820619583,
      -0.1320100724697113,
      -0.10588057339191437,
      -0.12203952670097351,
      -0.12158195674419403,
      0.2852279841899872,
      0.12576653063297272,
      0.1249690055847168,
      0.10721639543771744,
      0.15141712129116058,
      -0.11763576418161392,
      0.12255929410457611,
      -0.12093576043844223,
      0.022391103208065033,
      0.17406897246837616,
      0.09379425644874573,
      -0.02138034626841545,
      -0.1073807030916214,
      0.0005720485933125019,
      0.1233261302113533,
      -0.14935310184955597,
      0.13214461505413055,
      0.18004673719406128,
      -0.12405157089233398,
      -0.15632425248622894
    ]
  ],
  "biases": [
    [
      0.13940247893333435,
      -0.891602098941803,
      -0.6134096384048462,
      0.27354565262794495,
      0.9348577260971069,
      -1.664023756980896,
      -0.4401974380016327,
      -1.3495882749557495,
      -2.0030877590179443,
      0.8765422701835632,
      -0.758946418762207,
      -0.49439820647239685,
      0.024083303287625313,
      0.3269924223423004,
      0.34219348430633545,
      -0.9931953549385071,
      -0.9773932695388794,
      -0.6946303844451904,
      -0.5867906808853149,
      -1.1775187253952026,
      -0.17814932763576508,
      0.4591623544692993,
      -0.09792469441890717,
      -0.9783517718315125,
      -0.1588858962059021,
      0.27779021859169006,
      -0.7237043380737305,
      -1.0251964330673218,
      -1.2248454093933105,
      -0.41479623317718506,
      -0.16470134258270264,
      -1.355545163154602,
      0.4093863070011139,
      -1.1906362771987915,
      0.2042868286371231,
      -0.767636239528656,
      -0.6873459219932556,
      -0.08173859119415283,
      -0.4135900139808655,
      -1.3627879619598389,
      -0.23018811643123627,
      0.23835043609142303,
      -1.1378532648086548,
      -0.14923352003097534,
      -0.5767472982406616,
      2.307701826095581,
      -1.1207165718078613,
      -0.7485429048538208,
      1.7316279411315918,
      -2.380546808242798,
      -0.11016856878995895,
      0.5898250937461853,
      0.8345831632614136,
      -0.2856404781341553,
      -0.8848513960838318,
      -0.13629259169101715,
      -0.9599853157997131,
      -0.08751422166824341,
      -0.24427282810211182,
      -0.19421283900737762,
      -1.1775468587875366,
      -1.2046595811843872,
      -0.15821842849254608,
      -0.36441195011138916
    ],
    [
      1.1901366710662842,
      -1.296491265296936,
      -0.007281244266778231,
      1.4280580282211304,
      -0.1317850649356842,
      1.1850963830947876,
      -0.20758181810379028,
      0.4014419615268707,
      0.7330760955810547,
      0.36773476004600525,
      -0.2468889355659485,
      -0.13225343823432922,
      1.025344729423523,
      -1.0426692962646484,
      1.4072785377502441,
      -0.4332754611968994,
      1.4439468383789062,
      0.8603301644325256,
      -0.36209845542907715,
      1.6349666118621826,
      -0.02017221972346306,
      1.6385962963104248,
      -0.364541232585907,
      -0.14316360652446747,
      -0.05552614480257034,
      -0.04566047340631485,
      0.9161449074745178,
      0.900480329990387,
      -2.070016860961914,
      -0.46442779898643494,
      -0.19768016040325165,
      0.2651197612285614
    ],
    [
      0.052178483456373215
    ]
  ]
}