{
  "format": "ursim-robust-net",
  "version": "1.0",
  "model_name": "eval_128x64x32_lr1e-04",
  "ruleset": "Blitz",
  "input_size": 10,
  "num_layers": 4,
  "layer_sizes": [
    128,
    64,
    32,
    1
  ],
  "activations": [
    "relu",
    "relu",
    "relu",
    "sigmoid"
  ],
  "finish_position": 17,
  "game_threshold": 38,
  "pieces_per_player": 5,
  "epochs": 27,
  "learning_rate": 0.00014936568554617627,
  "weights": [
    [
      0.02522331476211548,
      0.028479810804128647,
      -0.31399086117744446,
      -0.06599018722772598,
      0.1635456383228302,
      -0.028686683624982834,
      0.06389749050140381,
      0.10165402293205261,
      -0.02384914644062519,
      -0.44029515981674194,
      0.059873271733522415,
      -0.478189617395401,
      0.07246133685112,
      -0.12460488826036453,
      -0.25063958764076233,
      0.30949971079826355,
      -0.028852030634880066,
      0.0031311651691794395,
      0.6037096381187439,
      0.34631016850471497,
      0.0234553012996912,
      0.0026492325123399496,
      0.03150283545255661,
      0.5111091732978821,
      0.21861198544502258,
      -0.21034833788871765,
      -0.15999028086662292,
      0.13977429270744324,
      0.10066515952348709,
      -0.3140641450881958,
      0.21059399843215942,
      0.05650898441672325,
      0.056284546852111816,
      -0.4390295147895813,
      0.05235696956515312,
      0.2651439905166626,
      -0.11972825974225998,
      0.4153725802898407,
      0.08054956048727036,
      -0.07644196599721909,
      -0.18192058801651,
      0.1745598018169403,
      0.15062201023101807,
      -0.18291150033473969,
      -0.14203836023807526,
      -0.21029984951019287,
      0.3028070628643036,
      -0.11135740578174591,
      0.08746930956840515,
      -0.25196361541748047,
      -0.052050091326236725,
      0.1721746176481247,
      -0.12169133126735687,
      -0.38739901781082153,
      0.16896981000900269,
      -0.08950681984424591,
      0.009018300101161003,
      -0.12365827709436417,
      0.4382556080818176,
      0.1751227229833603,
      0.7293998003005981,
      0.09239485114812851,
      -0.27818718552589417,
      -0.06238342821598053,
      -0.14553941786289215,
      0.05910828337073326,
      -0.010458488017320633,
      0.12982453405857086,
      0.44000133872032166,
      0.045866020023822784,
      -0.1839817762374878,
      0.5928325057029724,
      0.2763828933238983,
      0.2167637199163437,
      -0.09432940185070038,
      -0.02270536497235298,
      -0.6490403413772583,
      -0.017347244545817375,
      0.018097084015607834,
      -0.1218162477016449,
      -0.15202373266220093,
      0.14601989090442657,
      -0.024766217917203903,
      0.5157420039176941,
      -0.07454469799995422,
      -0.06907227635383606,
      0.4980800747871399,
      -0.09827599674463272,
      0.02931670844554901,
      -0.18310339748859406,
      -0.03319737687706947,
      -0.07037646323442459,
      -0.7856727242469788,
      0.12643182277679443,
      0.14078077673912048,
      0.01998196355998516,
      -0.008216189220547676,
      0.009153623133897781,
      -0.21867017447948456,
      0.09055709093809128,
      -0.1801408976316452,
      -0.017231794074177742,
      -0.31298887729644775,
      0.18011413514614105,
      -0.010203211568295956,
      0.18287548422813416,
      -0.09690090268850327,
      0.1294919103384018,
      -0.34910207986831665,
      0.3222234547138214,
      0.05548451840877533,
      -0.5604488849639893,
      0.04843483865261078,
      0.00904836691915989,
      0.0013565514236688614,
      -0.11730410158634186,
      0.04104505106806755,
      -1.25417959690094,
      0.06902000308036804,
      0.04145653173327446,
      -0.1012142077088356,
      0.3630869686603546,
      0.04838299751281738,
      -0.10301128774881363,
      -0.2103222906589508,
      -0.35074394941329956,
      0.047609876841306686,
      -0.015463389456272125,
      0.5373725891113281,
      0.08065726608037949,
      -10.813374519348145,
      0.3429564833641052,
      0.18338650465011597,
      0.06838823109865189,
      -0.15024638175964355,
      -0.7211689949035645,
      -0.045460157096385956,
      -0.15034908056259155,
      -0.06030968204140663,
      0.20992225408554077,
      -0.00982506014406681,
      0.004724207334220409,
      -0.0054731289856135845,
      0.0054944418370723724,
      -0.1502215564250946,
      0.008052045479416847,
      0.7262181639671326,
      0.13940104842185974,
      -0.28227999806404114,
      0.033995527774095535,
      0.041297271847724915,
      -0.4538590610027313,
      0.05521943420171738,
      0.1653873473405838,
      0.17795249819755554,
      -0.4641473889350891,
      -0.09848077595233917,
      -0.03631224483251572,
      -0.18495774269104004,
      -0.14828763902187347,
      0.004887380171567202,
      0.0001161683612735942,
      -9.89790860330686e-05,
      -0.006095291115343571,
      0.006053075660020113,
      0.004979685414582491,
      0.003005384234711528,
      0.7710167169570923,
      0.06264214217662811,
      -0.3565060794353485,
      0.011282801628112793,
      -0.17581667006015778,
      0.1715005487203598,
      -0.5137118697166443,
      0.6274535655975342,
      0.1341780573129654,
      -0.009196726605296135,
      0.034638430923223495,
      -0.2805045247077942,
      0.2797142565250397,
      0.08040130883455276,
      0.03970107436180115,
      0.5604032874107361,
      -0.4019150733947754,
      0.29119616746902466,
      0.006594048347324133,
      0.28649941086769104,
      0.04274484142661095,
      -0.026871414855122566,
      -0.16022801399230957,
      0.004389740061014891,
      -0.07901576161384583,
      0.5303253531455994,
      0.050784915685653687,
      0.17339779436588287,
      -0.05065279081463814,
      -0.777795672416687,
      0.02205202542245388,
      0.0880957543849945,
      -0.07315073162317276,
      -0.28800302743911743,
      0.11967040598392487,
      0.02110867202281952,
      -0.20115970075130463,
      0.2027493715286255,
      -0.08129553496837616,
      0.259565532207489,
      0.01835867390036583,
      -0.3148708641529083,
      0.2104475498199463,
      -0.6935615539550781,
      0.037696585059165955,
      0.038529977202415466,
      -0.25893768668174744,
      -0.3145342171192169,
      0.8286899924278259,
      0.0711742639541626,
      0.2620561420917511,
      -0.18595895171165466,
      0.03298838436603546,
      -0.07995479553937912,
      -0.05346398055553436,
      0.01404876820743084,
      0.23764543235301971,
      -0.35918179154396057,
      0.035618845373392105,
      -0.33249935507774353,
      0.08967927098274231,
      0.012314609251916409,
      0.39141395688056946,
      -0.29019826650619507,
      0.2318234145641327,
      -0.3036442697048187,
      -0.24490536749362946,
      -0.19900967180728912,
      -0.026119381189346313,
      -0.000693976879119873,
      0.09660318493843079,
      -0.17808963358402252,
      -0.25957190990448,
      -0.1181408241391182,
      -0.0036614476703107357,
      0.3869945704936981,
      0.2718632221221924,
      -0.3005167245864868,
      -3.184088706970215,
      0.026314865797758102,
      -0.21124322712421417,
      0.09890396147966385,
      0.21349430084228516,
      -0.19210956990718842,
      0.29230621457099915,
      0.1190413385629654,
      -0.4827589690685272,
      0.7050838470458984,
      -0.09765642136335373,
      -0.03479844331741333,
      -0.005668122787028551,
      -0.24828855693340302,
      0.03756793960928917,
      -0.00024978307192213833,
      0.014311430975794792,
      -0.0021959643345326185,
      -0.003239444922655821,
      -0.13814722001552582,
      -0.001323847216553986,
      0.0034375623799860477,
      0.750342845916748,
      -0.17027604579925537,
      0.05365227907896042,
      -0.03297009319067001,
      -0.2588110864162445,
      0.025398677214980125,
      0.32414835691452026,
      -0.34916433691978455,
      -0.17701119184494019,
      -0.3448787033557892,
      -0.08872804045677185,
      0.29717472195625305,
      -0.2766554355621338,
      0.1994543820619583,
      -0.14457392692565918,
      0.08938352018594742,
      -0.2508101761341095,
      0.23474587500095367,
      -0.047688696533441544,
      0.2765228748321533,
      -0.32964205741882324,
      0.2779127359390259,
      0.02740391157567501,
      0.015949685126543045,
      -0.02239301986992359,
      -0.2476830780506134,
      -0.3542259633541107,
      0.5430592894554138,
      -0.20675316452980042,
      0.012287529185414314,
      -0.008186189457774162,
      0.0039019272662699223,
      0.25157007575035095,
      -0.26212942600250244,
      0.056809403002262115,
      0.10387323796749115,
      -0.4198532998561859,
      -0.31930777430534363,
      -0.005700856912881136,
      0.4406129717826843,
      -0.035667113959789276,
      0.44312840700149536,
      0.14392748475074768,
      0.0244440995156765,
      -0.0034259497188031673,
      0.0008957608370110393,
      -0.11738157272338867,
      -0.2098892629146576,
      1.1852272748947144,
      0.005356809124350548,
      0.002055420773103833,
      -0.012773704715073109,
      -0.080531544983387,
      -0.014345163479447365,
      0.032605960965156555,
      -0.2790447175502777,
      -0.044822387397289276,
      0.579881489276886,
      0.1355706751346588,
      -0.021334249526262283,
      0.15485817193984985,
      -0.02081386372447014,
      -0.1315353661775589,
      0.020476780831813812,
      -0.09630613774061203,
      -0.01482393965125084,
      0.6683253645896912,
      -0.22808662056922913,
      0.02117404155433178,
      -0.25371354818344116,
      0.010023724287748337,
      -0.42708155512809753,
      0.24671564996242523,
      0.13409578800201416,
      -0.3336150348186493,
      -0.1317111998796463,
      -0.07882994413375854,
      0.3539101779460907,
      0.46310505270957947,
      -0.47273051738739014,
      0.17243601381778717,
      0.013583814725279808,
      -0.25949469208717346,
      -1.7503997087478638,
      -0.019707415252923965,
      -0.005982412025332451,
      0.04143689200282097,
      -0.10375849157571793,
      -0.006951660383492708,
      -0.005410336889326572,
      -0.00036988576175644994,
      0.43759840726852417,
      -0.19524146616458893,
      -0.8612096309661865,
      -0.057268645614385605,
      0.1295563131570816,
      0.4539513885974884,
      -0.22067537903785706,
      0.46918076276779175,
      0.09522105753421783,
      -0.18878009915351868,
      0.15577025711536407,
      -0.04894554615020752,
      -0.23356711864471436,
      0.15975269675254822,
      -0.21745571494102478,
      0.03117269277572632,
      0.09173023700714111,
      -0.10493673384189606,
      -0.31359773874282837,
      -0.10079191625118256,
      -0.2665015757083893,
      -0.25479382276535034,
      0.6016237735748291,
      -0.14308534562587738,
      -0.04022559896111488,
      0.013926997780799866,
      0.3941430449485779,
      -0.9980599284172058,
      0.040496744215488434,
      -0.029524533078074455,
      0.2023637890815735,
      -0.25577738881111145,
      -0.005429627373814583,
      -0.032478366047143936,
      0.01819712668657303,
      -0.08483798056840897,
      0.16861578822135925,
      0.0056910733692348,
      -0.039547741413116455,
      -0.04229811951518059,
      -0.3209030032157898,
      0.37737980484962463,
      -0.010864263400435448,
      0.13207511603832245,
      -0.7532068490982056,
      -0.006387839559465647,
      -0.04159228131175041,
      -0.02135809138417244,
      -0.02221975475549698,
      0.6262817978858948,
      -0.03054589033126831,
      0.17715051770210266,
      0.7379903197288513,
      -0.795464038848877,
      0.0005277858581393957,
      -0.05777466669678688,
      0.06189894303679466,
      -0.008403039537370205,
      -0.047095827758312225,
      0.021200232207775116,
      0.4393047094345093,
      -0.15255409479141235,
      -0.13203534483909607,
      0.23922264575958252,
      -0.07566209137439728,
      -0.38061463832855225,
      -0.3479081094264984,
      0.06693768501281738,
      -0.15908043086528778,
      0.023239031434059143,
      0.4035321772098541,
      0.06900898367166519,
      0.03963398188352585,
      -0.2071337252855301,
      0.10290861129760742,
      0.38203713297843933,
      -0.29208824038505554,
      -0.04261046648025513,
      -0.08978785574436188,
      0.46799466013908386,
      -0.2249070107936859,
      -0.22894687950611115,
      -0.1039944738149643,
      -0.0607241615653038,
      0.15652742981910706,
      -0.337524950504303,
      0.44225308299064636,
      -0.03989218920469284,
      -0.3643076717853546,
      0.365395724773407,
      -0.038842394948005676,
      0.2096841186285019,
      0.06628614664077759,
      -0.04064461588859558,
      0.40676113963127136,
      -0.04009021073579788,
      -0.289778470993042,
      -0.03974182903766632,
      0.8370625376701355,
      0.027435945346951485,
      -0.3450119197368622,
      0.08890988677740097,
      0.22697629034519196,
      -0.04595771059393883,
      0.29864951968193054,
      -0.0785050243139267,
      0.0007641450501978397,
      0.1233413890004158,
      0.04127632454037666,
      0.038891326636075974,
      0.654035210609436,
      -0.17668871581554413,
      0.9623032808303833,
      0.07774634659290314,
      0.062134984880685806,
      -0.11399605125188828,
      -0.28371235728263855,
      -0.0235305055975914,
      0.2885231375694275,
      -0.13792727887630463,
      0.1452145278453827,
      -0.023379961028695107,
      -0.19605126976966858,
      0.2940523624420166,
      0.011535681784152985,
      -0.23350156843662262,
      -0.015849046409130096,
      -0.2893514633178711,
      -0.3268853425979614,
      0.35889238119125366,
      -0.19105972349643707,
      -0.06255809962749481,
      -0.4769824147224426,
      -0.24064548313617706,
      0.13863421976566315,
      -0.15498146414756775,
      -0.12013344466686249,
      0.3824312388896942,
      -0.252151221036911,
      0.319465309381485,
      -0.11162732541561127,
      -0.09667431563138962,
      0.13578291237354279,
      0.058923278003931046,
      -0.6946896910667419,
      -0.023947766050696373,
      0.02062968537211418,
      -0.03840801492333412,
      0.6004196405410767,
      -0.0028878366574645042,
      0.09294015914201736,
      -0.04061730578541756,
      0.1585400402545929,
      0.017765790224075317,
      -0.27270734310150146,
      -0.04428088292479515,
      0.033201638609170914,
      0.2102595418691635,
      0.28391027450561523,
      -0.19437246024608612,
      -0.2156464010477066,
      -0.034567974507808685,
      0.03326953202486038,
      0.01910628378391266,
      -0.025921519845724106,
      -0.3331107795238495,
      0.5656445622444153,
      0.061619244515895844,
      -0.10341488569974899,
      -0.24747781455516815,
      0.251746267080307,
      -0.09684668481349945,
      0.19446255266666412,
      0.1321927309036255,
      -0.12260518223047256,
      -0.011966300196945667,
      -0.2999374270439148,
      -0.06904639303684235,
      -0.26840680837631226,
      0.05147891864180565,
      -0.009601821191608906,
      0.6114838123321533,
      0.5251845121383667,
      0.12382737547159195,
      -0.737700879573822,
      0.04482864588499069,
      0.039844829589128494,
      0.9542028307914734,
      0.08809191733598709,
      0.10608907043933868,
      0.01848919689655304,
      -0.23374363780021667,
      0.6932111978530884,
      -0.07904157042503357,
      -0.1094888225197792,
      -0.006276206579059362,
      -0.02656172402203083,
      0.022748585790395737,
      0.2743753492832184,
      -0.2423301488161087,
      -1.0546618700027466,
      0.05392465740442276,
      0.5087177157402039,
      0.05613604933023453,
      -0.33231398463249207,
      0.22064504027366638,
      0.17743894457817078,
      0.23281683027744293,
      -0.1397726982831955,
      0.11530967801809311,
      -0.4543225169181824,
      0.24099069833755493,
      0.6510562896728516,
      -0.01631861925125122,
      0.008725644089281559,
      0.012302807532250881,
      -0.205112025141716,
      -0.011106546968221664,
      -0.005259268917143345,
      -0.001355997403152287,
      -0.4471302330493927,
      0.12652355432510376,
      0.3275826871395111,
      -0.01287289522588253,
      -0.3938892185688019,
      -0.029535159468650818,
      0.08620717376470566,
      0.9421748518943787,
      -0.012187364511191845,
      -0.13826729357242584,
      0.012957138009369373,
      0.01024611946195364,
      0.03393474221229553,
      0.027186980471014977,
      -0.2952727675437927,
      0.06477043777704239,
      0.5724464058876038,
      0.028594201430678368,
      0.022119790315628052,
      -0.6642313003540039,
      0.0417943000793457,
      0.17396444082260132,
      0.0413583368062973,
      -0.029736455529928207,
      0.028088171035051346,
      -0.375722736120224,
      0.25788864493370056,
      -0.06844151020050049,
      -0.324555903673172,
      0.21127109229564667,
      0.0545068234205246,
      0.08191855996847153,
      0.05001625791192055,
      -0.3566298484802246,
      0.12741264700889587,
      -0.3920274078845978,
      0.10682663321495056,
      -0.01609756425023079,
      0.02968600019812584,
      -0.033465150743722916,
      -0.06780333071947098,
      0.4446602761745453,
      0.0006362195126712322,
      -0.09851555526256561,
      0.6136963367462158,
      0.09583143889904022,
      0.13225826621055603,
      0.17130661010742188,
      0.005626352969557047,
      -0.5869624018669128,
      -0.0321275033056736,
      -0.09912975132465363,
      0.4540764391422272,
      -0.06899771839380264,
      -0.13506150245666504,
      0.16378842294216156,
      -0.008045632392168045,
      -0.001866957638412714,
      0.10734593868255615,
      -0.10385143011808395,
      -0.35899975895881653,
      0.4982141852378845,
      -0.043689191341400146,
      -0.2587517499923706,
      -0.207511767745018,
      0.2910175621509552,
      -0.2413623034954071,
      -0.27213186025619507,
      0.08070516586303711,
      -0.22294265031814575,
      -0.23876790702342987,
      -0.11042183637619019,
      -0.754508912563324,
      0.0394173301756382,
      0.09969587624073029,
      0.0013374888803809881,
      0.34730371832847595,
      -0.02186555042862892,
      -0.1903822422027588,
      0.030149314552545547,
      -0.29082050919532776,
      -0.1613817662000656,
      -0.2363889068365097,
      -0.637641191482544,
      -3.288268804550171,
      0.0062634884379804134,
      -0.1439957618713379,
      0.11747383326292038,
      -0.07056811451911926,
      0.04081568121910095,
      0.4091736376285553,
      -0.06615976244211197,
      0.0035029302816838026,
      -0.20304223895072937,
      0.13431496918201447,
      -0.21528653800487518,
      0.31177955865859985,
      0.006993434391915798,
      0.019992100074887276,
      -0.3408828377723694,
      0.37372225522994995,
      -0.4594031274318695,
      0.03556651994585991,
      0.010458193719387054,
      -0.4730471968650818,
      0.030420836061239243,
      0.03989152982831001,
      -0.1755756288766861,
      0.07049975544214249,
      -0.1260451376438141,
      0.4618441164493561,
      0.029357219114899635,
      -0.17489193379878998,
      0.1602431833744049,
      -0.03895285725593567,
      -0.15877185761928558,
      -0.17022033035755157,
      -0.27254873514175415,
      0.004606723785400391,
      0.3080526888370514,
      -0.2363029569387436,
      -0.283721387386322,
      -0.07086023688316345,
      -0.0029786720406264067,
      -0.0073325010016560555,
      -1.1064045429229736,
      0.0537857785820961,
      0.015465316362679005,
      -0.0027834647335112095,
      -0.022889122366905212,
      -0.010995161719620228,
      0.3090045750141144,
      -0.1300845891237259,
      0.005804045125842094,
      0.001335281296633184,
      0.08741895854473114,
      -0.10584519058465958,
      -0.014444497413933277,
      0.010069265030324459,
      0.7803961634635925,
      -0.1509809046983719,
      -0.3791423738002777,
      -0.012690394185483456,
      0.05699705705046654,
      -0.690148115158081,
      0.3775811791419983,
      -0.18288706243038177,
      -0.09178585559129715,
      -0.11286865919828415,
      0.14604297280311584,
      0.12044034153223038,
      0.08121061325073242,
      -0.40792882442474365,
      0.134745791554451,
      -0.0753096416592598,
      0.34319111704826355,
      -0.028142396360635757,
      -0.1829250305891037,
      0.10796313732862473,
      -0.13730190694332123,
      0.4112604260444641,
      -0.013132825493812561,
      -0.036482080817222595,
      -0.4385495185852051,
      0.04469390958547592,
      0.11297722905874252,
      -0.33395349979400635,
      0.0016869805986061692,
      -0.10252545028924942,
      0.2994653582572937,
      0.6046231985092163,
      0.0013861198676750064,
      0.0006493995315395296,
      0.6718757152557373,
      -0.0012394629884511232,
      0.2180289775133133,
      -0.1505248248577118,
      -0.1182761862874031,
      0.08257777988910675,
      -0.3827084004878998,
      0.09702783077955246,
      -0.19036945700645447,
      -0.04451832175254822,
      0.08926653861999512,
      -0.20409002900123596,
      0.1005818247795105,
      -0.282255619764328,
      -0.17422208189964294,
      -0.04775461554527283,
      -0.1720198094844818,
      0.011060237884521484,
      -0.16947953402996063,
      -0.3821747303009033,
      -0.023460881784558296,
      -0.028775587677955627,
      0.36669254302978516,
      -0.17605970799922943,
      -0.05011001601815224,
      0.07421321421861649,
      -0.27568039298057556,
      -0.12119772285223007,
      0.1983446478843689,
      0.0405735969543457,
      -0.02767915278673172,
      0.4038543999195099,
      -0.09538618475198746,
      -0.1677180379629135,
      -0.0034182819072157145,
      0.6596291065216064,
      -0.029236450791358948,
      -0.004153787158429623,
      -0.3898083567619324,
      -0.018604299053549767,
      0.003022085875272751,
      0.0012202173238620162,
      -0.003517456818372011,
      -0.005115390755236149,
      0.003900987096130848,
      -0.000996443210169673,
      -0.0026156934909522533,
      -0.002042955718934536,
      -0.5791394114494324,
      -0.3169841468334198,
      0.056451525539159775,
      0.04999596253037453,
      -0.1789265275001526,
      0.0090046850964427,
      0.01738702319562435,
      -0.197756826877594,
      0.4817044138908386,
      0.005598843097686768,
      0.04092675819993019,
      -0.2830357849597931,
      -0.04161258041858673,
      -0.04862835630774498,
      -0.23870377242565155,
      -0.057444438338279724,
      -7.2223100662231445,
      0.058640141040086746,
      -0.0710323303937912,
      0.0961153507232666,
      0.10097247362136841,
      -0.5334120988845825,
      0.3458530604839325,
      0.18622702360153198,
      0.143072709441185,
      0.031811974942684174,
      -0.20083561539649963,
      -0.030417442321777344,
      0.12977129220962524,
      -0.30662035942077637,
      0.10883200913667679,
      0.00837587472051382,
      -0.193704292178154,
      0.04001247510313988,
      -0.43538153171539307,
      -0.07336747646331787,
      -0.00019277124374639243,
      -0.017793938517570496,
      -0.033854514360427856,
      0.40830960869789124,
      0.08863022923469543,
      0.21425965428352356,
      -0.24170170724391937,
      0.005881308577954769,
      0.36844801902770996,
      -0.07115986198186874,
      0.038124095648527145,
      -0.16394612193107605,
      -0.14996880292892456,
      0.31630608439445496,
      0.2076234519481659,
      0.12926921248435974,
      -0.5891807079315186,
      -0.05137953162193298,
      0.18989112973213196,
      0.38643550872802734,
      0.6830117702484131,
      -0.013849596492946148,
      -0.04159016162157059,
      -0.11469203233718872,
      -0.05516146495938301,
      -0.8009064793586731,
      0.017925096675753593,
      0.011878777295351028,
      -0.0019891804549843073,
      0.021941274404525757,
      0.04095400124788284,
      -1.5069105625152588,
      0.06888050585985184,
      0.02365102432668209,
      0.012505768798291683,
      0.08733487874269485,
      -0.2535720467567444,
      0.18800917267799377,
      -0.3240137994289398,
      0.14362019300460815,
      -0.10553675144910812,
      -0.3979871869087219,
      0.22546444833278656,
      -0.2282491773366928,
      0.2962741553783417,
      0.06669558584690094,
      -1.3372993469238281,
      -0.010006193071603775,
      0.04199736937880516,
      0.011531888507306576,
      0.92691570520401,
      -0.0876859575510025,
      -0.2820170521736145,
      0.01743197999894619,
      0.004602582193911076,
      -0.013275133445858955,
      0.0015358643140643835,
      -0.14281216263771057,
      -0.44129857420921326,
      -0.3898516893386841,
      -0.024334609508514404,
      0.010370142757892609,
      0.217427596449852,
      -0.14857426285743713,
      0.3973761796951294,
      -0.578928530216217,
      0.005273047368973494,
      -0.002792977960780263,
      0.21844875812530518,
      -0.1703050583600998,
      -0.005357613321393728,
      -0.010049293749034405,
      0.003681706730276346,
      -0.0068567716516554356,
      0.44975611567497253,
      0.0026801982894539833,
      -0.003590830136090517,
      -1.0544215440750122,
      0.04734411463141441,
      0.060839638113975525,
      0.015080547891557217,
      0.006118949968367815,
      0.004601213615387678,
      0.38597312569618225,
      -0.019673943519592285,
      0.23650702834129333,
      -0.16653884947299957,
      0.02101030945777893,
      0.03252294659614563,
      -0.22933098673820496,
      0.19802406430244446,
      0.0536426305770874,
      -0.134482741355896,
      -0.010992556810379028,
      -0.0926598608493805,
      -0.0578940287232399,
      0.7745183706283569,
      0.013282361440360546,
      -0.08033629506826401,
      -0.007790740113705397,
      0.012295922264456749,
      -0.443645179271698,
      0.017825497314333916,
      0.0031023176852613688,
      -0.04319179058074951,
      -0.011964843608438969,
      0.3412170708179474,
      -0.07874911278486252,
      -0.1850607544183731,
      -0.29366493225097656,
      0.019093496724963188,
      -0.5026517510414124,
      -0.1938731074333191,
      0.12844760715961456,
      0.3346659243106842,
      -0.14523980021476746,
      -0.010864432901144028,
      -0.04943767189979553,
      0.07336031645536423,
      0.31988152861595154,
      0.005407423246651888,
      0.24513770639896393,
      0.0015816199593245983,
      -0.2943856716156006,
      -0.3333568871021271,
      0.022543275728821754,
      -0.0080307237803936,
      0.0025478436145931482,
      0.818448543548584,
      0.0932031124830246,
      0.01234698947519064,
      -0.012790629640221596,
      -0.0037402911111712456,
      -0.1614646017551422,
      -0.3083640933036804,
      0.32154330611228943,
      -0.06691844761371613,
      0.34820160269737244,
      0.030138786882162094,
      -0.03242512047290802,
      0.02606002241373062,
      -0.41070321202278137,
      0.002840070053935051,
      -0.1404595822095871,
      -0.24329693615436554,
      -0.06378515064716339,
      0.01488308422267437,
      -0.24296966195106506,
      0.5767840147018433,
      -0.35624563694000244,
      -0.24591341614723206,
      0.12367643415927887,
      0.2438696324825287,
      -0.1113869845867157,
      -0.07092221081256866,
      -0.18040868639945984,
      -0.08105394244194031,
      0.0472535714507103,
      0.05152460187673569,
      0.4327000081539154,
      -0.021326031535863876,
      -0.17607302963733673,
      0.004202716052532196,
      0.494314581155777,
      0.006112809758633375,
      0.16955700516700745,
      0.0296640545129776,
      0.013427704572677612,
      -0.1913301795721054,
      -0.3421754837036133,
      0.5406565070152283,
      0.05005933344364166,
      -0.15015962719917297,
      0.29972121119499207,
      0.16225554049015045,
      0.032943353056907654,
      -0.0005323755904100835,
      -0.0048341890797019005,
      -0.007026662118732929,
      -0.004358296748250723,
      0.0313115119934082,
      -0.0703473910689354,
      0.04086753726005554,
      -0.008846519514918327,
      0.5683296322822571,
      0.36026838421821594,
      0.5371439456939697,
      0.07807859033346176,
      -0.19190187752246857,
      -0.3360588848590851,
      -0.07513979822397232,
      -0.30122679471969604,
      0.22544805705547333,
      -0.13846628367900848,
      0.02356279082596302,
      -8.202229499816895,
      0.27653732895851135,
      -0.02374901808798313,
      0.2129695564508438,
      0.17974647879600525,
      -0.28922924399375916,
      -0.34306639432907104,
      -0.5239012837409973,
      -0.1305655986070633,
      -0.17070984840393066,
      -0.0016303790034726262,
      0.7358582019805908,
      0.18873833119869232,
      -0.26532047986984253,
      -0.24759498238563538,
      -0.006273430306464434,
      0.0006615149904973805,
      0.002149914624169469,
      -0.005388924386352301,
      -0.0018950451631098986,
      0.6363694071769714,
      -3.2340879440307617,
      0.022760773077607155,
      0.007215340156108141,
      0.009577788412570953,
      -0.33743351697921753,
      0.08246512711048126,
      -0.02029898576438427,
      0.36624303460121155,
      -0.03742588311433792,
      -0.015963438898324966,
      -0.03590705245733261,
      0.06069638952612877,
      -0.028291720896959305,
      -0.3920617997646332,
      -0.12002323567867279,
      0.13902269303798676,
      -0.047926463186740875,
      -0.48135054111480713,
      0.48976171016693115,
      0.2898887097835541,
      -0.1873563528060913,
      -0.3132348656654358,
      -0.09640602767467499,
      -0.02429729700088501,
      -0.25080767273902893,
      0.2581125795841217,
      -0.22031621634960175,
      -0.06602174043655396,
      0.17533206939697266,
      0.1196533665060997,
      -0.2348356395959854,
      0.03222782537341118,
      -0.395997017621994,
      0.008222367614507675,
      0.02423311024904251,
      0.017039624974131584,
      0.6962670683860779,
      -0.06123286485671997,
      -0.0775044709444046,
      0.0005611260421574116,
      0.7627418637275696,
      0.14580164849758148,
      -0.25551462173461914,
      -0.4393536448478699,
      0.009552688337862492,
      -0.0014864425174891949,
      0.00035261045559309423,
      0.0033623056951910257,
      -0.023266898468136787,
      0.9384161829948425,
      0.0028709282632917166,
      -0.0013756916159763932,
      -0.3962382674217224,
      0.013773408718407154,
      -0.128302201628685,
      -0.5718502402305603,
      0.010396849364042282,
      -0.0024309279397130013,
      -0.007826161570847034,
      -0.23740154504776,
      0.02471381612122059,
      0.053863346576690674,
      -0.3511829674243927,
      -0.29375097155570984,
      0.008325067348778248,
      -0.17395494878292084,
      -0.03562556952238083,
      0.0781606137752533,
      0.10111287236213684,
      -0.1958450973033905,
      -0.09975726902484894,
      0.16642725467681885,
      -0.23057971894741058,
      0.03097456693649292,
      -0.2205333411693573,
      0.09081539511680603,
      -0.1854153871536255,
      -0.15281721949577332,
      -0.16636739671230316,
      -0.06072527915239334,
      -0.035847846418619156,
      0.1163855642080307,
      -0.2559322714805603,
      0.21654967963695526,
      0.0636739432811737,
      -0.002742881653830409,
      -0.276897132396698,
      -0.3288734555244446,
      0.4986608028411865,
      -0.17500916123390198,
      0.042931463569402695,
      0.012594245374202728,
      -0.28225287795066833,
      0.06756239384412766,
      -0.001964425900951028,
      -0.005122399423271418,
      -0.6067962050437927,
      0.39629682898521423,
      0.3114003837108612,
      -0.22534914314746857,
      -0.5068265795707703,
      0.14105278253555298,
      0.14175789058208466,
      -0.08981648832559586,
      -0.3835699260234833,
      0.09138678759336472,
      0.06515996158123016,
      -0.22470347583293915,
      0.42625418305397034,
      0.009490427561104298,
      0.24317477643489838,
      0.032513123005628586,
      -0.5973246693611145,
      -0.031965985894203186,
      -0.014826158061623573,
      0.6929970979690552,
      -0.011235279031097889,
      -0.037787336856126785,
      0.0035444775130599737,
      -0.5510890483856201,
      -0.05087248235940933,
      -0.043564021587371826,
      0.04649807885289192,
      0.17198437452316284,
      0.3519251346588135,
      -0.010801722295582294,
      -0.010397096164524555,
      -0.3243411183357239,
      -0.10553160309791565,
      -0.0348617248237133,
      0.029785005375742912,
      0.024175100028514862,
      -0.3254583775997162,
      -0.26553812623023987,
      0.06409799307584763,
      0.021957457065582275,
      0.008046025410294533,
      -0.430391788482666,
      0.23769992589950562,
      -0.0637684240937233,
      -0.06680873036384583,
      0.4878977835178375,
      -0.10674650222063065,
      -0.1714635044336319,
      -0.00027974002296105027,
      0.06356924027204514,
      0.06990846991539001,
      -0.48475179076194763,
      -0.03746090084314346,
      0.5613357424736023,
      -0.07247929275035858,
      -0.3662312924861908,
      -0.18386834859848022,
      -0.00655481219291687,
      -1.4331474304199219,
      0.11047522723674774,
      0.04584970325231552,
      -0.08866780251264572,
      -0.10127471387386322,
      0.0011511857155710459,
      -0.04211680591106415,
      -0.003885366255417466,
      -0.000558495637960732,
      -0.37509670853614807,
      -0.008200399577617645,
      0.7562862634658813,
      -0.06440620124340057,
      -0.002618062077090144,
      -0.31344565749168396,
      0.16930368542671204,
      -0.08404865860939026,
      0.03516170382499695,
      -0.29359281063079834,
      -0.2692616581916809,
      0.1335793137550354,
      -0.29398855566978455,
      -0.1279497891664505,
      -0.27895334362983704,
      -0.02996332384645939,
      0.20737817883491516,
      -0.12836842238903046,
      0.012918442487716675,
      0.3063725531101227,
      -0.08539076149463654,
      -0.2771586775779724,
      -0.0160541832447052,
      -0.20976994931697845,
      -0.14957314729690552,
      -0.11647368967533112,
      0.14530521631240845,
      0.0409758985042572,
      -0.11859114468097687,
      -0.13269799947738647,
      -0.3109159767627716,
      -0.10508638620376587,
      -0.2280244678258896,
      -0.20142494142055511,
      0.2833404541015625,
      -0.30596423149108887,
      -0.4192288815975189,
      0.25135374069213867,
      -0.12846069037914276,
      0.02560630440711975,
      0.6133346557617188,
      0.057565804570913315,
      0.016184402629733086,
      -0.017810527235269547,
      -0.05878644064068794,
      -0.01611931063234806,
      0.0006974410498514771,
      -0.0015145483193919063,
      0.7394297122955322,
      -0.06616220623254776,
      -0.36933064460754395,
      -0.0022168555296957493,
      -0.003440841333940625,
      -0.00021387090964708477,
      0.00024328129075001925,
      -0.0032679636497050524,
      -0.08263400942087173,
      -0.2282894104719162,
      -0.0573728010058403,
      -0.1012255996465683,
      0.4176952540874481,
      -0.2761290967464447,
      0.36851030588150024,
      0.20460307598114014,
      -0.38035428524017334,
      0.1922532469034195
    ],
    [
      -0.4255252480506897,
      0.2856845557689667,
      0.07172969728708267,
      0.005117964930832386,
      -0.00041197240352630615,
      0.06389957666397095,
      0.04152350500226021,
      -0.03942945972084999,
      0.1575792282819748,
      -0.16291484236717224,
      0.11598119884729385,
      -0.17216575145721436,
      0.03223501518368721,
      0.059180084615945816,
      0.14259204268455505,
      -0.2664259076118469,
      0.3936379551887512,
      0.23239579796791077,
      0.06998894363641739,
      0.09948425740003586,
      0.1764526069164276,
      0.060435499995946884,
      0.20962391793727875,
      -0.05599226802587509,
      0.2191758155822754,
      -0.05896632373332977,
      1.4442445039749146,
      -0.3289230167865753,
      0.004505596589297056,
      0.22055207192897797,
      -0.1506858468055725,
      -0.08622375130653381,
      -0.1638982892036438,
      -0.09560423344373703,
      -0.19340810179710388,
      -0.05279915779829025,
      0.06183691322803497,
      0.0001272633671760559,
      -0.043015606701374054,
      0.13779425621032715,
      -0.01972663216292858,
      -0.001208300469443202,
      -0.07904369384050369,
      0.04675837978720665,
      0.2799438536167145,
      0.1962297409772873,
      -0.09828490018844604,
      -0.1571936309337616,
      -0.09895354509353638,
      -0.04852523282170296,
      0.15282809734344482,
      0.0746157243847847,
      -0.07460016757249832,
      0.5543884634971619,
      0.12006116658449173,
      -0.1740553230047226,
      0.17704465985298157,
      -0.23191441595554352,
      0.06718345731496811,
      -0.032563820481300354,
      0.09007073938846588,
      0.09024179726839066,
      0.08420715481042862,
      0.36182135343551636,
      0.004497930407524109,
      -0.1482088416814804,
      0.17986226081848145,
      -0.34356680512428284,
      0.03783755004405975,
      -0.051899880170822144,
      -0.22708535194396973,
      0.4764604866504669,
      -0.0900137647986412,
      0.09750770032405853,
      -0.1792353093624115,
      -0.21988676488399506,
      0.0012420043349266052,
      -0.010622886009514332,
      0.396018922328949,
      -9.443574905395508,
      -0.029251456260681152,
      0.14888808131217957,
      0.1481146365404129,
      -0.016903581097722054,
      0.15018333494663239,
      -0.04069606959819794,
      -0.06605522334575653,
      0.11765622347593307,
      0.15255483984947205,
      0.10618670284748077,
      0.4318169057369232,
      0.06964150816202164,
      0.08800225704908371,
      0.08481597155332565,
      0.07087258249521255,
      -0.15268531441688538,
      -0.13643766939640045,
      -0.24446316063404083,
      0.01581304706633091,
      0.02456369623541832,
      0.050372686237096786,
      0.6385362148284912,
      -0.01704023964703083,
      -0.21575616300106049,
      -1.664950966835022,
      0.06853597611188889,
      0.2347411960363388,
      -0.0351128987967968,
      -0.0006997413001954556,
      0.7666564583778381,
      -0.05717290937900543,
      -0.19321081042289734,
      -0.07682105898857117,
      0.21865922212600708,
      0.23608480393886566,
      0.14262744784355164,
      0.044968631118535995,
      -0.18086090683937073,
      -0.18175503611564636,
      -0.2820941209793091,
      -0.16128212213516235,
      0.32324036955833435,
      0.10050347447395325,
      0.05913684517145157,
      0.01659189723432064,
      0.12203992158174515,
      -0.7772040367126465,
      0.17723432183265686,
      0.29422441124916077,
      -0.2576185464859009,
      -0.025547422468662262,
      0.19952915608882904,
      -0.0731026828289032,
      0.219685360789299,
      0.05378211662173271,
      0.2500183880329132,
      0.1524166464805603,
      -0.3988701403141022,
      -0.8311151266098022,
      0.1797143965959549,
      0.24498167634010315,
      -0.1517973691225052,
      -0.11885075271129608,
      0.3728344738483429,
      0.100763700902462,
      -0.115150086581707,
      -0.11773793399333954,
      -0.3134070038795471,
      0.06763973832130432,
      -0.05007442831993103,
      -0.27365803718566895,
      -0.06460393965244293,
      -0.03523750975728035,
      0.1283368021249771,
      -0.40841734409332275,
      0.1900382936000824,
      -0.06364282220602036,
      0.1479083150625229,
      -0.16271482408046722,
      0.4249515235424042,
      -0.09188595414161682,
      0.05625543370842934,
      0.03587120398879051,
      -0.07027849555015564,
      -0.2494756579399109,
      0.06472747772932053,
      0.13091424107551575,
      0.039954397827386856,
      0.08469069004058838,
      -2.1207926273345947,
      0.1900879293680191,
      0.08717373758554459,
      0.12561951577663422,
      -0.12858007848262787,
      -0.09411456435918808,
      0.2282646894454956,
      0.0809381753206253,
      -0.27319100499153137,
      -0.192750945687294,
      -0.026275336742401123,
      -0.0454949289560318,
      0.2652449607849121,
      -0.07133420556783676,
      0.015162901021540165,
      -0.011363637633621693,
      -0.04537813737988472,
      -0.04997308552265167,
      -0.13737449049949646,
      -0.03873826190829277,
      -0.33795788884162903,
      0.0019129678839817643,
      -0.13519516587257385,
      -0.06995832920074463,
      -0.046639904379844666,
      0.036123987287282944,
      -0.03713572025299072,
      -0.01680988259613514,
      0.06855019181966782,
      -0.0038547671865671873,
      -0.12546195089817047,
      -0.12241268903017044,
      -0.04272870346903801,
      -0.33685702085494995,
      0.3738389015197754,
      0.06700953096151352,
      -0.12680308520793915,
      0.1764828860759735,
      0.17972616851329803,
      -0.05351726710796356,
      -0.1266445815563202,
      0.04640679061412811,
      -0.5214126706123352,
      -0.30383631587028503,
      0.13207904994487762,
      0.1614455133676529,
      -0.12394449859857559,
      0.3496086001396179,
      -0.04097158461809158,
      0.38316550850868225,
      -0.6755583882331848,
      -0.01024617999792099,
      0.14195723831653595,
      0.19978970289230347,
      0.02759396843612194,
      0.05706176161766052,
      -0.20638591051101685,
      0.06909413635730743,
      -0.19511885941028595,
      0.03636161983013153,
      0.04341169446706772,
      0.2753536105155945,
      0.26813292503356934,
      1.9866079092025757,
      -0.02124740742146969,
      -0.09384456276893616,
      -0.08285871893167496,
      -0.1922340840101242,
      2.5966293811798096,
      -0.008901993744075298,
      -0.3645765483379364,
      -0.05643289163708687,
      0.07618435472249985,
      0.16328780353069305,
      0.7183868288993835,
      0.17301994562149048,
      0.020189551636576653,
      0.1113060861825943,
      0.11685454100370407,
      -0.2177504152059555,
      -0.49049440026283264,
      -0.08295972645282745,
      0.03332729637622833,
      -0.03418087214231491,
      0.04791908338665962,
      -1.680320382118225,
      0.5205290913581848,
      0.13843627274036407,
      -0.051795754581689835,
      0.0013390595559030771,
      -0.08909149467945099,
      0.04268636554479599,
      -0.025533407926559448,
      -0.33572110533714294,
      -1.1662914752960205,
      0.37132224440574646,
      -0.055191729217767715,
      -0.07845351099967957,
      0.03492557257413864,
      0.04372796416282654,
      0.31366342306137085,
      0.14687369763851166,
      0.20708541572093964,
      -0.2873958945274353,
      0.10019190609455109,
      0.4617241322994232,
      -0.7973563075065613,
      0.22200869023799896,
      -0.16215400397777557,
      0.010051624849438667,
      0.06467657536268234,
      0.22657644748687744,
      0.2725040912628174,
      0.5351925492286682,
      0.052102141082286835,
      -0.022065551951527596,
      -0.013979027979075909,
      -0.4669761657714844,
      -0.18198330700397491,
      -0.06597589701414108,
      -0.20991656184196472,
      0.5376919507980347,
      -0.3642381429672241,
      0.28426307439804077,
      -0.04083011671900749,
      -0.3028188943862915,
      -0.05443131923675537,
      0.13432924449443817,
      0.2357049435377121,
      -0.08109389990568161,
      0.29373034834861755,
      0.06379435956478119,
      -0.013298599049448967,
      0.1841709166765213,
      0.37591928243637085,
      -0.009225993417203426,
      0.16341860592365265,
      0.4235203266143799,
      0.02672695368528366,
      0.014724054373800755,
      -0.398462176322937,
      0.17737576365470886,
      0.027032367885112762,
      -0.5464352965354919,
      0.0468842051923275,
      -0.04985959082841873,
      -0.28427910804748535,
      -0.10000715404748917,
      -0.13890202343463898,
      0.17774058878421783,
      -0.35491231083869934,
      -0.04974307864904404,
      0.07395229488611221,
      -0.20020101964473724,
      0.23225431144237518,
      -0.2767733037471771,
      -0.015939779579639435,
      0.16361458599567413,
      0.34127193689346313,
      0.2882789671421051,
      0.21648339927196503,
      0.010060648433864117,
      0.0761861503124237,
      0.02202853560447693,
      -0.12956522405147552,
      0.3033409118652344,
      0.6328761577606201,
      0.14447449147701263,
      0.17977237701416016,
      0.06119818612933159,
      -0.07827731221914291,
      -0.02136704884469509,
      0.09855948388576508,
      -0.30916786193847656,
      0.004823005758225918,
      0.5014747977256775,
      -0.011834459379315376,
      -0.1053486168384552,
      -0.164707213640213,
      -0.030011095106601715,
      -0.09459951519966125,
      -0.15963301062583923,
      0.18700174987316132,
      -0.13810132443904877,
      -0.36911287903785706,
      0.14447711408138275,
      0.14214028418064117,
      -0.1229780837893486,
      0.07668686658143997,
      0.9186726212501526,
      -0.13794566690921783,
      0.12663115561008453,
      0.4154515862464905,
      0.17613370716571808,
      0.03819256275892258,
      -0.2575364112854004,
      0.5785043835639954,
      1.0135297775268555,
      0.007825502194464207,
      0.07017267495393753,
      0.00919526256620884,
      0.14982159435749054,
      -0.10831670463085175,
      0.20211061835289001,
      0.029337279498577118,
      -0.06589772552251816,
      0.296693354845047,
      0.45116400718688965,
      -0.2145267277956009,
      -0.0168180912733078,
      0.0072873979806900024,
      -0.07270841300487518,
      0.07450108975172043,
      -1.0147948265075684,
      -0.12165342271327972,
      0.14431241154670715,
      0.3893210291862488,
      -0.016822168603539467,
      0.2576000392436981,
      -0.07503856718540192,
      -0.0016912876162678003,
      -0.19699081778526306,
      0.012336937710642815,
      0.18974804878234863,
      0.03142566233873367,
      0.051210395991802216,
      -0.22614499926567078,
      0.007467164658010006,
      0.41707560420036316,
      -0.24637380242347717,
      -0.04257628321647644,
      -0.02370481938123703,
      -0.08200164884328842,
      0.21135669946670532,
      -0.14015763998031616,
      0.20138873159885406,
      0.286174476146698,
      0.11758662760257721,
      0.051666222512722015,
      -0.2156589776277542,
      0.21282511949539185,
      -0.00433293916285038,
      -0.07441385835409164,
      -0.17773158848285675,
      0.04214073345065117,
      -0.04966834932565689,
      -0.02269238419830799,
      0.28600630164146423,
      0.14364604651927948,
      -0.200464129447937,
      0.030305389314889908,
      -0.15580584108829498,
      0.014758117496967316,
      -0.1526901125907898,
      -0.010997602716088295,
      -0.09253722429275513,
      -0.2613283395767212,
      0.05377485230565071,
      0.1433415561914444,
      0.1742354780435562,
      -0.017542971298098564,
      0.23166050016880035,
      -0.3315519094467163,
      0.21163836121559143,
      -0.2143068015575409,
      0.49319562315940857,
      0.03960051387548447,
      -0.25648489594459534,
      0.347457617521286,
      -0.17176669836044312,
      -0.9653075337409973,
      0.02740047127008438,
      0.05871226638555527,
      0.15659882128238678,
      -0.13485905528068542,
      0.02643251232802868,
      -0.14634883403778076,
      -0.27674826979637146,
      -0.2743927836418152,
      0.08267083019018173,
      0.00712988106533885,
      -0.9370328187942505,
      -0.271209180355072,
      -0.190799281001091,
      0.005110740661621094,
      0.24412384629249573,
      0.651762843132019,
      -0.09933310002088547,
      0.12244325876235962,
      -0.10909855365753174,
      -0.7301216125488281,
      -0.016100086271762848,
      -0.13357457518577576,
      -0.07109460979700089,
      0.22448262572288513,
      0.10362125933170319,
      0.22114941477775574,
      0.1425023376941681,
      0.051922790706157684,
      -0.10927244275808334,
      -0.0019510654965415597,
      -0.2471742033958435,
      -0.0724974051117897,
      0.6462770104408264,
      -0.03983176127076149,
      -0.15657322108745575,
      0.023783648386597633,
      0.01123645156621933,
      0.21434630453586578,
      -0.13991129398345947,
      0.14215952157974243,
      -0.3060027062892914,
      0.01399897038936615,
      0.32020124793052673,
      0.17239509522914886,
      -0.33832886815071106,
      0.3870870769023895,
      -1.7439186573028564,
      0.840056836605072,
      -1.8193563222885132,
      -0.09383377432823181,
      -0.023059947416186333,
      0.028179116547107697,
      -0.055392421782016754,
      0.16190743446350098,
      -0.3853316009044647,
      -0.07171157002449036,
      -0.049653906375169754,
      -0.0608491450548172,
      -0.17742981016635895,
      0.03065630979835987,
      0.4366399645805359,
      -0.18504191935062408,
      0.1806585192680359,
      0.10552806407213211,
      -0.13096949458122253,
      -0.5244625210762024,
      0.0574333593249321,
      0.00268380343914032,
      0.043747592717409134,
      0.11140958219766617,
      -0.9262333512306213,
      -0.22780711948871613,
      0.21184712648391724,
      0.3713463842868805,
      -0.2359314262866974,
      0.16583067178726196,
      0.024301916360855103,
      -0.01718142069876194,
      0.12990891933441162,
      -0.1487695872783661,
      -0.04253916069865227,
      -0.15275517106056213,
      0.33859920501708984,
      0.5475664734840393,
      0.1721903681755066,
      -0.07835642248392105,
      -0.13106775283813477,
      -0.1371215134859085,
      -0.09773308038711548,
      0.02770884521305561,
      -0.36059853434562683,
      -0.3690169155597687,
      0.08070308715105057,
      0.34445467591285706,
      -0.0678485706448555,
      0.04210150986909866,
      0.03016534075140953,
      0.14238235354423523,
      -0.402547687292099,
      -0.393882155418396,
      0.1109650731086731,
      0.06425835937261581,
      0.027082709595561028,
      0.015319271944463253,
      -0.036698825657367706,
      0.14126628637313843,
      0.022596174851059914,
      0.6901490092277527,
      -0.06425099819898605,
      0.025922127068042755,
      -0.09674158692359924,
      0.07383447885513306,
      -0.30223557353019714,
      0.21970383822917938,
      0.10325529426336288,
      -0.14857794344425201,
      0.004246256314218044,
      -0.3349752128124237,
      0.12476431578397751,
      0.16652756929397583,
      0.23354187607765198,
      -0.18378140032291412,
      0.002884515328332782,
      -0.00869331881403923,
      -0.031037485226988792,
      -0.02295292168855667,
      -0.305772066116333,
      -0.11357592791318893,
      0.1530066430568695,
      0.3502214252948761,
      -0.299154132604599,
      0.18919512629508972,
      0.06661080569028854,
      -0.038918912410736084,
      -0.1557547003030777,
      0.10394353419542313,
      -0.0019484832882881165,
      -0.08300906419754028,
      0.0947740375995636,
      -0.43120506405830383,
      -0.16166235506534576,
      0.05181535333395004,
      -0.41335329413414,
      0.45058804750442505,
      -0.6225135326385498,
      0.19502535462379456,
      0.5066349506378174,
      -1.0089656114578247,
      0.07300814241170883,
      0.021938903257250786,
      -0.2569655776023865,
      -0.2614976167678833,
      0.17936398088932037,
      0.014447256922721863,
      0.2297598123550415,
      0.1375974416732788,
      -0.04853956401348114,
      -0.10441015660762787,
      0.10802718997001648,
      -0.054424434900283813,
      0.5114377737045288,
      0.22934740781784058,
      0.34500956535339355,
      -0.3829697072505951,
      -0.05466683208942413,
      0.13695882260799408,
      0.11439839005470276,
      -0.13991421461105347,
      -0.030050581321120262,
      -0.13273832201957703,
      0.12520402669906616,
      0.08855268359184265,
      0.06928934901952744,
      0.1066560298204422,
      -0.26807624101638794,
      0.256084680557251,
      -1.6742767095565796,
      0.2608480453491211,
      0.10793986171483994,
      -0.07039050757884979,
      0.1509394496679306,
      -0.24123543500900269,
      0.015180893242359161,
      -0.13421966135501862,
      -0.061431676149368286,
      0.0329526923596859,
      -0.05460183694958687,
      -0.6546751856803894,
      0.26157742738723755,
      -0.16984237730503082,
      -0.08075401186943054,
      -0.09285342693328857,
      0.12373875081539154,
      0.044168829917907715,
      0.005788390524685383,
      0.04831068962812424,
      0.06891514360904694,
      0.02297934889793396,
      -3.666002035140991,
      -0.11089819669723511,
      -0.047223854809999466,
      0.22889836132526398,
      -0.15978319942951202,
      0.13914133608341217,
      -0.017661385238170624,
      -0.04548591747879982,
      0.008122303523123264,
      0.654431164264679,
      0.31602755188941956,
      -0.14543110132217407,
      -0.0907975360751152,
      0.38499915599823,
      -0.027130981907248497,
      -0.2163049578666687,
      0.24840031564235687,
      -0.14641417562961578,
      -0.011178198270499706,
      0.15294867753982544,
      0.31331050395965576,
      -0.38728761672973633,
      0.10661360621452332,
      0.06905276328325272,
      -0.023112794384360313,
      0.07729228585958481,
      0.06343185901641846,
      -0.19207119941711426,
      -0.8071845173835754,
      -0.00838081818073988,
      0.09842497110366821,
      0.19148047268390656,
      0.4533025920391083,
      -0.12960055470466614,
      0.07171444594860077,
      -0.10583345592021942,
      0.27093014121055603,
      0.34389960765838623,
      -0.005416915286332369,
      -0.001428939402103424,
      0.15789908170700073,
      -0.11157981306314468,
      -0.08590514957904816,
      0.10067879408597946,
      -0.27619078755378723,
      0.04719819873571396,
      -0.13771755993366241,
      0.15871179103851318,
      0.04961872100830078,
      -0.2834382951259613,
      -0.023212041705846786,
      -0.06238257512450218,
      0.32559624314308167,
      0.06262339651584625,
      -0.2588158845901489,
      -0.26095816493034363,
      0.09779104590415955,
      0.2633526027202606,
      -0.08312514424324036,
      0.13090193271636963,
      0.04206357151269913,
      -0.3203645646572113,
      -0.18012535572052002,
      0.26052984595298767,
      0.18850764632225037,
      0.1654091775417328,
      0.043271131813526154,
      -0.19099576771259308,
      0.6253896355628967,
      0.06468647718429565,
      0.06614047288894653,
      -0.08363348245620728,
      -0.16693179309368134,
      0.16798768937587738,
      0.14022985100746155,
      -0.058282360434532166,
      0.22394508123397827,
      0.8027870059013367,
      0.013225428760051727,
      -0.09309927374124527,
      -0.2361433506011963,
      0.08561133593320847,
      0.008244229480624199,
      0.23119457066059113,
      -0.3695712685585022,
      0.11705666780471802,
      -0.02622242085635662,
      0.3325725197792053,
      -0.10018245875835419,
      0.05122990161180496,
      0.7520774006843567,
      0.04354769363999367,
      0.23152656853199005,
      -0.1451455056667328,
      -0.02586815506219864,
      -0.5636873841285706,
      -0.491385817527771,
      0.012528733350336552,
      0.0907178744673729,
      -0.16176261007785797,
      0.15678201615810394,
      -0.2074597328901291,
      0.026319032534956932,
      -0.03378366678953171,
      0.14085446298122406,
      -0.5014045834541321,
      -0.21761974692344666,
      0.10175073146820068,
      0.2447703629732132,
      -0.05748267471790314,
      0.17067432403564453,
      1.2148261070251465,
      -0.18157778680324554,
      0.022095737978816032,
      0.05608781427145004,
      -0.20743420720100403,
      0.019823135808110237,
      0.3947976231575012,
      -0.4332807958126068,
      0.0637945681810379,
      0.04378744214773178,
      0.03204558789730072,
      0.2014545053243637,
      0.7344903349876404,
      0.05252797529101372,
      -0.07124269008636475,
      -0.03540454059839249,
      -0.144636869430542,
      0.18474622070789337,
      0.3928340971469879,
      -0.012448441237211227,
      -0.035612914711236954,
      -0.1759023219347,
      -0.1786615401506424,
      0.010104462504386902,
      -0.15617749094963074,
      -0.3836307227611542,
      0.767326295375824,
      0.09188175946474075,
      0.007666235789656639,
      -0.09182832390069962,
      0.04199932888150215,
      -0.2689230442047119,
      0.2694041430950165,
      -0.8870065808296204,
      -0.28261294960975647,
      -0.6654239892959595,
      -0.058370500802993774,
      0.28716611862182617,
      0.2375984489917755,
      -0.1644870936870575,
      0.3123747706413269,
      -0.06675836443901062,
      -0.002034008502960205,
      -0.1923404484987259,
      -0.27949225902557373,
      -0.6649355292320251,
      0.032646771520376205,
      -0.07762744277715683,
      0.037943024188280106,
      0.2061261534690857,
      -0.5000649690628052,
      0.13067957758903503,
      -0.4702780544757843,
      0.08270001411437988,
      0.7278880476951599,
      0.25098010897636414,
      -0.042720191180706024,
      -0.18378806114196777,
      0.06701326370239258,
      0.09125526249408722,
      0.02360483631491661,
      -0.1536874771118164,
      0.15358427166938782,
      0.06481441855430603,
      0.8274158835411072,
      -0.4178915321826935,
      0.133424311876297,
      -0.16919079422950745,
      0.18599183857440948,
      0.06765404343605042,
      0.07780739665031433,
      -0.1346464604139328,
      -0.1740693747997284,
      0.7384105324745178,
      0.1942996084690094,
      -0.12091266363859177,
      0.02448529377579689,
      0.2825964689254761,
      0.3947658836841583,
      -0.06693832576274872,
      0.0918809324502945,
      -0.0562107190489769,
      -0.2617928981781006,
      -0.08497802168130875,
      0.04787863790988922,
      0.4390108585357666,
      0.08902095258235931,
      0.05767291784286499,
      -0.014746099710464478,
      -0.7623134851455688,
      0.2904162108898163,
      -0.08111763000488281,
      -0.04435331001877785,
      0.04012950882315636,
      0.384992778301239,
      0.004028476774692535,
      -0.052369650453329086,
      -1.0494904518127441,
      -0.14457909762859344,
      -0.006987574510276318,
      0.1008247509598732,
      -0.12545320391654968,
      -0.08120626956224442,
      -0.21269600093364716,
      -0.06459701061248779,
      0.3907947540283203,
      0.1324797421693802,
      -0.24784553050994873,
      0.1772986501455307,
      0.22796250879764557,
      -0.10903894901275635,
      0.028057292103767395,
      -0.5671734809875488,
      -0.28786981105804443,
      0.06996196508407593,
      -0.197279155254364,
      -0.07654262334108353,
      -0.0389469638466835,
      -0.14335910975933075,
      -0.22133325040340424,
      0.019989430904388428,
      -0.24076645076274872,
      -0.06362967938184738,
      -1.921712040901184,
      -0.15897761285305023,
      0.06891774386167526,
      -0.009834662079811096,
      0.2040940374135971,
      -1.5646332502365112,
      0.04557888209819794,
      0.3365645110607147,
      0.06549779325723648,
      -0.08458647131919861,
      0.19066749513149261,
      0.16628389060497284,
      -0.3700651526451111,
      0.10072482377290726,
      0.027533872053027153,
      -0.8619420528411865,
      0.41123709082603455,
      -0.09927312284708023,
      0.06902676820755005,
      -0.07477135956287384,
      0.045923639088869095,
      0.1747005432844162,
      -2.103100061416626,
      0.2917969524860382,
      -0.12933121621608734,
      -0.11390002071857452,
      0.1075141504406929,
      -0.0020441082306206226,
      0.009409725666046143,
      -0.5932208895683289,
      -0.11460711061954498,
      0.46742016077041626,
      0.16416653990745544,
      0.17885459959506989,
      0.24974599480628967,
      0.17717330157756805,
      0.0008044737041927874,
      -0.30735448002815247,
      -0.6230829358100891,
      0.10857018083333969,
      -0.3777705430984497,
      -0.10839977860450745,
      0.48151761293411255,
      0.04183552786707878,
      0.11462149024009705,
      0.8297709226608276,
      -0.023531313985586166,
      -0.012389078736305237,
      0.2506365180015564,
      0.16675986349582672,
      -0.42084988951683044,
      -0.00406938511878252,
      -0.03856929764151573,
      -0.09161030501127243,
      0.2784292697906494,
      -0.6883096694946289,
      -0.2977621853351593,
      0.16347821056842804,
      -0.042652279138565063,
      -0.22318218648433685,
      0.11651865392923355,
      -0.01065564900636673,
      -0.22505658864974976,
      -0.04713723435997963,
      -0.10930930078029633,
      -0.5792344212532043,
      -0.6280360817909241,
      0.32440024614334106,
      0.02059534750878811,
      0.5535856485366821,
      0.0699886679649353,
      0.013787869364023209,
      -0.10104373842477798,
      -0.26594480872154236,
      0.2837207317352295,
      0.036325059831142426,
      -0.22799831628799438,
      -0.35696884989738464,
      0.7733218669891357,
      -0.29178062081336975,
      0.11948585510253906,
      0.17464236915111542,
      -0.06297801434993744,
      -0.02146332897245884,
      -0.09858899563550949,
      -0.06371746957302094,
      0.3412662148475647,
      0.08459668606519699,
      0.027844175696372986,
      0.1083100363612175,
      -0.6656355857849121,
      0.015442275442183018,
      -0.020534545183181763,
      -0.08675578981637955,
      -0.6340366005897522,
      -0.04099937528371811,
      -0.6194657683372498,
      -0.08058523386716843,
      0.2532478868961334,
      0.3300560414791107,
      0.02552514523267746,
      0.05060071125626564,
      0.9223480224609375,
      0.06146562099456787,
      0.021598679944872856,
      -0.007343372795730829,
      0.09432239830493927,
      -0.4611867368221283,
      -0.034878265112638474,
      0.05190170928835869,
      0.14737606048583984,
      0.10950823873281479,
      0.056435782462358475,
      0.0352492518723011,
      0.4924950897693634,
      0.5885264277458191,
      0.06319180876016617,
      0.02275843732059002,
      -0.046700429171323776,
      0.007052084431052208,
      0.14073172211647034,
      0.10566387325525284,
      0.04255048558115959,
      -0.12412673979997635,
      -0.33485540747642517,
      -0.13413593173027039,
      0.23133252561092377,
      -0.09381520748138428,
      0.2900242507457733,
      -0.5020900964736938,
      0.04399101808667183,
      0.00936177372932434,
      0.15311256051063538,
      0.3957781195640564,
      0.02815779112279415,
      0.07878509163856506,
      -0.05469556525349617,
      0.004441813565790653,
      0.015457353554666042,
      0.2511740028858185,
      -0.5443190336227417,
      0.16094432771205902,
      0.48946413397789,
      0.15653330087661743,
      0.18717753887176514,
      -0.46119949221611023,
      0.005337054841220379,
      0.01496044546365738,
      -0.03784966468811035,
      -0.1542390137910843,
      -1.1038713455200195,
      0.14476549625396729,
      -0.03288794681429863,
      0.07139161974191666,
      0.05043157562613487,
      -0.1407407522201538,
      0.04514206200838089,
      -0.05602263659238815,
      -0.0867580696940422,
      -0.10431651771068573,
      -0.16650092601776123,
      0.0008513228385709226,
      0.02990383841097355,
      -0.11010638624429703,
      0.06749201565980911,
      -0.3250647783279419,
      -0.7840504050254822,
      0.21351544559001923,
      1.122295618057251,
      0.23180706799030304,
      -0.07289089262485504,
      0.06585193425416946,
      0.08268653601408005,
      0.34348636865615845,
      0.091489277780056,
      0.07693203538656235,
      -0.19599482417106628,
      0.46665650606155396,
      4.322535514831543,
      -0.12354005128145218,
      -0.023224661126732826,
      0.05287761613726616,
      -0.034909438341856,
      -0.26825693249702454,
      0.077942855656147,
      0.07105205208063126,
      0.19251133501529694,
      -0.18154436349868774,
      0.1878863424062729,
      0.02612549066543579,
      -0.09222827106714249,
      0.08763335645198822,
      0.173246368765831,
      0.13134390115737915,
      -0.2015843391418457,
      0.07656032592058182,
      0.22491011023521423,
      0.0018918338464573026,
      -0.007066783495247364,
      -0.9333783984184265,
      0.08561818301677704,
      -0.038976285606622696,
      0.3049241006374359,
      -0.06521472334861755,
      0.17974933981895447,
      -0.23863258957862854,
      0.09019995480775833,
      -0.061426322907209396,
      0.08891792595386505,
      -0.6574012637138367,
      -0.15766015648841858,
      0.42052048444747925,
      0.1524345874786377,
      0.02824748121201992,
      0.060117147862911224,
      -0.17710532248020172,
      -0.08017927408218384,
      0.3816586434841156,
      -0.13177138566970825,
      0.037374503910541534,
      -0.05086929723620415,
      -0.062220748513936996,
      0.3373658359050751,
      1.0406968593597412,
      0.27805957198143005,
      0.03318159654736519,
      0.31374359130859375,
      -0.0768376812338829,
      -0.01907295733690262,
      0.11889249831438065,
      0.9446374177932739,
      -0.17653237283229828,
      -0.0314444862306118,
      0.15812130272388458,
      0.2301914095878601,
      -0.04995439946651459,
      -0.014889235608279705,
      0.3937588930130005,
      -0.004276401363313198,
      0.010358251631259918,
      -0.21781088411808014,
      -0.36902740597724915,
      0.272661954164505,
      0.06798872351646423,
      0.021914929151535034,
      -0.021949410438537598,
      -0.11759492754936218,
      0.08151459693908691,
      0.041426487267017365,
      -0.2608736753463745,
      -0.13496486842632294,
      0.22314178943634033,
      -0.27170851826667786,
      -0.14127621054649353,
      0.3612135648727417,
      -0.2518547773361206,
      -1.6606978178024292,
      -0.17524348199367523,
      -0.2759884297847748,
      0.0017121508717536926,
      0.05525369569659233,
      1.2243541479110718,
      -0.38780680298805237,
      -0.26472872495651245,
      0.04157239943742752,
      0.1646333783864975,
      -0.01651240698993206,
      0.1660287082195282,
      0.672618567943573,
      0.02732723578810692,
      -0.4363260269165039,
      0.08325183391571045,
      -0.39991495013237,
      -0.2804133892059326,
      0.0701192244887352,
      0.06539348512887955,
      -0.01753411628305912,
      0.6548110246658325,
      -0.27831581234931946,
      0.15195497870445251,
      0.004595426842570305,
      -0.07327102869749069,
      0.031847890466451645,
      -0.08819688856601715,
      0.060732729732990265,
      -0.05373688042163849,
      -0.01796320639550686,
      -0.06618376076221466,
      0.026057496666908264,
      0.0006023645401000977,
      0.08341282606124878,
      -0.0757681280374527,
      0.013304689899086952,
      0.057714857161045074,
      -0.02335982769727707,
      0.016269737854599953,
      0.0731840655207634,
      -0.029179077595472336,
      0.013917087577283382,
      -0.03808746114373207,
      0.011540183797478676,
      0.011315807700157166,
      -0.06361592561006546,
      -0.010684266686439514,
      -0.0011425013653934002,
      -0.01693105138838291,
      0.062269262969493866,
      -0.04706268012523651,
      -0.07615204155445099,
      -0.08169510215520859,
      -0.04934766888618469,
      -0.08751081675291061,
      -0.02114049345254898,
      0.07978197187185287,
      -0.03787252679467201,
      -0.07579665631055832,
      -0.014040187001228333,
      -0.020780734717845917,
      -0.023082053288817406,
      -0.05156271904706955,
      0.014371201395988464,
      -0.011222302913665771,
      -0.015143834054470062,
      0.044978320598602295,
      -0.057776883244514465,
      0.0578492246568203,
      0.0163906067609787,
      -0.0030453279614448547,
      -0.08450119942426682,
      0.018737562000751495,
      -0.005164571106433868,
      0.03953426331281662,
      0.043850261718034744,
      -0.022207625210285187,
      -0.030235685408115387,
      -0.06990599632263184,
      -0.08668681979179382,
      0.0009574934374541044,
      0.024765774607658386,
      0.05528571456670761,
      -0.05394662544131279,
      -0.07953373342752457,
      0.07270613312721252,
      0.021635854616761208,
      0.01747741550207138,
      -0.09147673845291138,
      -0.012042514979839325,
      -0.08907517045736313,
      -0.024524442851543427,
      0.06300849467515945,
      0.07700016349554062,
      -0.026292551308870316,
      -0.08527861535549164,
      -0.04797665402293205,
      -0.04723445698618889,
      -0.07394784688949585,
      0.04419157654047012,
      -0.06292211264371872,
      -0.003954374231398106,
      0.05864866450428963,
      0.046753011643886566,
      -0.07433910667896271,
      0.006936082150787115,
      0.012516118586063385,
      -0.04956291988492012,
      -0.03631341829895973,
      0.059141747653484344,
      0.06810075789690018,
      -0.04105611890554428,
      0.07035522907972336,
      -0.050892580300569534,
      0.061583973467350006,
      -0.06320337951183319,
      0.043938037008047104,
      0.028721561655402184,
      -0.07446625828742981,
      -0.018391065299510956,
      0.028708161786198616,
      -0.006345037370920181,
      -0.047574449330568314,
      -0.0215601846575737,
      -0.08154252916574478,
      -0.06949087232351303,
      -0.039628710597753525,
      0.026552805677056313,
      -0.004009723663330078,
      -0.027434058487415314,
      0.04440026730298996,
      -0.0028808116912841797,
      -0.039621587842702866,
      -0.055139683187007904,
      0.0248564500361681,
      0.025220945477485657,
      -0.08990984410047531,
      0.055879898369312286,
      0.0110272616147995,
      0.03673037141561508,
      -0.033782728016376495,
      0.07662078738212585,
      0.05821612849831581,
      -0.0532706044614315,
      -0.06447009742259979,
      0.08486921340227127,
      0.04965006560087204,
      -0.03913455829024315,
      0.022928232327103615,
      -0.06672365218400955,
      -0.07088650017976761,
      -0.15075665712356567,
      -0.19443544745445251,
      0.10980235040187836,
      -0.32839685678482056,
      -0.0019067004323005676,
      0.21899080276489258,
      -0.4498468041419983,
      0.4236776530742645,
      0.07383637875318527,
      -0.0660400241613388,
      -0.0877676010131836,
      -0.4008069336414337,
      0.06585614383220673,
      0.22301875054836273,
      -0.19881896674633026,
      0.05936218798160553,
      0.0436292439699173,
      -0.21450479328632355,
      -0.17477309703826904,
      0.017394769936800003,
      -0.031503982841968536,
      -0.5897212624549866,
      0.07793206721544266,
      0.07747658342123032,
      0.049281101673841476,
      0.0575970895588398,
      0.08748196065425873,
      -0.13526827096939087,
      0.12099422514438629,
      -0.25326743721961975,
      0.08404599875211716,
      0.697228193283081,
      -0.9752255082130432,
      -0.12089075893163681,
      -0.22331345081329346,
      -0.007374026346951723,
      -0.06314945966005325,
      -0.07234370708465576,
      -0.2094949334859848,
      -0.024491533637046814,
      0.17227472364902496,
      0.08647122234106064,
      0.16206273436546326,
      -0.26766884326934814,
      -0.04858097434043884,
      -1.376319408416748,
      -0.0864374116063118,
      -1.9049910306930542,
      0.0866483673453331,
      -0.22364544868469238,
      -3.4920241832733154,
      0.012378737330436707,
      0.06994243711233139,
      0.23875467479228973,
      0.13106685876846313,
      -0.18380896747112274,
      -0.1287364363670349,
      0.15684044361114502,
      -1.3621746301651,
      -0.056833744049072266,
      0.0773884579539299,
      -0.1865091323852539,
      0.39257511496543884,
      -0.09640026837587357,
      0.0019246861338615417,
      -0.14219500124454498,
      0.2614456117153168,
      0.023007189854979515,
      -0.09832311421632767,
      -0.07951485365629196,
      0.08638906478881836,
      -1.1023261547088623,
      0.13914836943149567,
      0.13551123440265656,
      -0.595279335975647,
      0.04765768721699715,
      -0.06562211364507675,
      0.05854576453566551,
      0.9462029337882996,
      -0.0035851825959980488,
      -0.3108662962913513,
      -0.12101628631353378,
      0.12015353888273239,
      0.05410023406147957,
      0.14003151655197144,
      0.18474213778972626,
      0.07461459189653397,
      0.09055085480213165,
      0.38163360953330994,
      0.05944649875164032,
      -0.1878354698419571,
      0.14890338480472565,
      -0.002918846905231476,
      0.08878270536661148,
      0.22782278060913086,
      0.270553320646286,
      -0.07590711861848831,
      -0.02989118918776512,
      0.37003660202026367,
      -0.026467779651284218,
      -0.21859750151634216,
      -0.11838420480489731,
      -0.8895496726036072,
      0.5292198657989502,
      0.4188065230846405,
      0.853729784488678,
      0.1292279213666916,
      -0.046407945454120636,
      0.436894953250885,
      -1.18089759349823,
      0.11440663039684296,
      0.19534316658973694,
      -0.05566120147705078,
      0.04340861737728119,
      0.5237249732017517,
      -0.1511872410774231,
      -2.9699625968933105,
      -0.1716943234205246,
      0.004432464484125376,
      0.16631105542182922,
      -0.756783664226532,
      -0.10785221308469772,
      0.02956635318696499,
      -0.016333989799022675,
      -0.046113282442092896,
      0.060105226933956146,
      0.6031245589256287,
      -0.2746885120868683,
      0.087124764919281,
      0.13648252189159393,
      0.11174909770488739,
      0.06686761975288391,
      0.02381817251443863,
      0.10262876749038696,
      0.07068519294261932,
      -0.3483707308769226,
      0.2308681607246399,
      0.012201977893710136,
      0.11859910935163498,
      0.6276316046714783,
      -0.028470324352383614,
      0.12895695865154266,
      0.39725878834724426,
      -0.15595516562461853,
      -0.43638482689857483,
      0.08413597196340561,
      -0.15484270453453064,
      0.0960688516497612,
      0.007023917976766825,
      -0.16503103077411652,
      0.10351891070604324,
      -0.035494569689035416,
      -0.47196775674819946,
      -0.2133367955684662,
      -0.6922644972801208,
      -0.17679698765277863,
      0.1922837793827057,
      0.26965492963790894,
      -0.4249744117259979,
      0.14096547663211823,
      -0.009501409716904163,
      0.0017283804481849074,
      0.01673283241689205,
      0.10917232930660248,
      -0.04371900483965874,
      -0.011046327650547028,
      0.07013378292322159,
      -0.11344227194786072,
      0.20556840300559998,
      -0.21876825392246246,
      -0.06053515523672104,
      0.14792874455451965,
      0.1411159485578537,
      0.3281537890434265,
      0.05535378307104111,
      0.44730931520462036,
      0.23069216310977936,
      0.13141624629497528,
      -0.049591027200222015,
      -0.06542672961950302,
      -0.17036619782447815,
      0.22666597366333008,
      0.18473638594150543,
      0.03525897115468979,
      -0.23088261485099792,
      0.19917678833007812,
      0.10162385553121567,
      -0.6756284832954407,
      0.10004714131355286,
      0.04365264251828194,
      -1.135115385055542,
      -0.0383571982383728,
      -0.05720904469490051,
      0.08400280773639679,
      0.06090240553021431,
      -0.19116051495075226,
      0.30990153551101685,
      -0.08333434909582138,
      -4.201528549194336,
      0.00019110352150164545,
      -0.3419225513935089,
      0.0014117112150415778,
      0.15678752958774567,
      -0.7649928331375122,
      0.03914020210504532,
      -0.23767240345478058,
      0.26651665568351746,
      0.38304755091667175,
      0.17553409934043884,
      -0.21478192508220673,
      -0.01302291825413704,
      0.01928294636309147,
      0.04135382920503616,
      -0.023701228201389313,
      -0.219900444149971,
      0.00544933183118701,
      -0.13572411239147186,
      -0.0976778045296669,
      0.33575254678726196,
      -0.15712396800518036,
      0.053051166236400604,
      0.22460946440696716,
      -0.0043539730831980705,
      -0.16718369722366333,
      -0.23478877544403076,
      -0.049064457416534424,
      0.06396494060754776,
      0.09343980252742767,
      -0.08858580887317657,
      0.24752594530582428,
      0.4916974902153015,
      -0.4070529043674469,
      -1.2210867404937744,
      0.21483750641345978,
      -0.090200275182724,
      -0.039764877408742905,
      -0.24791386723518372,
      0.7728837728500366,
      -0.21634359657764435,
      -0.22828693687915802,
      0.051453880965709686,
      -0.25141119956970215,
      -1.8612014055252075,
      0.12961868941783905,
      1.2913007736206055,
      -0.12438827753067017,
      -0.23025043308734894,
      -0.1325780302286148,
      -0.13818244636058807,
      -0.4024707078933716,
      -0.02029220387339592,
      0.07598433643579483,
      0.09752978384494781,
      0.06043685972690582,
      -2.8265111446380615,
      -0.00986620131880045,
      -0.08726920187473297,
      0.23540084064006805,
      0.07130687683820724,
      -0.2607335150241852,
      0.04662550240755081,
      0.2000933736562729,
      -0.042334455996751785,
      -0.30868273973464966,
      -0.12368171662092209,
      0.13032971322536469,
      -0.03218242898583412,
      -0.6581324934959412,
      -0.058091484010219574,
      0.17391541600227356,
      -0.18265622854232788,
      0.11667250096797943,
      -5.361735820770264,
      -0.062243569642305374,
      -0.1550280600786209,
      0.026221677660942078,
      -0.09510592371225357,
      -0.018458932638168335,
      0.1810815930366516,
      -0.035147521644830704,
      0.13590697944164276,
      0.024831006303429604,
      -4.935196399688721,
      0.2849404513835907,
      0.18378154933452606,
      -0.09168190509080887,
      0.2040351778268814,
      -0.17430542409420013,
      -0.10320570319890976,
      0.026768285781145096,
      -0.03431738540530205,
      -0.008876419626176357,
      0.35451996326446533,
      0.0002924427390098572,
      0.1852799952030182,
      0.1305415779352188,
      -0.16849923133850098,
      0.04015779867768288,
      0.09668853133916855,
      -0.14939375221729279,
      -0.21498322486877441,
      -0.16454878449440002,
      0.16590437293052673,
      0.5773980021476746,
      -0.1629866510629654,
      -0.03757994994521141,
      0.02774824947118759,
      0.04607824236154556,
      0.2169826179742813,
      0.14285029470920563,
      -0.10169051587581635,
      -0.14131233096122742,
      -0.12150786817073822,
      -0.09852892905473709,
      0.1113688051700592,
      -0.23598282039165497,
      0.038760289549827576,
      0.20457977056503296,
      0.016587840393185616,
      0.0779157355427742,
      0.006764940917491913,
      0.019085025414824486,
      -0.2975456714630127,
      0.1722702533006668,
      0.20578594505786896,
      0.04959142953157425,
      0.09522215276956558,
      -2.6742944717407227,
      0.20756538212299347,
      0.0685255378484726,
      0.0024588180240243673,
      0.41613152623176575,
      -0.07778550684452057,
      0.059752389788627625,
      -0.14038318395614624,
      0.24435190856456757,
      -0.09437147527933121,
      0.3372163474559784,
      -0.05666438117623329,
      0.16802573204040527,
      0.11378485709428787,
      -0.061642907559871674,
      -0.30876052379608154,
      0.05649318918585777,
      -0.2511715888977051,
      0.0371122844517231,
      0.06461736559867859,
      0.1636252999305725,
      -0.07629265636205673,
      -0.05620724707841873,
      0.12888699769973755,
      -0.10621248930692673,
      0.2070026695728302,
      0.010247861035168171,
      -0.05495055019855499,
      0.05412719398736954,
      0.19675645232200623,
      -0.22947070002555847,
      0.5769600868225098,
      -0.05007479339838028,
      -0.6070007085800171,
      -0.2805514335632324,
      0.13800698518753052,
      -0.05535033717751503,
      -0.640099287033081,
      1.190208077430725,
      0.10092826187610626,
      0.16551697254180908,
      0.08044972270727158,
      0.12895873188972473,
      0.10223567485809326,
      0.10479939728975296,
      0.09072708338499069,
      0.03988194838166237,
      0.2150166630744934,
      0.5514841675758362,
      -0.2034984827041626,
      0.5353905558586121,
      -0.04565354064106941,
      -0.05090826004743576,
      -0.03432025760412216,
      -0.10190702974796295,
      -0.19783717393875122,
      -0.19213078916072845,
      0.04463275894522667,
      -0.11706817150115967,
      -0.12322037667036057,
      0.09609004110097885,
      0.02771580219268799,
      0.1287952959537506,
      -0.06603915244340897,
      0.22579453885555267,
      -0.08828429877758026,
      -0.0985986664891243,
      -0.09119097888469696,
      -0.8590847253799438,
      0.25720930099487305,
      0.5335073471069336,
      -0.01977025344967842,
      0.13287100195884705,
      -0.11227573454380035,
      -0.07484471797943115,
      0.04651679843664169,
      -0.10569149255752563,
      0.20218373835086823,
      0.24848730862140656,
      -0.03838833421468735,
      -0.021932512521743774,
      -0.15830935537815094,
      0.0889551043510437,
      -0.5501423478126526,
      0.31362175941467285,
      0.21329359710216522,
      0.08778498321771622,
      0.12498745322227478,
      0.3770126700401306,
      -0.1559007614850998,
      -0.3957708775997162,
      0.010277381166815758,
      -0.1476663500070572,
      -0.38299861550331116,
      0.022762596607208252,
      -0.05000907555222511,
      -0.0027450902853161097,
      0.39726367592811584,
      -0.07566835731267929,
      0.17254170775413513,
      0.1528366059064865,
      -0.16266536712646484,
      -0.4036390483379364,
      -0.0497695654630661,
      0.23450623452663422,
      0.028080498799681664,
      0.32857009768486023,
      0.006885455455631018,
      0.012380503118038177,
      0.020811164751648903,
      -0.1793309897184372,
      0.07339563965797424,
      0.23940154910087585,
      -0.23625630140304565,
      -0.012216759845614433,
      0.17412692308425903,
      0.628524124622345,
      0.004983868915587664,
      0.021713603287935257,
      -0.8318158388137817,
      0.14378319680690765,
      -0.02064250409603119,
      -0.2567235231399536,
      0.17787355184555054,
      0.20928891003131866,
      0.18943336606025696,
      -0.027032218873500824,
      -0.8889606595039368,
      0.034570202231407166,
      0.09432581812143326,
      0.03610125184059143,
      -0.16067351400852203,
      -0.03458929434418678,
      -0.06291783601045609,
      0.02078230492770672,
      0.07808522880077362,
      -0.3448707163333893,
      0.032788097858428955,
      -0.39637109637260437,
      -0.12366824597120285,
      0.0668080672621727,
      -0.0433386005461216,
      0.09771334379911423,
      0.009812173433601856,
      0.007813319563865662,
      0.7364283204078674,
      0.0907585546374321,
      -0.48256370425224304,
      -0.46708592772483826,
      0.03896813839673996,
      -0.12047754228115082,
      0.04035942628979683,
      0.07367230206727982,
      0.5857416987419128,
      0.091652512550354,
      -0.06666655093431473,
      -0.1806754618883133,
      0.01079409196972847,
      -0.046857405453920364,
      0.5191534161567688,
      0.6321016550064087,
      1.2156686782836914,
      0.40136003494262695,
      0.12928587198257446,
      -0.023377805948257446,
      0.18131130933761597,
      0.47910693287849426,
      -0.48513567447662354,
      0.28232091665267944,
      -0.0051966458559036255,
      0.05329141393303871,
      0.12795481085777283,
      -0.14090180397033691,
      0.04095468297600746,
      0.03984455391764641,
      -0.09035898745059967,
      0.29487845301628113,
      -1.046793818473816,
      0.08058766275644302,
      0.002713356167078018,
      0.05791106075048447,
      -0.025692759081721306,
      0.2164457142353058,
      -1.715825080871582,
      0.025798499584197998,
      0.3503166735172272,
      0.3448847532272339,
      -0.5046969056129456,
      0.23075157403945923,
      0.023799344897270203,
      0.10995524376630783,
      0.44582659006118774,
      -0.176651731133461,
      -0.02528628706932068,
      -0.17556750774383545,
      -0.20712654292583466,
      -0.15656988322734833,
      0.10990846902132034,
      -0.12912122905254364,
      -0.8018622398376465,
      0.08730296045541763,
      -0.34043097496032715,
      0.0003276146890129894,
      0.20259854197502136,
      0.04738778620958328,
      -0.1325557678937912,
      0.47514456510543823,
      -0.12678742408752441,
      -0.03464984893798828,
      -0.30167344212532043,
      -0.038813021034002304,
      -2.3243770599365234,
      -0.2376823127269745,
      0.05005643144249916,
      0.05676967650651932,
      0.20267105102539062,
      -0.24335777759552002,
      0.25487473607063293,
      -0.5414405465126038,
      -0.2277156263589859,
      0.07054515182971954,
      -0.028486400842666626,
      0.015471778810024261,
      -0.10114123672246933,
      -0.0695832222700119,
      -0.0040692053735256195,
      0.45047369599342346,
      0.2501959204673767,
      -0.047835931181907654,
      0.11945967376232147,
      -0.07865321636199951,
      0.05114920064806938,
      -0.16992129385471344,
      0.1982925683259964,
      0.11860163509845734,
      0.17841774225234985,
      0.05438897758722305,
      -0.012414289638400078,
      0.07542523741722107,
      -0.3182002007961273,
      0.5773090124130249,
      -0.09288289397954941,
      0.18598830699920654,
      0.06189122051000595,
      0.3146723210811615,
      0.15701492130756378,
      0.10999302566051483,
      -0.16877055168151855,
      -0.24380891025066376,
      -0.0708184540271759,
      -0.006755558308213949,
      0.3951878845691681,
      -0.04430769756436348,
      0.18364623188972473,
      0.061907507479190826,
      -0.6038102507591248,
      -0.15743820369243622,
      -0.057880472391843796,
      0.02571338787674904,
      0.2968215048313141,
      0.4954584240913391,
      -0.05065452679991722,
      -0.014126214198768139,
      -0.17126427590847015,
      -0.1101621463894844,
      0.16328036785125732,
      0.4077768623828888,
      -0.10378403961658478,
      0.013925842940807343,
      -0.3619871139526367,
      -0.3783736526966095,
      -0.17163978517055511,
      -0.0011608859058469534,
      0.4271949529647827,
      0.17058773338794708,
      -0.27565887570381165,
      -0.0220039002597332,
      0.04001305252313614,
      0.1623566746711731,
      -0.03885898366570473,
      0.01866893284022808,
      -0.5026995539665222,
      0.28009694814682007,
      -0.3053002655506134,
      -0.15850584208965302,
      0.1299818903207779,
      0.04823414236307144,
      0.08573272824287415,
      0.4311942160129547,
      -0.6943390369415283,
      -0.08723104000091553,
      0.02518608048558235,
      0.05175996571779251,
      0.057470690459012985,
      0.7834104299545288,
      -0.42612773180007935,
      0.413221150636673,
      -0.0682356059551239,
      -0.004081342834979296,
      0.17277316749095917,
      0.09037338942289352,
      0.09605467319488525,
      0.22597754001617432,
      0.14198850095272064,
      -0.16853637993335724,
      0.2861776649951935,
      0.40226227045059204,
      -0.07929526269435883,
      -0.027893301099538803,
      -0.028894491493701935,
      -0.40858542919158936,
      -0.42287540435791016,
      0.047682467848062515,
      0.024946032091975212,
      -0.013018500991165638,
      -0.011633075773715973,
      -0.04099569097161293,
      0.01356012374162674,
      -0.027622580528259277,
      0.020323768258094788,
      0.07196322828531265,
      -0.025142690166831017,
      -0.05689277499914169,
      -0.012460928410291672,
      -0.05751930922269821,
      0.04627973586320877,
      -0.06727533787488937,
      -0.08588816225528717,
      0.08648865669965744,
      -0.0632069930434227,
      -0.08057044446468353,
      0.07253354787826538,
      0.008151382207870483,
      0.060670726001262665,
      0.06993293017148972,
      -0.03975917398929596,
      0.07273513823747635,
      -0.060589760541915894,
      -0.07636313140392303,
      0.0270441435277462,
      0.07421233505010605,
      -0.06047584116458893,
      0.043334562331438065,
      -0.052032288163900375,
      -0.08733528107404709,
      -0.07400000095367432,
      0.054212264716625214,
      0.009043722413480282,
      -0.08837409317493439,
      -0.0017962525598704815,
      0.04323706775903702,
      -0.06590655446052551,
      -0.08567196875810623,
      0.06276051700115204,
      -0.00516492361202836,
      0.08453822880983353,
      0.04205017909407616,
      -0.040562644600868225,
      0.06741528958082199,
      -0.0248809065669775,
      -0.03982581943273544,
      -0.056272126734256744,
      0.03280029818415642,
      -0.028577027842402458,
      -0.02461635321378708,
      -0.05575064942240715,
      0.046239808201789856,
      0.03339294716715813,
      -0.004924841225147247,
      -0.08819973468780518,
      -0.08922171592712402,
      -0.07476451992988586,
      -0.08638967573642731,
      0.06083475053310394,
      -0.039656732231378555,
      -0.06414765864610672,
      -0.05816650390625,
      0.027438051998615265,
      -0.05581863224506378,
      -0.04450993984937668,
      0.07130187004804611,
      0.07313433289527893,
      -0.024185091257095337,
      0.08557597547769547,
      0.06318198889493942,
      0.03709826245903969,
      -0.08210990577936172,
      -0.01922241970896721,
      -0.02612815797328949,
      -0.03142829239368439,
      0.004370817448943853,
      0.06498777866363525,
      -0.0627509132027626,
      -0.04659425467252731,
      -0.04048297554254532,
      -0.019851623103022575,
      -0.012007485143840313,
      -0.08649665862321854,
      0.038807518780231476,
      0.0021813735365867615,
      0.05608346313238144,
      0.047260917723178864,
      0.013479845598340034,
      -0.0240840632468462,
      0.0031986043322831392,
      0.06911564618349075,
      0.0045998841524124146,
      -0.0737893208861351,
      -0.016665862873196602,
      -0.0008320137858390808,
      -0.07054927945137024,
      -0.08352246880531311,
      0.0717543214559555,
      -0.0015947120264172554,
      0.021133385598659515,
      -0.07741734385490417,
      0.03465617820620537,
      -0.0007180273532867432,
      -0.014253797940909863,
      -0.08001600205898285,
      0.04815758019685745,
      -0.07200539112091064,
      -0.037799082696437836,
      0.043542515486478806,
      -0.07853686064481735,
      -0.03230057656764984,
      0.03283337503671646,
      0.01631920225918293,
      0.039711058139801025,
      -0.08188920468091965,
      0.05181361362338066,
      -0.04894488304853439,
      -0.006601221859455109,
      -0.06669033318758011,
      0.056310296058654785,
      -0.04378731921315193,
      0.027990825474262238,
      -0.04718473553657532,
      0.015887930989265442,
      -0.06512895226478577,
      0.015052762813866138,
      -0.038282524794340134,
      -0.07792821526527405,
      -0.07184470444917679,
      0.07271397113800049,
      -0.06891804933547974,
      -0.031993210315704346,
      0.018726320937275887,
      0.03801388293504715,
      -0.08519994467496872,
      -0.03849414363503456,
      0.004788925405591726,
      -0.0002939576224889606,
      0.062437430024147034,
      -0.03785319626331329,
      -0.07952015846967697,
      -0.07011189311742783,
      -0.044290099292993546,
      0.012860684655606747,
      -0.03520389273762703,
      -0.01415080577135086,
      -0.02303437516093254,
      0.044040922075510025,
      0.05017143860459328,
      0.06426074355840683,
      0.014524923637509346,
      0.041637253016233444,
      -0.049849800765514374,
      0.06793317198753357,
      0.07165944576263428,
      0.03633319213986397,
      0.025338023900985718,
      0.04583042487502098,
      -0.08978860080242157,
      0.04222123697400093,
      0.008797758258879185,
      -0.05712297558784485,
      0.03469042107462883,
      0.017237618565559387,
      0.030854439362883568,
      -0.03831391781568527,
      0.03112303651869297,
      -0.08138221502304077,
      0.06563951075077057,
      -0.0877295732498169,
      -0.02125697210431099,
      -0.046894047409296036,
      -0.048387251794338226,
      0.01165998075157404,
      0.015944285318255424,
      0.023302514106035233,
      0.0029354451689869165,
      0.05695294961333275,
      0.029952609911561012,
      -0.08766131848096848,
      -0.014886625111103058,
      0.031644634902477264,
      -0.06117090582847595,
      -0.08625691384077072,
      0.005126056727021933,
      -0.06232742220163345,
      -0.015854915603995323,
      0.04342622682452202,
      -0.005977004766464233,
      -0.03616638854146004,
      -0.052888888865709305,
      -0.08592720329761505,
      0.015351079404354095,
      0.022946782410144806,
      -0.07494879513978958,
      0.031687378883361816,
      -0.05018848553299904,
      -0.05521944537758827,
      -0.07076655328273773,
      0.0442407950758934,
      -0.052183911204338074,
      -0.01729068160057068,
      0.011493168771266937,
      -0.06340605765581131,
      0.06530432403087616,
      0.05433523654937744,
      0.04057415947318077,
      0.0261511392891407,
      -0.039307739585638046,
      -0.09257945418357849,
      -0.08072789758443832,
      -0.07026328146457672,
      -0.021817268803715706,
      -0.010290266945958138,
      0.029240602627396584,
      -0.08463191986083984,
      -0.08829004317522049,
      0.02358534187078476,
      0.020901672542095184,
      -0.08005578815937042,
      0.009596429765224457,
      0.06675837934017181,
      0.025444362312555313,
      0.02160303294658661,
      0.0586872398853302,
      0.0702831819653511,
      -0.017935167998075485,
      -0.04141320660710335,
      -0.0717281922698021,
      -0.04864795133471489,
      0.05663319677114487,
      0.033857639878988266,
      -0.07290065288543701,
      0.019180946052074432,
      0.04679261893033981,
      -0.04494594782590866,
      0.058477334678173065,
      0.04019070044159889,
      0.04557763785123825,
      0.0523894727230072,
      0.026260126382112503,
      -0.053913623094558716,
      0.03393091261386871,
      -0.04697667807340622,
      -0.08483289182186127,
      -0.0512334443628788,
      0.0653710663318634,
      -0.06455636769533157,
      0.01676890254020691,
      0.05775664001703262,
      -0.08098378032445908,
      0.054433323442935944,
      -0.06685033440589905,
      -0.08849314600229263,
      -0.012376542203128338,
      0.2642447054386139,
      0.05952608585357666,
      0.1283511519432068,
      -0.08287038654088974,
      0.25314655900001526,
      0.2530015707015991,
      0.12620435655117035,
      0.07190131396055222,
      -0.4651506245136261,
      -0.23474599421024323,
      0.04826928675174713,
      0.4031263589859009,
      -0.00273753609508276,
      -0.2740541398525238,
      -0.25869110226631165,
      -0.005693049635738134,
      -0.2913306951522827,
      0.04870493337512016,
      -0.014674355275928974,
      -0.2711583375930786,
      -0.19912874698638916,
      -0.06022775545716286,
      -0.08231978863477707,
      -0.013594520278275013,
      -0.09710844606161118,
      0.8075555562973022,
      0.16547492146492004,
      0.1555916666984558,
      0.050848428159952164,
      0.3969193398952484,
      0.059708673506975174,
      0.14220838248729706,
      -0.5491880178451538,
      0.031672403216362,
      0.4126024842262268,
      0.0864880159497261,
      0.07755882292985916,
      0.1527036726474762,
      -0.5002962350845337,
      -0.21091027557849884,
      0.0950828492641449,
      0.2890644073486328,
      -0.11979171633720398,
      -0.034141652286052704,
      -0.24514351785182953,
      0.44311290979385376,
      -0.28368744254112244,
      0.20788580179214478,
      -0.006997308693826199,
      -0.0004941057995893061,
      -0.030748805031180382,
      0.1432790458202362,
      -0.15145966410636902,
      0.2860811650753021,
      -0.3088107407093048,
      -0.1943579763174057,
      -0.4252309501171112,
      0.055380966514348984,
      -0.25232911109924316,
      0.028881488367915154,
      -0.2843726575374603,
      0.06905291229486465,
      -0.33258166909217834,
      -0.07671506702899933,
      -0.39792564511299133,
      -0.00767131894826889,
      0.3030913472175598,
      0.3526015877723694,
      -0.033393897116184235,
      0.09750686585903168,
      -0.2126477211713791,
      0.06119771674275398,
      0.35821497440338135,
      0.3968282639980316,
      0.02339542657136917,
      0.08055523782968521,
      -0.26856669783592224,
      0.16652122139930725,
      2.1722495555877686,
      0.09129215031862259,
      -0.11712267994880676,
      -0.32207363843917847,
      0.21402861177921295,
      0.14397123456001282,
      0.012417424470186234,
      0.03870280086994171,
      -0.29549598693847656,
      0.07291511446237564,
      -0.16446569561958313,
      -0.09588751196861267,
      0.22869321703910828,
      0.053926460444927216,
      -0.08131296187639236,
      -0.1778789907693863,
      -0.13217318058013916,
      0.27046889066696167,
      -0.09942613542079926,
      0.04929838702082634,
      0.2943348288536072,
      0.15626941621303558,
      -0.07337871938943863,
      -0.2257286161184311,
      -0.17116674780845642,
      -1.666048526763916,
      0.24574542045593262,
      -1.0826334953308105,
      0.0691244825720787,
      -0.012778841890394688,
      -0.5943689346313477,
      0.08477745950222015,
      -0.13234873116016388,
      -0.04548308625817299,
      -0.694795548915863,
      0.14352020621299744,
      -0.23014873266220093,
      0.12816449999809265,
      -0.5834173560142517,
      -0.9034459590911865,
      -0.785925030708313,
      -0.03175221011042595,
      -0.20685015618801117,
      0.03483369201421738,
      0.027276068925857544,
      0.045626766979694366,
      0.09570841491222382,
      0.006608855444937944,
      -0.2203550785779953,
      -0.06851094216108322,
      -0.011463765986263752,
      -0.12341117858886719,
      -0.0828922763466835,
      -0.013044767081737518,
      0.08101112395524979,
      -0.015167640522122383,
      0.08047913014888763,
      -0.09599462896585464,
      0.027121078222990036,
      -0.05385834351181984,
      0.013863254338502884,
      -0.07046293467283249,
      -0.0507560670375824,
      -0.0069062067195773125,
      0.04784129559993744,
      0.08919890224933624,
      0.0001632584462640807,
      -0.08347421139478683,
      -0.06562242656946182,
      0.08361256122589111,
      0.01829671300947666,
      -0.12142086774110794,
      0.07936490327119827,
      0.0568881519138813,
      0.017616217955946922,
      0.017809823155403137,
      0.05039717257022858,
      0.02936871349811554,
      0.036329951137304306,
      -0.10763715952634811,
      -0.06412237882614136,
      0.06136847659945488,
      -0.0067532677203416824,
      0.028497768566012383,
      -0.012099902145564556,
      -0.015463484451174736,
      0.06890683621168137,
      -0.01876361295580864,
      0.05000229552388191,
      0.050856854766607285,
      -0.02132415771484375,
      -0.04804747924208641,
      -0.0923062339425087,
