{
  "format": "ursim-robust-net",
  "version": "1.0",
  "model_name": "eval_128x64_lr8e-04",
  "ruleset": "Finkel",
  "input_size": 14,
  "num_layers": 3,
  "layer_sizes": [
    128,
    64,
    1
  ],
  "activations": [
    "relu",
    "relu",
    "sigmoid"
  ],
  "finish_position": 15,
  "game_threshold": 33,
  "pieces_per_player": 7,
  "epochs": 24,
  "learning_rate": 0.0007996329855556714,
  "weights": [
    [
      0.11285346746444702,
      -0.06830944865942001,
      -0.3357083797454834,
      0.055463794618844986,
      -0.17769739031791687,
      -0.1281987875699997,
      -0.020671788603067398,
      -0.04978888854384422,
      0.04058030620217323,
      -0.037428781390190125,
      -0.3209131956100464,
      0.1840914487838745,
      0.1774890124797821,
      -0.3578546643257141,
      0.5000167489051819,
      0.20128022134304047,
      -1.2560285329818726,
      0.04588834196329117,
      -0.1304796040058136,
      0.040285900235176086,
      -1.0380014181137085,
      -0.22990261018276215,
      0.09334955364465714,
      -3.1535797119140625,
      -4.1992573738098145,
      0.14619404077529907,
      0.21368761360645294,
      0.01485411822795868,
      0.10332563519477844,
      -0.133414164185524,
      -0.08771983534097672,
      0.5785199999809265,
      1.532309889793396,
      0.6114119291305542,
      0.4813426733016968,
      -0.6370640993118286,
      0.15746572613716125,
      -0.10547561198472977,
      -0.13624513149261475,
      -2.6377644538879395,
      -0.1086602732539177,
      -0.6203817129135132,
      0.04754134640097618,
      -0.006385086569935083,
      -0.1507016271352768,
      -0.12585683166980743,
      -0.029446111992001534,
      -0.2979113757610321,
      0.0021535949781537056,
      -0.028731858357787132,
      -0.06359042972326279,
      -0.009385584853589535,
      -0.5570641756057739,
      -0.08393163233995438,
      0.07177198678255081,
      -0.07707308232784271,
      -0.9826939105987549,
      0.818418025970459,
      -0.5777541995048523,
      -0.050687409937381744,
      -0.043434128165245056,
      -0.18764111399650574,
      -0.6927927732467651,
      -0.4319959580898285,
      -0.6347957849502563,
      2.087879180908203,
      -0.6690947413444519,
      -0.06397898495197296,
      0.738925039768219,
      0.6219290494918823,
      0.17751652002334595,
      -0.5746654868125916,
      3.5565104484558105,
      0.09285034239292145,
      0.2992202341556549,
      -0.9516148567199707,
      -0.3577372431755066,
      -0.23215210437774658,
      0.14182955026626587,
      -0.30199649930000305,
      0.06912407279014587,
      0.06677096337080002,
      -0.11521840840578079,
      -0.39829549193382263,
      0.11666513979434967,
      -0.11363758146762848,
      -0.14372700452804565,
      -0.09990327060222626,
      -0.11089056730270386,
      0.019923411309719086,
      -0.2028810977935791,
      0.46981722116470337,
      0.4964062571525574,
      0.2592211663722992,
      -0.02113085612654686,
      -0.10230113565921783,
      -0.125962495803833,
      -0.36565861105918884,
      2.014622449874878,
      -0.5344310998916626,
      -0.5001721978187561,
      -3.004488229751587,
      0.30537161231040955,
      0.05689059942960739,
      0.37121155858039856,
      1.6413997411727905,
      -0.16391919553279877,
      -3.9255831241607666,
      0.7515690326690674,
      0.15359024703502655,
      0.6349032521247864,
      -0.2245893031358719,
      -0.1730724424123764,
      0.11110233515501022,
      -0.3435869812965393,
      -0.03258901834487915,
      0.2180338203907013,
      -0.032062068581581116,
      -0.25816747546195984,
      -0.2899567186832428,
      0.25821653008461,
      -0.046693023294210434,
      0.08941251039505005,
      0.025670325383543968,
      0.018682893365621567,
      -0.09434636682271957,
      0.04805394262075424,
      0.6260352730751038,
      -2.5761663913726807,
      0.17642466723918915,
      0.8792017698287964,
      -0.37529128789901733,
      -0.6867111325263977,
      2.8708860874176025,
      -0.14283838868141174,
      -0.08365427702665329,
      0.25998803973197937,
      0.004192175343632698,
      -0.47717875242233276,
      -0.2797251343727112,
      -0.24871808290481567,
      0.021222205832600594,
      -11.085041046142578,
      -1.1659879684448242,
      0.0022424280177801847,
      0.976250410079956,
      -1.0949559211730957,
      -0.5062260031700134,
      -0.05164225399494171,
      0.86927330493927,
      -0.2468898743391037,
      -0.17387612164020538,
      0.6760364174842834,
      -0.4013148844242096,
      0.38730791211128235,
      -1.4436829090118408,
      -0.055615805089473724,
      0.021551216021180153,
      -0.0375746451318264,
      0.03923196345567703,
      -2.163675308227539,
      -1.3211302757263184,
      -9.03486442565918,
      -0.21046841144561768,
      -0.14595933258533478,
      -0.06927330791950226,
      0.05763775855302811,
      1.0967004299163818,
      -1.3690489530563354,
      -0.14145761728286743,
      -0.02118353545665741,
      -0.022728977724909782,
      0.06816835701465607,
      -2.643484592437744,
      0.8372085094451904,
      -0.9336846470832825,
      -0.008223263546824455,
      -0.06511108577251434,
      -0.02284264750778675,
      0.01754358969628811,
      1.2609312534332275,
      0.187129944562912,
      -3.4653003215789795,
      0.4136422872543335,
      -1.2476412057876587,
      0.14659719169139862,
      0.909074604511261,
      -1.5159597396850586,
      0.06041926145553589,
      -0.1085452064871788,
      -0.22319379448890686,
      0.12082010507583618,
      0.2268322855234146,
      0.45300906896591187,
      1.4228612184524536,
      -0.07951836287975311,
      -0.14587824046611786,
      -0.2751269042491913,
      0.4322204887866974,
      1.0420173406600952,
      -0.08091096580028534,
      0.24421146512031555,
      -0.5694255232810974,
      -0.6560589075088501,
      -13.942091941833496,
      -1.1977112293243408,
      -0.3748440444469452,
      0.5420015454292297,
      -0.1801767200231552,
      -0.3953741788864136,
      -0.26611199975013733,
      0.053673893213272095,
      -0.06287218630313873,
      0.1033586859703064,
      0.13805943727493286,
      -0.23393428325653076,
      -0.08229205012321472,
      -0.1076536774635315,
      0.06750306487083435,
      0.1786050796508789,
      0.0376458466053009,
      -0.092685267329216,
      -0.09617221355438232,
      -0.13163037598133087,
      0.2406895011663437,
      0.5948836803436279,
      -0.2722824215888977,
      -0.12312502413988113,
      0.13837257027626038,
      -0.14451223611831665,
      1.503130555152893,
      -0.2868788242340088,
      -0.7925739884376526,
      -5.585559844970703,
      -0.10675518214702606,
      -1.1245384216308594,
      0.32061904668807983,
      -1.0375213623046875,
      -0.31309452652931213,
      0.1558927595615387,
      -0.37828823924064636,
      -0.16639450192451477,
      0.044890280812978745,
      0.5596878528594971,
      -1.9899612665176392,
      0.3613230884075165,
      -13.462696075439453,
      1.4906996488571167,
      -0.20746253430843353,
      1.304935097694397,
      -0.18701998889446259,
      0.39024877548217773,
      -0.0007466516690328717,
      0.08088904619216919,
      -0.048938386142253876,
      -0.20219255983829498,
      -0.070442795753479,
      -0.5369535088539124,
      -0.6600439548492432,
      0.025534192100167274,
      4.190084934234619,
      0.6474521160125732,
      -0.43442800641059875,
      -0.6366420388221741,
      -0.6075634360313416,
      -0.552097499370575,
      0.16820040345191956,
      -0.20297029614448547,
      -0.0613865852355957,
      0.08467724919319153,
      0.021962612867355347,
      -0.1395384818315506,
      0.07237059623003006,
      -0.21297401189804077,
      0.20428287982940674,
      -0.26268821954727173,
      -0.2033333033323288,
      0.17436736822128296,
      -0.21661430597305298,
      0.09431526809930801,
      -0.024753063917160034,
      -0.202012836933136,
      0.054480552673339844,
      -0.05389492213726044,
      -0.08563384413719177,
      -0.2565605640411377,
      -0.16438376903533936,
      -0.019313544034957886,
      0.08654981851577759,
      0.050341635942459106,
      0.06401285529136658,
      -0.23662900924682617,
      0.20713508129119873,
      -0.2350197583436966,
      -0.0353381484746933,
      -0.6676440238952637,
      -15.047395706176758,
      -1.4630186557769775,
      -0.305068701505661,
      -0.02651933580636978,
      0.3143170177936554,
      -0.04919413849711418,
      0.3245690166950226,
      0.25039365887641907,
      2.281777858734131,
      -0.027762390673160553,
      -0.42852261662483215,
      -0.07919975370168686,
      -2.3421337604522705,
      -4.501786708831787,
      -0.028414452448487282,
      0.01244257390499115,
      -0.0039870538748800755,
      -0.39662861824035645,
      -0.21895161271095276,
      0.18808889389038086,
      -0.0813213586807251,
      0.03166668489575386,
      0.04887634888291359,
      2.5909624099731445,
      0.4189859926700592,
      -0.46853649616241455,
      -0.5612686276435852,
      -0.2533046007156372,
      1.5289467573165894,
      -0.1508091390132904,
      0.5799307227134705,
      -0.08416537195444107,
      0.3961023688316345,
      0.13428865373134613,
      -0.2824572026729584,
      -1.8439984321594238,
      0.8091804385185242,
      -0.0983022078871727,
      -0.5316689014434814,
      -0.019400455057621002,
      0.13010969758033752,
      0.08645203709602356,
      3.2015106678009033,
      -0.02337503246963024,
      0.30336493253707886,
      0.024783624336123466,
      0.20482298731803894,
      -0.02599271945655346,
      -0.005604990758001804,
      -0.020197803154587746,
      -1.7821009159088135,
      -0.5897225737571716,
      -0.6094772815704346,
      -0.3003782629966736,
      0.0658099353313446,
      -0.04429753124713898,
      -0.1820632666349411,
      -0.0672445297241211,
      0.12541896104812622,
      -0.14693062007427216,
      -0.1316039115190506,
      -0.07221315801143646,
      -0.14051604270935059,
      -0.16001278162002563,
      0.1578434705734253,
      -0.15748542547225952,
      0.04710224270820618,
      0.12080958485603333,
      0.16741636395454407,
      -1.1211061477661133,
      -0.20637699961662292,
      -0.17190773785114288,
      0.12123943120241165,
      -1.9606541395187378,
      -0.154979407787323,
      -0.010597599670290947,
      -0.21504302322864532,
      -0.13111479580402374,
      2.501910924911499,
      -0.1179477795958519,
      0.2656010091304779,
      -0.1204618439078331,
      3.1849193572998047,
      0.14906400442123413,
      -0.06199583411216736,
      0.3232949674129486,
      -1.0863312482833862,
      -0.03356955572962761,
      0.2436223328113556,
      0.16433271765708923,
      -0.07218800485134125,
      0.05261646956205368,
      -0.3254479467868805,
      -1.853606104850769,
      -0.7792673110961914,
      0.7733359932899475,
      2.093607187271118,
      -0.17024245858192444,
      0.151320219039917,
      2.1945457458496094,
      0.10211054980754852,
      0.6160951256752014,
      0.0015842515276744962,
      -2.5901095867156982,
      -0.07990755140781403,
      -0.06086399778723717,
      0.04235075041651726,
      -1.679348349571228,
      -0.06416414678096771,
      -0.449746310710907,
      0.055507123470306396,
      -0.037027329206466675,
      0.0967499315738678,
      -0.17518176138401031,
      0.10789883136749268,
      -0.1047702431678772,
      -0.22532035410404205,
      -0.055467113852500916,
      0.061786383390426636,
      0.1017676591873169,
      -0.1671362817287445,
      -0.11148010194301605,
      -0.07236583530902863,
      -0.2641860842704773,
      -0.13624151051044464,
      0.0552697516977787,
      0.004261258989572525,
      0.054982300847768784,
      0.004434389527887106,
      -0.20013552904129028,
      -0.5085747241973877,
      0.06493418663740158,
      -0.1595066338777542,
      0.03273072838783264,
      4.0622172355651855,
      -0.18544845283031464,
      -0.6551693677902222,
      -0.8331460356712341,
      0.022794650867581367,
      -0.05721186473965645,
      0.00918989721685648,
      0.050382379442453384,
      0.009576280601322651,
      -0.9880251884460449,
      -0.24820588529109955,
      -0.06340453028678894,
      4.548401832580566,
      -0.026602087542414665,
      -0.026097731664776802,
      -0.2902477979660034,
      -0.26977795362472534,
      -0.14258630573749542,
      0.08288353681564331,
      -2.5554065704345703,
      0.16377142071723938,
      -0.17914684116840363,
      -1.2645471096038818,
      -0.27604496479034424,
      -0.38832589983940125,
      -0.03513084352016449,
      2.6349384784698486,
      0.2851566970348358,
      -0.11425966024398804,
      1.3671379089355469,
      0.059519752860069275,
      0.1547057181596756,
      -0.17900052666664124,
      0.16307350993156433,
      -0.07491443306207657,
      -0.04042666777968407,
      -0.285239040851593,
      -0.09014684706926346,
      -0.4613405764102936,
      0.820865273475647,
      0.7064567804336548,
      0.06245672330260277,
      -0.07431066781282425,
      -0.21750296652317047,
      -0.36370256543159485,
      -0.4334528148174286,
      -0.19263531267642975,
      -0.12758442759513855,
      -0.92589271068573,
      -0.23785677552223206,
      1.946650505065918,
      0.7723286747932434,
      0.6999733448028564,
      -0.4320859909057617,
      0.4439581036567688,
      -0.8499636054039001,
      -0.001620689406991005,
      0.4058641493320465,
      -1.3610427379608154,
      -1.1502001285552979,
      -0.05788007751107216,
      0.045303795486688614,
      0.039401087909936905,
      -1.6999064683914185,
      0.16567204892635345,
      -0.03659134730696678,
      -0.2945880889892578,
      0.06411761045455933,
      0.040729667991399765,
      0.04402251914143562,
      2.9464235305786133,
      0.2476821392774582,
      -0.028115401044487953,
      -0.5594685673713684,
      2.808370351791382,
      0.23163406550884247,
      1.1548211574554443,
      0.04604849964380264,
      0.23908144235610962,
      -0.11575455963611603,
      -0.013624859042465687,
      -0.12873579561710358,
      -2.9486238956451416,
      0.14300157129764557,
      -0.0017077013617381454,
      -0.4937532842159271,
      -1.6736347675323486,
      -0.11459691822528839,
      -0.7228165864944458,
      -0.18753273785114288,
      -0.060680072754621506,
      0.17443698644638062,
      0.2745160758495331,
      1.7724000215530396,
      -0.3008975684642792,
      -0.06219877302646637,
      -2.501210927963257,
      -5.286952495574951,
      0.06185104325413704,
      0.42128852009773254,
      0.11413445323705673,
      -1.179672122001648,
      -6.919145107269287,
      2.232365131378174,
      -0.3236134946346283,
      0.07710770517587662,
      -0.43044355511665344,
      1.6564823389053345,
      0.4061677157878876,
      -0.06543166935443878,
      -0.26335716247558594,
      -0.049131304025650024,
      -0.25539883971214294,
      -0.6971853971481323,
      0.13159839808940887,
      -0.4309353530406952,
      -0.01308440137654543,
      0.1155376061797142,
      -0.22992953658103943,
      -0.0040388042107224464,
      -0.14142683148384094,
      0.563208818435669,
      0.047905899584293365,
      -0.10726089775562286,
      -0.2981087267398834,
      -0.20697426795959473,
      -3.067063570022583,
      -9.292956352233887,
      -0.11005359143018723,
      0.17866307497024536,
      -1.548614740371704,
      0.048333898186683655,
      -0.009707542136311531,
      0.017442738637328148,
      -0.9548004865646362,
      -0.20969480276107788,
      -0.7127811312675476,
      0.03733037784695625,
      0.026273634284734726,
      0.034369681030511856,
      0.1067906990647316,
      3.0385899543762207,
      0.29669949412345886,
      -0.27169573307037354,
      0.1503804475069046,
      0.1254528909921646,
      -0.945347249507904,
      0.9782015085220337,
      0.31272053718566895,
      -0.4343230426311493,
      -0.7652057409286499,
      -0.17746654152870178,
      0.11513008177280426,
      3.2465946674346924,
      -0.03634525462985039,
      0.25322461128234863,
      -0.723269522190094,
      -0.6904503703117371,
      -0.1826080083847046,
      1.2006560564041138,
      -0.19099421799182892,
      -0.19974099099636078,
      1.306352972984314,
      1.3119580745697021,
      0.29839271306991577,
      -1.9510904550552368,
      -1.9418224096298218,
      0.10522700846195221,
      -0.31876426935195923,
      0.026962440460920334,
      0.05433506518602371,
      -2.2412757873535156,
      3.3401806354522705,
      -0.01795232854783535,
      -0.6298391819000244,
      0.7090921401977539,
      0.018398316577076912,
      -0.04250539839267731,
      0.18398107588291168,
      -0.14156675338745117,
      0.15169557929039001,
      -0.2795218825340271,
      -0.17510364949703217,
      -0.2711954414844513,
      -11.578716278076172,
      -0.6220623254776001,
      0.6151530146598816,
      0.45446065068244934,
      -0.3003721833229065,
      -0.34502220153808594,
      -0.27478355169296265,
      -0.24732908606529236,
      -0.044832780957221985,
      0.23511773347854614,
      -0.36319124698638916,
      0.30096951127052307,
      0.09592830389738083,
      -0.010805586352944374,
      -0.3159489929676056,
      -0.05550834909081459,
      0.3035067021846771,
      0.32873597741127014,
      0.08740636706352234,
      0.44654208421707153,
      1.3564565181732178,
      -0.6857427358627319,
      -0.20793238282203674,
      -1.8422359228134155,
      -0.3408368229866028,
      0.19447244703769684,
      -3.3968350887298584,
      0.04535854607820511,
      0.9979334473609924,
      -0.20680363476276398,
      0.20115849375724792,
      -0.4773656129837036,
      -0.580392599105835,
      0.04881136119365692,
      -0.022885797545313835,
      0.8147385716438293,
      0.6875659823417664,
      -1.1567198038101196,
      -3.3224003314971924,
      0.005911125335842371,
      0.15109337866306305,
      0.22667959332466125,
      -0.8003904819488525,
      -0.17483383417129517,
      -0.5053129196166992,
      -0.31008392572402954,
      0.020060233771800995,
      0.4810642898082733,
      -1.779512882232666,
      0.5058358907699585,
      0.19633303582668304,
      -21.35713768005371,
      2.5601749420166016,
      0.32249715924263,
      0.6874520778656006,
      -0.37701812386512756,
      -1.4979413747787476,
      -0.06629841029644012,
      -0.3000168204307556,
      -3.364154577255249,
      -5.712324142456055,
      0.06964489817619324,
      0.17245157063007355,
      0.1674642264842987,
      -0.6868115663528442,
      0.2610715627670288,
      -0.27173563838005066,
      -0.05294416844844818,
      0.12064644694328308,
      -0.16348296403884888,
      0.19954004883766174,
      0.9896852374076843,
      -0.4028497040271759,
      -0.1409934163093567,
      1.412331461906433,
      -0.06312388181686401,
      -0.5071854591369629,
      2.014641046524048,
      0.1883629411458969,
      -0.9754381775856018,
      0.2363271415233612,
      -1.212480068206787,
      0.09174785763025284,
      -0.5613542795181274,
      -0.3032025098800659,
      -0.2998754382133484,
      -0.028468936681747437,
      -0.011132263578474522,
      0.0785747691988945,
      -0.15195713937282562,
      -0.05042843520641327,
      -0.12963750958442688,
      -0.6286216974258423,
      0.024385349825024605,
      0.014105048030614853,
      3.9009833335876465,
      0.4298829138278961,
      -0.5886163711547852,
      -0.8565599322319031,
      -0.5691336393356323,
      -1.6546672582626343,
      -0.37755027413368225,
      -0.07356970757246017,
      -0.0672287568449974,
      1.7397727966308594,
      0.3789736330509186,
      -0.11772438883781433,
      0.38431864976882935,
      0.2778225243091583,
      -0.018806390464305878,
      0.05061628296971321,
      -0.24957355856895447,
      -2.628732919692993,
      0.44386884570121765,
      0.08050848543643951,
      2.912393808364868,
      0.12554432451725006,
      -0.1337565928697586,
      0.05426444113254547,
      -0.029568130150437355,
      -0.4017425775527954,
      0.027853015810251236,
      -0.128121018409729,
      -1.8846896886825562,
      -0.5075187683105469,
      0.4546052813529968,
      -0.10559356212615967,
      -0.9753004908561707,
      -0.060262635350227356,
      -1.7163453102111816,
      -0.7062042355537415,
      0.3965526223182678,
      -0.2663377523422241,
      -0.01789890229701996,
      -0.3837415874004364,
      0.01434778980910778,
      -0.22360819578170776,
      0.28775379061698914,
      2.8838160037994385,
      0.065560482442379,
      0.026498764753341675,
      -0.526652455329895,
      0.4198777675628662,
      -0.1671455204486847,
      -0.07355255633592606,
      -0.016560696065425873,
      0.03473580628633499,
      -0.4404378831386566,
      -0.5699089169502258,
      -0.24009522795677185,
      4.011922836303711,
      -0.17145031690597534,
      0.4590342342853546,
      0.4562624990940094,
      -0.33348023891448975,
      -0.5656529664993286,
      -0.08673752844333649,
      -0.0862199142575264,
      0.22367505729198456,
      -0.37537482380867004,
      -8.617742538452148,
      -0.806708574295044,
      -0.559226930141449,
      0.9495735764503479,
      -0.13035628199577332,
      0.4409435987472534,
      0.3605831563472748,
      0.4837048351764679,
      -0.04696284234523773,
      0.18773242831230164,
      0.32788342237472534,
      -1.1620327234268188,
      -0.6232089400291443,
      -0.07022210955619812,
      -0.027691567316651344,
      -1.4876595735549927,
      -0.28107303380966187,
      1.42566978931427,
      0.563062846660614,
      -1.3429546356201172,
      0.03819229453802109,
      -0.06393639743328094,
      -0.012154209427535534,
      1.6680679321289062,
      0.3515755534172058,
      -0.20952989161014557,
      0.05885980278253555,
      -0.02206781879067421,
      -0.09530457854270935,
      -0.042064156383275986,
      0.6238989233970642,
      3.9298572540283203,
      -0.06162012740969658,
      -2.251661777496338,
      -0.024010850116610527,
      0.16531893610954285,
      -0.6420247554779053,
      -0.6114152073860168,
      0.10243193060159683,
      0.7428804636001587,
      3.339867353439331,
      0.042824093252420425,
      -0.1822161227464676,
      -0.06156285107135773,
      -0.4008229970932007,
      -0.03343713656067848,
      -0.10863157361745834,
      0.1988043338060379,
      -0.789132833480835,
      -1.4128953218460083,
      -0.08260160684585571,
      -0.5723404288291931,
      -0.008569599129259586,
      3.6429555416107178,
      -0.13635027408599854,
      0.20746482908725739,
      -0.2589035928249359,
      -0.19800278544425964,
      -0.4879229664802551,
      -0.030616257339715958,
      -0.0081587303429842,
      -1.43246591091156,
      0.08929464221000671,
      -0.28012850880622864,
      -0.16479502618312836,
      -0.4363580346107483,
      0.049348898231983185,
      -0.10223866254091263,
      -1.9617019891738892,
      -0.9238807559013367,
      -0.21043945848941803,
      -2.7940075397491455,
      0.13078273832798004,
      -3.137101888656616,
      -0.6628748178482056,
      0.3813711106777191,
      -0.506551206111908,
      0.047931965440511703,
      0.0759604275226593,
      0.2570294737815857,
      -0.03651267662644386,
      0.03274548053741455,
      0.0223679356276989,
      -0.015132441185414791,
      3.1321990489959717,
      -0.2196594923734665,
      -0.4004501402378082,
      -0.0326530858874321,
      0.008916240185499191,
      -0.01613057404756546,
      0.027151066809892654,
      -0.032275114208459854,
      -1.323523759841919,
      -0.21436628699302673,
      -0.20763762295246124,
      -0.17065536975860596,
      -0.16989177465438843,
      0.08337634801864624,
      -0.04788121581077576,
      0.07240107655525208,
      -0.12834444642066956,
      -0.23132523894309998,
      0.24296358227729797,
      0.05717217177152634,
      -0.0973953977227211,
      0.25762176513671875,
      0.07704540342092514,
      -0.25476130843162537,
      -0.09482280164957047,
      -0.3571484386920929,
      -0.35327208042144775,
      -0.4381655156612396,
      -0.11402659863233566,
      0.29681411385536194,
      -2.3777852058410645,
      3.7836382389068604,
      -2.7321932315826416,
      -0.673957109451294,
      -0.3540710210800171,
      0.8756978511810303,
      0.970628023147583,
      0.15977512300014496,
      0.2319602370262146,
      -0.3080091178417206,
      -0.12388046085834503,
      2.317436695098877,
      0.018273159861564636,
      0.18574203550815582,
      -0.5367153286933899,
      0.1739848256111145,
      0.15738044679164886,
      -1.233982801437378,
      0.5353935956954956,
      0.728577196598053,
      -0.4425790309906006,
      -0.8653655648231506,
      -0.6379052996635437,
      -0.435889333486557,
      -0.27693185210227966,
      -9.714984893798828,
      -2.0493969917297363,
      0.5402311682701111,
      0.4002370238304138,
      -0.5753175020217896,
      0.23625794053077698,
      0.06618241220712662,
      0.07669263333082199,
      0.26282820105552673,
      0.09854251146316528,
      1.1979964971542358,
      -0.22637872397899628,
      0.022616859525442123,
      0.15784285962581635,
      -0.23887716233730316,
      0.1653314083814621,
      -0.10115392506122589,
      0.008533595129847527,
      0.1760922074317932,
      -0.1753121018409729,
      -0.24611936509609222,
      0.005212252028286457,
      -0.25518032908439636,
      -0.05948888882994652,
      -0.24061408638954163,
      -0.2540397644042969,
      2.1956098079681396,
      0.16766121983528137,
      -0.09539014846086502,
      1.7081737518310547,
      0.19966411590576172,
      0.5042195320129395,
      0.10756929218769073,
      -2.0546936988830566,
      -0.1781628131866455,
      0.053008560091257095,
      -1.6750686168670654,
      -0.21025706827640533,
      -0.5761721730232239,
      -0.14873719215393066,
      0.06615778803825378,
      -2.3368985652923584,
      0.21382614970207214,
      -0.07985588908195496,
      -1.9307831525802612,
      -0.18049687147140503,
      -0.11859876662492752,
      2.5000152587890625,
      -0.16229084134101868,
      1.4872422218322754,
      0.20754453539848328,
      0.21232208609580994,
      0.06178240850567818,
      -0.48267853260040283,
      -0.24454988539218903,
      2.817107915878296,
      -0.024300232529640198,
      -0.0710185244679451,
      -0.24743856489658356,
      -0.3339552581310272,
      0.26222699880599976,
      -0.9847441911697388,
      -1.0979769229888916,
      0.184496209025383,
      -1.7432719469070435,
      0.1413070559501648,
      -0.34207430481910706,
      2.9083704948425293,
      -0.1027340441942215,
      -0.3547593355178833,
      -0.010208346880972385,
      1.1112310886383057,
      0.5805675983428955,
      0.5782289505004883,
      -0.38270121812820435,
      -0.45069313049316406,
      -0.015766551718115807,
      -0.48916536569595337,
      0.2569213807582855,
      -0.6764393448829651,
      -0.7427926659584045,
      -0.1069125086069107,
      -10.353200912475586,
      -0.4186432361602783,
      0.5701680779457092,
      0.28204861283302307,
      -0.06362470239400864,
      0.20551475882530212,
      0.10587769001722336,
      -0.2946043014526367,
      -0.5515314340591431,
      0.6333805918693542,
      -0.44468754529953003,
      0.6752510666847229,
      0.19941763579845428,
      0.15082596242427826,
      0.03819067031145096,
      -0.004445796832442284,
      0.05764085799455643,
      -0.15009711682796478,
      -0.21165749430656433,
      -0.2875867486000061,
      4.551736354827881,
      0.046861764043569565,
      -0.0124680669978261,
      -0.04042074456810951,
      -0.3717513382434845,
      -0.4354935586452484,
      -0.48460593819618225,
      0.3874549865722656,
      -0.21001456677913666,
      1.529742956161499,
      -0.1852547973394394,
      0.003759851912036538,
      1.2239632606506348,
      0.821075439453125,
      -0.8832913637161255,
      0.4211723804473877,
      -1.5807008743286133,
      -0.1282278150320053,
      0.08489387482404709,
      -0.7045660614967346,
      -0.721869707107544,
      -0.6572101712226868,
      -0.253850519657135,
      0.09932662546634674,
      -0.27603140473365784,
      0.2024383842945099,
      -0.010496209375560284,
      0.9181174635887146,
      0.09321597963571548,
      0.022511273622512817,
      -3.4513933658599854,
      -9.654630661010742,
      0.6659408211708069,
      0.043850671499967575,
      -0.07705020904541016,
      0.4305931329727173,
      -0.18360161781311035,
      -1.055400013923645,
      0.5130372047424316,
      -0.7878721356391907,
      -0.200672447681427,
      0.4038434624671936,
      -0.2823280990123749,
      0.10309892892837524,
      0.14732545614242554,
      0.0619732066988945,
      -6.5502800941467285,
      -3.9380648136138916,
      0.10917045921087265,
      -2.8523218631744385,
      0.5104218125343323,
      -0.19913947582244873,
      0.016267050057649612,
      -1.6625971794128418,
      0.4444161355495453,
      -0.17356634140014648,
      -0.17220132052898407,
      -0.21282416582107544,
      0.47715267539024353,
      -0.6026127338409424,
      -0.6250403523445129,
      2.0000555515289307,
      0.03845660015940666,
      -0.17077642679214478,
      -0.5183470249176025,
      -0.017660178244113922,
      0.33874720335006714,
      -0.11739470064640045,
      -0.05058414489030838,
      0.6561450362205505,
      -0.44322529435157776,
      -0.21480505168437958,
      -0.3599393367767334,
      -2.4669301509857178,
      0.14523248374462128,
      0.4414578080177307,
      0.33642083406448364,
      0.5344008803367615,
      0.1101284846663475,
      -0.14404705166816711,
      -0.07553872466087341,
      1.30705726146698,
      0.06865545362234116,
      -0.017139006406068802,
      -1.1127136945724487,
      0.02457013912498951,
      -2.1191163063049316,
      -0.19807171821594238,
      0.15096858143806458,
      0.14320605993270874,
      -2.713489532470703,
      -0.4714944660663605,
      3.9133636951446533,
      0.520348310470581,
      0.03280337154865265,
      -0.2341209352016449,
      -0.365866482257843,
      -0.49138009548187256,
      -0.34544333815574646,
      -0.3692726194858551,
      0.3357950448989868,
      -0.605837881565094,
      0.006547803990542889,
      -0.3876543343067169,
      -0.5512180328369141,
      -0.012540817260742188,
      0.05413925275206566,
      -0.4323442280292511,
      -0.3461843430995941,
      0.09716923534870148,
      -0.180485337972641,
      0.03923946991562843,
      -0.08968540281057358,
      0.07996272295713425,
      -0.0058850436471402645,
      0.05420671030879021,
      -0.06003895774483681,
      0.06251324713230133,
      0.01740565150976181,
      -1.7052518129348755,
      -0.09764990955591202,
      0.3549596965312958,
      -1.4753010272979736,
      0.21970921754837036,
      -0.6560258269309998,
      -0.670843243598938,
      0.2133956253528595,
      -0.0024026883766055107,
      0.022788885980844498,
      0.33812808990478516,
      -0.5373753905296326,
      1.8458811044692993,
      0.9910926222801208,
      0.04845041036605835,
      -0.23291179537773132,
      -0.06621742248535156,
      -0.12382830679416656,
      -0.02178914286196232,
      0.05982503667473793,
      -0.03659128025174141,
      0.16990113258361816,
      0.08302906155586243,
      0.24878282845020294,
      -0.18018649518489838,
      0.1734645515680313,
      -0.21096347272396088,
      -0.12959341704845428,
      0.6353513598442078,
      -0.22536715865135193,
      0.2231786847114563,
      -3.0339903831481934,
      0.17483383417129517,
      -0.15207020938396454,
      -0.3217199146747589,
      -0.2857729494571686,
      -0.034789472818374634,
      2.3447437286376953,
      -0.027127958834171295,
      -0.4340507686138153,
      0.9239324927330017,
      0.30368152260780334,
      0.018264198675751686,
      -0.04143109172582626,
      0.041075222194194794,
      0.007228953298181295,
      0.007124057970941067,
      -0.017217596992850304,
      -0.41926831007003784,
      -0.03503447398543358,
      -0.09988246858119965,
      3.8100595474243164,
      0.0004616000223904848,
      0.14439737796783447,
      -0.42435649037361145,
      -0.6481322646141052,
      -1.020274043083191,
      -0.06411997973918915,
      -1.4461524486541748,
      0.4344772696495056,
      -0.676445722579956,
      -0.5628649592399597,
      -0.2895185053348541,
      -0.4839954078197479,
      0.1985764056444168,
      -0.13406459987163544,
      1.5400763750076294,
      0.029256921261548996,
      -0.38148102164268494,
      0.988771915435791,
      -0.526631772518158,
      0.21542364358901978,
      -0.060951557010412216,
      2.1101224422454834,
      0.08746791630983353,
      -0.06599851697683334,
      -0.239983469247818,
      -0.21404650807380676,
      -0.3085867166519165,
      -0.6357632279396057,
      0.1536961942911148,
      -1.7774137258529663,
      0.3681889772415161,
      0.3938327431678772,
      0.8247810006141663,
      0.2655940353870392,
      -0.7771599888801575,
      -0.10382676124572754,
      -1.674967646598816,
      0.2475615292787552,
      0.5807115435600281,
      0.3373824954032898,
      0.3038760721683502,
      -0.18503546714782715,
      2.1888442039489746,
      0.041086725890636444,
      -0.041514262557029724,
      -0.355355829000473,
      -0.2690800726413727,
      0.005393258761614561,
      0.06834831088781357,
      0.0652620866894722,
      1.7742419242858887,
      1.3863414525985718,
      -0.8618355393409729,
      -6.586755752563477,
      0.4432732164859772,
      0.06707822531461716,
      -0.05435468629002571,
      0.0022203971166163683,
      -0.3411867022514343,
      -0.47729572653770447,
      -1.1213685274124146,
      0.18410247564315796,
      -0.7117423415184021,
      -0.3029768466949463,
      -0.7952662110328674,
      -0.8496738076210022,
      -0.555512547492981,
      0.9837864637374878,
      0.16362246870994568,
      0.6853427886962891,
      0.7176705598831177,
      0.5270600914955139,
      1.3080196380615234,
      0.6325635313987732,
      -0.7012904286384583,
      -0.2530733346939087,
      -2.168745517730713,
      -0.724723219871521,
      -0.2764575779438019,
      -2.7387566566467285,
      -0.11711996048688889,
      -1.6841983795166016,
      2.192216396331787,
      1.002366065979004,
      0.2390546351671219,
      0.09125760942697525,
      -0.11835720390081406,
      0.18219657242298126,
      -0.08308395743370056,
      -0.23718266189098358,
      -0.23315604031085968,
      0.12928667664527893,
      0.18324264883995056,
      -0.14949968457221985,
      0.030932456254959106,
      0.015842169523239136,
      -0.08960054814815521,
      0.2075703740119934,
      -0.035944536328315735,
      0.03250560164451599,
      -0.06843797862529755,
      -0.14201025664806366,
      0.7487773299217224,
      0.2908349633216858,
      0.3023718595504761,
      -0.4077216386795044,
      0.8648315072059631,
      0.15026845037937164,
      0.9989432692527771,
      -0.09256178885698318,
      -0.08945003896951675,
      -17.11456298828125,
      -0.8074798583984375,
      0.210097074508667,
      0.25829461216926575,
      -0.7421872615814209,
      -0.2936033010482788,
      -0.256803959608078,
      0.10858912765979767,
      0.07922288775444031,
      -3.9443368911743164,
      -7.894740581512451,
      -0.6907933354377747,
      -0.5332937240600586,
      0.5764070749282837,
      0.0209856778383255,
      0.7710866928100586,
      0.16117829084396362,
      0.755108118057251,
      0.3102170526981354,
      2.6464929580688477,
      2.359624147415161,
      0.5264741778373718,
      -0.30165308713912964,
      -0.5222163200378418,
      -0.44872090220451355,
      -0.7931353449821472,
      -0.26589903235435486,
      -0.32660192251205444,
      0.4176730215549469,
      0.12284325063228607,
      -0.34730562567710876,
      -0.6572405099868774,
      -0.6569957733154297,
      0.2288701832294464,
      -0.05552253872156143,
      -0.10806368291378021,
      0.2734547257423401,
      -0.06029574200510979,
      0.09778805077075958,
      -0.26884445548057556,
      0.039420537650585175,
      -0.03777983784675598,
      0.07366690039634705,
      -0.10208805650472641,
      -0.08954627066850662,
      -0.13744626939296722,
      -0.27477991580963135,
      -24.955184936523438,
      1.9319108724594116,
      0.5031160712242126,
      0.7865135669708252,
      0.28106430172920227,
      -0.5693500638008118,
      -0.28316208720207214,
      -1.7163329124450684,
      -0.23828063905239105,
      0.011402852833271027,
      -0.017274897545576096,
      0.23786428570747375,
      -0.1725374162197113,
      -0.07698151469230652,
      -0.3056659698486328,
      -0.3642721176147461,
      1.9369418621063232,
      0.28185564279556274,
      1.1033269166946411,
      0.6646568179130554,
      -0.538041889667511,
      -0.010647501796483994,
      -0.14411655068397522,
      -0.19377605617046356,
      -2.2626190185546875,
      0.5038948655128479,
      -0.34006962180137634,
      -0.46465298533439636,
      2.359590768814087,
      0.4060826599597931,
      1.1247395277023315,
      0.14151838421821594,
      -1.7743576765060425,
      -0.021350370720028877,
      0.40085121989250183,
      0.7670868039131165,
      0.20427793264389038,
      -1.8405224084854126,
      -0.5957515835762024,
      0.31227874755859375,
      -2.0930025577545166,
      0.9085397720336914,
      0.3719090521335602,
      -0.2803349196910858,
      2.5407118797302246,
      0.32873478531837463,
      0.6710577011108398,
      0.3459850251674652,
      -0.12345398962497711,
      0.1305367350578308,
      -2.1240334510803223,
      -0.01525656133890152,
      0.07215788960456848,
      -1.0634527206420898,
      -0.4643375277519226,
      -0.29683369398117065,
      0.021713074296712875,
      -0.19729410111904144,
      0.8702560067176819,
      0.15362197160720825,
      -0.21465034782886505,
      -6.31414270401001,
      -1.348097801208496,
      -4.591002941131592,
      1.8491146564483643,
      0.33918625116348267,
      -0.02823084034025669,
      -0.19545094668865204,
      0.008520727977156639,
      0.12114666402339935,
      0.054634422063827515,
      0.0049977898597717285,
      -0.24831055104732513,
      -0.01613113284111023,
      -0.23971401154994965,
      -0.1384989619255066,
      -0.006791919469833374,
      0.15035885572433472,
      0.18257778882980347,
      0.11151188611984253,
      0.13975116610527039,
      -0.07259835302829742,
      -0.23734107613563538,
      -0.21530231833457947,
      -0.05660262331366539,
      0.520012617111206,
      -1.605663776397705,
      0.4391035735607147,
      -5.443296432495117,
      0.21975159645080566,
      0.2878871560096741,
      -1.855749249458313,
      -0.8552286624908447,
      -0.08024146407842636,
      0.8567201495170593,
      0.022570831701159477,
      -0.20163993537425995,
      0.2917824685573578,
      0.1286504864692688,
      -2.340839385986328,
      -0.10558896511793137,
      -0.023758118972182274,
      -0.0723266452550888,
      -0.2492690235376358,
      -0.11631403863430023,
      0.07110487669706345,
      -0.2194681614637375,
      3.1395492553710938,
      0.02816011570394039,
      0.13350993394851685,
      -0.054797034710645676,
      0.008789576590061188,
      -0.006021710112690926,
      0.12625464797019958,
      -0.09405992180109024,
      0.22022387385368347,
      -0.13306008279323578,
      -0.087462417781353,
      -0.09044674783945084,
      0.08178439736366272,
      -0.21537815034389496,
      -0.24360112845897675,
      -0.1654263734817505,
      0.07729502767324448,
      0.019691674038767815,
      0.03923017159104347,
      -0.005104300566017628,
      -0.1654158979654312,
      -1.627410888671875,
      -8.043529510498047,
      0.07401037216186523,
      0.2857191562652588,
      0.16900964081287384,
      -0.3786536753177643,
      0.16347000002861023,
      -0.47151580452919006,
      -0.11831037700176239,
      0.15913434326648712,
      -0.25191283226013184,
      0.7769939303398132,
      -0.1325453817844391,
      -0.16612301766872406,
      0.016992179676890373,
      0.04400648549199104,
      0.0972931832075119,
      0.8518050312995911,
      1.4129739999771118,
      -3.1409051418304443,
      -5.093345642089844,
      0.31315451860427856,
      -0.013622408732771873,
      0.22963067889213562,
      -1.7630695104599,
      -0.3259766697883606,
      0.07624310255050659,
      -0.031108185648918152,
      0.1514796018600464,
      0.028061479330062866,
      -0.2544219493865967,
      -0.11496030539274216,
      0.08045211434364319,
      -0.07475769519805908,
      0.1406547725200653,
      0.014161902479827404,
      0.11576613038778305,
      -0.11432819813489914,
      0.09021016210317612,
      -0.17726804316043854,
      0.1433321088552475,
      0.13699330389499664,
      -0.10111483931541443,
      -0.024137994274497032,
      -0.15676118433475494,
      0.18119539320468903,
      -0.2045651078224182,
      0.023374469950795174,
      0.17522957921028137,
      0.28193458914756775,
      -0.0916152223944664,
      -0.012556486763060093,
      -0.12132170796394348,
      0.08324433863162994,
      -1.0349773168563843,
      0.41253867745399475,
      -0.2642124891281128,
      -0.16384901106357574,
      -0.19651466608047485,
      -0.14049720764160156,
      0.9864567518234253,
      -0.8887653350830078,
      -0.22678619623184204,
      -0.21934634447097778,
      -0.04477734863758087,
      0.05938424915075302,
      0.21751828491687775,
      -2.219439744949341,
      0.26179060339927673,
      -1.2167105674743652,
      -3.7931923866271973,
      -0.922735869884491,
      0.07745538651943207,
      0.7708830833435059,
      0.6227019429206848,
      -0.465512752532959,
      -2.3423492908477783,
      -0.05763788893818855,
      0.005986635573208332,
      0.03556359186768532,
      -0.8125937581062317,
      -1.7320189476013184,
      -0.07765138894319534,
      -0.19766055047512054,
      -0.01295001246035099,
      2.819674253463745,
      -0.060247745364904404,
      0.1521885246038437,
      0.333025187253952,
      -0.41101908683776855,
      -0.09826164692640305,
      0.08700685203075409,
      -2.017620086669922,
      -0.2392740547657013,
      -0.3486422896385193,
      -0.4484284222126007,
      -0.396118700504303,
      1.2662113904953003,
      0.09555155038833618,
      0.004016063641756773,
      -0.02268848568201065,
      2.376361846923828,
      -0.014217868447303772,
      -0.8879072666168213,
      0.1955287605524063,
      -0.045509979128837585,
      0.038373664021492004,
      -1.1776716709136963,
      -0.5085597038269043,
      -0.7746022343635559,
      -5.599269866943359,
      -0.054299283772706985,
      0.04680716246366501,
      0.06605567783117294,
      0.031641412526369095,
      -0.04678520932793617,
      -0.01273015420883894,
      -0.18401819467544556,
      -0.9068509340286255,
      -0.33001038432121277,
      0.07470165193080902,
      -0.19311483204364777,
      -2.814004898071289,
      0.14216777682304382,
      0.12063820660114288,
      1.0022536516189575,
      -0.19328883290290833,
      2.612271785736084,
      0.4334135055541992,
      0.0017068462911993265,
      -0.3137848377227783,
      -6.824886798858643,
      0.18189696967601776,
      0.06670873612165451,
      -0.47474998235702515,
      -1.3297683000564575,
      -1.1069869995117188,
      -0.006004282273352146,
      -0.09494398534297943,
      -0.008435032330453396,
      -0.007153322454541922,
      -0.37693285942077637,
      -0.17398254573345184,
      -0.5179385542869568,
      0.041614413261413574,
      0.3475370407104492,
      0.4798438549041748,
      0.27818456292152405,
      0.21959760785102844,
      -0.10245366394519806,
      -0.13056619465351105,
      0.16416692733764648,
      0.90263831615448,
      -0.056456372141838074,
      0.01112334243953228,
      -0.10540500283241272,
      0.09809993952512741,
      -0.8845522403717041,
      -0.09195973724126816,
      0.12499324232339859,
      0.06857573986053467,
      -0.16873836517333984,
      -7.344821453094482,
      -3.7790262699127197,
      -0.37468770146369934,
      0.3175141513347626,
      -2.9418866634368896,
      0.08435811847448349,
      0.036278218030929565,
      -1.4386706352233887,
      0.3457929193973541,
      -0.646120011806488,
      -0.771964967250824,
      0.08182752877473831,
      0.03876851126551628,
      3.0911474227905273,
      -0.2456190437078476,
      0.8553786873817444,
      -0.3493887484073639,
      -0.4357174336910248,
      -0.3096778094768524,
      -0.7907660603523254,
      0.006870764773339033,
      0.06479305028915405,
      -2.220196008682251,
      -0.019202200695872307,
      -0.3250386416912079,
      1.5721499919891357,
      0.00833059661090374,
      -0.0311761312186718,
      -0.1320316046476364,
      2.3432600498199463,
      -0.20818857848644257,
      0.5017375349998474,
      -4.861642360687256,
      -1.3349049091339111,
      -0.4312509596347809,
      2.1837563514709473,
      0.2957903742790222,
      -0.15072821080684662,
      -0.8584102392196655,
      0.3452167510986328,
      0.09369800984859467,
      0.13186025619506836,
      0.10675930231809616,
      0.006922655273228884,
      -0.006998349446803331,
      -0.02533380687236786,
      -0.16347970068454742,
      -0.028696153312921524,
      -0.03803003951907158,
      0.08477600663900375,
      -0.05250898376107216,
      -0.027317598462104797,
      0.01861085370182991,
      0.15600121021270752,
      -0.19385580718517303,
      0.01246887817978859,
      -0.11899103224277496,
      -3.195401668548584,
      -0.026089545339345932,
      0.2446519136428833,
      -0.05265145003795624,
      0.10553288459777832,
      0.15349991619586945,
      -0.12645186483860016,
      -0.07151990383863449,
      0.03540546074509621,
      0.06411071121692657,
      0.5906656384468079,
      0.0512869730591774,
      0.09260120242834091,
      -3.2583060264587402,
      -0.03486332669854164,
      -0.3584449887275696,
      0.8494763970375061,
      -0.127505823969841,
      0.16903822124004364,
      -0.7616919279098511,
      0.7565069794654846,
      0.04149316996335983,
      -0.30944448709487915,
      -0.40885666012763977,
      -0.07224152237176895,
      3.482450485229492,
      -0.1721860021352768,
      -0.06879319250583649,
      -0.4025958776473999,
      -0.5518789291381836,
      -0.5861734747886658,
      0.07106877863407135,
      -0.12684234976768494,
      0.03900882601737976,
      -0.06609892845153809,
      -0.43286675214767456,
      -0.18060418963432312,
      -0.3249240219593048,
      4.502045631408691,
      0.06360732764005661,
      0.33911722898483276,
      0.284170001745224,
      0.01302359625697136,
      -0.25141075253486633,
      -0.6407083868980408,
      1.4651896953582764,
      2.9813830852508545,
      0.5296531915664673,
      -0.47118014097213745,
      -0.503090500831604,
      -0.4746514856815338,
      -0.6094940900802612,
      -0.5853725075721741,
      0.8438514471054077,
      -0.011198267340660095,
      -0.43949243426322937,
      -0.5236385464668274,
      -0.4115235507488251,
      -0.4933726191520691,
      -0.0743275061249733,
      -0.4741257131099701,
      -0.024542156606912613,
      0.2080565094947815,
      -2.65571928024292,
      -0.11484776437282562,
      -0.49158403277397156,
      1.1848084926605225,
      -0.045071233063936234,
      -0.19059540331363678,
      2.576220750808716,
      -0.2252686321735382,
      0.4783730208873749,
      0.18443407118320465,
      -0.03237830102443695,
      0.014746014028787613,
      3.8075788021087646,
      0.2732737362384796,
      -0.36847448348999023,
      -0.5635764598846436,
      -0.7410619854927063,
      -0.000264721893472597,
      0.04924740642309189,
      -0.04754190891981125,
      -0.025519125163555145,
      -0.1947934329509735,
      -0.33236217498779297,
      -0.6372726559638977,
      0.03572827950119972,
      0.02696167305111885,
      -0.0067100427113473415,
      3.4381027221679688,
      -0.15415333211421967,
      -0.212007537484169,
      -0.6090364456176758,
      0.018214251846075058,
      0.029696771875023842,
      0.0044753896072506905,
      -0.25485098361968994,
      -0.9086363911628723,
      -0.11855075508356094,
      -0.31898176670074463
    ],
    [
      0.005758484825491905,
      -1.4412472248077393,
      0.1189756989479065,
      -0.03734014928340912,
      -0.446223646402359,
      -0.90030437707901,
      -0.17052146792411804,
      0.5230200290679932,
      -0.05998252332210541,
      0.30506187677383423,
      0.4256995916366577,
      -0.5036965608596802,
      0.051835797727108,
      0.07451153546571732,
      0.3325529396533966,
      0.05378197878599167,
      0.18534542620182037,
      -0.6835471987724304,
      2.0929062366485596,
      -0.02744659222662449,
      -0.028350360691547394,
      -0.0011823209933936596,
      -0.33907097578048706,
      0.04302819073200226,
      0.8124340772628784,
      0.01812184602022171,
      -0.34341248869895935,
      1.1534878015518188,
      0.2644753158092499,
      -0.05042974650859833,
      0.3005971610546112,
      -1.3867130279541016,
      0.22497349977493286,
      0.0546833835542202,
      -1.1345616579055786,
      -1.2589483261108398,
      -0.7537718415260315,
      0.18998181819915771,
      -0.24477139115333557,
      -0.9936976432800293,
      0.286318838596344,
      0.354992151260376,
      0.10652133822441101,
      -0.06221017241477966,
      0.26701658964157104,
      -1.5637905597686768,
      -0.09389003366231918,
      0.09752671420574188,
      -0.17809243500232697,
      -0.2326982617378235,
      0.016508810222148895,
      0.2581787407398224,
      -2.3480570316314697,
      0.8613988161087036,
      0.030480632558465004,
      1.0128977298736572,
      1.0346488952636719,
      0.06395862996578217,
      -2.1451575756073,
      -4.068551540374756,
      -0.11209551990032196,
      0.09493459016084671,
      -0.02187742292881012,
      0.495316743850708,
      0.8759263157844543,
      0.7782858610153198,
      -0.09264320880174637,
      0.3339761793613434,
      -0.380827397108078,
      -1.2251780033111572,
      0.765998363494873,
      -0.796359121799469,
      -2.245513916015625,
      0.17441797256469727,
      -3.61474609375,
      -0.36311909556388855,
      0.5192903280258179,
      -1.5207602977752686,
      -2.6016199588775635,
      0.24929772317409515,
      0.07697806507349014,
      0.20528927445411682,
      0.024432417005300522,
      -0.3795326054096222,
      -0.046458519995212555,
      -0.16863393783569336,
      0.20095999538898468,
      0.27444857358932495,
      0.040430426597595215,
      0.5646006464958191,
      0.7984657883644104,
      0.03729035705327988,
      -0.2749018967151642,
      0.06445779651403427,
      0.3661905527114868,
      0.09268977493047714,
      1.0236567258834839,
      0.9018756151199341,
      0.855556845664978,
      -0.9809370040893555,
      0.320215106010437,
      -0.0011278465390205383,
      1.0967769622802734,
      0.12743903696537018,
      -0.0030731724109500647,
      1.7983551025390625,
      0.5601120591163635,
      -0.06346631795167923,
      0.009961235336959362,
      1.4505153894424438,
      -1.0112577676773071,
      -2.3787965774536133,
      0.25318869948387146,
      -0.5466475486755371,
      2.504392147064209,
      0.019373789429664612,
      0.2559419274330139,
      -0.48761826753616333,
      -0.1338942050933838,
      -0.11867740750312805,
      0.46092289686203003,
      -2.2450315952301025,
      0.27606201171875,
      0.8767454028129578,
      1.1901391744613647,
      -0.16536930203437805,
      0.5201330184936523,
      -0.8615099787712097,
      0.04881182312965393,
      -0.009167115204036236,
      -0.5714322328567505,
      -0.06413335353136063,
      -0.05151255428791046,
      0.18851995468139648,
      -0.005440309178084135,
      0.3674873411655426,
      0.00956815481185913,
      -0.9050270318984985,
      -0.4876515567302704,
      -1.854669213294983,
      -2.6863791942596436,
      0.04966447874903679,
      0.444408655166626,
      -0.005964979529380798,
      0.4796757102012634,
      -0.17069464921951294,
      1.4818472862243652,
      0.027098653838038445,
      -0.037225645035505295,
      0.16444404423236847,
      0.17453201115131378,
      -0.29156553745269775,
      0.3857595920562744,
      0.019899964332580566,
      -0.7360833883285522,
      1.3570842742919922,
      -1.1371935606002808,
      0.02300553023815155,
      0.8931092619895935,
      1.4943580627441406,
      1.1099811792373657,
      -0.011533020995557308,
      -1.922031283378601,
      -0.6208326816558838,
      -0.15577952563762665,
      0.2445715218782425,
      0.33101776242256165,
      -2.6383769512176514,
      -0.10821861028671265,
      -0.08010271936655045,
      0.7623082399368286,
      -0.873576283454895,
      0.20542314648628235,
      0.13363111019134521,
      -0.19495108723640442,
      -2.064222574234009,
      0.1605910211801529,
      0.12363371253013611,
      -0.22868162393569946,
      -0.10214625298976898,
      0.8016310930252075,
      -0.31647202372550964,
      -0.17852351069450378,
      0.27379849553108215,
      0.3758678734302521,
      -0.8421632051467896,
      -0.3091871440410614,
      0.9610297083854675,
      -0.2469366192817688,
      1.0728040933609009,
      -0.018196849152445793,
      -0.053967803716659546,
      -0.2358546108007431,
      0.7481273412704468,
      -0.1453860104084015,
      -0.5741875171661377,
      -0.37754470109939575,
      0.7272053956985474,
      0.3213624060153961,
      0.33519798517227173,
      -2.6156392097473145,
      -0.26497960090637207,
      -0.9231128692626953,
      -0.9698739647865295,
      -0.8194435238838196,
      0.4343220889568329,
      -3.454078197479248,
      -0.5754991173744202,
      0.053793881088495255,
      1.192490577697754,
      0.004964612890034914,
      0.3408457040786743,
      0.11927665024995804,
      0.16176225244998932,
      0.2752147912979126,
      -0.4436345398426056,
      -10.053998947143555,
      0.4019177556037903,
      -0.28958699107170105,
      -0.0018849968910217285,
      0.5462149977684021,
      0.8217942118644714,
      -0.3579314947128296,
      0.026965877041220665,
      -0.20863445103168488,
      -0.3073264956474304,
      0.3248418867588043,
      0.2491663545370102,
      -3.5413315296173096,
      0.056168071925640106,
      -0.22593963146209717,
      -0.25463593006134033,
      0.04416215792298317,
      -0.610014021396637,
      0.12947586178779602,
      -0.05209950730204582,
      -0.02907860279083252,
      1.8213355541229248,
      -0.23536978662014008,
      0.5466604828834534,
      -0.09211087971925735,
      -0.3985395133495331,
      -1.5586515665054321,
      -0.12527088820934296,
      -0.9665623307228088,
      -0.7068029642105103,
      0.31910502910614014,
      0.5263456702232361,
      -0.15333880484104156,
      -0.3118966817855835,
      1.0238596200942993,
      -1.2429968118667603,
      0.4858900308609009,
      0.3475896716117859,
      0.048406943678855896,
      -1.449755311012268,
      0.020796040073037148,
      -0.99416583776474,
      0.7750863432884216,
      0.008854527026414871,
      -0.10255807638168335,
      0.05373198911547661,
      0.12034488469362259,
      -0.08211590349674225,
      0.02997601591050625,
      -0.9793168306350708,
      1.1987513303756714,
      -0.0035269074141979218,
      1.6575003862380981,
      -1.4247446060180664,
      -0.04131225869059563,
      0.07278413325548172,
      -0.8795468211174011,
      0.7540909647941589,
      -1.33742094039917,
      0.051491629332304,
      0.050774626433849335,
      -0.09691281616687775,
      -0.15194745361804962,
      -0.9812203645706177,
      -0.16209204494953156,
      -0.008620098233222961,
      1.2721589803695679,
      0.14868657290935516,
      1.097716212272644,
      0.05846960097551346,
      -2.0907704830169678,
      -2.970892906188965,
      0.552552342414856,
      0.24492651224136353,
      0.24742907285690308,
      0.8336790800094604,
      1.159379005432129,
      1.5656741857528687,
      0.5427417755126953,
      -0.3250640332698822,
      0.20966731011867523,
      0.5497413277626038,
      1.5900408029556274,
      -0.0550568513572216,
      -0.10576628148555756,
      -0.09817156940698624,
      0.6495381593704224,
      -1.0059974193572998,
      0.9565143585205078,
      0.21849355101585388,
      0.4842212200164795,
      0.318587988615036,
      -0.23361924290657043,
      -1.530927300453186,
      1.0300581455230713,
      1.4919837713241577,
      -0.7879167795181274,
      0.1901148110628128,
      0.7140676975250244,
      2.3461146354675293,
      -0.4569109082221985,
      -0.9851715564727783,
      -0.023175731301307678,
      0.10353530943393707,
      1.0199699401855469,
      -3.8899619579315186,
      0.13324061036109924,
      0.14306458830833435,
      0.6929465532302856,
      0.8460842370986938,
      -0.36156895756721497,
      -0.385202020406723,
      -0.26797592639923096,
      -0.11840943247079849,
      0.31869375705718994,
      -0.12139315158128738,
      0.25452712178230286,
      0.25432804226875305,
      -1.309704065322876,
      2.8087635040283203,
      0.0353018157184124,
      -0.021689437329769135,
      0.03318187594413757,
      -0.8912882208824158,
      -0.001413453370332718,
      -1.0735630989074707,
      0.05694019794464111,
      1.2342314720153809,
      -0.225830078125,
      0.0638042688369751,
      -1.8927854299545288,
      0.010050728917121887,
      -0.12848646938800812,
      -0.4986782670021057,
      1.0862613916397095,
      0.058230530470609665,
      0.2103392630815506,
      -0.10160540044307709,
      1.2838900089263916,
      0.2891071140766144,
      -0.40672317147254944,
      -0.021718576550483704,
      1.3660613298416138,
      0.2215571403503418,
      0.03378274664282799,
      0.7751286625862122,
      -0.6054360270500183,
      -0.019865915179252625,
      0.04750177264213562,
      -3.4784958362579346,
      0.02152216248214245,
      0.5730667114257812,
      0.6468689441680908,
      -0.32443174719810486,
      0.4588821828365326,
      -0.2886897027492523,
      -2.3799147605895996,
      -0.7476820349693298,
      -2.3034162521362305,
      1.1168746948242188,
      -1.3295464515686035,
      -0.4365983307361603,
      1.5612720251083374,
      0.5334319472312927,
      1.380321979522705,
      -0.11409514397382736,
      -0.9377581477165222,
      3.5894808769226074,
      -0.16293898224830627,
      -0.780793309211731,
      -0.31072744727134705,
      0.02943103015422821,
      -0.21314778923988342,
      0.026835601776838303,
      0.21601128578186035,
      0.5023519992828369,
      0.16019195318222046,
      0.41634607315063477,
      0.11804625391960144,
      -0.5199570655822754,
      0.5990501642227173,
      -0.6822516918182373,
      -0.03162495046854019,
      0.0666971281170845,
      -0.23022888600826263,
      -0.9333533048629761,
      -0.25631776452064514,
      0.03689360246062279,
      -0.002128392457962036,
      -0.1435331106185913,
      0.17411381006240845,
      0.03803868219256401,
      0.34867042303085327,
      0.054987333714962006,
      -0.5925278067588806,
      -0.368293434381485,
      -0.20199981331825256,
      -0.04296737164258957,
      -2.6197047233581543,
      0.4870423972606659,
      0.20662838220596313,
      0.6015450358390808,
      -0.6697454452514648,
      -1.331162452697754,
      -0.0643780305981636,
      -0.059210844337940216,
      -0.004887574352324009,
      -1.7986453771591187,
      -0.9730218052864075,
      2.876938581466675,
      0.4256829023361206,
      -0.7282804846763611,
      -0.07058271765708923,
      1.3201661109924316,
      1.392465591430664,
      0.23821498453617096,
      0.46150505542755127,
      0.6724068522453308,
      4.340747356414795,
      -1.361544132232666,
      -1.1741207838058472,
      -1.4216854572296143,
      -0.5475698113441467,
      -0.020682699978351593,
      0.20566728711128235,
      -0.5560970306396484,
      0.5894822478294373,
      -1.920218586921692,
      -0.2669645845890045,
      -0.2808608412742615,
      -0.02876490168273449,
      1.158140778541565,
      -1.5627177953720093,
      -0.7374389171600342,
      -0.0675240084528923,
      -0.5354719161987305,
      0.025743655860424042,
      0.4559905529022217,
      -0.5704617500305176,
      0.01526483241468668,
      0.4270341396331787,
      0.2789878845214844,
      -2.0943400859832764,
      0.3194643557071686,
      0.12146704643964767,
      -0.19940276443958282,
      -0.7561751008033752,
      1.0880402326583862,
      -0.1170407086610794,
      0.07960253208875656,
      0.08307360112667084,
      0.307511568069458,
      1.229650616645813,
      -0.2694983184337616,
      1.2641628980636597,
      -0.7297659516334534,
      -0.6726368069648743,
      -0.23440152406692505,
      -1.452533483505249,
      0.031191661953926086,
      -0.7179592251777649,
      -2.4861438274383545,
      0.2887451946735382,
      0.0626278817653656,
      -0.5491827130317688,
      -2.1470603942871094,
      -2.184948205947876,
      0.1414201557636261,
      -0.6260725259780884,
      0.08706619590520859,
      -0.036443691700696945,
      0.3641422688961029,
      0.05517464131116867,
      0.06037594750523567,
      -0.46010521054267883,
      -0.0023918456863611937,
      0.26173022389411926,
      1.1988496780395508,
      0.21973484754562378,
      -1.4168590307235718,
      -0.39303168654441833,
      -0.851606011390686,
      -2.1705617904663086,
      0.4280770421028137,
      -0.5107584595680237,
      1.8665268421173096,
      1.031995415687561,
      0.20057673752307892,
      0.3032422363758087,
      0.5356932878494263,
      -0.4336988925933838,
      0.5532158017158508,
      0.5314715504646301,
      -0.7773176431655884,
      -0.8459265232086182,
      -0.14979538321495056,
      -0.04294896125793457,
      -0.07265546172857285,
      0.01567559503018856,
      -0.06041846051812172,
      -0.0813099667429924,
      0.015486898832023144,
      0.016227293759584427,
      -0.011558175086975098,
      -0.03361573442816734,
      -0.01467235665768385,
      0.030846156179904938,
      0.059221625328063965,
      -0.09216789901256561,
      0.033836912363767624,
      0.002421704353764653,
      -0.04120439291000366,
      0.02749081701040268,
      -0.04388391971588135,
      0.06683214753866196,
      0.053309373557567596,
      0.03483264148235321,
      -0.018796782940626144,
      -0.058764636516571045,
      -0.025768380612134933,
      0.02273675426840782,
      -0.010847389698028564,
      -0.02519753761589527,
      -0.0381779707968235,
      -0.07892004400491714,
      0.08796519786119461,
      -0.026338648051023483,
      0.018261048942804337,
      0.0907776728272438,
      -0.02359703928232193,
      -0.029507093131542206,
      -0.07026047259569168,
      -0.0812569335103035,
      -0.030567873269319534,
      -0.08095117658376694,
      -0.0779411569237709,
      0.009877905249595642,
      0.037040676921606064,
      -0.014394029043614864,
      0.02294301800429821,
      0.034403301775455475,
      0.05338434502482414,
      -0.0035343323834240437,
      0.05734962970018387,
      0.022303685545921326,
      0.06097399815917015,
      -0.07676232606172562,
      -0.05007722228765488,
      -0.04050334170460701,
      -0.03177441284060478,
      -0.048237044364213943,
      -0.007261756341904402,
      -0.09237189590930939,
      -0.030292648822069168,
      -0.11825941503047943,
      0.004704060032963753,
      0.026805641129612923,
      -0.15241767466068268,
      0.06498704105615616,
      -0.0587049201130867,
      -0.09730136394500732,
      0.044998329132795334,
      0.07277704030275345,
      -0.16068176925182343,
      0.04652557522058487,
      -0.05934701859951019,
      -0.06708379834890366,
      -0.09100575000047684,
      0.028572866693139076,
      -0.034220024943351746,
      -0.06261949986219406,
      -0.03997279331088066,
      -0.030419036746025085,
      0.013721496798098087,
      0.01902879774570465,
      0.054878246039152145,
      0.02386040985584259,
      -0.07130756974220276,
      0.08568904548883438,
      -0.06035361811518669,
      0.02927008643746376,
      -0.09647301584482193,
      -0.04388057440519333,
      -0.0019941695500165224,
      -0.026015516370534897,
      -0.05425151437520981,
      0.051107317209243774,
      -0.07396335899829865,
      -0.00013297885016072541,
      -0.06423739343881607,
      -0.007944656535983086,
      0.05839509889483452,
      0.013472129590809345,
      -0.0341663584113121,
      0.0031347470358014107,
      -0.08229804039001465,
      -0.017793193459510803,
      -0.017621196806430817,
      -0.08560328185558319,
      -0.05692256987094879,
      -0.02763843908905983,
      -0.10182377696037292,
      0.04614369571208954,
      -0.02571921795606613,
      -0.012722119688987732,
      0.0344860814511776,
      -0.048337627202272415,
      -0.005200736224651337,
      -0.01790999434888363,
      -0.03522681072354317,
      -0.09790070354938507,
      0.08450578898191452,
      -0.03266862407326698,
      -0.05166919529438019,
      -0.09972125291824341,
      -0.015575009398162365,
      -0.028654078021645546,
      -0.11929990351200104,
      -0.011059923097491264,
      -0.13074366748332977,
      -0.12364257127046585,
      -0.07583673298358917,
      -0.009003018029034138,
      0.03758242353796959,
      -0.04349449276924133,
      0.006644605193287134,
      -0.025102870538830757,
      -0.05833328142762184,
      -0.06307060271501541,
      0.035304293036460876,
      0.07730890065431595,
      -0.054151665419340134,
      -0.006663322448730469,
      -0.04437582939863205,
      -0.07206352800130844,
      -0.030269065871834755,
      -0.11288760602474213,
      0.04507815092802048,
      -0.13299229741096497,
      -0.008040882647037506,
      -0.03711610287427902,
      -0.0015714239561930299,
      0.035896725952625275,
      0.055247239768505096,
      0.05408019572496414,
      -0.04963672161102295,
      -0.08408772945404053,
      -0.0151297552511096,
      -0.04652852937579155,
      0.0627758726477623,
      -0.011340313591063023,
      -0.11132867634296417,
      0.05748393014073372,
      0.026557371020317078,
      -0.08244287222623825,
      -0.026283064857125282,
      -0.05640525743365288,
      0.08300261944532394,
      0.04316558316349983,
      -0.011209806427359581,
      0.0933607816696167,
      -0.06049221381545067,
      -0.05825428664684296,
      0.031900785863399506,
      -0.06599096208810806,
      -0.03516212850809097,
      0.014791570603847504,
      0.057025447487831116,
      -0.0830032005906105,
      -0.019816476851701736,
      -0.10244929045438766,
      0.012521314434707165,
      0.06172778829932213,
      -0.08083923906087875,
      -0.07009065896272659,
      -0.03092045523226261,
      -0.024856112897396088,
      -0.09513618052005768,
      0.02168077789247036,
      -0.05443450063467026,
      0.015796981751918793,
      0.03206155449151993,
      0.02359011024236679,
      -0.06913473457098007,
      -0.05052492395043373,
      -0.07682249695062637,
      0.000632844865322113,
      0.030960217118263245,
      -0.05603119730949402,
      -0.049377117305994034,
      0.062212638556957245,
      0.09518655389547348,
      -0.020365215837955475,
      -0.05008332431316376,
      -0.07205266505479813,
      -0.02938026748597622,
      -0.06851787865161896,
      -0.03221340477466583,
      0.04753053933382034,
      0.06491749733686447,
      -0.07148302346467972,
      -0.00986221618950367,
      -0.059440381824970245,
      -0.03964720666408539,
      -0.08125301450490952,
      -0.02326660230755806,
      0.022888466715812683,
      0.05016911402344704,
      0.012457495555281639,
      0.06364946067333221,
      -0.06575523316860199,
      -0.0124922851100564,
      -0.03569800779223442,
      -0.06595805287361145,
      -0.047578372061252594,
      -0.05403851717710495,
      0.026732036843895912,
      0.0060316286981105804,
      0.05989788472652435,
      0.04161258786916733,
      -0.06959491968154907,
      -0.038120489567518234,
      -0.08611294627189636,
      -0.03680598363280296,
      0.06975552439689636,
      -0.06537594646215439,
      0.04304716736078262,
      -0.08252906054258347,
      0.008973166346549988,
      -0.08759091049432755,
      -0.017755290493369102,
      0.0189458429813385,
      -0.06866531819105148,
      0.04303932562470436,
      0.010166154243052006,
      0.04975466802716255,
      -0.029285050928592682,
      -0.06839321553707123,
      -0.006648620590567589,
      0.011165335774421692,
      -0.04426076263189316,
      -0.10317155718803406,
      -0.05015029013156891,
      -0.03510522097349167,
      0.0019433016423135996,
      0.00038825077353976667,
      0.047467030584812164,
      0.02749333344399929,
      0.060276854783296585,
      -0.10968487709760666,
      -0.05443389341235161,
      -0.07415102422237396,
      0.030359527096152306,
      -0.4326392114162445,
      0.39646270871162415,
      0.0028023605700582266,
      -0.25594329833984375,
      -0.019569693133234978,
      -0.09313564002513885,
      0.30021417140960693,
      -0.10275290906429291,
      0.004906910937279463,
      -0.12435195595026016,
      -0.33037081360816956,
      -0.48037779331207275,
      -0.15374590456485748,
      -0.011233597062528133,
      0.04060458391904831,
      -0.14057078957557678,
      0.1928030103445053,
      1.1658605337142944,
      -0.06910297274589539,
      0.0652204230427742,
      -0.18271131813526154,
      0.12262492626905441,
      -0.07380605489015579,
      -0.23115722835063934,
      0.027951166033744812,
      -0.07042109221220016,
      -0.06043771654367447,
      -0.31331849098205566,
      -0.061260052025318146,
      -0.0875067412853241,
      0.05088965594768524,
      -0.10580230504274368,
      0.15606801211833954,
      -0.10672355443239212,
      0.11576993018388748,
      -0.17654481530189514,
      -0.08714798092842102,
      -0.05324530228972435,
      -0.39115869998931885,
      0.11240395903587341,
      -0.10538745671510696,
      -0.14563103020191193,
      -0.5219794511795044,
      0.08001068234443665,
      0.12898941338062286,
      -0.2860232889652252,
      0.08661649376153946,
      0.07909110188484192,
      -0.07399608194828033,
      0.4783669710159302,
      -0.013029396533966064,
      -0.17607133090496063,
      -0.16829586029052734,
      -0.07233437150716782,
      0.30232757329940796,
      -0.23100313544273376,
      -0.40342530608177185,
      -0.05778853967785835,
      0.23433487117290497,
      0.09093356877565384,
      -0.5782920718193054,
      -0.0588572733104229,
      -0.11616577953100204,
      -0.1437276303768158,
      -0.08308277279138565,
      -0.06780008971691132,
      -0.5903612971305847,
      -0.2402358502149582,
      0.08452199399471283,
      -0.27311015129089355,
      0.08990869671106339,
      0.049709253013134,
      -0.334211140871048,
      -0.6593866348266602,
      -0.7922966480255127,
      0.03216610848903656,
      -0.0813586413860321,
      0.06291259080171585,
      -1.131946086883545,
      0.0659077912569046,
      -0.19394870102405548,
      -0.030915457755327225,
      -0.1654502898454666,
      -0.20376327633857727,
      -0.24517251551151276,
      0.37517234683036804,
      -0.26608115434646606,
      -0.27423185110092163,
      -0.01592804677784443,
      -0.17882917821407318,
      0.05644255131483078,
      -0.12377434968948364,
      0.28415998816490173,
      0.20721259713172913,
      0.0569130964577198,
      0.16668961942195892,
      -0.3684897720813751,
      -0.1309977024793625,
      -0.5341693162918091,
      0.008592728525400162,
      0.06265128403902054,
      0.1865588277578354,
      -0.2940461039543152,
      -0.020502030849456787,
      0.04560231789946556,
      -0.3718324303627014,
      0.0714137852191925,
      -0.028675539419054985,
      0.6331108808517456,
      0.020314272493124008,
      -0.46394214034080505,
      -0.2590348720550537,
      0.33257508277893066,
      0.18551476299762726,
      0.21272097527980804,
      -0.48035967350006104,
      -0.1713346391916275,
      -0.02158384583890438,
      0.05104358494281769,
      0.022871941328048706,
      -0.04922444745898247,
      -0.10534112900495529,
      -0.3913678526878357,
      0.19671551883220673,
      -0.06797961890697479,
      -0.009288046509027481,
      -0.9000519514083862,
      0.055392198264598846,
      -0.3139816224575043,
      0.08192340284585953,
      -0.059726614505052567,
      -0.6211006045341492,
      1.827771544456482,
      0.263564795255661,
      0.4698931574821472,
      0.03259843960404396,
      1.1341978311538696,
      0.9145373702049255,
      -1.9782981872558594,
      -0.9733791351318359,
      1.168907642364502,
      -0.10144655406475067,
      -0.012907959520816803,
      -0.2028597742319107,
      0.2981305420398712,
      -0.4084581732749939,
      -0.08403618633747101,
      -0.0027585774660110474,
      -0.5060731172561646,
      -0.6181460618972778,
      -0.1642422378063202,
      -0.4767141342163086,
      0.07792744785547256,
      2.06917667388916,
      -0.9132259488105774,
      -0.3226563036441803,
      0.029740341007709503,
      0.12681788206100464,
      -0.07212083041667938,
      0.14504121243953705,
      0.48002055287361145,
      1.116404414176941,
      -0.08860616385936737,
      0.02634231001138687,
      -0.3185735046863556,
      -0.49617433547973633,
      -0.3307907283306122,
      -0.5834688544273376,
      0.38356122374534607,
      0.2877356708049774,
      -0.12386830151081085,
      0.2941756248474121,
      -0.05106678232550621,
      -0.00469562504440546,
      0.18154628574848175,
      -0.6219223737716675,
      0.13824428617954254,
      1.1235198974609375,
      -0.7663935422897339,
      -0.45439770817756653,
      0.28619134426116943,
      0.2775685787200928,
      -0.17989985644817352,
      -3.5264902114868164,
      1.2314651012420654,
      0.5188538432121277,
      0.09954270720481873,
      0.06859457492828369,
      0.3121093511581421,
      0.039482779800891876,
      0.007757071405649185,
      0.532403290271759,
      0.2015136331319809,
      -0.09245941042900085,
      -0.1504058688879013,
      0.4415101110935211,
      0.19611316919326782,
      -1.5516915321350098,
      -0.942899227142334,
      2.0423436164855957,
      -1.9065618515014648,
      -0.23981396853923798,
      -0.5563443303108215,
      1.2701327800750732,
      -0.04835450276732445,
      -0.5569701790809631,
      2.3521947860717773,
      0.08371321111917496,
      -0.7859346866607666,
      0.014783808961510658,
      1.7617567777633667,
      -0.17000135779380798,
      -0.011176441796123981,
      -0.39201027154922485,
      -0.5968582630157471,
      0.6939820051193237,
      -0.4036940932273865,
      -0.7986478805541992,
      0.08201805502176285,
      0.21172362565994263,
      1.3940285444259644,
      -1.3614530563354492,
      -0.013944311998784542,
      0.6829679608345032,
      -0.9460050463676453,
      -0.9984970092773438,
      -0.0914199948310852,
      -0.0978064239025116,
      0.08628595620393753,
      -0.486689031124115,
      -0.21137043833732605,
      -0.0014070600736886263,
      2.1443238258361816,
      0.20776061713695526,
      -0.05269157886505127,
      -0.008438187651336193,
      0.10955876111984253,
      0.03683792054653168,
      0.03588981181383133,
      -1.6247433423995972,
      0.40031448006629944,
      -0.41769468784332275,
      0.5324907898902893,
      -0.3894695043563843,
      0.09934039413928986,
      -0.3102976083755493,
      0.8149012327194214,
      0.2338637113571167,
      -1.207257866859436,
      0.009394960477948189,
      0.008314089849591255,
      -0.9715924859046936,
      0.9046916961669922,
      -0.2955825626850128,
      0.04975297674536705,
      -0.08369306474924088,
      -0.15185685455799103,
      -0.5806248784065247,
      -0.22249533236026764,
      -0.03494258597493172,
      0.03998510539531708,
      -0.14971211552619934,
      -0.04668163135647774,
      -0.07505392283201218,
      -0.0009326845174655318,
      0.8605684638023376,
      1.7373065948486328,
      0.12701085209846497,
      -0.18874751031398773,
      -0.1965932846069336,
      -0.017209187150001526,
      -0.5891045331954956,
      0.008091066963970661,
      0.8490721583366394,
      -0.01327784638851881,
      -0.037758443504571915,
      -0.670859158039093,
      -0.1745656281709671,
      0.22943390905857086,
      -0.2045375555753708,
      0.019108936190605164,
      0.3811491131782532,
      -1.63343346118927,
      0.28847137093544006,
      -0.0724758580327034,
      4.7098588943481445,
      0.2575027644634247,
      0.0037598679773509502,
      0.28042465448379517,
      -0.18572084605693817,
      0.42318952083587646,
      -0.5292800068855286,
      0.29483041167259216,
      0.7359619140625,
      0.5222250819206238,
      -1.3320236206054688,
      -0.5610228180885315,
      -0.08142726868391037,
      -0.13715696334838867,
      -0.1215841993689537,
      1.2445480823516846,
      -0.46905115246772766,
      0.7988547086715698,
      0.1284051388502121,
      -0.2616114914417267,
      -1.7412407398223877,
      -0.3916141092777252,
      0.16351641714572906,
      0.9343780875205994,
      -0.06566374003887177,
      0.34266531467437744,
      0.6390445828437805,
      0.009906631894409657,
      -1.4444818496704102,
      -1.8522844314575195,
      -0.4265405833721161,
      0.5445989966392517,
      -0.04792327433824539,
      -1.6654518842697144,
      -0.06403925269842148,
      -0.05819588154554367,
      0.08977571874856949,
      -0.02707851678133011,
      0.24692486226558685,
      -0.3561798334121704,
      -0.7056776285171509,
      0.05005379393696785,
      0.44370904564857483,
      -0.21363238990306854,
      -0.007495725993067026,
      -0.33680832386016846,
      0.9774733781814575,
      0.296874076128006,
      -0.2559049427509308,
      -0.6499574780464172,
      -0.12550225853919983,
      -0.01262691430747509,
      -0.02599458396434784,
      0.20185905694961548,
      0.38219884037971497,
      -0.18417903780937195,
      0.413118451833725,
      -0.4282627999782562,
      0.11039340496063232,
      -0.033595919609069824,
      0.12358108162879944,
      0.07853054255247116,
      -0.5788935422897339,
      0.06176387146115303,
      2.613477945327759,
      0.07453880459070206,
      -0.5611721277236938,
      -0.8394376635551453,
      -2.808767795562744,
      -0.1786615550518036,
      -0.5020753741264343,
      0.03154178708791733,
      0.04674997553229332,
      -0.09742255508899689,
      -0.005860023200511932,
      0.14341729879379272,
      -0.2050315886735916,
      0.07813005149364471,
      0.10463988780975342,
      -0.01363371405750513,
      2.597851276397705,
      -0.6566157341003418,
      0.566297709941864,
      -3.005466938018799,
      -0.3340042233467102,
      0.08924248814582825,
      -0.2148471623659134,
      -0.683582603931427,
      0.48652127385139465,
      0.13100209832191467,
      0.4116998016834259,
      -0.2743764817714691,
      0.1325283944606781,
      0.41888427734375,
      2.6557586193084717,
      -0.047294940799474716,
      0.05916851386427879,
      -0.6679449677467346,
      -0.020131954923272133,
      -0.28910598158836365,
      -1.250895619392395,
      -0.07162471860647202,
      -0.5103791952133179,
      0.16387999057769775,
      -0.1123245507478714,
      -1.1460230350494385,
      0.08655387163162231,
      -1.5223699808120728,
      -0.8216261863708496,
      0.26635950803756714,
      0.5727497339248657,
      -0.056938763707876205,
      0.2777760624885559,
      0.03860359638929367,
      -0.618660032749176,
      -0.60162353515625,
      -0.3484686613082886,
      0.002446906641125679,
      0.07730754464864731,
      -0.18496575951576233,
      -0.3133469521999359,
      0.03127691522240639,
      -0.6805937886238098,
      -0.01001710444688797,
      -0.65776526927948,
      -1.5709311962127686,
      -0.050317779183387756,
      0.049170784652233124,
      1.5237351655960083,
      -0.24804693460464478,
      0.19543491303920746,
      0.375420480966568,
      -0.6460388898849487,
      -2.630969762802124,
      -0.514120876789093,
      0.4863535761833191,
      0.2621004283428192,
      0.4628680646419525,
      -0.20649130642414093,
      -3.3789474964141846,
      -1.2781786918640137,
      -0.14480668306350708,
      -0.09430727362632751,
      -0.7152085304260254,
      -0.09475786983966827,
      0.26788297295570374,
      0.19143903255462646,
      0.3209567964076996,
      -10.455047607421875,
      -0.6996917724609375,
      1.0998051166534424,
      1.0428638458251953,
      -0.08593619614839554,
      0.5230720043182373,
      1.1008902788162231,
      0.42074498534202576,
      -0.35220658779144287,
      0.37356501817703247,
      -2.479942798614502,
      0.9360860586166382,
      -0.02068537473678589,
      0.24344602227210999,
      -0.11362843215465546,
      -1.5874770879745483,
      0.03753877431154251,
      0.19842150807380676,
      -9.883192251436412e-05,
      -2.1557109355926514,
      0.3704507350921631,
      0.19479456543922424,
      3.7663674354553223,
      0.2674582600593567,
      -0.8278179168701172,
      0.09604939818382263,
      -0.049128130078315735,
      0.18654300272464752,
      1.5780811309814453,
      -1.062246561050415,
      0.009198129177093506,
      -0.5422980189323425,
      -0.07695809751749039,
      -0.6784896850585938,
      0.2646128237247467,
      0.12343425303697586,
      -0.6457229256629944,
      -0.2800986170768738,
      -0.06125941872596741,
      0.3311983346939087,
      0.22808022797107697,
      0.018454037606716156,
      0.14200645685195923,
      0.47871801257133484,
      0.12402573227882385,
      -0.05540413782000542,
      0.28602343797683716,
      0.6089097857475281,
      1.2268426418304443,
      0.44165775179862976,
      -1.5299164056777954,
      -0.059739045798778534,
      0.3929722011089325,
      -1.368515968322754,
      -0.023739876225590706,
      0.6114906072616577,
      -0.0266313124448061,
      -0.09226672351360321,
      -0.05234101042151451,
      0.10687672346830368,
      -0.7861794233322144,
      -0.928184449672699,
      0.17950992286205292,
      -6.983726501464844,
      1.5737634897232056,
      -0.03938714414834976,
      1.5573620796203613,
      -0.41562530398368835,
      -0.5840857625007629,
      0.5457027554512024,
      -16.398508071899414,
      1.365997314453125,
      -2.4950735569000244,
      -2.321398973464966,
      0.273479700088501,
      0.3954833447933197,
      0.020001085475087166,
      0.9176273941993713,
      -0.0114288330078125,
      -1.1038713455200195,
      -4.3123955726623535,
      -0.02020595222711563,
      -0.002159384312108159,
      -0.2004358023405075,
      -0.000541426008567214,
      -1.915379285812378,
      -0.013297993689775467,
      -0.024769563227891922,
      0.07858157902956009,
      -0.2644149363040924,
      -0.8608078360557556,
      1.033868670463562,
      0.48240530490875244,
      -0.04139357805252075,
      -0.41163113713264465,
      -0.4511115849018097,
      1.361029863357544,
      0.05631624907255173,
      0.05502376705408096,
      1.0572195053100586,
      0.06002024933695793,
      0.29181575775146484,
      -1.1872262954711914,
      -0.055694613605737686,
      -0.2723383903503418,
      -3.451338052749634,
      -0.4394451379776001,
      -0.004642747342586517,
      -0.48264262080192566,
      0.8927750587463379,
      0.40660491585731506,
      0.035950757563114166,
      1.3075201511383057,
      1.3469432592391968,
      0.24474599957466125,
      -0.09467796236276627,
      0.1733284592628479,
      0.07356534153223038,
      0.8035436272621155,
      -0.22551658749580383,
      -1.2965502738952637,
      0.05525816231966019,
      -0.1849317103624344,
      0.06483994424343109,
      0.09228714555501938,
      0.713405966758728,
      -0.15970705449581146,
      0.38268840312957764,
      0.5505198836326599,
      2.1749680042266846,
      0.21344588696956635,
      -0.49381476640701294,
      0.7584171891212463,
      -0.4546058475971222,
      0.7301438450813293,
      0.2973262667655945,
      -0.3035663068294525,
      1.060269832611084,
      -0.0159444622695446,
      -3.195526599884033,
      -0.002458418719470501,
      -0.03253655880689621,
      -1.0428389310836792,
      -0.1934192031621933,
      -0.09378329664468765,
      0.8456534147262573,
      0.6606330871582031,
      -0.7756704092025757,
      0.42070403695106506,
      -0.2166486233472824,
      -1.3860931396484375,
      0.5248337984085083,
      -0.036644406616687775,
      0.15864095091819763,
      0.09923255443572998,
      0.005446711089462042,
      1.6992138624191284,
      0.7505249381065369,
      0.07504591345787048,
      0.8985756635665894,
      -0.03572659194469452,
      -1.5637354850769043,
      -0.7460360527038574,
      0.20127169787883759,
      -2.9746978282928467,
      0.11719518899917603,
      0.5658442378044128,
      0.03838272765278816,
      -0.38800325989723206,
      0.06380143016576767,
      -0.019615178927779198,
      -0.975839376449585,
      0.1143646240234375,
      0.03977583348751068,
      0.13410571217536926,
      0.882552981376648,
      1.244553804397583,
      -0.06991181522607803,
      -0.13809776306152344,
      0.029386058449745178,
      -0.45329388976097107,
      0.10161274671554565,
      -0.060994673520326614,
      0.05614824220538139,
      0.3283602297306061,
      0.0004970634472556412,
      0.026147669181227684,
      1.1683688163757324,
      -0.8507375717163086,
      -2.0537362098693848,
      -1.3903160095214844,
      0.3074466586112976,
      -0.9623763561248779,
      0.21024495363235474,
      -0.5442387461662292,
      1.320708990097046,
      0.9096370339393616,
      -0.3071303069591522,
      -2.776540756225586,
      0.7070780992507935,
      0.8848537802696228,
      -0.04614602401852608,
      0.4006495177745819,
      -0.41154131293296814,
      0.6386975049972534,
      1.1214903593063354,
      0.06975390762090683,
      -0.5418080687522888,
      0.8638818860054016,
      0.06242074444890022,
      0.15158317983150482,
      -0.3791685700416565,
      -0.16844865679740906,
      0.3994040787220001,
      -0.06921457499265671,
      1.4125689268112183,
      0.5039308071136475,
      -0.2279464304447174,
      -0.515631377696991,
      -0.01701994054019451,
      -1.0585757493972778,
      0.02509898692369461,
      -0.6241224408149719,
      -1.7914639711380005,
      2.158388376235962,
      0.049233660101890564,
      -0.06355724483728409,
      -1.1769726276397705,
      -0.10108818113803864,
      -0.3704373836517334,
      1.9226478338241577,
      0.023370690643787384,
      -1.243615984916687,
      -0.007392921485006809,
      1.1636894941329956,
      0.04046358913183212,
      -0.11111897230148315,
      -8.253259658813477,
      -0.25377631187438965,
      0.01765933446586132,
      0.3738234043121338,
      -0.08520130068063736,
      -2.2037360668182373,
      0.2823631465435028,
      0.21650953590869904,
      -3.1560616493225098,
      0.8670060038566589,
      -1.133428931236267,
      1.3727213144302368,
      -1.0621132850646973,
      -0.053451795130968094,
      -0.6135048866271973,
      -0.4611639678478241,
      0.4002208411693573,
      -0.44600075483322144,
      0.8723437786102295,
      -0.20948386192321777,
      -0.16530129313468933,
      -0.9847854971885681,
      -0.6190474033355713,
      2.220534563064575,
      0.26734939217567444,
      0.18729741871356964,
      0.12000122666358948,
      -0.07733464986085892,
      0.6703802943229675,
      0.2453896701335907,
      0.1450861692428589,
      0.0036386586725711823,
      0.2509327232837677,
      -0.6387162804603577,
      -0.595375120639801,
      -0.13865314424037933,
      0.8757764101028442,
      -1.4523628950119019,
      1.4835748672485352,
      0.7696198225021362,
      0.3331019878387451,
      -12.94027042388916,
      0.34581470489501953,
      0.3073761463165283,
      0.09043439477682114,
      0.9341326355934143,
      -0.23929183185100555,
      -0.6668986678123474,
      0.5652440786361694,
      0.034508004784584045,
      0.33152636885643005,
      -0.02967432700097561,
      -0.25465893745422363,
      -0.07335375994443893,
      0.3428972661495209,
      -0.3286215662956238,
      0.26056650280952454,
      -0.43644365668296814,
      0.5119937658309937,
      2.1985280513763428,
      -0.08067408949136734,
      -0.8333148956298828,
      1.4419230222702026,
      -1.2930381298065186,
      0.0643797516822815,
      -0.7114132046699524,
      0.5541425943374634,
      1.1551836729049683,
      0.16924291849136353,
      0.7646116614341736,
      -0.034430306404829025,
      -0.05131569504737854,
      0.28099772334098816,
      -0.047612663358449936,
      -0.38773760199546814,
      -2.1191844940185547,
      -0.05651739984750748,
      0.003531876252964139,
      1.7062982320785522,
      -1.0062495470046997,
      -0.24311994016170502,
      -1.0684139728546143,
      0.8478677272796631,
      -0.6752937436103821,
      0.12780256569385529,
      -1.3722373247146606,
      0.7520220279693604,
      -0.9199193716049194,
      0.2729759216308594,
      1.083749771118164,
      -0.37314778566360474,
      1.574972152709961,
      4.288445472717285,
      4.262687683105469,
      0.48001864552497864,
      0.667892336845398,
      1.3788005113601685,
      0.025409124791622162,
      0.025948263704776764,
      -0.03169029951095581,
      0.07926029711961746,
      0.042525362223386765,
      -0.07255340367555618,
      -0.0033671781420707703,
      -0.011329695582389832,
      0.07958275824785233,
      -0.028526652604341507,
      -0.034487511962652206,
      -0.015199460089206696,
      -0.05147669464349747,
      -0.07592941075563431,
      0.05039460211992264,
      -0.008229374885559082,
      -0.07204596698284149,
      -0.057838793843984604,
      -0.034972336143255234,
      -0.04434742033481598,
      -0.04480588063597679,
      -0.016737788915634155,
      -0.04217739403247833,
      -0.08663519471883774,
      0.006249748170375824,
      -0.021447084844112396,
      -0.05468149483203888,
      -0.04230782762169838,
      -0.021237505599856377,
      0.012527994811534882,
      -0.04000488296151161,
      -0.08382297307252884,
      -0.09837456792593002,
      -0.017497412860393524,
      -0.010204006917774677,
      0.059629976749420166,
      -0.10760370641946793,
      -0.048544686287641525,
      -0.1259022355079651,
      -0.03589814528822899,
      -0.0599922351539135,
      -0.09685207903385162,
      -0.042282287031412125,
      0.02869020402431488,
      -0.07939130812883377,
      0.07000080496072769,
      -0.010981058701872826,
      -0.043661098927259445,
      -0.05641300603747368,
      0.05513428524136543,
      -0.0601821169257164,
      -0.008168105967342854,
      0.04464244842529297,
      -0.06751421093940735,
      0.05757661908864975,
      -0.011507153511047363,
      -0.07075171917676926,
      -0.06344328075647354,
      0.015107239596545696,
      -0.07065067440271378,
      0.021166175603866577,
      -0.09380247443914413,
      0.050659917294979095,
      0.04623633995652199,
      0.011800229549407959,
      0.0866830125451088,
      -0.004143059253692627,
      -0.0933310016989708,
      0.028773771598935127,
      -0.03211837261915207,
      -0.0013447009259834886,
      0.0021710917353630066,
      0.02682352066040039,
      -0.08617003262042999,
      0.02818729728460312,
      -0.02085448056459427,
      -0.07676275819540024,
      -0.08506888896226883,
      -0.043316807597875595,
      0.010524258017539978,
      0.015835918486118317,
      0.007317205425351858,
      -0.08356018364429474,
      -0.06976626068353653,
      0.06511004269123077,
      -0.09146799892187119,
      -0.037785135209560394,
      -0.11363406479358673,
      0.037026140838861465,
      -0.0045519424602389336,
      0.027280718088150024,
      -0.04136034473776817,
      0.007356539368629456,
      -0.016420476138591766,
      -0.025420010089874268,
      -0.00866149365901947,
      -0.0846896767616272,
      0.04755266755819321,
      -0.0417383573949337,
      -0.00791484396904707,
      -0.05755218490958214,
      0.04268600791692734,
      0.06783407181501389,
      -0.07845418155193329,
      0.03073772042989731,
      -0.08489424735307693,
      -0.013586780987679958,
      0.023247450590133667,
      0.03886587172746658,
      -0.06286123394966125,
      -0.03204455226659775,
      -0.08214090764522552,
      -0.029220907017588615,
      0.011240951716899872,
      0.015378344804048538,
      0.016238808631896973,
      0.009807690978050232,
      0.053931765258312225,
      -0.031437575817108154,
      0.0321730300784111,
      -0.0869467556476593,
      -0.06996320188045502,
      -0.09286307543516159,
      -0.07787460088729858,
      0.027412116527557373,
      -0.04817419499158859,
      0.024453898891806602,
      -0.024449650198221207,
      -0.08348192274570465,
      -0.026349807158112526,
      -0.016540028154850006,
      0.060395315289497375,
      -0.10689010471105576,
      -0.06948667764663696,
      -0.024180039763450623,
      -0.08083710074424744,
      0.054634593427181244,
      -0.08949559181928635,
      -0.10302163660526276,
      -0.04707249253988266,
      -0.008876703679561615,
      -0.06530650705099106,
      0.05678557604551315,
      0.05573844164609909,
      -0.07736004143953323,
      0.04340726509690285,
      -0.11193732917308807,
      0.05205809324979782,
      0.0492609366774559,
      -0.016576774418354034,
      -0.021273262798786163,
      -0.12080346047878265,
      -0.08644457161426544,
      0.04260461777448654,
      0.025161363184452057,
      -0.11580299586057663,
      0.058058880269527435,
      0.0774923786520958,
      0.023495662957429886,
      -0.05110074579715729,
      0.05336751788854599,
      -0.0496976338326931,
      -0.09726056456565857,
      0.016438765451312065,
      -0.04491693153977394,
      -0.008597902953624725,
      -0.05146964266896248,
      -0.07740223407745361,
      0.034835223108530045,
      -0.011828861199319363,
      -0.01881522685289383,
      -0.09306646883487701,
      0.0283379964530468,
      0.030713194981217384,
      -0.09038431942462921,
      0.03170687332749367,
      0.0575171634554863,
      -0.05202654376626015,
      0.005681367591023445,
      -0.06505932658910751,
      -0.012905812822282314,
      -0.07643207907676697,
      -0.03092048689723015,
      -0.04600849747657776,
      -0.09770146012306213,
      -0.03041207604110241,
      -0.05869636312127113,
      -0.01797979325056076,
      0.01956856995820999,
      -0.012303869239985943,
      -0.04050213098526001,
      0.03481321409344673,
      -0.11156953871250153,
      -0.0425635501742363,
      0.02112612873315811,
      -0.054586347192525864,
      -0.02593223936855793,
      -0.12574221193790436,
      0.009697084315121174,
      0.0732729509472847,
      -0.07077373564243317,
      -0.09116941690444946,
      -0.08800806850194931,
      -0.05776803940534592,
      -0.06274034082889557,
      0.03718327358365059,
      -0.09872368723154068,
      0.023043273016810417,
      0.06874354928731918,
      -0.08674617856740952,
      0.049714840948581696,
      0.028268419206142426,
      -0.06680569797754288,
      -0.04685135930776596,
      0.0010148733854293823,
      -0.13719315826892853,
      0.005498272366821766,
      -0.08480050414800644,
      0.027263838797807693,
      0.07906288653612137,
      -0.02335771918296814,
      0.015736646950244904,
      0.07196243852376938,
      -0.015187360346317291,
      -0.029726814478635788,
      0.03827536851167679,
      -0.015469388104975224,
      -0.032962970435619354,
      -0.04250660538673401,
      0.06462541967630386,
      -0.006239486858248711,
      -0.08627729117870331,
      0.07822147756814957,
      -0.044690217822790146,
      0.03550400584936142,
      0.07485932856798172,
      -0.031028762459754944,
      0.0648592934012413,
      -0.029460374265909195,
      0.032379765063524246,
      0.010647948831319809,
      -0.050907257944345474,
      -0.05283311381936073,
      -0.03885404020547867,
      0.005357064306735992,
      -0.04479213431477547,
      -0.057462532073259354,
      -0.0733073502779007,
      -0.0981571227312088,
      -0.020187735557556152,
      -0.018628975376486778,
      -0.10055564343929291,
      -0.029210474342107773,
      -0.042278628796339035,
      0.04178856685757637,
      0.025543656200170517,
      0.07656962424516678,
      0.22615456581115723,
      0.6528095006942749,
      0.0006061643944121897,
      -0.1740991771221161,
      0.5858011245727539,
      -0.010062403976917267,
      0.9816169142723083,
      0.06556814908981323,
      1.281171441078186,
      0.5417044758796692,
      1.7278095483779907,
      0.6653305292129517,
      0.031578633934259415,
      -0.03217974305152893,
      0.04074316471815109,
      1.5579625368118286,
      0.37483835220336914,
      0.5064862966537476,
      -0.04307541996240616,
      -0.03261518105864525,
      0.8939509391784668,
      3.540149211883545,
      0.3138563632965088,
      0.30461183190345764,
      0.04057427495718002,
      -0.3497437834739685,
      -0.3224550187587738,
      -0.06737687438726425,
      -0.0347403809428215,
      0.2572346329689026,
      0.4676666259765625,
      -3.061326742172241,
      -0.03082663007080555,
      0.308157354593277,
      1.8887109756469727,
      -1.120396375656128,
      0.10462789982557297,
      -1.2715362310409546,
      0.20028704404830933,
      -4.782046318054199,
      -0.3555929362773895,
      3.9999263286590576,
      -0.8398733735084534,
      0.4131346344947815,
      0.21270360052585602,
      -0.1682339906692505,
      1.5475884675979614,
      -0.11407103389501572,
      -0.5498048067092896,
      0.5555416345596313,
      2.5733234882354736,
      0.26742398738861084,
      0.3205220699310303,
      -2.4231412410736084,
      -1.728082299232483,
      0.7639111280441284,
      0.3859768211841583,
      -2.938312530517578,
      0.3707030713558197,
      0.674948513507843,
      -0.38609451055526733,
      -0.08365804702043533,
      -0.08679220080375671,
      0.6076221466064453,
      -0.10426519066095352,
      0.07042501866817474,
      0.7476499676704407,
      -1.7072557210922241,
      0.5187035202980042,
      -0.41999348998069763,
      0.6713044047355652,
      1.2059041261672974,
      -0.3881074786186218,
      0.11491013318300247,
      0.6810392737388611,
      0.1551247090101242,
      0.04473760351538658,
      -6.241310119628906,
