{
  "format": "ursim-robust-net",
  "version": "1.0",
  "model_name": "eval_128x64x32_lr1e-04",
  "ruleset": "Finkel",
  "input_size": 14,
  "num_layers": 4,
  "layer_sizes": [
    128,
    64,
    32,
    1
  ],
  "activations": [
    "relu",
    "relu",
    "relu",
    "sigmoid"
  ],
  "finish_position": 15,
  "game_threshold": 38,
  "pieces_per_player": 7,
  "epochs": 18,
  "learning_rate": 0.00014936568554617627,
  "weights": [
    [
      -0.20166049897670746,
      0.005269041750580072,
      0.16142679750919342,
      -0.30418968200683594,
      -0.08811301738023758,
      -0.11596110463142395,
      -0.4666016697883606,
      0.09825965017080307,
      -0.2602540850639343,
      0.325177937746048,
      -0.153910830616951,
      0.35710734128952026,
      0.551041841506958,
      -0.028884761035442352,
      0.13200163841247559,
      -0.20481017231941223,
      -0.17578944563865662,
      -0.05222657322883606,
      -0.06484782695770264,
      -0.259897917509079,
      -0.13188418745994568,
      -0.12515011429786682,
      0.13216352462768555,
      -0.008766353130340576,
      -0.10588143765926361,
      -0.17715752124786377,
      0.22952795028686523,
      -0.081067755818367,
      -0.12938040494918823,
      0.12041463702917099,
      0.15421175956726074,
      -0.22802357375621796,
      0.10765449702739716,
      -0.006243816111236811,
      -0.12836907804012299,
      -0.0004138770163990557,
      0.23088707029819489,
      0.011031677946448326,
      0.17968028783798218,
      -0.22655032575130463,
      -0.18344703316688538,
      0.1099342554807663,
      0.7676551342010498,
      0.8162644505500793,
      0.04770171269774437,
      0.09480727463960648,
      -0.32939842343330383,
      -0.32991015911102295,
      -0.22538703680038452,
      0.36768996715545654,
      -0.47331517934799194,
      0.11959237605333328,
      0.08153997361660004,
      0.1467779576778412,
      -0.0220539178699255,
      -0.30950164794921875,
      -0.5772644281387329,
      -0.1842801868915558,
      0.00509293656796217,
      -0.08616714924573898,
      -0.6379194855690002,
      0.1271734982728958,
      0.08680959790945053,
      0.30117669701576233,
      -0.21175363659858704,
      -0.25430262088775635,
      0.15804408490657806,
      0.36626148223876953,
      0.07420807331800461,
      0.22312408685684204,
      0.12298107892274857,
      0.0844787210226059,
      0.1806582510471344,
      -0.3389507830142975,
      0.08158039301633835,
      0.27935341000556946,
      -0.17080983519554138,
      -0.0045409551821649075,
      -0.08064435422420502,
      -0.2809041440486908,
      0.7717916965484619,
      -0.10752255469560623,
      -0.3098934590816498,
      -0.06386552006006241,
      -0.09630556404590607,
      4.381552935228683e-05,
      0.08719677478075027,
      -0.5447258353233337,
      0.34840571880340576,
      -0.012411884032189846,
      0.23874062299728394,
      -0.037296950817108154,
      -0.2110266238451004,
      0.9332245588302612,
      -0.09660550951957703,
      0.027630306780338287,
      -0.25100696086883545,
      -0.3094763457775116,
      0.18668989837169647,
      -0.18921427428722382,
      -0.17230533063411713,
      0.45834723114967346,
      -0.3827578127384186,
      -0.07392251491546631,
      -0.1638772338628769,
      0.10933931916952133,
      -0.03319497033953667,
      0.1739778220653534,
      -0.3644087016582489,
      0.4398733675479889,
      0.2568538188934326,
      0.22751714289188385,
      -0.004470435436815023,
      0.01170954667031765,
      -0.005350321531295776,
      -0.2774006724357605,
      -0.3628711402416229,
      0.11727776378393173,
      -0.3324757218360901,
      0.01841031387448311,
      0.010184824466705322,
      1.2003328800201416,
      0.40313613414764404,
      -0.12481708079576492,
      -0.1464722603559494,
      -0.09306876361370087,
      0.3961918354034424,
      0.07906824350357056,
      -0.029415827244520187,
      -0.0028299610130488873,
      -0.23254437744617462,
      -0.11474274843931198,
      -0.37992388010025024,
      -0.2282191812992096,
      1.3888384103775024,
      -0.21204733848571777,
      -0.19230163097381592,
      0.4022812247276306,
      0.09031283110380173,
      -0.06533582508563995,
      -0.1644369512796402,
      1.1576536893844604,
      0.10221628099679947,
      -0.030528049916028976,
      0.010504943318665028,
      -0.004172767046838999,
      0.02721594274044037,
      -0.10869962722063065,
      0.019554397091269493,
      0.05127575993537903,
      -0.08431105315685272,
      -0.0015847942559048533,
      -0.8140690326690674,
      -0.027888791635632515,
      -0.1845984309911728,
      0.1183919906616211,
      -0.15160340070724487,
      0.128897026181221,
      0.12127640843391418,
      0.016957705840468407,
      -0.016566792502999306,
      -0.16337376832962036,
      0.10952422022819519,
      -0.24351659417152405,
      -0.22175142168998718,
      -0.018194179981946945,
      0.11006329208612442,
      -0.25788354873657227,
      -0.17240558564662933,
      0.43346330523490906,
      0.009230795316398144,
      -0.40912437438964844,
      0.19774571061134338,
      0.07495032995939255,
      -0.21897539496421814,
      0.06441425532102585,
      -0.18453466892242432,
      0.05459817126393318,
      0.04961680993437767,
      -0.3120599687099457,
      0.3900403678417206,
      0.47134682536125183,
      -0.0224948488175869,
      -0.24008803069591522,
      0.21894915401935577,
      -0.15080052614212036,
      0.27593785524368286,
      -0.050171058624982834,
      0.027411771938204765,
      -0.050494130700826645,
      -0.08207936584949493,
      -0.05280714109539986,
      0.4810825288295746,
      0.015512430109083652,
      -0.8550117015838623,
      -0.08909543603658676,
      0.17629209160804749,
      -0.1619114875793457,
      0.018489539623260498,
      -0.17963340878486633,
      -0.03645901381969452,
      0.12755420804023743,
      0.05983644723892212,
      -0.12481465935707092,
      0.19033095240592957,
      0.07265287637710571,
      -0.17031583189964294,
      -0.1718052625656128,
      0.06925475597381592,
      -0.06734564900398254,
      -0.22882294654846191,
      -1.3375370502471924,
      0.11158661544322968,
      0.037146251648664474,
      0.06473217159509659,
      0.08667518198490143,
      -0.11378375440835953,
      -0.4094424247741699,
      -0.25536200404167175,
      -0.1786496788263321,
      -0.1164301261305809,
      0.058734167367219925,
      -0.14580203592777252,
      -1.0336288213729858,
      0.3801654577255249,
      -0.4358731806278229,
      0.10565300285816193,
      0.008714108727872372,
      0.07091798633337021,
      -0.1745454967021942,
      0.23552803695201874,
      1.3000199794769287,
      -0.05886803939938545,
      -0.19466771185398102,
      -0.04612690582871437,
      -0.2178506851196289,
      -0.21115326881408691,
      0.09561830013990402,
      -0.4635049104690552,
      -0.2815733850002289,
      -0.05453595891594887,
      -0.2782197594642639,
      0.36463573575019836,
      0.01554238609969616,
      -0.38297927379608154,
      0.18198268115520477,
      0.3269200921058655,
      -0.03405250981450081,
      -0.3177300989627838,
      0.559669017791748,
      -0.3150395452976227,
      0.022002331912517548,
      0.10861923545598984,
      0.016535408794879913,
      -0.4697446823120117,
      -0.01118640135973692,
      -0.3646494746208191,
      -0.5381069183349609,
      -0.23319938778877258,
      -0.038152340799570084,
      0.43751585483551025,
      0.10023260116577148,
      0.2716737389564514,
      0.003472783137112856,
      0.49329373240470886,
      0.10654318332672119,
      0.0671876072883606,
      0.08465921878814697,
      -0.16289162635803223,
      0.07222732901573181,
      0.05465236306190491,
      -0.11747340857982635,
      0.013910531997680664,
      -0.26398134231567383,
      0.25915881991386414,
      -0.13235606253147125,
      0.0764126181602478,
      -0.24913454055786133,
      -0.06977590918540955,
      -0.23620207607746124,
      -0.759983241558075,
      -0.12451227754354477,
      -0.20749525725841522,
      0.052895668894052505,
      -0.0102158784866333,
      0.3000003397464752,
      -0.7949396371841431,
      -0.24764394760131836,
      0.19098687171936035,
      0.05645998567342758,
      0.08260063827037811,
      -0.15793170034885406,
      0.19621895253658295,
      0.3888489007949829,
      0.14423157274723053,
      0.1913279891014099,
      0.007983566261827946,
      0.016973746940493584,
      0.02404007501900196,
      -0.01859692856669426,
      0.06809796392917633,
      -0.24670715630054474,
      -0.16811804473400116,
      -1.2371944189071655,
      -2.0087924003601074,
      -1.4365794658660889,
      0.01727382279932499,
      0.0072553702630102634,
      -0.008387718349695206,
      0.11663242429494858,
      -0.7634125351905823,
      0.16125136613845825,
      0.16207237541675568,
      -0.2841448187828064,
      -0.19823282957077026,
      0.05534304678440094,
      0.01596537046134472,
      0.7423791885375977,
      0.44344937801361084,
      0.06507784873247147,
      0.14417025446891785,
      -0.20340722799301147,
      0.35578611493110657,
      -0.04051709547638893,
      -0.11953462660312653,
      -0.04268625006079674,
      0.449826717376709,
      0.1264873445034027,
      -0.06542398780584335,
      -0.03618801012635231,
      -0.030178576707839966,
      -0.8040139675140381,
      0.008482469245791435,
      0.02006504125893116,
      0.06841602176427841,
      -0.30235081911087036,
      0.06931857019662857,
      0.8321149945259094,
      0.13656935095787048,
      0.049325816333293915,
      -0.07950339466333389,
      -0.6036763191223145,
      -0.035312630236148834,
      0.044365134090185165,
      -0.34886714816093445,
      -0.4825388193130493,
      0.06579065322875977,
      0.3772343099117279,
      -0.08735376596450806,
      -0.04676331952214241,
      0.2021159529685974,
      -0.11847890913486481,
      0.044923335313797,
      0.1833725869655609,
      -0.19683676958084106,
      -0.22611340880393982,
      -0.17042046785354614,
      -0.027172386646270752,
      -0.21905484795570374,
      0.0053761303424835205,
      -0.18487903475761414,
      -0.07078832387924194,
      0.039320141077041626,
      -0.24771368503570557,
      0.2080734372138977,
      -0.08835485577583313,
      -0.05708720535039902,
      -0.023461727425456047,
      -0.00863325223326683,
      -1.2899563312530518,
      0.0033261391799896955,
      0.07376088947057724,
      -0.03652610629796982,
      -0.002281817840412259,
      0.0015647710533812642,
      -0.0004937180783599615,
      1.655385858612135e-05,
      -0.01544717513024807,
      0.13551384210586548,
      -0.232254296541214,
      -0.18019407987594604,
      -0.20662769675254822,
      0.11682891845703125,
      -0.259053498506546,
      -0.20899859070777893,
      -0.2457069456577301,
      -0.05317580699920654,
      -0.036471858620643616,
      -0.02131059765815735,
      0.24707409739494324,
      0.018649190664291382,
      -0.18632712960243225,
      0.061194296926259995,
      -0.005082898307591677,
      0.0013954496243968606,
      -0.046762894839048386,
      0.29149261116981506,
      -0.0833139643073082,
      -0.31803715229034424,
      1.5557949542999268,
      0.002398289041593671,
      0.05248578265309334,
      -0.08319085836410522,
      -0.32294198870658875,
      -0.1479913592338562,
      -0.1672893464565277,
      -0.14692118763923645,
      0.06160580366849899,
      0.1333729773759842,
      -0.01369655504822731,
      -0.030829088762402534,
      -0.02741297148168087,
      0.05056905746459961,
      0.2701987624168396,
      0.10014703869819641,
      -0.011001020669937134,
      0.005925801582634449,
      -1.266364336013794,
      -0.0868135541677475,
      0.2749863564968109,
      0.28776878118515015,
      -0.15292593836784363,
      0.9329640865325928,
      0.02042427659034729,
      -0.12628987431526184,
      -0.17703594267368317,
      -0.1096339225769043,
      -0.005676521919667721,
      0.26684466004371643,
      0.40125665068626404,
      -0.35946670174598694,
      0.04504156485199928,
      -0.13751527667045593,
      -0.08680632710456848,
      -0.48608261346817017,
      -0.2764976918697357,
      0.008633526042103767,
      0.10150831937789917,
      -0.6300377249717712,
      0.16368550062179565,
      -0.5421953201293945,
      0.4827911853790283,
      0.1464819610118866,
      0.03709527477622032,
      0.6163697838783264,
      0.23827186226844788,
      0.21272341907024384,
      0.01934184320271015,
      -0.06597902625799179,
      -0.14703123271465302,
      0.07368282228708267,
      0.07812943309545517,
      0.48524442315101624,
      0.06455892324447632,
      -0.11705121397972107,
      -0.06782474368810654,
      -0.024187004193663597,
      0.22515136003494263,
      -0.16698326170444489,
      -0.7484236359596252,
      0.1991870403289795,
      0.13662013411521912,
      -1.5795769691467285,
      0.2077328860759735,
      -0.2552110552787781,
      -0.04686183109879494,
      0.012989770621061325,
      -0.6966604590415955,
      0.04245266318321228,
      -0.034015193581581116,
      0.0496731735765934,
      0.0477636344730854,
      0.3837536573410034,
      0.3030005097389221,
      0.2853845953941345,
      0.018248841166496277,
      0.09541680663824081,
      -0.0013335878029465675,
      -0.01334301382303238,
      -0.03128524124622345,
      -0.48053497076034546,
      -0.713714063167572,
      -0.048068247735500336,
      0.00031029898673295975,
      0.043672531843185425,
      0.7621188163757324,
      0.675397515296936,
      0.0733475461602211,
      -0.19835329055786133,
      0.01820208504796028,
      -0.3027537167072296,
      -0.0007022834615781903,
      0.133583202958107,
      0.023407073691487312,
      0.10860113799571991,
      0.08754512667655945,
      -0.09404916316270828,
      -0.1070597767829895,
      -0.09791713953018188,
      -0.05665561556816101,
      -0.9902937412261963,
      -3.118786573410034,
      0.01355250459164381,
      0.15228120982646942,
      -0.11535173654556274,
      -0.13832102715969086,
      0.11928890645503998,
      -0.10836874693632126,
      -0.005577038507908583,
      0.053897034376859665,
      -0.0603770837187767,
      -0.06398692727088928,
      0.2728593647480011,
      -0.24377089738845825,
      1.0618561506271362,
      0.03876188024878502,
      0.03782813623547554,
      -0.3798670470714569,
      -0.12189453840255737,
      0.1350574791431427,
      -0.0393865704536438,
      0.04195525497198105,
      0.05705197528004646,
      0.03847217932343483,
      -0.1930568963289261,
      0.5034558773040771,
      -0.10709644109010696,
      -0.10249340534210205,
      -0.3157299757003784,
      0.8415566682815552,
      -0.10992803424596786,
      0.10659666359424591,
      0.3678050935268402,
      -0.15255525708198547,
      -0.01325082778930664,
      0.06267586350440979,
      0.12077722698450089,
      -0.7019080519676208,
      0.001359898829832673,
      -0.18419909477233887,
      0.0954226553440094,
      0.16226829588413239,
      -0.5948994159698486,
      -0.10558904707431793,
      0.14094319939613342,
      -0.018621554598212242,
      0.035830847918987274,
      0.007258871104568243,
      1.2599297761917114,
      0.09632939100265503,
      -0.13464757800102234,
      -0.0405389741063118,
      -0.3230474889278412,
      -0.002592911012470722,
      0.0022680279798805714,
      0.005808492191135883,
      0.001030492945574224,
      -0.021369842812418938,
      -0.17601993680000305,
      -0.3278932273387909,
      0.01399238035082817,
      0.02149762399494648,
      -0.005670709069818258,
      -0.017389750108122826,
      0.0073642246425151825,
      -0.004637493286281824,
      0.010925255715847015,
      -0.022648252546787262,
      -0.016450902447104454,
      1.0966739654541016,
      -0.01987558603286743,
      0.013483746908605099,
      -0.015464049763977528,
      -1.062403917312622,
      -0.06576746702194214,
      0.2009516954421997,
      -0.03535732626914978,
      0.15081140398979187,
      -0.13783416152000427,
      -0.16896191239356995,
      -0.2631159722805023,
      0.26492372155189514,
      -0.26067686080932617,
      0.1889365315437317,
      0.058665186166763306,
      -0.10263393819332123,
      0.22005143761634827,
      -0.2533308267593384,
      0.03960574045777321,
      0.015684718266129494,
      -0.5624414682388306,
      -0.2584055960178375,
      -0.2567545771598816,
      0.11858868598937988,
      0.055564142763614655,
      0.03038066439330578,
      0.01344311609864235,
      0.11241170763969421,
      0.6740490198135376,
      0.030305296182632446,
      0.2737003266811371,
      -0.18000724911689758,
      -0.13472945988178253,
      0.9843595623970032,
      -0.02018100395798683,
      -0.015890028327703476,
      -0.004970976617187262,
      -0.11861667037010193,
      -0.5927914381027222,
      -0.05535530671477318,
      0.017455941066145897,
      0.019340256229043007,
      -0.1631651073694229,
      -0.34772631525993347,
      -0.22979679703712463,
      0.573042631149292,
      -0.059696026146411896,
      0.22777238488197327,
      0.021832657977938652,
      -0.03602058067917824,
      0.056158412247896194,
      -0.021488558501005173,
      0.09990371018648148,
      0.1714792400598526,
      -0.5942701101303101,
      -0.38584205508232117,
      -1.9477882385253906,
      -0.17962847650051117,
      0.06375543773174286,
      -0.10959455370903015,
      -0.08205126971006393,
      -0.03980020433664322,
      0.0026583117432892323,
      0.1204216405749321,
      -0.022037895396351814,
      0.4249360263347626,
      0.13270339369773865,
      -0.04345674440264702,
      -0.34397557377815247,
      -2.907226085662842,
      -0.0010944483801722527,
      0.08857270330190659,
      0.01503886841237545,
      -0.006412838585674763,
      0.014401078224182129,
      -0.13736876845359802,
      -0.021927589550614357,
      -2.916109800338745,
      0.02914399839937687,
      0.05578221380710602,
      -0.028366969898343086,
      0.11695865541696548,
      0.057996783405542374,
      0.04969843477010727,
      -0.028678342700004578,
      0.01832852140069008,
      -0.0022205745335668325,
      0.07858230918645859,
      0.07348549365997314,
      -0.03012070059776306,
      0.00507257878780365,
      -0.06259800493717194,
      -0.014952138066291809,
      0.025194767862558365,
      0.25241944193840027,
      0.07188667356967926,
      -0.041160400956869125,
      -0.0939129889011383,
      -0.024531295523047447,
      0.026679612696170807,
      -1.105201244354248,
      0.04276122897863388,
      -0.05016710236668587,
      0.02255791611969471,
      -0.05403679609298706,
      0.018329454585909843,
      -0.0092219403013587,
      -0.003353949636220932,
      0.357036292552948,
      -0.06745176017284393,
      -0.017295531928539276,
      -0.06556530296802521,
      -0.9477614164352417,
      0.11765687167644501,
      -0.40188053250312805,
      0.3997132480144501,
      -0.5674083232879639,
      -0.08623643219470978,
      -0.36612454056739807,
      -0.02864091843366623,
      0.17431403696537018,
      -0.07690877467393875,
      -0.13255451619625092,
      0.6187427043914795,
      0.21556513011455536,
      0.1314777284860611,
      -0.3562065362930298,
      -0.27265283465385437,
      0.6188684105873108,
      0.06762370467185974,
      -0.2191861867904663,
      0.2128060907125473,
      0.008815965615212917,
      0.16228821873664856,
      -1.3915483951568604,
      0.04806337133049965,
      -0.014420559629797935,
      -0.1081145629286766,
      0.042059317231178284,
      -0.01556870061904192,
      -0.0712965726852417,
      -0.06452974677085876,
      0.0049109505489468575,
      0.10711248964071274,
      -0.029400348663330078,
      -0.19529329240322113,
      1.034908413887024,
      -0.10540299117565155,
      -0.08840640634298325,
      -0.09237957745790482,
      -0.16446086764335632,
      0.15746748447418213,
      0.034586794674396515,
      -0.018473420292139053,
      -0.012033282779157162,
      -0.04719759151339531,
      -0.45699411630630493,
      0.20487935841083527,
      -0.1369170993566513,
      -0.0918237492442131,
      0.058238107711076736,
      0.3581983149051666,
      0.1021810993552208,
      0.0433860719203949,
      -0.48615914583206177,
      0.020141683518886566,
      -0.09361772984266281,
      -0.4278905689716339,
      -0.013186441734433174,
      0.09941703826189041,
      0.8275531530380249,
      -0.16479413211345673,
      0.05239732563495636,
      0.4570366144180298,
      0.13153566420078278,
      0.0883178561925888,
      0.46128132939338684,
      0.2967529296875,
      0.33697596192359924,
      -0.10050282627344131,
      -0.4231274425983429,
      0.04484023153781891,
      -0.234597310423851,
      -0.08604583144187927,
      -0.12354067713022232,
      -0.32621270418167114,
      -0.8136528730392456,
      -0.6562936902046204,
      -0.05286987125873566,
      0.08169626444578171,
      -0.8461039066314697,
      0.6559262275695801,
      0.055182140320539474,
      -0.020380696281790733,
      0.42305251955986023,
      0.0004147682629991323,
      -0.1512066125869751,
      -0.10743161290884018,
      -0.2638072967529297,
      0.04154966399073601,
      0.024026188999414444,
      0.333251029253006,
      -0.05336378514766693,
      0.13312502205371857,
      0.07223175466060638,
      -0.28339433670043945,
      0.8235763311386108,
      -0.17755205929279327,
      -0.2983364760875702,
      0.01444915123283863,
      -0.1413871794939041,
      0.062373824417591095,
      0.06981983780860901,
      -0.2112196832895279,
      -0.0633445531129837,
      -0.00498497998341918,
      -0.015124636702239513,
      0.09069319814443588,
      0.02258884906768799,
      0.4752381145954132,
      -0.3105173707008362,
      0.15549413859844208,
      -2.7760543823242188,
      0.11283759027719498,
      -0.02184244617819786,
      0.09066065400838852,
      -0.03645450994372368,
      -0.05484004691243172,
      -0.029904240742325783,
      -0.002323511755093932,
      0.00198770547285676,
      0.00811759103089571,
      -0.004367196466773748,
      0.00014170068607199937,
      0.026902055367827415,
      -0.006565556861460209,
      0.009151455014944077,
      -0.02287394180893898,
      -1.4153679609298706,
      0.012403583154082298,
      -0.01279025711119175,
      0.2024042159318924,
      -0.1119050532579422,
      -0.16235697269439697,
      -0.08061118423938751,
      -0.026037370786070824,
      -0.10457344353199005,
      -0.42599818110466003,
      -0.06766285747289658,
      0.12022534012794495,
      -0.0023213480599224567,
      0.029048269614577293,
      0.121068075299263,
      0.33123236894607544,
      -0.07379472255706787,
      0.48061463236808777,
      0.0372423380613327,
      -0.03955627605319023,
      -0.0069250185042619705,
      -0.0021815989166498184,
      -0.005735855083912611,
      0.013745537027716637,
      0.45860788226127625,
      0.7641313672065735,
      -0.32143720984458923,
      -0.035741887986660004,
      -0.028867658227682114,
      -0.004307868424803019,
      0.02944640815258026,
      -0.9115209579467773,
      0.11906479299068451,
      -0.061979591846466064,
      0.015861429274082184,
      0.025382397696375847,
      0.00986219197511673,
      -0.058294545859098434,
      -0.00672652805224061,
      -0.9620176553726196,
      -0.13245636224746704,
      0.05842834338545799,
      -0.23067833483219147,
      1.0459401607513428,
      0.10507424175739288,
      -0.12007466703653336,
      -2.391164779663086,
      -0.1746637374162674,
      0.30297714471817017,
      0.2973787486553192,
      -0.1622609943151474,
      0.0665958896279335,
      -0.21706897020339966,
      -0.16237568855285645,
      -0.10480167716741562,
      0.03228408470749855,
      -0.05059957876801491,
      -0.048015329986810684,
      0.19119893014431,
      0.0012793131172657013,
      0.1494152992963791,
      -0.22609855234622955,
      0.3095063269138336,
      0.2401590794324875,
      0.024473991245031357,
      -1.0283452272415161,
      0.1348477602005005,
      -0.3179682195186615,
      -0.023808488622307777,
      -0.11254696547985077,
      0.0018506544874981046,
      0.04990808665752411,
      0.018855268135666847,
      0.020514648407697678,
      0.012909880839288235,
      0.005879511125385761,
      0.00021182032651267946,
      -0.0034434248227626085,
      0.01580658368766308,
      -0.796989917755127,
      -0.007047364022582769,
      0.025384578853845596,
      0.007855267263948917,
      -0.006302862428128719,
      0.0015793227357789874,
      0.013340395875275135,
      0.7836817502975464,
      0.23692777752876282,
      0.21829044818878174,
      -0.03711429610848427,
      0.16718675196170807,
      0.020239723846316338,
      -0.7043639421463013,
      0.2346826195716858,
      0.016441162675619125,
      0.11509685963392258,
      -0.20183444023132324,
      -0.18130309879779816,
      0.021925421431660652,
      -0.3936161994934082,
      0.40758442878723145,
      0.22184422612190247,
      -0.14629964530467987,
      -0.11126592010259628,
      -0.0716521367430687,
      1.0055625438690186,
      0.14274170994758606,
      0.1340503990650177,
      0.025171970948576927,
      -0.041482191532850266,
      0.014752262271940708,
      -0.003802156774327159,
      -0.023127080872654915,
      0.047946423292160034,
      0.010849112644791603,
      -0.034437596797943115,
      -0.1112634539604187,
      0.12458479404449463,
      0.22912505269050598,
      0.2214294970035553,
      -0.2644979953765869,
      -0.26043787598609924,
      -0.1468636691570282,
      0.1618957221508026,
      0.11177575588226318,
      -0.21300552785396576,
      0.22478899359703064,
      -0.25722256302833557,
      -0.20992383360862732,
      -0.2648250162601471,
      -0.146111398935318,
      -0.07554842531681061,
      -0.07038618624210358,
      1.6828103065490723,
      0.029508309438824654,
      -0.0531819611787796,
      -0.15808077156543732,
      0.03731768950819969,
      0.05265806242823601,
      -0.09253203123807907,
      0.04715028405189514,
      0.007954098284244537,
      0.10326229780912399,
      -0.37791791558265686,
      -0.11339083313941956,
      0.22563061118125916,
      -0.05996797978878021,
      -0.26489800214767456,
      0.2121923565864563,
      -0.026820212602615356,
      -0.2520420551300049,
      -0.2539241313934326,
      0.11405420303344727,
      0.21272659301757812,
      0.018784552812576294,
      -0.2550891041755676,
      -0.2653844356536865,
      -0.25974562764167786,
      0.26560914516448975,
      0.029913203790783882,
      -0.17187000811100006,
      0.10748949646949768,
      -0.40911322832107544,
      -0.2844092547893524,
      0.2801726758480072,
      -0.07262267917394638,
      -0.08870833367109299,
      -0.08088958263397217,
      0.3822539448738098,
      -0.005334022920578718,
      -0.32529497146606445,
      0.1272686868906021,
      -0.7579313516616821,
      0.01880129985511303,
      -0.10955143719911575,
      0.029353752732276917,
      -0.22333015501499176,
      -0.01637226529419422,
      -0.13400021195411682,
      -0.04977831616997719,
      0.8674359321594238,
      0.12668244540691376,
      -0.1304256021976471,
      0.01282563153654337,
      -0.014017799869179726,
      0.3797033727169037,
      0.07029419392347336,
      -0.007531766779720783,
      0.1424020528793335,
      -0.8518562912940979,
      0.3308109939098358,
      -0.17781871557235718,
      0.3680367171764374,
      -0.01409949641674757,
      0.49008190631866455,
      -0.08144350349903107,
      0.04609706252813339,
      -0.5626913905143738,
      0.025169339030981064,
      0.24361105263233185,
      -0.1374940723180771,
      0.05411025881767273,
      -0.10963692516088486,
      0.07768494635820389,
      -0.170718252658844,
      -0.5313743948936462,
      0.4251542389392853,
      -0.1093701422214508,
      -0.06846746802330017,
      -0.0055305748246610165,
      -0.08805212378501892,
      0.18201477825641632,
      0.16653624176979065,
      0.2492728978395462,
      0.03822604939341545,
      0.042983412742614746,
      -0.05087534338235855,
      0.001521571190096438,
      0.017424000427126884,
      -0.1264840066432953,
      -0.3505544066429138,
      1.151612639427185,
      0.30306294560432434,
      0.015678217634558678,
      -0.34639453887939453,
      -0.19569092988967896,
      -0.13805684447288513,
      0.0011355504393577576,
      0.7746332883834839,
      0.613190770149231,
      0.2851116955280304,
      0.14801910519599915,
      -0.04295596107840538,
      0.03141748905181885,
      0.07810009270906448,
      -0.08913202583789825,
      0.16094854474067688,
      0.12862613797187805,
      -0.2976628839969635,
      -0.5795258283615112,
      -0.759002149105072,
      0.016088634729385376,
      -0.058636847883462906,
      0.10312943905591965,
      -0.010463770478963852,
      0.23768508434295654,
      -0.8098685145378113,
      0.25804153084754944,
      0.7223995923995972,
      -0.06870871782302856,
      -0.03529011830687523,
      0.06017279624938965,
      0.011223903857171535,
      -0.03880654275417328,
      0.0837000161409378,
      -0.12495294213294983,
      0.015671780332922935,
      0.012724252417683601,
      -0.023486187681555748,
      -0.18520712852478027,
      -1.198171615600586,
      0.011724489741027355,
      0.036769330501556396,
      0.024109365418553352,
      0.07478407770395279,
      0.03453759476542473,
      -0.008615517057478428,
      -0.010524723678827286,
      0.0016180712264031172,
      -0.015493089333176613,
      0.07230309396982193,
      0.6512112617492676,
      0.7405269742012024,
      -0.005000229924917221,
      -0.39632663130760193,
      0.1526946723461151,
      0.0074054473079741,
      0.008198096416890621,
      -0.0600188784301281,
      -0.511198878288269,
      -0.3218810558319092,
      -0.3079330325126648,
      -0.06488917022943497,
      -0.0809081494808197,
      0.42228299379348755,
      -0.13302794098854065,
      0.029517536982893944,
      -0.19494770467281342,
      -0.017559463158249855,
      -0.060991741716861725,
      0.012697698548436165,
      0.03024277836084366,
      -0.143673837184906,
      -0.6914605498313904,
      0.0840262919664383,
      0.6576083302497864,
      0.16897456347942352,
      0.12784478068351746,
      0.8700054287910461,
      -2.381385564804077,
      0.019825687631964684,
      0.02801395207643509,
      0.04671837389469147,
      0.19181254506111145,
      -0.04398149996995926,
      -0.014722987078130245,
      0.057643406093120575,
      0.04162474721670151,
      0.016941824927926064,
      0.0032585766166448593,
      -0.0014070917386561632,
      0.5290610194206238,
      0.10999563336372375,
      0.031937941908836365,
      -0.006516049150377512,
      0.02533690631389618,
      -0.22710326313972473,
      -0.2459697127342224,
      -0.16374540328979492,
      -0.06795654445886612,
      -0.17956387996673584,
      1.2166005373001099,
      0.22392281889915466,
      -0.24380260705947876,
      0.1384229063987732,
      0.19065459072589874,
      -0.2000209093093872,
      0.11381521075963974,
      -0.49090859293937683,
      0.19401432573795319,
      0.17805366218090057,
      0.014553071931004524,
      -0.3829740881919861,
      0.15278270840644836,
      -0.03426185995340347,
      0.30764105916023254,
      -0.8641352653503418,
      0.15656712651252747,
      -0.1364753544330597,
      0.4709795415401459,
      -0.03365747630596161,
      0.04107258841395378,
      0.0014020808739587665,
      -0.01242818497121334,
      0.023874476552009583,
      -0.03543241694569588,
      -0.21670103073120117,
      0.024559609591960907,
      1.2541475296020508,
      0.5100626349449158,
      -0.27113211154937744,
      -0.31146395206451416,
      -0.09396485239267349,
      -0.4859423339366913,
      0.05990436300635338,
      0.2519460618495941,
      0.3119041919708252,
      0.9042943716049194,
      0.4218093156814575,
      -0.2639366686344147,
      -0.2426791787147522,
      -0.4415796995162964,
      -0.07317999005317688,
      -0.017751671373844147,
      -0.05200383812189102,
      -0.2572198808193207,
      0.009675400331616402,
      0.023812411352992058,
      0.16467055678367615,
      -0.774896502494812,
      -3.470055103302002,
      0.046404674649238586,
      0.01146670337766409,
      0.255011647939682,
      0.06843366473913193,
      -0.02334657497704029,
      0.0023780472110956907,
      0.07383944094181061,
      -0.006649131420999765,
      -0.021782660856842995,
      0.03272499889135361,
      0.0689908042550087,
      0.10547547042369843,
      0.03258248791098595,
      0.000854568905197084,
      1.3976655006408691,
      -0.015398618765175343,
      -0.07316386699676514,
      -0.4765561521053314,
      -0.0018995162099599838,
      -0.055547989904880524,
      0.025998245924711227,
      -0.012748383916914463,
      0.007337216753512621,
      0.009141475893557072,
      -0.024227377027273178,
      -0.1853637993335724,
      -0.013639590702950954,
      -0.05915967747569084,
      -0.03899705410003662,
      0.08231765776872635,
      -0.0024291102308779955,
      -0.08607557415962219,
      0.0290562454611063,
      0.12716679275035858,
      0.02696632407605648,
      0.03136935457587242,
      0.6346525549888611,
      0.3652835190296173,
      -0.07134046405553818,
      0.9505121111869812,
      0.2916967272758484,
      0.3951082229614258,
      0.15565544366836548,
      -0.29375675320625305,
      -0.13256482779979706,
      -0.2744672894477844,
      -0.7865833044052124,
      -0.04963231086730957,
      0.06854193657636642,
      0.0392017625272274,
      0.009433235973119736,
      -0.1099078431725502,
      -0.09013693779706955,
      -0.06385619193315506,
      1.437937617301941,
      0.07187873125076294,
      0.019420379772782326,
      -0.023415829986333847,
      0.008083004504442215,
      -0.012878024950623512,
      -0.031038841232657433,
      0.003735577454790473,
      0.010779731906950474,
      0.004989750683307648,
      0.0014294530265033245,
      -0.33118122816085815,
      -0.929635226726532,
      -0.04566587880253792,
      -0.03961906582117081,
      -0.1086675301194191,
      -0.019569581374526024,
      -1.1514570713043213,
      -0.06856261938810349,
      0.3881957232952118,
      0.2113957554101944,
      0.14669393002986908,
      -0.03576894477009773,
      0.0008347855182364583,
      -0.09157443046569824,
      -0.015831492841243744,
      0.41961944103240967,
      0.21884512901306152,
      -0.20145854353904724,
      -0.20205429196357727,
      -0.21629667282104492,
      -0.032276496291160583,
      0.204469695687294,
      0.03713520988821983,
      -0.14281034469604492,
      -0.06676191091537476,
      -0.16955584287643433,
      0.005140751600265503,
      0.08178249001502991,
      -0.2638111710548401,
      -0.003400757908821106,
      -0.04701707139611244,
      -0.003894746070727706,
      0.03238300234079361,
      0.022068573161959648,
      0.05650077760219574,
      0.23743583261966705,
      0.5598970651626587,
      -2.324096441268921,
      -0.010981572791934013,
      0.05743350461125374,
      0.09682302922010422,
      -0.04553740471601486,
      -0.20306263864040375,
      -0.2315644472837448,
      0.04218459874391556,
      0.054980382323265076,
      -0.10062475502490997,
      -0.05859367176890373,
      -0.00871061161160469,
      0.08336590230464935,
      -0.27169451117515564,
      -0.03312361240386963,
      0.041591010987758636,
      -0.7616259455680847,
      0.09055137634277344,
      -0.09490110725164413,
      0.21521314978599548,
      0.03894644230604172,
      0.11928591132164001,
      -0.00963541865348816,
      0.06292453408241272,
      -0.06368124485015869,
      0.20676329731941223,
      -0.2522071599960327,
      -0.1385296732187271,
      0.09315291047096252,
      0.009014159440994263,
      -0.1294289231300354,
      0.03464186191558838,
      0.2520624101161957,
      -0.1864607185125351,
      -0.035746559500694275,
      -0.13353699445724487,
      0.011544217355549335,
      -0.17073370516300201,
      0.7157506942749023,
      -0.3261246681213379,
      0.48029643297195435,
      0.07711229473352432,
      -0.011263459920883179,
      -0.1328182965517044,
      -0.02089805342257023,
      0.027194196358323097,
      0.04011572152376175,
      -0.32289519906044006,
      -0.2887289524078369,
      0.14478559792041779,
      -0.10446149855852127,
      0.09328566491603851,
      0.03544461727142334,
      -0.060638926923274994,
      0.39832645654678345,
      0.12862887978553772,
      -0.6386368870735168,
      -0.447860449552536,
      -0.20091094076633453,
      0.2209533005952835,
      -0.07960283011198044,
      -0.6173268556594849,
      0.04451683908700943,
      0.1772782802581787,
      -0.01541263610124588,
      0.45875799655914307,
      0.6576659083366394,
      0.5902133584022522,
      0.12679430842399597,
      -0.11285649240016937,
      -0.23546823859214783,
      -0.03864166885614395,
      -0.060230620205402374,
      -0.147636279463768,
      -0.4166196286678314,
      0.08117873221635818,
      -0.3702411651611328,
      0.005526695400476456,
      0.011949455365538597,
      -0.013711039908230305,
      0.01466219499707222,
      -0.0011728727258741856,
      0.43461886048316956,
      0.21498511731624603,
      -0.027926554903388023,
      -0.024019230157136917,
      -1.1582306623458862,
      -0.009060586802661419,
      -0.08115274459123611,
      0.12236011773347855,
      -0.0607123076915741,
      -0.07604862749576569,
      -0.07665158808231354,
      -0.34987038373947144,
      -0.08213739097118378,
      0.09696053713560104,
      0.5920857191085815,
      0.2654629647731781,
      0.09391624480485916,
      -0.04017801955342293,
      0.5958741903305054,
      -0.060074664652347565,
      -0.3729308247566223,
      -0.09460493922233582,
      -0.48714596033096313,
      -0.09847596287727356,
      0.0003372174105606973,
      1.9190868139266968,
      -0.02550700679421425,
      0.048049889504909515,
      -0.27189525961875916,
      -0.3071684241294861,
      -0.012698882259428501,
      0.053970422595739365,
      -0.004817578010261059,
      0.023398874327540398,
      -0.01939883641898632,
      0.019558900967240334,
      -0.058881986886262894,
      0.2552928626537323,
      0.03564675152301788,
      -0.17636118829250336,
      -0.03422495350241661,
      0.10642131417989731,
      0.027785174548625946,
      -0.103227399289608,
      -0.20407092571258545,
      -0.1593361347913742,
      0.04746415093541145,
      -0.23167812824249268,
      -0.8995513319969177,
      0.3636491000652313,
      -0.29211220145225525,
      -0.09319135546684265,
      0.08534282445907593,
      0.24599364399909973,
      -0.09270530939102173,
      -0.05105489492416382,
      -0.12665203213691711,
      -0.13098633289337158,
      0.2602232098579407,
      -0.1552392691373825,
      -0.05455256626009941,
      0.10526753962039948,
      0.09808449447154999,
      0.06192430853843689,
      -0.024499734863638878,
      0.02593824826180935,
      0.034099165350198746,
      -0.16438809037208557,
      0.21191301941871643,
      0.014732061885297298,
      -0.05610642582178116,
      0.028776654973626137,
      0.3509407341480255,
      0.03360176086425781,
      -0.9045686721801758,
      0.7833667993545532,
      -0.22641025483608246,
      0.006020811852067709,
      -0.10753189027309418,
      -0.17265185713768005,
      -0.3133578300476074,
      -0.27949628233909607,
      -0.042743053287267685,
      0.07961812615394592,
      0.014359964057803154,
      0.12935622036457062,
      0.10881885141134262,
      -0.30331841111183167,
      -0.022764118388295174,
      -0.21799364686012268,
      -0.3496573865413666,
      -1.1762086153030396,
      0.37830615043640137,
      -0.14798079431056976,
      -0.04790922999382019,
      -0.01990610919892788,
      -0.002466505626216531,
      -1.3278734683990479,
      0.0010586578864604235,
      0.0047653778456151485,
      -0.0010942819062620401,
      -0.007114835549145937,
      0.01017586886882782,
      -0.00700982054695487,
      0.0028883882332593203,
      -0.0038984580896794796,
      0.008446739055216312,
      -0.004993284586817026,
      -0.0504462867975235,
      0.027355937287211418,
      -0.030722199007868767,
      0.023340394720435143,
      -0.02508559264242649,
      0.0174974724650383,
      0.1969059854745865,
      1.0916725397109985,
      -0.134002223610878,
      0.0022858884185552597,
      -0.024876410141587257,
      -0.4845389425754547,
      -0.13610613346099854,
      0.027825023978948593,
      -0.09355984628200531,
      -0.15268301963806152,
      0.002780880546197295,
      -0.03058161772787571,
      -0.006113923620432615,
      -0.38141486048698425,
      0.006969772279262543,
      -0.12134305387735367,
      0.14345306158065796,
      1.0970726013183594,
      0.019930757582187653,
      0.20107248425483704,
      -0.21562011539936066,
      0.3718569576740265,
      0.1721973568201065,
      0.32589492201805115,
      -0.11610464751720428,
      0.056287724524736404,
      -0.16016677021980286,
      0.45908480882644653,
      -0.1659485101699829,
      -0.11322891712188721,
      -0.8211303949356079,
      0.20855510234832764,
      0.15866948664188385,
      -0.27912071347236633,
      -0.3758295476436615,
      0.18827025592327118,
      -0.02747853472828865,
      0.04910942167043686,
      0.169582337141037,
      -0.002121416851878166,
      0.8384142518043518,
      -0.005930804647505283,
      -0.02847576141357422,
      -0.01657530665397644,
      -0.13989804685115814,
      -0.20594219863414764,
      0.010982627980411053,
      0.028319744393229485,
      -0.012420621700584888,
      0.15649758279323578,
      0.05455847457051277,
      0.12026659399271011,
      0.0019671779591590166,
      0.38087472319602966,
      0.43619728088378906,
      0.04865423962473869,
      0.04129808023571968,
      0.10857518017292023,
      -0.07743949443101883,
      -0.8975828886032104,
      0.048473384231328964,
      -0.050449151545763016,
      -0.029194694012403488,
      -0.03356761857867241,
      0.015033507719635963,
      0.0008400393417105079,
      -0.01712474413216114,
      -0.05814424157142639,
      0.011217392049729824,
      -0.13093090057373047,
      0.011885540559887886,
      2.3072097301483154,
      0.046931806951761246,
      0.1288670301437378,
      -0.04290851205587387,
      -0.36897361278533936,
      -0.368269681930542,
      -0.524179995059967,
      -0.033364471048116684,
      0.016414610669016838,
      0.11493711173534393,
      0.2808242738246918,
      -0.3020856976509094,
      -0.2709675431251526,
      -0.9133715033531189,
      -0.15992777049541473,
      -0.30318301916122437,
      0.010435258969664574,
      -0.14786237478256226,
      0.05974825471639633,
      -0.2470090687274933,
      0.022597547620534897,
      0.021302051842212677,
      0.006121540442109108,
      0.0030603904742747545,
      -0.8020331263542175,
      0.09977149218320847,
      -0.274313747882843,
      0.00092036317801103,
      0.0033035948872566223,
      0.007525851484388113,
      0.09635394811630249,
      0.9092157483100891,
      0.32822710275650024,
      -0.1362527459859848,
      0.058745503425598145,
      -0.016353577375411987,
      -0.0694112628698349,
      -0.15010550618171692,
      -0.2580607831478119,
      0.046586066484451294,
      -0.11544409394264221,
      -0.10712547600269318,
      0.07511129975318909,
      0.005875587463378906,
      -0.12474945187568665,
      -0.24196374416351318,
      0.02707350254058838,
      -0.10970670729875565,
      -0.0721110925078392,
      -0.08553726971149445,
      -0.2605131268501282,
      0.33785703778266907,
      -0.0692991241812706,
      -0.24475230276584625,
      0.40982651710510254,
      0.11079754680395126,
      -0.09949240833520889,
      0.06821438670158386,
      0.06638924777507782,
      -0.7385417819023132,
      0.19206024706363678,
      0.19600240886211395,
      -0.007993580773472786,
      0.014768784865736961,
      -0.007066537160426378,
      0.012308459728956223,
      -0.023288210853934288,
      0.012791194021701813,
      -0.09501639008522034,
      -0.032188985496759415,
      -7.827141234884039e-05,
      -0.05186488851904869,
      -1.261738896369934,
      -0.01932491362094879,
      0.13717526197433472,
      0.31996533274650574,
      -0.15246567130088806,
      -0.1225116178393364,
      0.1647026389837265,
      -0.2535252273082733,
      -0.2915157973766327,
      0.031929343938827515,
      -0.2583402097225189,
      0.21402426064014435,
      0.3361812233924866,
      -0.07142264395952225,
      -0.23364000022411346,
      0.46210384368896484,
      -0.4924975335597992,
      0.3119274973869324,
      0.07383321970701218,
      0.13769428431987762,
      1.2106748819351196,
      -0.05878070369362831,
      0.2489222288131714,
      0.11931709200143814,
      0.0677751675248146,
      -0.07645300775766373,
      -0.17443132400512695,
      -0.2966221570968628,
      -0.007713248021900654,
      -0.23959994316101074,
      -0.21345826983451843,
      -0.23891064524650574,
      -0.2602371871471405,
      -0.010287290439009666,
      -0.15560656785964966,
      -0.20228689908981323,
      0.25004997849464417,
      -0.19661636650562286,
      0.5261813998222351,
      0.4266666769981384,
      0.3154037594795227,
      -0.15263789892196655,
      -0.3352964520454407,
      0.418110728263855,
      -0.11539290100336075,
      0.17981231212615967,
      -0.10413465648889542,
      0.06648504734039307,
      -0.07058458030223846,
      0.08311600983142853,
      0.01350758969783783,
      -0.18322956562042236,
      0.21396176517009735,
      -1.54007887840271,
      0.1901162564754486,
      0.15466316044330597,
      -0.10396841913461685,
      -0.2029394954442978,
      0.46022993326187134,
      -0.787935197353363,
      -0.4137386083602905,
      -0.28261786699295044,
      -0.11421427875757217,
      0.06903266161680222,
      -0.004099266137927771,
      -0.6558399796485901,
      -0.2644871473312378,
      0.38565948605537415,
      0.11482463777065277,
      0.47663116455078125,
      0.4135758876800537,
      0.3184052109718323,
      0.3515855371952057,
      0.18185323476791382,
      -0.02942776307463646,
      -0.06528645753860474,
      -0.038669850677251816,
      0.046356093138456345,
      0.9689912796020508,
      0.02076159231364727,
      0.09923891723155975,
      -0.036895256489515305,
      -0.20709668099880219,
      -0.013323219493031502,
      0.017328325659036636,
      -0.24223195016384125,
      -0.28995200991630554,
      -0.2309778332710266,
      0.7540101408958435,
      0.20998845994472504,
      0.1386713832616806,
      -0.005868191365152597,
      0.5173907279968262,
      0.4952600598335266,
      -0.008261363953351974,
      -0.1482096165418625,
      0.014160361140966415,
      -0.003865667153149843,
      -0.03228657320141792,
      -0.06981699913740158,
      -0.4373362958431244,
      -0.4238712787628174,
      -0.03521460294723511,
      0.1136353388428688,
      -1.5638500452041626,
      -0.021026726812124252,
      0.09760452806949615,
      0.20258118212223053,
      -0.1594809740781784,
      0.03815160691738129,
      0.003565403865650296,
      -0.03982897475361824,
      0.034325920045375824,
      0.04363532364368439,
      -0.09960247576236725,
      0.19435490667819977,
      -0.029431568458676338,
      -0.08095603436231613,
      1.2144801616668701,
      -0.027326026931405067,
      0.06787661463022232,
      -0.019328560680150986,
      -0.23746906220912933,
      0.03633704409003258,
      -0.16290241479873657,
      0.41595813632011414,
      -0.06146896630525589,
      -0.42697757482528687,
      -0.12340249866247177,
      -0.26250866055488586,
      0.028892649337649345,
      -0.23772594332695007,
      0.1842595934867859,
      0.0021279628854244947,
      -0.052589695900678635,
      0.057068243622779846,
      0.3672536015510559,
      -0.19064463675022125,
      -0.08865606039762497,
      -0.04194981977343559,
      -0.41996514797210693,
      0.1919250339269638,
      -0.3842238485813141,
      -0.5477718114852905,
      0.25190210342407227,
      0.2966034710407257,
      0.2186422497034073,
      0.07167889922857285,
      -0.001473147771321237,
      -0.3569486737251282,
      0.29342421889305115,
      0.17610208690166473,
      -2.6635801792144775,
      -0.1601594239473343,
      0.028123341500759125,
      -0.021786386147141457,
      0.08240871876478195,
      -0.15743353962898254,
      0.03302660956978798,
      -0.2344704270362854,
      -0.28259822726249695,
      -0.03994622081518173,
      -0.7835948467254639,
      0.08195848017930984,
      0.06219348683953285,
      0.205303356051445,
      0.15831807255744934,
      0.35445836186408997,
      0.22328226268291473,
      0.23604367673397064,
      -0.321689248085022,
      -0.182297945022583
    ],
    [
      -0.24112166464328766,
      -0.051272276788949966,
      -0.05011023208498955,
      -0.003765830770134926,
      0.06374999135732651,
      -0.4933173656463623,
      -0.5856450796127319,
      -0.0815749391913414,
      -0.5959534645080566,
      0.5072774887084961,
      -0.04410616680979729,
      0.010610923171043396,
      -0.061313286423683167,
      -0.3949715793132782,
      -0.013827003538608551,
      0.8764239549636841,
      -0.04268598183989525,
      -0.27989378571510315,
      0.46706750988960266,
      0.05833300203084946,
      -0.3419192433357239,
      -0.2022598534822464,
      0.1674032062292099,
      -0.4234822690486908,
      0.12371569871902466,
      0.01136646419763565,
      0.42444947361946106,
      0.018680863082408905,
      -0.26205021142959595,
      0.21938180923461914,
      0.39642849564552307,
      0.18476887047290802,
      -0.1380661427974701,
      0.35820451378822327,
      -0.17963677644729614,
      -0.60038161277771,
      -0.4165680408477783,
      -0.17961999773979187,
      0.2448875457048416,
      -0.11553820967674255,
      -0.23557209968566895,
      0.022871553897857666,
      -0.1672525554895401,
      0.005938980728387833,
      -0.2833274304866791,
      0.40927404165267944,
      0.24549439549446106,
      0.6452357769012451,
      0.06347057223320007,
      0.1210891604423523,
      0.28735294938087463,
      0.10984522849321365,
      -0.3501898944377899,
      -0.7685886025428772,
      -0.9312213659286499,
      -0.7238965034484863,
      -0.6308084726333618,
      -0.1395115703344345,
      -0.04765366390347481,
      0.23479558527469635,
      0.27269428968429565,
      -0.22131052613258362,
      0.3976205885410309,
      0.5698098540306091,
      0.035107385367155075,
      -0.32040274143218994,
      0.0180373415350914,
      0.08391084522008896,
      0.03604927659034729,
      0.3033313751220703,
      -0.09608222544193268,
      0.45943573117256165,
      0.3680895268917084,
      1.310624122619629,
      -0.18778803944587708,
      -0.49336135387420654,
      -0.05161686986684799,
      -0.13381049036979675,
      0.03615439310669899,
      0.33020269870758057,
      -0.1507420837879181,
      -0.01144169270992279,
      1.6909868717193604,
      0.006792794913053513,
      0.20602712035179138,
      -0.27901574969291687,
      -0.3003047704696655,
      0.0830175131559372,
      0.35362517833709717,
      0.21890310943126678,
      0.0647757276892662,
      -0.4266458749771118,
      0.11802802979946136,
      0.08040323108434677,
      -0.06157776340842247,
      -0.07263896614313126,
      -0.2896410822868347,
      -0.4313575029373169,
      -0.35741931200027466,
      0.423982709646225,
      0.04828649386763573,
      -0.06012494117021561,
      -0.14085069298744202,
      0.2573428452014923,
      0.16734783351421356,
      0.3800002634525299,
      -0.8520147204399109,
      0.21128419041633606,
      -0.22061139345169067,
      -0.053056567907333374,
      1.0459752082824707,
      -0.08521520346403122,
      -0.2932271957397461,
      0.0865010991692543,
      -0.016193170100450516,
      -0.043760452419519424,
      0.16899016499519348,
      -0.3729720413684845,
      0.20394407212734222,
      0.2635732591152191,
      -0.08507625758647919,
      -0.47444236278533936,
      -0.2918962836265564,
      0.23858347535133362,
      -0.12774516642093658,
      0.478880375623703,
      -0.058517035096883774,
      0.19558663666248322,
      0.04138017073273659,
      0.011104407720267773,
      0.048693351447582245,
      -0.4128551185131073,
      -0.07598180323839188,
      -0.005652209278196096,
      0.18544618785381317,
      -0.4466709792613983,
      -0.5161401033401489,
      -0.08453710377216339,
      0.20122474431991577,
      -0.05845890939235687,
      0.39005979895591736,
      -0.11495689302682877,
      -0.011837080121040344,
      -0.3593066334724426,
      -0.19098740816116333,
      0.32024309039115906,
      -0.32907041907310486,
      0.04071798175573349,
      0.12546686828136444,
      -0.8969312906265259,
      0.29146942496299744,
      0.48479360342025757,
      -0.711197555065155,
      0.02914804220199585,
      0.7782973647117615,
      0.05681454390287399,
      0.8433680534362793,
      0.5404654145240784,
      0.4670730531215668,
      -0.089751236140728,
      0.5792407393455505,
      0.1260179579257965,
      0.3690486252307892,
      -0.40990254282951355,
      -0.2613539695739746,
      -0.13443440198898315,
      -0.20246492326259613,
      1.3313530683517456,
      0.3192416727542877,
      -0.061872437596321106,
      0.20643633604049683,
      -0.32788392901420593,
      0.010837863199412823,
      -0.334820032119751,
      0.09825096279382706,
      -0.46330609917640686,
      0.020651981234550476,
      0.0782390609383583,
      0.35615408420562744,
      0.3655642867088318,
      -0.48896077275276184,
      0.10397790372371674,
      1.0923399925231934,
      0.0609242245554924,
      -0.2393314242362976,
      -0.2612629234790802,
      -0.00647639948874712,
      -0.2423141449689865,
      0.0403716079890728,
      -0.03448168933391571,
      0.6458348035812378,
      0.04757213220000267,
      -1.429566502571106,
      -1.0676190853118896,
      0.05293954163789749,
      -0.5635854601860046,
      -0.03555525094270706,
      -0.29015129804611206,
      -0.15562410652637482,
      -0.40133172273635864,
      -0.17776192724704742,
      3.1771912574768066,
      -1.064607858657837,
      -0.8478407859802246,
      -1.7061469554901123,
      0.34493356943130493,
      0.054625798016786575,
      0.06205923110246658,
      0.4165136218070984,
      0.25275033712387085,
      0.306792676448822,
      -1.1179041862487793,
      -0.1264326125383377,
      -0.15531207621097565,
      0.2670377790927887,
      -0.7101569175720215,
      0.9076800346374512,
      0.7992953062057495,
      0.008764464408159256,
      0.03471609205007553,
      -0.10581424832344055,
      0.07286182790994644,
      0.012450352311134338,
      -0.09094217419624329,
      0.40707647800445557,
      0.23867465555667877,
      0.24005939066410065,
      -0.19149810075759888,
      0.6526917219161987,
      -0.03627999499440193,
      -0.23755699396133423,
      -0.07602199167013168,
      0.04743348807096481,
      0.1394871175289154,
      -0.2598724961280823,
      0.2532558739185333,
      -0.3067781329154968,
      -0.32399696111679077,
      0.35703200101852417,
      0.3770948648452759,
      0.15355585515499115,
      -0.05822340026497841,
      0.6199491620063782,
      -0.239629864692688,
      -0.41253751516342163,
      -0.2754993438720703,
      0.24390168488025665,
      -0.0411364771425724,
      0.17593346536159515,
      -0.12377079576253891,
      -0.20270881056785583,
      0.017156066372990608,
      -0.014271113090217113,
      0.7098806500434875,
      0.05419046804308891,
      0.42404401302337646,
      0.4871772527694702,
      -0.004938830155879259,
      -0.0013361847959458828,
      -0.2759113907814026,
      -0.2519703507423401,
      0.49264779686927795,
      0.8114144206047058,
      0.11241956800222397,
      -1.2484276294708252,
      0.6322911977767944,
      0.3529187738895416,
      -0.06577455252408981,
      -0.018842360004782677,
      0.04275228828191757,
      -0.024698466062545776,
      -1.2873156070709229,
      0.046911824494600296,
      0.21021594107151031,
      0.046844642609357834,
      0.06331507116556168,
      -0.04858335107564926,
      0.1483454406261444,
      0.319247841835022,
      -0.20416535437107086,
      -0.311471164226532,
      0.06095109134912491,
      -0.7867481112480164,
      -0.052200935781002045,
      -0.2754107117652893,
      0.16769570112228394,
      -0.4231298863887787,
      -0.04833502322435379,
      -0.4304642081260681,
      -0.16208836436271667,
      -0.6304844617843628,
      0.18551886081695557,
      0.5232036113739014,
      0.12955674529075623,
      0.17814436554908752,
      -0.21421390771865845,
      -0.17345334589481354,
      0.008771836757659912,
      0.024060577154159546,
      -0.30740848183631897,
      -0.09775301069021225,
      -0.2926849126815796,
      0.2865689992904663,
      0.10451448708772659,
      -0.09520399570465088,
      0.2833782434463501,
      0.4575740098953247,
      0.09263419359922409,
      0.3494538366794586,
      -0.1466004103422165,
      -1.0540945529937744,
      -0.16593071818351746,
      -0.3696077764034271,
      -0.36600273847579956,
      0.11693236976861954,
      0.27873852849006653,
      -0.07029102742671967,
      0.22742800414562225,
      1.0549523830413818,
      0.7331191897392273,
      -0.20006881654262543,
      -1.1879851818084717,
      -0.04388457164168358,
      -2.262620449066162,
      0.0666523203253746,
      -0.09754560887813568,
      0.2523486912250519,
      -0.3243042230606079,
      0.30848491191864014,
      -4.141565799713135,
      -0.09173025190830231,
      -0.38497668504714966,
      -0.32829535007476807,
      -0.023676151409745216,
      -0.1508626490831375,
      0.18448612093925476,
      -0.36403992772102356,
      0.07763136923313141,
      3.435643434524536,
      0.12110529839992523,
      -0.04798782616853714,
      -1.199046015739441,
      0.13537469506263733,
      -0.7499563097953796,
      -1.6365946531295776,
      0.4988836348056793,
      0.08294260501861572,
      -0.11285005509853363,
      -0.0063997674733400345,
      0.08632757514715195,
      -0.41198086738586426,
      0.36212167143821716,
      0.7677034139633179,
      -0.21330656111240387,
      -0.325886070728302,
      -0.2665860056877136,
      -0.026466598734259605,
      -0.040143296122550964,
      0.2045898288488388,
      -0.41035646200180054,
      0.05504666268825531,
      -0.0705113559961319,
      -0.020618392154574394,
      -0.48353102803230286,
      0.017622319981455803,
      0.07522382587194443,
      1.3243380784988403,
      0.19577857851982117,
      0.22824133932590485,
      -0.009668896906077862,
      0.17814365029335022,
      0.4146270155906677,
      -0.6733014583587646,
      0.5642921924591064,
      0.0007843497442081571,
      0.3203490972518921,
      -0.4514702558517456,
      -0.05755807086825371,
      -0.5323385000228882,
      0.3364896774291992,
      -0.05761260911822319,
      -0.31730085611343384,
      0.2793521285057068,
      -0.4464469254016876,
      -0.037823647260665894,
      0.05775018408894539,
      -0.08463133871555328,
      1.345620036125183,
      0.04440067335963249,
      0.12440422177314758,
      0.6829683780670166,
      -0.28930169343948364,
      1.680782675743103,
      -0.4759487807750702,
      -1.386060118675232,
      -0.063685342669487,
      0.6498997211456299,
      -0.45854511857032776,
      -0.07012072205543518,
      -0.08840494602918625,
      -0.05966133996844292,
      -0.5490232110023499,
      -0.15979062020778656,
      0.08402050286531448,
      0.6418253183364868,
      -0.5554956793785095,
      0.3520227372646332,
      0.0295256394892931,
      -0.45487862825393677,
      0.037057943642139435,
      0.07342099398374557,
      -0.07491829991340637,
      0.2990429699420929,
      -0.10696931183338165,
      0.8772399425506592,
      0.2328452467918396,
      0.47471776604652405,
      -0.30165138840675354,
      0.3268861770629883,
      -0.17483821511268616,
      0.3204313814640045,
      -0.3718838095664978,
      -0.043790921568870544,
      -1.0306774377822876,
      0.7542192339897156,
      0.07490918785333633,
      0.0043000997975468636,
      -0.24841447174549103,
      -0.3129439949989319,
      -0.11249802261590958,
      0.1488252729177475,
      -2.311633586883545,
      -0.14428390562534332,
      0.4663531184196472,
      -0.023514822125434875,
      -0.07900658249855042,
      0.4470996558666229,
      -0.036240071058273315,
      -0.028834884986281395,
      0.08404815942049026,
      -0.09162382036447525,
      0.30694684386253357,
      -0.09290418028831482,
      0.7796586751937866,
      -0.4299447238445282,
      -0.10456949472427368,
      0.05835409089922905,
      0.6109653115272522,
      0.5735847353935242,
      0.19930334389209747,
      0.08700450509786606,
      0.3234066963195801,
      0.054143838584423065,
      -0.0571259930729866,
      0.16066482663154602,
      0.534909725189209,
      -0.11917830258607864,
      0.7436153292655945,
      0.19892087578773499,
      0.39059916138648987,
      -0.07642009109258652,
      -0.3393761217594147,
      -0.6587422490119934,
      0.2927742004394531,
      0.19431056082248688,
      -0.016310283914208412,
      1.4060710668563843,
      -0.2986413240432739,
      0.23857519030570984,
      -0.11935234814882278,
      0.05819980427622795,
      0.030747495591640472,
      0.023446742445230484,
      0.25739428400993347,
      -0.038687240332365036,
      0.06818826496601105,
      0.03702802583575249,
      -0.04712311550974846,
      -0.51324063539505,
      -1.214532732963562,
      -0.228847935795784,
      0.2152097523212433,
      0.2995978891849518,
      0.5672778487205505,
      0.07933298498392105,
      -0.04228895530104637,
      0.3907214105129242,
      -1.9392499923706055,
      -0.19349877536296844,
      -0.5792720913887024,
      0.39139217138290405,
      -0.13791418075561523,
      -0.00989316962659359,
      0.17923544347286224,
      0.04513556510210037,
      -0.2373422384262085,
      -0.09127431362867355,
      -0.08239097893238068,
      0.4028815031051636,
      0.4099832773208618,
      -0.21283617615699768,
      -0.36346733570098877,
      -0.09254138171672821,
      0.008228559046983719,
      0.08639834076166153,
      0.0499659888446331,
      0.017817968502640724,
      -0.4130944311618805,
      0.40282049775123596,
      -0.4901319146156311,
      -0.04388362914323807,
      -0.6395095586776733,
      0.07498621195554733,
      0.06560752540826797,
      -0.024275651201605797,
      -0.09924530237913132,
      -0.22562472522258759,
      0.03551926091313362,
      -0.00923990085721016,
      -0.01920034922659397,
      -0.5774944424629211,
      -0.08664197474718094,
      0.3170071244239807,
      0.012401096522808075,
      0.2005949169397354,
      -0.6975877285003662,
      -0.05016691982746124,
      -0.024896305054426193,
      -1.0232080221176147,
      -0.24430154263973236,
      0.24091462790966034,
      -0.024157322943210602,
      -0.5141121745109558,
      0.5490662455558777,
      0.43613186478614807,
      -0.051710426807403564,
      0.4222869575023651,
      0.046245746314525604,
      0.15404346585273743,
      0.008373945951461792,
      -0.5734662413597107,
      -0.18389101326465607,
      -0.26741328835487366,
      -2.056759834289551,
      -0.05763379856944084,
      -0.1158997192978859,
      0.15991339087486267,
      -0.005295733455568552,
      -0.6529672145843506,
      0.15922056138515472,
      0.25597965717315674,
      2.080259323120117,
      0.3646462559700012,
      0.0118398517370224,
      -0.39806562662124634,
      1.3956431150436401,
      0.010516119189560413,
      -0.08514373004436493,
      -0.13305126130580902,
      0.6785365343093872,
      0.05705203115940094,
      -1.0284324884414673,
      -0.04033851996064186,
      -0.14786048233509064,
      -0.06715889275074005,
      0.11480406671762466,
      0.2048841416835785,
      -0.01692751981317997,
      0.16396524012088776,
      0.5881823301315308,
      0.09943278878927231,
      -0.12057631462812424,
      0.07162307947874069,
      -0.3042793273925781,
      -0.8571580648422241,
      -0.2935013175010681,
      -0.7236747741699219,
      -0.023820120841264725,
      0.0261429101228714,
      0.16384592652320862,
      0.04731964319944382,
      0.5220251679420471,
      -0.32802072167396545,
      0.7071180939674377,
      -0.18941630423069,
      0.07924749702215195,
      -0.5147146582603455,
      -0.6757165789604187,
      -0.4655234217643738,
      0.5782279968261719,
      0.021336805075407028,
      -0.18951286375522614,
      0.20837122201919556,
      0.17094291746616364,
      0.6119893789291382,
      0.25594475865364075,
      0.028313778340816498,
      0.20135866105556488,
      -0.011145283468067646,
      -0.04350671544671059,
      0.8634052276611328,
      0.03134791553020477,
      -0.03213544189929962,
      0.01743880845606327,
      -0.16280408203601837,
      -0.0588807612657547,
      -0.07377348840236664,
      -0.44936031103134155,
      0.001859825337305665,
      0.06424391269683838,
      -0.4746093451976776,
      0.18828219175338745,
      -0.293254554271698,
      0.04564014822244644,
      0.8145565390586853,
      -0.8760116696357727,
      -0.20369821786880493,
      -0.25908729434013367,
      -0.9353275299072266,
      0.20075994729995728,
      -0.3167724609375,
      -0.3939748704433441,
      0.35907262563705444,
      0.22563979029655457,
      -0.23031650483608246,
      0.01723390817642212,
      -0.24596232175827026,
      -0.15903274714946747,
      -0.34339144825935364,
      -0.03980748727917671,
      0.01128694973886013,
      0.6240516304969788,
      -0.039966121315956116,
      0.006025312002748251,
      -0.07647890597581863,
      -1.8249088525772095,
      -0.1838049590587616,
      -0.7590628266334534,
      -0.34485605359077454,
      -0.11043710261583328,
      -0.3967099189758301,
      -0.022441163659095764,
      -0.03439996764063835,
      -0.7724370956420898,
      -0.8417990803718567,
      0.2960764765739441,
      -0.35450583696365356,
      -0.026768291369080544,
      -4.382872104644775,
      0.09673578292131424,
      0.1956946849822998,
      0.013074572198092937,
      -0.283378541469574,
      0.5174518823623657,
      0.08567947894334793,
      -1.0838737487792969,
      0.004923371132463217,
      -0.06624262779951096,
      -0.028662241995334625,
      0.009534098207950592,
      0.0078032007440924644,
      -0.02814992144703865,
      -0.8404190540313721,
      0.08645331114530563,
      0.2994576096534729,
      0.07198861986398697,
      -0.1189969852566719,
      0.05699833482503891,
      -0.007385916076600552,
      0.08628972619771957,
      0.2789638936519623,
      0.2616410553455353,
      -0.12203782051801682,
      0.17975755035877228,
      -0.007439882960170507,
      0.1447051465511322,
      -0.35466432571411133,
      0.13367070257663727,
      -0.10471170395612717,
      -0.2531157433986664,
      -1.0535248517990112,
      -0.06107465177774429,
      -0.1666383147239685,
      0.39881446957588196,
      0.05681873485445976,
      0.11666731536388397,
      0.05711042508482933,
      2.0985867977142334,
      -0.18455761671066284,
      -0.028475146740674973,
      -0.14344196021556854,
      0.3793536126613617,
      1.030042290687561,
      0.10940471291542053,
      -0.13942641019821167,
      -0.0462711825966835,
      0.021795084699988365,
      0.24012653529644012,
      -0.2997950613498688,
      0.03459681570529938,
      0.2869914770126343,
      -0.12968549132347107,
      0.2724257707595825,
      -0.7019624710083008,
      -0.3761015832424164,
      0.25794392824172974,
      0.0040536001324653625,
      0.9166485667228699,
      -0.049105990678071976,
      0.21350041031837463,
      -0.16534015536308289,
      -0.3545767366886139,
      -0.06118273735046387,
      -0.3187435567378998,
      -0.6444849371910095,
      0.0767374336719513,
      0.3303352892398834,
      -0.1823747307062149,
      -0.0807659924030304,
      -0.2921440601348877,
      -0.5855163335800171,
      0.07930460572242737,
      -1.0577112436294556,
      -0.5574235916137695,
      -0.18780387938022614,
      0.7421148419380188,
      -0.019198132678866386,
      0.5157023072242737,
      0.097256600856781,
      0.23779727518558502,
      -0.06938144564628601,
      0.03129660710692406,
      -0.24296948313713074,
      -0.05523204430937767,
      -0.014835290610790253,
      -0.18962737917900085,
      0.19425031542778015,
      -0.2765960693359375,
      -0.058312512934207916,
      0.007185758091509342,
      0.01006687805056572,
      -0.01634189486503601,
      0.24186971783638,
      1.0876476764678955,
      -0.14533838629722595,
      0.258890300989151,
      -0.07705261558294296,
      -0.2021324634552002,
      0.19341178238391876,
      0.18763375282287598,
      -0.0632706731557846,
      -0.06784183531999588,
      -0.1580134779214859,
      -0.06261445581912994,
      -0.21673795580863953,
      -0.1744394600391388,
      0.5294061899185181,
      -0.05623437091708183,
      -0.332214891910553,
      0.5657843947410583,
      -0.2472773790359497,
      -0.2376754879951477,
      0.02060670219361782,
      0.18396414816379547,
      0.472320556640625,
      -0.12734390795230865,
      -0.03996732458472252,
      0.5952991247177124,
      0.049010951071977615,
      0.019038477912545204,
      -0.0274667851626873,
      1.2922989130020142,
      -0.0791509822010994,
      0.10559232532978058,
      -0.2144218236207962,
      -0.2738625109195709,
      -0.21113239228725433,
      0.10229956358671188,
      -0.40621328353881836,
      0.02992738038301468,
      0.08419160544872284,
      -0.2944906949996948,
      0.03540320694446564,
      0.8338350057601929,
      -0.5240157842636108,
      0.15750505030155182,
      -0.2105410248041153,
      -0.08248906582593918,
      0.3812888562679291,
      -0.526025116443634,
      -0.06503153592348099,
      0.1343797892332077,
      0.13173557817935944,
      0.0820619985461235,
      0.16345959901809692,
      0.08228052407503128,
      -0.9768416881561279,
      0.07066050916910172,
      0.07170601934194565,
      0.2621726095676422,
      0.27426448464393616,
      0.22486625611782074,
      0.030592018738389015,
      -0.23117773234844208,
      0.25107356905937195,
      0.1390569806098938,
      -0.3839377164840698,
      -0.8036849498748779,
      0.038547735661268234,
      -0.052818093448877335,
      0.2028128206729889,
      0.7731768488883972,
      1.0871959924697876,
      -0.38041725754737854,
      0.5239244699478149,
      -0.5218614339828491,
      -0.3369688391685486,
      0.31818661093711853,
      0.07642705738544464,
      0.3009372055530548,
      0.7108569741249084,
      -0.09022580087184906,
      0.5792405009269714,
      0.10724234580993652,
      -0.3561755418777466,
      -0.8805781006813049,
      -0.019510427489876747,
      0.1560085266828537,
      -0.003853426082059741,
      0.11057283729314804,
      -0.5254464745521545,
      0.055138129740953445,
      -0.2209770679473877,
      0.24395039677619934,
      0.02643735706806183,
      0.16231706738471985,
      0.08067464083433151,
      0.014878732152283192,
      0.4721371829509735,
      -0.2520618736743927,
      -0.2359054833650589,
      0.9854446649551392,
      -0.01812135800719261,
      0.1539919078350067,
      -0.005171519238501787,
      0.24141766130924225,
      -0.25400230288505554,
      0.7547904849052429,
      0.13562427461147308,
      -0.3557051718235016,
      0.377859890460968,
      -0.5102028846740723,
      0.2432500123977661,
      0.2899121344089508,
      0.32575663924217224,
      -0.1728549748659134,
      -0.37354254722595215,
      0.09060179442167282,
      -0.019615959376096725,
      -0.19165383279323578,
      0.11081339418888092,
      0.0075793638825416565,
      -0.16197960078716278,
      -0.4612070620059967,
      -0.03395592048764229,
      -0.03263922035694122,
      0.3622792065143585,
      0.049053240567445755,
      0.22260414063930511,
      -0.05530822277069092,
      -0.13497397303581238,
      0.24835729598999023,
      0.03329005464911461,
      -0.27220940589904785,
      0.27669069170951843,
      0.07561969012022018,
      -0.250480592250824,
      -0.4272250533103943,
      0.6013280749320984,
      0.03856363147497177,
      -0.05394444614648819,
      -0.08794645220041275,
      0.14116567373275757,
      -0.2861855626106262,
      -0.08465226739645004,
      0.15201698243618011,
      0.07009292393922806,
      0.34786689281463623,
      0.4856567680835724,
      0.1866942197084427,
      -0.34403812885284424,
      0.4863123595714569,
      -0.37868958711624146,
      0.7695999145507812,
      -0.06519611924886703,
      0.23437820374965668,
      0.1161702498793602,
      -0.03834694251418114,
      0.06887495517730713,
      -0.6889815926551819,
      0.12476568669080734,
      -0.044521354138851166,
      0.31925663352012634,
      -0.12231241911649704,
      -0.7435948252677917,
      -0.2452024668455124,
      0.26392862200737,
      0.050604306161403656,
      -0.11155714094638824,
      -0.11957725882530212,
      0.030915282666683197,
      0.003534142393618822,
      0.0365566685795784,
      -0.08634965121746063,
      -0.03833707794547081,
      0.03183898329734802,
      0.04948800057172775,
      -0.006680245045572519,
      -0.11890267580747604,
      -2.9305245876312256,
      0.39670926332473755,
      0.042185522615909576,
      -0.3182523548603058,
      -0.04097827523946762,
      1.0683341026306152,
      -1.3938629627227783,
      0.22771967947483063,
      -0.04661108925938606,
      0.22121550142765045,
      -0.12377507984638214,
      0.13466370105743408,
      -0.026267657056450844,
      0.09395665675401688,
      -0.11123786121606827,
      0.3755917549133301,
      0.6995276808738708,
      1.0035400390625,
      0.07133878022432327,
      -0.030211491510272026,
      -0.12605012953281403,
      -0.148168683052063,
      -0.07864146679639816,
      0.1298566311597824,
      0.03673553466796875,
      -1.8223767280578613,
      0.1734660267829895,
      0.45797768235206604,
      -0.10480495542287827,
      -0.08965949714183807,
      0.10406970977783203,
      0.2386675775051117,
      -0.15888918936252594,
      0.19152319431304932,
      0.543425977230072,
      -0.14081208407878876,
      -0.42667585611343384,
      -0.16068466007709503,
      -0.08902473002672195,
      -0.29367750883102417,
      0.10769329220056534,
      -0.4734407365322113,
      0.03207893669605255,
      0.025161854922771454,
      -0.06311553716659546,
      0.03966554254293442,
      -0.1246531754732132,
      0.0477030947804451,
      -0.6489225029945374,
      -0.011472083628177643,
      -1.4081737995147705,
      -0.401053786277771,
      0.2656640112400055,
      -0.2933667302131653,
      -0.005327257793396711,
      -1.515112042427063,
      -0.15332913398742676,
      0.5418792963027954,
      0.3150414228439331,
      -0.11603192985057831,
      0.14917869865894318,
      -0.13968802988529205,
      0.16398245096206665,
      0.16310295462608337,
      0.2907271087169647,
      -0.34634488821029663,
      -0.22695499658584595,
      -0.009194903075695038,
      0.14630606770515442,
      1.2682844400405884,
      0.04593648761510849,
      0.02137952297925949,
      0.0588398315012455,
      0.1537558138370514,
      -8.584874153137207,
      0.595649778842926,
      -0.2191237062215805,
      -0.2879273593425751,
      -0.008958123624324799,
      -0.8094690442085266,
      -0.05551493167877197,
      0.05337085574865341,
      -0.24994534254074097,
      0.14176063239574432,
      -0.4186093807220459,
      0.36186841130256653,
      -0.30950960516929626,
      -0.5966721177101135,
      -0.4403206408023834,
      -0.31774887442588806,
      -0.06553229689598083,
      -1.0950775146484375,
      -0.1652848720550537,
      -0.11685775220394135,
      -0.3443891406059265,
      -0.07589448988437653,
      -0.20679794251918793,
      0.25416332483291626,
      -0.025357287377119064,
      0.3065662682056427,
      0.3009137809276581,
      0.3631267547607422,
      0.1760629564523697,
      -0.09472623467445374,
      0.5653004050254822,
      -0.033073026686906815,
      0.06837771087884903,
      -0.030757389962673187,
      0.054911818355321884,
      0.08736857771873474,
      -0.024463381618261337,
      -0.07444728165864944,
      -0.0007363783079199493,
      -0.01319710910320282,
      -0.08927907794713974,
      0.017139723524451256,
      0.04698652774095535,
      0.013562047854065895,
      -0.028703417629003525,
      0.06397048383951187,
      0.08810653537511826,
      0.04732627421617508,
      -0.049613215029239655,
      0.0054151215590536594,
      -0.024610906839370728,
      0.025971798226237297,
      0.08781717717647552,
      -0.0282151997089386,
      0.026818260550498962,
      -0.04296128824353218,
      0.08753108233213425,
      0.07607371360063553,
      -0.006945326924324036,
      0.0008453556220047176,
      -0.04067320376634598,
      0.08094272762537003,
      0.059609685093164444,
      0.018405726179480553,
      0.026911631226539612,
      -0.047808822244405746,
      0.02380955219268799,
      -0.07568805664777756,
      0.04139869660139084,
      -0.053878702223300934,
      0.0880105122923851,
      0.05588526278734207,
      -0.07088884711265564,
      -0.046244170516729355,
      0.05908152833580971,
      0.03489287570118904,
      0.028114205226302147,
      -0.026101989671587944,
      0.056917738169431686,
      -0.02821403555572033,
      0.022745849564671516,
      -0.061473581939935684,
      -0.1018277183175087,
      0.03922080621123314,
      -0.11163981258869171,
      -0.09788347780704498,
      -0.022405870258808136,
      -0.08156614750623703,
      -0.0870421901345253,
      -0.047751132398843765,
      0.056980568915605545,
      0.01679408922791481,
      0.007598076947033405,
      -0.0010678698308765888,
      0.01489055436104536,
      0.025456398725509644,
      -0.05128348991274834,
      0.0704694464802742,
      -0.09035000950098038,
      0.0705137774348259,
      -0.11323627084493637,
      -0.02377346344292164,
      0.016278641298413277,
      -0.07286593317985535,
      -0.07792433351278305,
      0.04204536974430084,
      -0.08552371710538864,
      0.05464811995625496,
      0.02517685294151306,
      -0.05909860506653786,
      -0.03218301385641098,
      -0.09594587236642838,
      0.048139601945877075,
      -0.07255252450704575,
      0.021814074367284775,
      -0.05781102553009987,
      0.039209477603435516,
      0.07170723378658295,
      -0.035102736204862595,
      -0.017605561763048172,
      0.06805180758237839,
      0.06419273465871811,
      -0.12624886631965637,
      0.06101202592253685,
      -0.03657268360257149,
      0.008255860768258572,
      -0.03887128829956055,
      -0.0412268303334713,
      -0.07092364132404327,
      -0.08609813451766968,
      -0.09564114362001419,
      -0.05985928326845169,
      0.08746463805437088,
      0.019743112847208977,
      -0.07245612144470215,
      -0.007464435417205095,
      0.06863372772932053,
      -0.007947299629449844,
      -0.06731753051280975,
      -0.01820347085595131,
      -0.09854523092508316,
      -0.06189249828457832,
      0.013706824742257595,
      0.07017232477664948,
      0.04818286746740341,
      0.014135543256998062,
      -0.12324866652488708,
      -0.10855678468942642,
      -0.08292391896247864,
      -0.09618179500102997,
      -0.07277199625968933,
      -0.02191704511642456,
      -0.0780351385474205,
      0.014987153932452202,
      -0.10312753170728683,
      -0.010653495788574219,
      -0.013930121436715126,
      0.044543344527482986,
      -0.02703525684773922,
      -0.044014111161231995,
      0.05150233954191208,
      0.0832696259021759,
      3.6039419174194336,
      -0.3801150321960449,
      0.34398794174194336,
      0.16512854397296906,
      0.34657323360443115,
      -0.20532289147377014,
      0.29249224066734314,
      0.6874685287475586,
      0.03936978429555893,
      0.15161608159542084,
      0.060516394674777985,
      0.007069319486618042,
      -0.1562165468931198,
      -0.1491250991821289,
      -0.2698996663093567,
      -0.06591557711362839,
      -0.05893590673804283,
      0.5533031821250916,
      0.35093140602111816,
      0.22089093923568726,
      0.11445551365613937,
      0.011607121676206589,
      -0.04546557366847992,
      0.4586813747882843,
      0.0355704128742218,
      -0.3208525478839874,
      -0.10747348517179489,
      0.6471205949783325,
      -0.10229184478521347,
      -0.3876775801181793,
      0.15918204188346863,
      -0.8225939869880676,
      -0.04439030587673187,
      -0.5153824687004089,
      0.14510147273540497,
      -0.5237723588943481,
      0.5099361538887024,
      0.36119428277015686,
      -0.0818852037191391,
      0.3259600102901459,
      0.5472573637962341,
      -0.274997353553772,
      -0.10131674259901047,
      0.0887591764330864,
      1.0976934432983398,
      -0.04324610158801079,
      -0.08747085183858871,
      -0.12904633581638336,
      -1.309423804283142,
      0.289043128490448,
      0.22141620516777039,
      -0.46490558981895447,
      0.20414021611213684,
      -0.2799970507621765,
      0.20414872467517853,
      0.16481976211071014,
      -0.25766521692276,
      -0.05644918605685234,
      -0.4500683546066284,
      -0.8149447441101074,
      -0.16332726180553436,
      0.1162843257188797,
      0.8535481691360474,
      -0.07938379794359207,
      0.03942907229065895,
      0.019298473373055458,
      0.22068513929843903,
      -0.049940817058086395,
      -0.142888605594635,
      -0.10150987654924393,
      -0.27737364172935486,
      0.06713473051786423,
      0.12159755080938339,
      0.3740098178386688,
      1.1246628761291504,
      -0.2716272175312042,
      0.2715124785900116,
      0.023227736353874207,
      0.3629922866821289,
      0.9041415452957153,
      -0.3651421070098877,
      0.11292167752981186,
      -0.20961931347846985,
      -0.260396808385849,
      1.632286787033081,
      0.9755028486251831,
      -0.029201161116361618,
      0.039449479430913925,
      -0.0663950964808464,
      -0.16897620260715485,
      -0.07289865612983704,
      0.0589744970202446,
      0.23993830382823944,
      -0.7259321212768555,
      -0.11924022436141968,
      0.03252769261598587,
      -2.3660852909088135,
      -0.43711861968040466,
      0.06610965728759766,
      0.15494327247142792,
      0.04094356670975685,
      -0.44843676686286926,
      -0.10775874555110931,
      -0.4289780259132385,
      0.3088524639606476,
      -0.654354453086853,
      0.10674194991588593,
      0.9694628119468689,
      -0.8396117687225342,
      0.07267303019762039,
      -0.0069246175698935986,
      -0.1895579844713211,
      0.10465838015079498,
      0.4206966161727905,
      -0.8211946487426758,
      0.04449385404586792,
      -0.6052914261817932,
      -0.3021441698074341,
      0.27126848697662354,
      -0.059581950306892395,
      -0.782568633556366,
      -0.16167283058166504,
      -0.18615688383579254,
      -0.0575551763176918,
      0.3044804334640503,
      0.06481949985027313,
      -0.03968578204512596,
      -0.0028389182407408953,
      0.3581438362598419,
      -0.17359137535095215,
      -0.047452036291360855,
      0.26651981472969055,
      0.06729055941104889,
      0.9099185466766357,
      0.19309329986572266,
      -0.5906820893287659,
      -0.026717308908700943,
      -0.677188515663147,
      0.25287336111068726,
      -0.03304559364914894,
      -0.23524321615695953,
      -0.4574740529060364,
      -0.29558444023132324,
      -0.1236424371600151,
      -0.07408701628446579,
      -0.057887203991413116,
      -0.38953155279159546,
      0.30499082803726196,
      -0.03385280817747116,
      0.14556285738945007,
      -0.07548344135284424,
      -0.02274278737604618,
      0.07327213138341904,
      -0.7980411052703857,
      -0.013620713725686073,
      -0.00038846011739224195,
      0.24268001317977905,
      -0.14937596023082733,
      0.23412886261940002,
      -0.16850490868091583,
      -0.3102940618991852,
      0.21110542118549347,
      -0.04542751982808113,
      0.02635709010064602,
      -2.749518632888794,
      0.05337780341506004,
      -0.0379101000726223,
      -0.04420563206076622,
      0.22943715751171112,
      -0.17668871581554413,
      -0.32853999733924866,
      0.20500236749649048,
      0.06641653925180435,
      -0.11313993483781815,
      0.03561164811253548,
      -0.6866340637207031,
      0.1736520528793335,
      0.0321701318025589,
      -0.16271838545799255,
      0.35672178864479065,
      -0.3282698094844818,
      -0.031164774671196938,
      0.35663512349128723,
      0.12604407966136932,
      0.23447878658771515,
      0.1175771951675415,
      -0.02983544021844864,
      -0.12286516278982162,
      -0.05286472663283348,
      0.43739476799964905,
      0.018668582662940025,
      -0.0810970813035965,
      -0.04196498543024063,
      0.07159847021102905,
      0.13781790435314178,
      0.4575793445110321,
      -0.483748197555542,
      0.12206961214542389,
      1.4290043115615845,
      -0.030413897708058357,
      0.3338746130466461,
      1.1973037719726562,
      0.5815224647521973,
      0.19848516583442688,
      0.2778545022010803,
      -0.0890427753329277,
      0.1371542066335678,
      0.625827968120575,
      0.01722009852528572,
      0.1319441795349121,
      -0.03343509882688522,
      0.33125483989715576,
      -0.17589811980724335,
      -0.10487036406993866,
      0.14921975135803223,
      -0.01474629808217287,
      -0.4850751757621765,
      0.10405205935239792,
      0.07891003042459488,
      0.22615724802017212,
      -0.06341281533241272,
      -0.2214379459619522,
      -0.20986835658550262,
      0.3580724895000458,
      0.7676242589950562,
      0.1826581507921219,
      0.06340667605400085,
      0.08073046058416367,
      -0.05446963757276535,
      0.18201278150081635,
      0.10139252245426178,
      0.17565052211284637,
      -0.07139115035533905,
      -0.2711188495159149,
      -0.773489773273468,
      0.3079179525375366,
      -0.01510519441217184,
      0.34750860929489136,
      0.005209363531321287,
      -0.019570324569940567,
      0.06775195151567459,
      0.08224282413721085,
      0.0777876153588295,
      -0.32892924547195435,
      0.16840451955795288,
      0.2516106963157654,
      0.0866260677576065,
      0.01754278689622879,
      -0.08886716514825821,
      0.3893022835254669,
      0.3270021677017212,
      -0.34555500745773315,
      0.07910475134849548,
      -0.005317341070622206,
      -0.05904832482337952,
      -0.06840360164642334,
      2.132866382598877,
      0.16895024478435516,
      -0.163190558552742,
      0.28696852922439575,
      -0.06656251102685928,
      0.27096688747406006,
      0.20122382044792175,
      -0.2972588539123535,
      0.08598709106445312,
      -0.24163773655891418,
      -0.6884557604789734,
      0.0025511905550956726,
      0.21617074310779572,
      -0.015698252245783806,
      -0.29695385694503784,
      -0.8212034702301025,
      0.05205181986093521,
      -0.2886258065700531,
      -0.13549445569515228,
      0.181158646941185,
      -0.27038297057151794,
      -0.6694468259811401,
      0.0039192065596580505,
      -0.7221413850784302,
      0.0745091661810875,
      0.6462501287460327,
      0.09356598556041718,
      -0.5585507154464722,
      0.29267826676368713,
      0.1316840499639511,
      -0.5725253224372864,
      -0.467370867729187,
      0.22251619398593903,
      -0.4403163492679596,
      -0.13272376358509064,
      0.5160945653915405,
      0.3618311882019043,
      0.03861656039953232,
      -0.07538345456123352,
      -0.25412312150001526,
      -0.5412267446517944,
      0.05998364835977554,
      -0.13423220813274384,
      0.05420994758605957,
      0.5702968835830688,
      -0.11801620572805405,
      -0.007096933666616678,
      -0.568342387676239,
      0.6737648248672485,
      0.5673353672027588,
      0.22825105488300323,
      -0.6044469475746155,
      0.16921119391918182,
      -0.3047073185443878,
      0.020420167595148087,
      0.10279712826013565,
      -0.16121329367160797,
      0.10295386612415314,
      0.3657996654510498,
      0.5640594363212585,
      0.267170786857605,
      0.31181463599205017,
      0.6276316046714783,
      -0.01075398176908493,
      -0.43360430002212524,
      0.0057546645402908325,
      0.3009452521800995,
      0.4312751591205597,
      0.031790126115083694,
      0.08731886744499207,
      2.984732151031494,
      0.09461023658514023,
      0.6834527850151062,
      0.5868320465087891,
      0.016752509400248528,
      -0.266277551651001,
      -0.10723625868558884,
      0.07051021605730057,
      -0.5931739807128906,
      -1.5713750123977661,
      -0.0020523392595350742,
      -0.015803175047039986,
      -0.8377242088317871,
      0.10086514800786972,
      0.7102319598197937,
      0.2931438386440277,
      0.003051835112273693,
      0.020366720855236053,
      -0.05015994608402252,
      -0.03758595511317253,
      0.06169537454843521,
      -0.15743406116962433,
      -0.11418519914150238,
      0.46522364020347595,
      0.01031557098031044,
      -0.3042466640472412,
      -9.828866004943848,
      -0.009350704960525036,
      -0.03145946189761162,
      -0.09525555372238159,
      0.12837934494018555,
      -0.7372546792030334,
      -0.00369839696213603,
      -0.6108666658401489,
      0.0795506089925766,
      0.3392140567302704,
      -0.24635185301303864,
      0.06588335335254669,
      -0.1770903319120407,
      0.25495266914367676,
      0.04494207352399826,
      0.02725135162472725,
      0.0076745860278606415,
      0.06087697669863701,
      0.2333672195672989,
      0.01989176869392395,
      -0.1104525700211525,
      -0.2294742614030838,
      -0.2612168788909912,
      -0.17897963523864746,
      0.37563854455947876,
      0.9554024934768677,
      0.11531341820955276,
      0.2955688238143921,
      0.1448204070329666,
      0.10912608355283737,
      -0.02455035410821438,
      0.009058591909706593,
      -2.092865467071533,
      0.37445732951164246,
      0.197557270526886,
      -0.16296283900737762,
      -0.003989689517766237,
      -0.13988247513771057,
      -0.04571367800235748,
      0.13235461711883545,
      0.07123742252588272,
      0.38234633207321167,
      -0.2030208706855774,
      0.05806531757116318,
      -0.08090618252754211,
      -0.1006338819861412,
      -0.12491270154714584,
      0.03698522970080376,
      -0.021853633224964142,
      0.2658984065055847,
      -0.106896311044693,
      -0.12016231566667557,
      0.3013431131839752,
      -0.04314913973212242,
      0.00915229320526123,
      -0.6076984405517578,
      0.08444663137197495,
      0.9206451773643494,
      -0.9222392439842224,
      -0.23019644618034363,
      0.08791828155517578,
      0.6980573534965515,
      0.12710964679718018,
      0.03352285921573639,
      -0.005403727293014526,
      0.731402575969696,
      0.04530384764075279,
      -0.25944364070892334,
      -0.8356131315231323,
      0.00523045938462019,
      -0.0064787790179252625,
      0.1565353125333786,
      0.880263090133667,
      -0.3726741075515747,
      -0.43236809968948364,
      0.4822770357131958,
      -0.04625961184501648,
      -3.425962209701538,
      0.0013903960352763534,
      -0.027950197458267212,
      0.20912684500217438,
      -0.5585635900497437,
      -0.25769707560539246,
      0.27329519391059875,
      -0.2681545913219452,
      -0.15033361315727234,
      -0.8082164525985718,
      -0.004085787571966648,
      -0.34779858589172363,
      -0.08271076530218124,
      0.05076027661561966,
      0.6274904012680054,
      -0.05458308383822441,
      0.22730804979801178,
      0.05128007009625435,
      0.029603607952594757,
      -0.13411085307598114,
      0.013470657169818878,
      0.09487088024616241,
      0.1377173662185669,
      -0.17098413407802582,
      0.07853664457798004,
      2.6076998710632324,
      -0.2804660499095917,
      -0.1604907363653183,
      -0.29530683159828186,
      -2.1384634971618652,
      -0.1728702038526535,
      0.5578135251998901,
      0.08084854483604431,
      -2.1450939178466797,
      -0.9820430874824524,
      0.8223117589950562,
      0.43172967433929443,
      -0.2136114239692688,
      0.2750582993030548,
      -0.8218635320663452,
      0.7404979467391968,
      0.17257872223854065,
      -0.08724600821733475,
      -0.26067373156547546,
      0.23086683452129364,
      -0.08182520419359207,
      -0.05721618980169296,
      -0.10129242390394211,
      -0.20048031210899353,
      -0.6958124041557312,
      -0.09410960972309113,
      0.4998833239078522,
      -1.3800386190414429,
      0.0027920673601329327,
      0.37943634390830994,
      -0.004661233630031347,
      -0.09931612014770508,
      0.46467870473861694,
      0.18692365288734436,
      -0.6559051275253296,
      -0.217427060008049,
      -0.22113655507564545,
      1.4206774234771729,
      0.2300170212984085,
      0.02299424447119236,
      -0.031324584037065506,
      -0.30863797664642334,
      1.3793717622756958,
      -0.6264963746070862,
      -1.5519466400146484,
      0.07218912243843079,
      -0.1399255394935608,
      0.22116899490356445,
      -0.24847568571567535,
      -0.03846686705946922,
      0.01883861795067787,
      0.4195808172225952,
      -0.07346586138010025,
      -0.23750050365924835,
      0.06440688669681549,
      0.0879926010966301,
      0.028583824634552002,
      -0.07770895957946777,
      4.067515850067139,
      -0.42898890376091003,
      -0.6124475598335266,
      0.427877813577652,
      0.1357705444097519,
      0.018341034650802612,
      0.6554378867149353,
      -0.23759673535823822,
      -0.04206737130880356,
      -0.056679025292396545,
      -0.3027026653289795,
      -0.08247027546167374,
      -4.5341081619262695,
      0.07923175394535065,
      -0.1488545536994934,
      -0.5323678255081177,
      0.02252441644668579,
      -0.2138850837945938,
      -0.14650018513202667,
      -1.22001314163208,
      -0.2682267725467682,
      -0.06571037322282791,
      -0.06475038826465607,
      1.339626669883728,
      0.05702950805425644,
      -0.04216739162802696,
      0.12845054268836975,
      0.4776540994644165,
      -0.6337934732437134,
      0.1612062007188797,
      -0.25757235288619995,
      -1.1748722791671753,
      0.0073432582430541515,
      -2.6262848377227783,
      -0.13905899226665497,
      -0.20680472254753113,
      -1.4227294921875,
      0.9173111319541931,
      -0.0634075403213501,
      0.26373350620269775,
      -0.48965513706207275,
      0.21517325937747955,
      0.14007477462291718,
      -0.08866220712661743,
      0.46982356905937195,
      0.19821272790431976,
      0.2718663215637207,
      -5.696719646453857,
      0.2638295292854309,
      -0.05760883912444115,
      0.008898774161934853,
      0.25615063309669495,
      0.012616678141057491,
      0.08984144777059555,
      0.0356326699256897,
      -0.029520969837903976,
      -0.8643770813941956,
      0.23673725128173828,
      -0.11202486604452133,
      -0.21983587741851807,
      -0.26747244596481323,
      0.5399274826049805,
      0.23349131643772125,
      0.01616610586643219,
      -0.14271818101406097,
      -0.02460232377052307,
      -0.2478279024362564,
      0.3351975083351135,
      0.030730579048395157,
      0.21663932502269745,
      -0.06120132654905319,
      -0.8629580736160278,
      0.18276380002498627,
      0.5549778938293457,
      -0.20927515625953674,
      0.18317672610282898,
      -0.12971359491348267,
      -2.6355555057525635,
      -0.4461721181869507,
      -0.34349268674850464,
      0.5610314607620239,
      -0.11478455364704132,
      -0.28682711720466614,
      -0.0013021579943597317,
      1.5049868822097778,
      -3.4052391052246094,
      -1.7867392301559448,
      -0.03276299312710762,
      0.17961212992668152,
      0.28364503383636475,
      -0.07841997593641281,
      0.196005716919899,
      -0.05095241963863373,
      0.3106103539466858,
      0.15960106253623962,
      -0.12399652600288391,
      -0.07033570110797882,
      0.007233186159282923,
      0.05241287499666214,
      0.027196843177080154,
      0.17546473443508148,
      -0.9259795546531677,
      0.5011655688285828,
      -1.296038031578064,
      -0.17788495123386383,
      -0.20392325520515442,
      -0.5046943426132202,
      -0.6751290559768677,
      0.10793621838092804,
      -0.1133885458111763,
      -0.012844035401940346,
      0.20983751118183136,
      0.1802501082420349,
      0.1446230262517929,
      0.3893263638019562,
      -0.006089895498007536,
      -1.6358067989349365,
      -0.5763280391693115,
      -0.13444934785366058,
      0.18270614743232727,
      0.12399398535490036,
      -0.4936508536338806,
      -0.2779335081577301,
      0.2484046220779419,
      -1.0062978267669678,
      0.18669737875461578,
      -0.0075602419674396515,
      -0.08493998646736145,
      0.02031135745346546,
      0.11938253045082092,
      -0.12620426714420319,
      -0.5357626676559448,
      0.209480881690979,
      0.07454567402601242,
      -0.6085118651390076,
      0.44804665446281433,
      0.04282765835523605,
      0.11414642632007599,
      -0.7451399564743042,
      -0.005460195243358612,
      -0.07494809478521347,
      0.11185672134160995,
      -0.48099297285079956,
      0.49941641092300415,
      -0.08586227148771286,
      -0.18137580156326294,
      -0.12290031462907791,
      0.27625003457069397,
      0.13515563309192657,
      -0.2921690344810486,
      0.08197183161973953,
      -0.11882375180721283,
      -0.013299986720085144,
      2.132256031036377,
      -0.018134798854589462,
      1.522660732269287,
      0.3562639653682709,
      0.6389899253845215,
      -0.05096520483493805,
      -0.045107707381248474,
      0.4902820885181427,
      -0.9191943407058716,
      -0.34545737504959106,
      0.22364388406276703,
      0.9630199074745178,
      -0.6146599650382996,
      0.07694865018129349,
      0.22733207046985626,
      -0.6981797814369202,
      0.13713358342647552,
      -0.22082816064357758,
      0.13172321021556854,
      0.31535598635673523,
      -0.8048908710479736,
      0.49393540620803833,
      -0.2967498302459717,
      0.16844400763511658,
      0.07081019133329391,
      -0.04437769204378128,
      -0.0007348224171437323,
      0.029911411926150322,
      -0.1111985445022583,
