{
  "format": "ursim-robust-net",
  "version": "1.0",
  "model_name": "eval_128_lr9e-03",
  "ruleset": "Burglers",
  "input_size": 14,
  "num_layers": 2,
  "layer_sizes": [
    128,
    1
  ],
  "activations": [
    "relu",
    "sigmoid"
  ],
  "finish_position": 24,
  "game_threshold": 25,
  "pieces_per_player": 7,
  "epochs": 12,
  "learning_rate": 0.00862022042601804,
  "weights": [
    [
      0.9450572729110718,
      0.5010641813278198,
      -5.229163646697998,
      -0.5773407816886902,
      4.668783187866211,
      2.3940913677215576,
      0.6562213897705078,
      0.2686091363430023,
      0.23702311515808105,
      -0.29054945707321167,
      0.42647480964660645,
      -0.14683616161346436,
      0.0722498968243599,
      -0.2708788812160492,
      0.02029818296432495,
      -0.05190558731555939,
      -0.22670969367027283,
      -0.1242179125547409,
      0.2058783769607544,
      -0.24308274686336517,
      0.09535691887140274,
      -0.010416686534881592,
      -0.23600462079048157,
      -0.17644354701042175,
      -0.1721729040145874,
      -0.04629374295473099,
      -0.0975421816110611,
      -0.0897647887468338,
      -5.1775593757629395,
      -2.996945858001709,
      -5.72003698348999,
      -1.2267760038375854,
      0.9481109380722046,
      0.7868634462356567,
      2.9553191661834717,
      10.054886817932129,
      5.395685195922852,
      -2.6445794105529785,
      -1.649357557296753,
      -0.7568680644035339,
      -2.1105782985687256,
      -2.4883511066436768,
      0.10649987310171127,
      -0.24344374239444733,
      0.1773976981639862,
      -0.014659463427960873,
      -0.05316068232059479,
      -0.0154868233948946,
      -0.24216577410697937,
      -0.2538398206233978,
      -0.24083353579044342,
      0.19868730008602142,
      -0.1199449971318245,
      -0.2740991413593292,
      -0.005852781236171722,
      -0.005220869556069374,
      0.0735529288649559,
      -0.22507621347904205,
      -0.5079550743103027,
      -0.04446365684270859,
      -0.07368332892656326,
      -0.44162213802337646,
      -0.007218324579298496,
      -0.03383832797408104,
      -0.05124615505337715,
      -0.19800642132759094,
      -0.18225330114364624,
      -0.20578275620937347,
      0.20460733771324158,
      -0.3519584536552429,
      -0.18702435493469238,
      -0.1279628574848175,
      0.22066763043403625,
      0.10186021029949188,
      -0.046709805727005005,
      -0.1798691302537918,
      -0.18440112471580505,
      0.14283013343811035,
      -0.13060979545116425,
      0.22144559025764465,
      0.2114819884300232,
      -0.2803354561328888,
      -0.2458367943763733,
      0.15804815292358398,
      -0.18923397362232208,
      0.13503074645996094,
      -0.010092675685882568,
      0.24113836884498596,
      -0.2335861772298813,
      -0.2192535698413849,
      -0.20172925293445587,
      -0.16075028479099274,
      -0.23426222801208496,
      -0.16302737593650818,
      -0.07909603416919708,
      -0.003836333751678467,
      0.09011086821556091,
      -0.08546294271945953,
      0.019725650548934937,
      0.030951589345932007,
      0.19689127802848816,
      -0.14876008033752441,
      -0.16140076518058777,
      -0.15324512124061584,
      0.20103511214256287,
      -0.21523264050483704,
      -0.04787611961364746,
      0.097953200340271,
      -0.22841529548168182,
      -0.1061154156923294,
      0.09767428040504456,
      -0.19474661350250244,
      0.3556370139122009,
      0.078776516020298,
      -0.46972352266311646,
      -1.6090164184570312,
      -0.26566681265830994,
      -0.5226275324821472,
      -0.5287228226661682,
      -0.23698663711547852,
      0.14636345207691193,
      -0.13796672224998474,
      -0.38419634103775024,
      -0.015880346298217773,
      0.12477768957614899,
      0.2564983069896698,
      -2.3047516345977783,
      4.346185207366943,
      0.0214083231985569,
      0.05661729350686073,
      0.7838387489318848,
      3.534193515777588,
      4.179186820983887,
      -27.290225982666016,
      4.141432762145996,
      1.6899185180664062,
      -0.22408325970172882,
      0.29568949341773987,
      -2.0159687995910645,
      -0.05873120203614235,
      0.1923009753227234,
      0.11232355237007141,
      0.07625147700309753,
      -0.1906002163887024,
      -0.0006896555423736572,
      -0.0586768239736557,
      -0.2652908265590668,
      -0.030816346406936646,
      0.09792011976242065,
      -0.21343201398849487,
      -0.18096575140953064,
      -0.1622568815946579,
      0.1450645625591278,
      -0.2156912088394165,
      0.32049331068992615,
      0.490469753742218,
      -0.11364258080720901,
      -0.007438806351274252,
      -0.21900062263011932,
      -0.06571290642023087,
      -0.12025733292102814,
      -0.19181090593338013,
      0.13111528754234314,
      -0.001280169002711773,
      -0.1596004068851471,
      -0.38631173968315125,
      -0.5244359970092773,
      -0.6297760605812073,
      0.04077532887458801,
      0.019292419776320457,
      -0.21226230263710022,
      -0.14652974903583527,
      -0.06885397434234619,
      -0.13179589807987213,
      -0.04482731223106384,
      -0.0700458213686943,
      0.06791625171899796,
      -0.24609550833702087,
      -0.2783658504486084,
      0.08817890286445618,
      0.18646857142448425,
      -0.03327236697077751,
      -0.3713723421096802,
      0.13784174621105194,
      -0.0012486756313592196,
      0.40986379981040955,
      -0.3695690631866455,
      1.4039276838302612,
      -0.2987344264984131,
      -0.05940340831875801,
      -1.6936428546905518,
      -10.085912704467773,
      -0.3751440942287445,
      -0.6860271096229553,
      -0.5339686274528503,
      -0.7521096467971802,
      -0.24111352860927582,
      -0.2440217137336731,
      -0.06651880592107773,
      -0.1906818300485611,
      -0.1683318316936493,
      -0.025223027914762497,
      -0.2414606511592865,
      0.033996228128671646,
      0.019214970991015434,
      0.08246167749166489,
      0.14298345148563385,
      -0.5644264221191406,
      -0.22689944505691528,
      -0.12553159892559052,
      0.059038177132606506,
      -0.03830236196517944,
      0.009191885590553284,
      -0.1900283843278885,
      -0.34147030115127563,
      -0.4661775231361389,
      -0.07770080864429474,
      -0.08911414444446564,
      -0.09403303265571594,
      0.22386103868484497,
      -0.25885412096977234,
      -0.012304693460464478,
      0.038588859140872955,
      -0.3346129059791565,
      -8.308201789855957,
      -43.78225326538086,
      4.248607635498047,
      1.4536187648773193,
      2.0555500984191895,
      -1.3246757984161377,
      -1.9209951162338257,
      -6.972746849060059,
      4.302562236785889,
      17.24283218383789,
      3.867795705795288,
      -6.384746551513672,
      -0.3708260655403137,
      -4.193229675292969,
      0.05812579393386841,
      -0.14902207255363464,
      0.2206396460533142,
      -0.5027371048927307,
      -7.556790351867676,
      -34.321407318115234,
      -0.548912525177002,
      -0.4208594262599945,
      1.3546134233474731,
      -0.4348425269126892,
      0.29315483570098877,
      0.13717994093894958,
      0.17361265420913696,
      0.12962669134140015,
      -7.056105136871338,
      0.37234190106391907,
      0.9007587432861328,
      0.49374625086784363,
      -4.269681453704834,
      3.099679708480835,
      4.549036502838135,
      -0.15413321554660797,
      -0.5793115496635437,
      -0.28394079208374023,
      -0.025814805179834366,
      0.20933803915977478,
      -0.11680271476507187,
      0.747820258140564,
      -0.822339653968811,
      -6.697768688201904,
      -35.94089889526367,
      -0.3315906822681427,
      -0.09894955903291702,
      -0.40570858120918274,
      -0.10960213094949722,
      -0.9345113635063171,
      0.5551290512084961,
      0.3419111967086792,
      0.8000267148017883,
      -0.014009522274136543,
      24.647785186767578,
      -11.228025436401367,
      0.12098457664251328,
      0.13422858715057373,
      0.024431072175502777,
      0.05193595960736275,
      -0.09366252273321152,
      -0.20661067962646484,
      -0.00979332160204649,
      -0.11677756905555725,
      0.06716541200876236,
      -0.34717145562171936,
      -0.2522733211517334,
      -0.016663827002048492,
      -0.08005192130804062,
      -0.10827241092920303,
      2.6487090587615967,
      0.06018628925085068,
      -0.47130894660949707,
      0.18755483627319336,
      0.4125021696090698,
      0.5074642896652222,
      0.5177133679389954,
      -0.5253105163574219,
      -0.20331834256649017,
      0.018656903877854347,
      -0.2621949017047882,
      -27.099864959716797,
      -19.070402145385742,
      -0.20274178683757782,
      -0.3286306858062744,
      -0.33304867148399353,
      -0.6103178262710571,
      -0.40080639719963074,
      -0.6300227642059326,
      -0.8641921877861023,
      -0.47295036911964417,
      0.132015660405159,
      -0.3335893750190735,
      -1.378306269645691,
      -0.14291617274284363,
      1.4768253564834595,
      0.32516998052597046,
      -0.9415827393531799,
      0.20595350861549377,
      -0.10283423960208893,
      -0.09264081716537476,
      0.16870632767677307,
      -0.24760223925113678,
      -0.07800741493701935,
      -0.20805056393146515,
      0.11781635880470276,
      0.15050289034843445,
      -0.15615320205688477,
      0.013987481594085693,
      -0.09731124341487885,
      -0.2572074830532074,
      -0.19528517127037048,
      0.047016046941280365,
      -0.65933758020401,
      -0.3155317008495331,
      0.5121955871582031,
      -0.5027281045913696,
      0.2814445495605469,
      -0.26158007979393005,
      -0.17970366775989532,
      0.18698319792747498,
      0.05034374073147774,
      -0.009263082407414913,
      -0.35895785689353943,
      -0.3674888610839844,
      -0.6559391021728516,
      -1.204973578453064,
      1.088057041168213,
      -0.12072421610355377,
      -0.32157760858535767,
      -0.23145826160907745,
      -0.27913254499435425,
      -0.06910693645477295,
      -2.022390127182007,
      2.9192724227905273,
      -0.9792840480804443,
      0.6130140423774719,
      3.975621223449707,
      0.7661094665527344,
      3.4719574451446533,
      -0.45084697008132935,
      -0.19737178087234497,
      0.1704469919204712,
      -0.37251904606819153,
      -0.6379438638687134,
      -0.9115092158317566,
      -1.1465520858764648,
      -0.2569856345653534,
      0.5707831382751465,
      0.8670644164085388,
      -0.43782734870910645,
      0.26542600989341736,
      0.33313024044036865,
      -0.545224666595459,
      0.30423200130462646,
      0.1081116795539856,
      -0.021898454055190086,
      -0.7674378156661987,
      -0.6327086687088013,
      -0.49964049458503723,
      -1.1402475833892822,
      -0.458709716796875,
      0.14905419945716858,
      0.323829710483551,
      0.5142127871513367,
      0.5660586953163147,
      -0.021143384277820587,
      -0.6682775616645813,
      -0.07929148524999619,
      0.072554811835289,
      -0.0006498434813693166,
      -0.007088506128638983,
      -0.8431223034858704,
      0.6640923619270325,
      0.07279159873723984,
      -0.40705910325050354,
      -0.8810617327690125,
      -0.2774222791194916,
      -0.10793304443359375,
      -0.36385706067085266,
      -0.31975823640823364,
      -0.1944475769996643,
      -1.5628702640533447,
      -0.8187912702560425,
      -1.0994176864624023,
      11.408576965332031,
      -0.6245584487915039,
      -2.986664295196533,
      -2.294872999191284,
      -0.12318462878465652,
      1.7254973649978638,
      1.2106521129608154,
      2.1928412914276123,
      -0.49539321660995483,
      -0.033829353749752045,
      -0.1253182590007782,
      -0.17563524842262268,
      -0.1272270679473877,
      -0.11344552040100098,
      -0.14891977608203888,
      -0.2822195291519165,
      -0.06487171351909637,
      -0.4013449251651764,
      0.18387199938297272,
      -0.06769190728664398,
      -0.1379726529121399,
      -0.1945127695798874,
      -0.2790050506591797,
      -0.07650982588529587,
      -0.08167877048254013,
      0.5084664225578308,
      0.15971486270427704,
      0.7443374395370483,
      0.04898665472865105,
      -0.4323529601097107,
      -0.21746879816055298,
      -0.5778926610946655,
      -0.0967884287238121,
      -0.26295700669288635,
      0.22020316123962402,
      -0.1389853060245514,
      -0.17733177542686462,
      -0.6013234257698059,
      -0.3398343324661255,
      -0.23089109361171722,
      -0.3538505434989929,
      -0.2086859941482544,
      -0.8279377818107605,
      0.5251072645187378,
      0.20792026817798615,
      -0.4792864918708801,
      0.6248432397842407,
      0.1692131608724594,
      -0.2460521012544632,
      -0.3076562285423279,
      -0.18764404952526093,
      -0.6728569269180298,
      -0.2456582635641098,
      -0.17255911231040955,
      -0.2582795023918152,
      0.16780038177967072,
      0.12938454747200012,
      -0.13345064222812653,
      0.12593303620815277,
      -0.188578262925148,
      0.18518611788749695,
      0.16365155577659607,
      0.09561425447463989,
      0.015824735164642334,
      -0.22739878296852112,
      -0.23987485468387604,
      -0.0659150630235672,
      -0.7032905220985413,
      -0.6289753317832947,
      -0.07890775799751282,
      -0.5353967547416687,
      -0.8579626083374023,
      -0.8380105495452881,
      -0.4898332357406616,
      -0.3110094666481018,
      -0.22057980298995972,
      -0.31445664167404175,
      -0.5418059825897217,
      -0.2443966269493103,
      -0.27972307801246643,
      0.3160761594772339,
      -0.23231323063373566,
      0.08631393313407898,
      -0.10263803601264954,
      -0.1472920924425125,
      -0.12412052601575851,
      0.1928921490907669,
      0.060343652963638306,
      0.11530430614948273,
      0.11935801804065704,
      0.02068030647933483,
      -0.16578370332717896,
      -0.3519844710826874,
      -0.20644928514957428,
      -0.1986401379108429,
      0.650958776473999,
      -1.1156338453292847,
      -3.0861968994140625,
      -0.44599416851997375,
      -0.25659269094467163,
      -0.8831031322479248,
      -1.3727355003356934,
      0.19301296770572662,
      0.5493144392967224,
      0.26841187477111816,
      -0.36540335416793823,
      -1.1293840408325195,
      -19.802017211914062,
      -13.482059478759766,
      0.12453098595142365,
      0.06064775213599205,
      -0.270336776971817,
      0.06484375894069672,
      0.043193381279706955,
      -0.2577335834503174,
      0.03748461976647377,
      -0.23626108467578888,
      0.29585108160972595,
      -0.07988015562295914,
      -0.22598956525325775,
      -0.14327627420425415,
      0.05803273245692253,
      -0.2015008181333542,
      -0.02317153476178646,
      0.3100031316280365,
      -0.1251990646123886,
      0.21237298846244812,
      -0.1357334703207016,
      -0.016721205785870552,
      -0.03091461956501007,
      -0.0358002744615078,
      -0.8534314632415771,
      -0.972562849521637,
      -0.33073174953460693,
      -0.03879464045166969,
      -0.43489015102386475,
      -0.32785728573799133,
      -0.20746159553527832,
      -0.16740775108337402,
      -0.04222457483410835,
      0.023220926523208618,
      0.14580513536930084,
      0.15100650489330292,
      -0.2727004885673523,
      -0.285381555557251,
      0.0005452614859677851,
      0.13093675673007965,
      -0.13116991519927979,
      -0.4642722010612488,
      -0.23261883854866028,
      -0.3930330276489258,
      -0.04091610014438629,
      -1.0168627500534058,
      -1.2629508972167969,
      -0.47355157136917114,
      -0.09351333230733871,
      -0.29600387811660767,
      -0.5824339985847473,
      -0.07296977937221527,
      0.3714640736579895,
      -0.3355116546154022,
      -0.05680932104587555,
      -0.00852490309625864,
      0.14851000905036926,
      0.1292119175195694,
      -1.6324234008789062,
      -0.05904039740562439,
      -0.064841128885746,
      -0.7565208077430725,
      -0.7485691905021667,
      -1.126549243927002,
      -1.143508791923523,
      -0.579246997833252,
      0.9586268067359924,
      0.6265365481376648,
      -0.10785696655511856,
      0.24836403131484985,
      -0.2943105101585388,
      -0.7620770335197449,
      -0.002473862376064062,
      -0.18630090355873108,
      -0.1136845275759697,
      0.07488774508237839,
      -0.0864252895116806,
      0.05560067296028137,
      0.012075205333530903,
      0.1976751685142517,
      0.07961302995681763,
      -0.18874326348304749,
      -0.3142653703689575,
      -0.16790378093719482,
      -0.05365306884050369,
      -0.2540164291858673,
      0.24904051423072815,
      -0.03569217026233673,
      0.003684788942337036,
      -0.12421314418315887,
      -0.24635635316371918,
      0.031195878982543945,
      -0.03135386109352112,
      -0.08815081417560577,
      0.04977649450302124,
      -0.2610478401184082,
      -0.03639860451221466,
      -0.20836569368839264,
      -0.1514803171157837,
      -0.07979059219360352,
      0.6471531987190247,
      -0.6134867072105408,
      -2.1893277168273926,
      -3.4950480461120605,
      -0.8918050527572632,
      4.222152233123779,
      0.6589211225509644,
      -8.504448890686035,
      -0.2520577311515808,
      1.761376976966858,
      -0.5412328839302063,
      -1.362436294555664,
      -1.936452865600586,
      -0.3742010295391083,
      0.1717763990163803,
      -0.4215185046195984,
      0.2733801007270813,
      0.10295270383358002,
      -0.1606888473033905,
      -0.06156230345368385,
      -0.05176873132586479,
      0.21264007687568665,
      -0.18971502780914307,
      -0.2526590824127197,
      -0.17638559639453888,
      -0.4482255280017853,
      -0.3645327389240265,
      -0.7024271488189697,
      -0.9305914640426636,
      0.051174212247133255,
      -0.05621496960520744,
      0.07617655396461487,
      -0.32651758193969727,
      -0.5361976623535156,
      -0.5548158288002014,
      0.18331319093704224,
      -0.0973966121673584,
      -0.24802832305431366,
      -0.6566389799118042,
      0.09262234717607498,
      -0.2115696519613266,
      0.23009683191776276,
      -0.7206358313560486,
      -2.5602784156799316,
      -0.24292150139808655,
      -0.32411250472068787,
      -0.33125945925712585,
      -0.4367828667163849,
      -0.26884326338768005,
      -0.40509331226348877,
      -0.11225575953722,
      -0.1700379103422165,
      -0.07181662321090698,
      0.6902534365653992,
      -0.2666001319885254,
      -0.8966035842895508,
      -2.52834415435791,
      -3.2025487422943115,
      0.5601162314414978,
      -0.09780007600784302,
      -0.6017271876335144,
      -2.8415420055389404,
      -5.15135383605957,
      -0.12330996990203857,
      -0.09679853916168213,
      -0.29840829968452454,
      -2.733689069747925,
      -15.512396812438965,
      -11.18442153930664,
      1.0204596519470215,
      0.25434932112693787,
      -0.42629027366638184,
      -0.12834134697914124,
      -0.4262695610523224,
      0.05824074521660805,
      0.6058002710342407,
      -0.03223831579089165,
      0.3684075176715851,
      -0.11336583644151688,
      -0.16914619505405426,
      0.10094329714775085,
      -0.1855221390724182,
      -0.3917890787124634,
      -0.394142746925354,
      0.45100924372673035,
      -1.2065842151641846,
      0.14302660524845123,
      2.028494358062744,
      1.5780366659164429,
      0.5425348281860352,
      -1.990013599395752,
      -0.2537521719932556,
      0.5873830318450928,
      -0.028589190915226936,
      -0.4285556375980377,
      -0.44338932633399963,
      -0.24503645300865173,
      -0.5862950086593628,
      -0.2892637848854065,
      -0.191552996635437,
      -0.3945077359676361,
      -0.5146870017051697,
      -0.8729615211486816,
      -0.5038309693336487,
      -1.1635947227478027,
      0.27187708020210266,
      0.0020667733624577522,
      -0.20457880198955536,
      -0.38588476181030273,
      -0.07448282092809677,
      -0.91684889793396,
      -0.11543237417936325,
      0.08585408329963684,
      -0.10642184317111969,
      0.1309398114681244,
      -0.06802570819854736,
      0.10138016939163208,
      -0.1587718427181244,
      -0.08838075399398804,
      0.07275718450546265,
      -0.0054118335247039795,
      0.05997207760810852,
      -0.20572155714035034,
      -0.20578554272651672,
      -0.18825207650661469,
      -0.2161441594362259,
      0.6415688991546631,
      -0.5069567561149597,
      0.2523297965526581,
      -0.23421189188957214,
      -0.1862560510635376,
      -0.7868167757987976,
      -1.2721840143203735,
      0.6423304080963135,
      -0.6950879096984863,
      0.6530481576919556,
      -0.35730883479118347,
      -0.0008106956956908107,
      0.9103869795799255,
      0.14412200450897217,
      0.04337405040860176,
      0.041552744805812836,
      0.251369446516037,
      -0.046671099960803986,
      0.008668932132422924,
      -0.25729095935821533,
      -0.04951515793800354,
      -0.14883828163146973,
      0.14919792115688324,
      -0.3123764097690582,
      -0.2976914644241333,
      0.13174763321876526,
      0.04098288714885712,
      0.03678686544299126,
      0.1806037276983261,
      0.22250017523765564,
      0.2497842162847519,
      0.3143269419670105,
      -0.28511467576026917,
      -0.4664081335067749,
      -0.14727136492729187,
      -0.21118324995040894,
      -0.36917415261268616,
      -0.048107605427503586,
      -0.21288442611694336,
      -0.18737022578716278,
      -0.044184599071741104,
      -0.3904980421066284,
      0.9804105758666992,
      0.82298344373703,
      0.5033843517303467,
      -0.29401129484176636,
      -0.4492228031158447,
      -1.0018786191940308,
      -1.656514286994934,
      0.3600723147392273,
      -1.0759892463684082,
      -0.7553414106369019,
      1.2405940294265747,
      0.9077296853065491,
      -0.33496981859207153,
      -0.19214627146720886,
      -2.901304006576538,
      -16.25986099243164,
      1.6220765113830566,
      1.2786117792129517,
      -1.1838932037353516,
      -2.1122829914093018,
      0.7867497801780701,
      0.12744873762130737,
      0.44739076495170593,
      -1.4166673421859741,
      -0.26082542538642883,
      -0.0877329558134079,
      0.2735525369644165,
      -0.6728082895278931,
      0.3291180729866028,
      0.013570818118751049,
      0.3996298909187317,
      0.32845649123191833,
      27.99404525756836,
      -8.372949600219727,
      -9.076190948486328,
      0.46194204688072205,
      0.0658082515001297,
      -0.2428167164325714,
      -0.35750940442085266,
      -0.09117793291807175,
      -0.24704612791538239,
      -0.16781868040561676,
      -0.37653109431266785,
      -0.06930053979158401,
      -0.019878389313817024,
      -0.08712665736675262,
      -0.009935962036252022,
      0.005180908367037773,
      -0.1278270035982132,
      -0.0027334769256412983,
      -0.08997853845357895,
      0.025473231449723244,
      0.08110623061656952,
      0.26969778537750244,
      0.015983356162905693,
      -0.29686325788497925,
      -0.14762046933174133,
      0.008932693861424923,
      0.10997040569782257,
      -0.023533936589956284,
      0.12671808898448944,
      -0.04176679998636246,
      -0.041430626064538956,
      -0.20550604164600372,
      -0.19142015278339386,
      -0.19376172125339508,
      -0.20580285787582397,
      -0.2919662296772003,
      0.04191475361585617,
      -0.3189285695552826,
      -0.09358283877372742,
      -0.24348315596580505,
      -0.2109408974647522,
      0.2660665214061737,
      0.026237059384584427,
      -0.24021340906620026,
      0.014006697572767735,
      0.22225280106067657,
      -0.10534748435020447,
      -0.23991930484771729,
      0.08480466157197952,
      0.08094332367181778,
      -0.04949798807501793,
      -0.012968857772648335,
      -0.06456567347049713,
      -0.0344950407743454,
      0.1683003008365631,
      -0.17715516686439514,
      0.12829861044883728,
      -0.06772768497467041,
      -0.20618656277656555,
      0.013300329446792603,
      -0.06662532687187195,
      -0.19247610867023468,
      0.14606544375419617,
      -0.1457916498184204,
      0.16520628333091736,
      -0.1635136604309082,
      -0.20611055195331573,
      -0.0851018950343132,
      -0.2505362629890442,
      -0.09358951449394226,
      -0.13056689500808716,
      -0.091367207467556,
      -0.11748428642749786,
      -0.3995912969112396,
      -0.01790206879377365,
      -0.10815737396478653,
      -0.13476882874965668,
      -0.21956364810466766,
      0.47339069843292236,
      -0.2586829364299774,
      -0.11963485181331635,
      1.5874221324920654,
      1.1704105138778687,
      2.5879507064819336,
      -0.1276376098394394,
      -0.4037753939628601,
      -0.10598815977573395,
      -0.604699432849884,
      -1.4579075574874878,
      -0.2909187376499176,
      8.964740753173828,
      -0.295514851808548,
      -1.5936294794082642,
      -2.5966570377349854,
      0.04656288027763367,
      -0.10076280683279037,
      -0.2057424932718277,
      -0.15266545116901398,
      0.17101094126701355,
      0.25029435753822327,
      -0.40494316816329956,
      -0.42682620882987976,
      0.1545349806547165,
      0.15834933519363403,
      -0.18098370730876923,
      -0.377706378698349,
      -0.39083361625671387,
      -0.19479721784591675,
      -1.7546467781066895,
      -0.5543649196624756,
      -0.28738585114479065,
      0.28587353229522705,
      -0.5392453074455261,
      -0.8728067278862,
      15.297306060791016,
      2.1478428840637207,
      -11.908865928649902,
      0.46771228313446045,
      -0.06927000731229782,
      -0.07198701053857803,
      -0.1144605427980423,
      -0.19204817712306976,
      -0.16541510820388794,
      0.015293889679014683,
      0.20266231894493103,
      -0.14345432817935944,
      -0.22997422516345978,
      -0.13229331374168396,
      0.11620637774467468,
      -0.24131914973258972,
      0.09666982293128967,
      0.13553059101104736,
      0.03807086870074272,
      -0.27851569652557373,
      0.03958524391055107,
      -0.047041572630405426,
      -0.16739918291568756,
      -0.18593621253967285,
      0.16837862133979797,
      0.35931047797203064,
      -0.06847567111253738,
      -0.09682762622833252,
      -0.2302445024251938,
      -0.12562985718250275,
      -0.0670621395111084,
      -0.256401389837265,
      -0.21994979679584503,
      -0.7404381036758423,
      -0.516979992389679,
      -0.5481013655662537,
      -0.06885997205972672,
      -0.15357361733913422,
      -0.47195643186569214,
      -0.17004331946372986,
      -0.3016407787799835,
      -0.40333670377731323,
      -0.4003596603870392,
      -0.30587857961654663,
      -0.10577588528394699,
      -0.28035107254981995,
      -0.4733433127403259,
      -0.7481104135513306,
      -0.3528132140636444,
      -0.6886193752288818,
      -0.5049428939819336,
      0.42377573251724243,
      0.3467124104499817,
      0.5543292760848999,
      0.29639342427253723,
      -0.06372591853141785,
      19.84043312072754,
      -0.43923836946487427,
      -8.2071533203125,
      -18.707687377929688,
      -0.19520801305770874,
      0.015719322487711906,
      -0.01638231799006462,
      -0.1569221019744873,
      -0.07945461571216583,
      -0.12195573002099991,
      -0.20754805207252502,
      -0.19800885021686554,
      -0.3685165047645569,
      -0.6012086868286133,
      -0.21876202523708344,
      -0.19862812757492065,
      0.2659570574760437,
      0.4086351990699768,
      -0.12343840301036835,
      -0.15295502543449402,
      -0.017766375094652176,
      0.11051960289478302,
      -0.18676410615444183,
      -0.8152410387992859,
      -0.4268874228000641,
      0.44867944717407227,
      -0.556387186050415,
      -0.9012495279312134,
      -1.0728235244750977,
      0.1757478266954422,
      0.07168089598417282,
      -1.4854726791381836,
      -0.4345981180667877,
      0.39781349897384644,
      0.9920703768730164,
      -0.23752079904079437,
      -5.400832653045654,
      -0.012444972060620785,
      0.1201443299651146,
      -0.00586450332775712,
      -0.28833237290382385,
      -0.07409155368804932,
      -0.15207405388355255,
      1.4006719589233398,
      -1.9335123300552368,
      0.08430258929729462,
      0.13474087417125702,
      -0.17713233828544617,
      0.13061438500881195,
      19.66181755065918,
      0.26331284642219543,
      -0.17242449522018433,
      0.1367233693599701,
      -0.23418594896793365,
      0.04358813166618347,
      -0.1828707605600357,
      -0.0658063292503357,
      0.14999926090240479,
      0.1568748950958252,
      -0.07771895825862885,
      -0.25130555033683777,
      0.06952133774757385,
      -0.1958862841129303,
      -0.1317656934261322,
      -1.024554967880249,
      0.1652207374572754,
      0.196921244263649,
      -0.6426343321800232,
      -0.49890732765197754,
      -0.7214552760124207,
      -0.5545912981033325,
      -0.21863582730293274,
      0.013601384125649929,
      0.6587105393409729,
      0.07910601794719696,
      0.1885908842086792,
      -0.6343773603439331,
      -0.5097764134407043,
      0.23973700404167175,
      -0.44459807872772217,
      -15.859030723571777,
      -21.395553588867188,
      -0.08452513068914413,
      0.09292861819267273,
      0.44455716013908386,
      -0.5106826424598694,
      0.11846227943897247,
      0.07855477929115295,
      0.49020281434059143,
      0.02009844407439232,
      0.21637560427188873,
      0.30339717864990234,
      -0.07653102278709412,
      0.11130771040916443,
      -0.08258373290300369,
      -0.08655829727649689,
      0.14678150415420532,
      -0.1293255090713501,
      -0.3248691260814667,
      0.17739833891391754,
      0.17331498861312866,
      -0.1382133960723877,
      -0.07318852096796036,
      0.06894763559103012,
      -0.337761253118515,
      0.12442430108785629,
      -0.16109545528888702,
      -0.05617721378803253,
      -3.600120544433594e-05,
      0.01969960331916809,
      -0.18078526854515076,
      -0.16970647871494293,
      -0.26461508870124817,
      0.001180492341518402,
      -0.31121018528938293,
      0.13448219001293182,
      -0.16997088491916656,
      -0.07896566390991211,
      0.06606098264455795,
      -0.0841435119509697,
      -0.44880566000938416,
      -7.494473457336426,
      -18.572595596313477,
      0.554630696773529,
      1.3634684085845947,
      0.26990702748298645,
      -1.1230363845825195,
      -0.4132291376590729,
      -0.21874602138996124,
      0.6379266977310181,
      0.23520447313785553,
      -0.11519944667816162,
      -0.6303306221961975,
      2.6127564907073975,
      -0.49684038758277893,
      -2.7788889408111572,
      -21.188867568969727,
      -3.834012508392334,
      -2.021650791168213,
      -1.3442326784133911,
      -1.015669584274292,
      -2.201397657394409,
      -3.5418508052825928,
      -13.701597213745117,
      -0.31031882762908936,
      0.13694947957992554,
      1.9348167181015015,
      3.515352725982666,
      0.01244497299194336,
      -0.2070843130350113,
      -0.04744671285152435,
      0.11820575594902039,
      -0.16957780718803406,
      0.20328393578529358,
      -0.17977476119995117,
      0.20754894614219666,
      -0.08095325529575348,
      -0.18186843395233154,
      0.05544957518577576,
      -0.23625943064689636,
      -0.18199120461940765,
      -0.19707134366035461,
      -0.3289147615432739,
      -0.0947851687669754,
      0.2642773389816284,
      -0.042739782482385635,
      0.07532888650894165,
      -0.0501953661441803,
      -0.3056565821170807,
      0.21664386987686157,
      0.006012201774865389,
      -0.3062888979911804,
      -0.2801404595375061,
      -0.49300655722618103,
      -0.4047013819217682,
      -0.5619227290153503,
      -1.2187756299972534,
      -1.0802724361419678,
      -1.2729157209396362,
      -0.6017292141914368,
      -0.10917138308286667,
      -0.3802552819252014,
      -0.13155202567577362,
      -0.16385075449943542,
      -0.45894354581832886,
      -0.31608912348747253,
      -0.2159164547920227,
      0.008115141652524471,
      1.6694008111953735,
      -0.6454923152923584,
      -13.153185844421387,
      0.15458935499191284,
      0.5504828095436096,
      -0.519865870475769,
      -0.6391068696975708,
      -0.6862025856971741,
      -0.2559565305709839,
      -0.6519348621368408,
      -0.30232322216033936,
      1.4823001623153687,
      -1.181975245475769,
      15.738567352294922,
      -5.165624618530273,
      -5.599081993103027,
      0.12280910462141037,
      0.15145277976989746,
      -0.036767348647117615,
      0.11747957020998001,
      -0.33069324493408203,
      0.1584007292985916,
      -0.09342718869447708,
      -0.25299546122550964,
      -0.13907092809677124,
      0.012071900069713593,
      -0.22457370162010193,
      -0.11076346784830093,
      0.003416196908801794,
      -0.231283038854599,
      0.08491333574056625,
      -0.2988513112068176,
      0.11893367022275925,
      -0.25560975074768066,
      -0.09346554428339005,
      -0.4258606731891632,
      -0.06925240904092789,
      0.023453116416931152,
      0.13077111542224884,
      0.1756005585193634,
      -0.0049729966558516026,
      -0.41374048590660095,
      -0.49671074748039246,
      -0.5090861320495605,
      -1.045501470565796,
      1.2193639278411865,
      0.10182734578847885,
      0.19544702768325806,
      -0.38398614525794983,
      -0.7736369371414185,
      -0.5876642465591431,
      1.820984125137329,
      0.5919292569160461,
      -0.16845020651817322,
      -4.9305315017700195,
      0.14285936951637268,
      4.66569185256958,
      -0.0045343320816755295,
      -0.7890994548797607,
      -11.058714866638184,
      -2.2262468338012695,
      -0.139066681265831,
      -1.0578371286392212,
      -3.629507541656494,
      7.688738822937012,
      -11.350930213928223,
      2.162885904312134,
      -0.052270710468292236,
      -0.8309919238090515,
      1.1919512748718262,
      6.531884670257568,
      -1.4073187112808228,
      -0.048998523503541946,
      -0.11597346514463425,
      -0.3473201394081116,
      -16.28650665283203,
      -21.613718032836914,
      -0.07075320184230804,
      -0.11829118430614471,
      0.5669422149658203,
      0.24320924282073975,
      -0.04584289714694023,
      0.2895761728286743,
      0.09854482859373093,
      0.42704901099205017,
      0.31187179684638977,
      -0.1683701127767563,
      -0.2528858184814453,
      -0.10817167162895203,
      0.5345827341079712,
      0.08163376152515411,
      -0.3171391785144806,
      -0.5967795252799988,
      0.11103572696447372,
      -0.05990417301654816,
      0.040753647685050964,
      -0.023371707648038864,
      -0.03558550775051117,
      0.0016283305594697595,
      -0.38039630651474,
      0.12077519297599792,
      0.22142770886421204,
      0.05678194761276245,
      0.013099074363708496,
      -0.20190180838108063,
      -0.19614456593990326,
      -0.3536359369754791,
      -0.17225733399391174,
      0.1050921306014061,
      0.07542215287685394,
      0.006789916194975376,
      0.031037261709570885,
      -0.02742612548172474,
      -0.08965868502855301,
      -0.6977105140686035,
      -0.056119464337825775,
      0.6802361607551575,
      -4.208733081817627,
      -0.24328500032424927,
      0.47550955414772034,
      3.5248169898986816,
      0.7921628355979919,
      -0.45071351528167725,
      -0.13346058130264282,
      0.08698346465826035,
      0.2754506766796112,
      -0.34721553325653076,
      -0.6518821120262146,
      7.406661510467529,
      -1.9083048105239868,
      -1.6324727535247803,
      -0.42340677976608276,
      -0.8009450435638428,
      -2.6710548400878906,
      -1.5175855159759521,
      -3.799575090408325,
      -1.3124823570251465,
      2.959155797958374,
      1.717350959777832,
      -6.849790096282959,
      1.8913500308990479,
      0.6308825612068176,
      -1.1484289169311523,
      -5.661291599273682,
      -0.08782348036766052,
      0.362921804189682,
      0.7104564905166626,
      3.1593778133392334,
      3.2470016479492188,
      1.2079954147338867,
      -0.4343225955963135,
      0.3000369668006897,
      0.25740280747413635,
      -0.38556748628616333,
      -0.4904368817806244,
      -0.366129994392395,
      -0.1523451954126358,
      -0.3701661229133606,
      0.19589155912399292,
      0.2579860985279083,
      -0.16681505739688873,
      -0.49771755933761597,
      0.08485956490039825,
      -0.39920005202293396,
      -1.4221465587615967,
      -0.23229199647903442,
      -0.1239241436123848,
      -0.2662155330181122,
      -0.29321712255477905,
      -0.6232147812843323,
      -0.29581040143966675,
      -0.6240367293357849,
      -0.7459045648574829,
      -0.2182917594909668,
      0.0008988184272311628,
      0.4449230432510376,
      0.1703493595123291,
      -0.7505055665969849,
      0.20021599531173706,
      -0.13556411862373352,
      0.04077122360467911,
      -0.42228662967681885,
      -0.6899828314781189,
      -0.5698646903038025,
      -0.027675330638885498,
      -0.12031519412994385,
      0.09868037700653076,
      -0.11401249468326569,
      -0.09127628803253174,
      -0.050698813050985336,
      -0.30476224422454834,
      -0.22601735591888428,
      0.11304774880409241,
      -0.30757927894592285,
      -0.20174209773540497,
      0.13009485602378845,
      0.10423075407743454,
      -0.12374237924814224,
      -0.1216820552945137,
      -0.08285021036863327,
      -0.33625003695487976,
      -0.4806358814239502,
      0.04870571568608284,
      0.2507242262363434,
      0.1449243426322937,
      -0.3882044851779938,
      -0.2194337099790573,
      -0.17459553480148315,
      0.01217564381659031,
      -0.4221034049987793,
      -0.44488680362701416,
      -0.26408132910728455,
      0.221055805683136,
      -0.32261359691619873,
      0.09500205516815186,
      -0.06305624544620514,
      -0.22223375737667084,
      -0.24870531260967255,
      -0.4405738413333893,
      0.13749346137046814,
      0.1124340146780014,
      0.007990347221493721,
      -0.27945587038993835,
      0.03605465218424797,
      0.06831901520490646,
      -0.06475825607776642,
      -0.6812412738800049,
      -0.07830101251602173,
      0.18178151547908783,
      0.37740740180015564,
      0.16554267704486847,
      24.846288681030273,
      -11.375925064086914,
      -8.254716873168945,
      -11.381884574890137,
      0.14199082553386688,
      -0.25584864616394043,
      -0.10306713730096817,
      -0.1261555701494217,
      -0.19854013621807098,
      -0.19854962825775146,
      -0.15319068729877472,
      0.08899567276239395,
      0.08349713683128357,
      -0.2697221338748932,
      -0.34073230624198914,
      -0.20166049897670746,
      -0.162363201379776,
      -0.16765519976615906,
      -0.10381200909614563,
      0.12292984873056412,
      -0.023045022040605545,
      -0.40821295976638794,
      -0.17755334079265594,
      -0.28687363862991333,
      -0.16428138315677643,
      -0.6131719350814819,
      -0.07118111103773117,
      -0.020726101472973824,
      -0.2293410450220108,
      -0.2335948944091797,
      0.027614306658506393,
      0.027065860107541084,
      0.07645668834447861,
      -0.06174285337328911,
      -0.02968621253967285,
      -0.6953902840614319,
      -0.21995912492275238,
      -0.23702722787857056,
      -0.2225811928510666,
      0.07043604552745819,
      0.0392233282327652,
      0.09601345658302307,
      -0.025311492383480072,
      0.06579014658927917,
      0.10061109811067581,
      -0.24655862152576447,
      -0.28722256422042847,
      -0.2313287854194641,
      -0.3563857972621918,
      -0.08738919347524643,
      -0.3199324607849121,
      -0.15472090244293213,
      0.21483537554740906,
      0.22290068864822388,
      -0.16734476387500763,
      -0.25499454140663147,
      0.14068880677223206,
      -0.16743706166744232,
      -0.2529583275318146,
      0.08482056856155396,
      -0.1088552176952362,
      -0.18187402188777924,
      -0.09154827147722244,
      0.11629389971494675,
      -0.25807446241378784,
      0.2062302529811859,
      0.18152371048927307,
      -0.06406056880950928,
      -0.09146958589553833,
      -0.10118021070957184,
      -0.24843643605709076,
      -0.3335384428501129,
      -0.29824405908584595,
      -0.26759326457977295,
      0.01561803463846445,
      -0.12632185220718384,
      0.06491896510124207,
      0.1420108675956726,
      -0.2194158434867859,
      0.07172071933746338,
      -0.2544923722743988,
      0.05702346935868263,
      -0.10334452241659164,
      -0.5056373476982117,
      -0.413106769323349,
      -0.14089235663414001,
      -0.05005311965942383,
      -0.20259900391101837,
      -0.2683946490287781,
      -0.13259072601795197,
      -0.17715036869049072,
      0.1523028016090393,
      -0.2053765505552292,
      0.45238617062568665,
      -0.2532767653465271,
      16.235095977783203,
      -0.1255093216896057,
      -2.6897664070129395,
      -4.67979097366333,
      -1.0052319765090942,
      -12.080451011657715,
      -1.0151875019073486,
      2.4068360328674316,
      0.8508867025375366,
      -0.3748757541179657,
      0.13605336844921112,
      -0.721566379070282,
      0.1927034854888916,
      -0.2510373890399933,
      -0.026043757796287537,
      -0.09637026488780975,
      -0.025287777185440063,
      0.19979116320610046,
      -0.2603367567062378,
      0.049318909645080566,
      0.03346294164657593,
      0.1997111439704895,
      0.05560433864593506,
      -0.15994268655776978,
      -0.21910127997398376,
      -0.10905198752880096,
      0.04960254579782486,
      -0.1311161071062088,
      0.01780753582715988,
      -0.011601266451179981,
      -0.17592699825763702,
      0.008065151050686836,
      -0.057859502732753754,
      0.09280312806367874,
      -0.11909491568803787,
      0.05128733813762665,
      0.1909218728542328,
      -0.32650014758110046,
      -0.27286243438720703,
      0.044650331139564514,
      -0.062023431062698364,
      -0.1575416922569275,
      -0.03305448591709137,
      -0.3555262088775635,
      -0.254119873046875,
      -0.42467358708381653,
      -0.004137613344937563,
      -0.21980741620063782,
      0.01915028691291809,
      -0.15108197927474976,
      -0.13180293142795563,
      0.020342599600553513,
      -0.32346758246421814,
      -0.4250298738479614,
      -4.0884904861450195,
      -2.138150453567505,
      1.20339035987854,
      -0.1808367520570755,
      0.1911177635192871,
      2.2671241760253906,
      3.529278516769409,
      -3.0350966453552246,
      0.15202736854553223,
      8.422063827514648,
      -0.17342883348464966,
      -1.3846293687820435,
      -4.953014373779297,
      0.6156545281410217,
      -0.25312888622283936,
      -0.1310729831457138,
      0.350530207157135,
      -0.08461051434278488,
      -0.079461969435215,
      -0.3124130666255951,
      -0.24954338371753693,
      -0.3780803084373474,
      -0.10175856202840805,
      0.09692349284887314,
      -0.18507197499275208,
      -0.5489501953125,
      -1.0541656017303467,
      -0.5346729159355164,
      0.1130465418100357,
      0.12186112999916077,
      -0.08731027692556381,
      -0.24853423237800598,
      -0.0735282450914383,
      -0.36241379380226135,
      -0.3351452350616455,
      -0.12013202905654907,
      0.2035125344991684,
      -0.22597908973693848,
      -0.08844651281833649,
      -0.18266376852989197,
      -0.3354727625846863,
      -0.34109175205230713,
      0.10132607817649841,
      -0.0129086310043931,
      -0.017913153395056725,
      -0.12803363800048828,
      0.027605220675468445,
      -0.061923716217279434,
      -0.2307586967945099,
      -0.2518046796321869,
      -0.02331320382654667,
      -0.13387423753738403,
      0.14428935945034027,
      -0.13594475388526917,
      -0.2747737169265747,
      -0.023647494614124298,
      -0.2513115108013153,
      -0.1506643295288086,
      -0.33664461970329285,
      -0.21679487824440002,
      -0.06310658901929855,
      -0.9618775248527527,
      0.05864774063229561,
      -1.0996536016464233,
      -0.016061313450336456,
      -0.10252904891967773,
      0.11995618790388107,
      -0.44827771186828613,
      -0.36136314272880554,
      -0.35860326886177063,
      -0.13613390922546387,
      -0.03692256286740303,
      -0.14108289778232574,
      0.006077589001506567,
      0.12350558489561081,
      0.0067237126640975475,
      -0.5380639433860779,
      -0.11197440326213837,
      0.2683790326118469,
      0.18165479600429535,
      0.04564021900296211,
      -0.12352127581834793,
      -0.29289957880973816,
      -0.45470380783081055,
      -0.24170370399951935,
      -0.09836222976446152,
      -0.1956842839717865,
      -0.4766842722892761,
      -0.11115659773349762,
      -0.09498415887355804,
      -0.17738407850265503,
      0.0502002127468586,
      0.07551907747983932,
      0.11018998920917511,
      0.2585311830043793,
      27.922687530517578,
      -8.356877326965332,
      -8.984957695007324,
      0.1206059604883194,
      -0.3228886127471924,
      0.051220014691352844,
      0.11525307595729828,
      -0.08129715919494629,
      -0.18726952373981476,
      0.004475423134863377,
      -0.07795900851488113,
      -0.04849123954772949,
      -0.018182195723056793,
      0.2336024045944214,
      0.12438464164733887,
      -0.36580324172973633,
      -0.2970581650733948,
      -0.37578481435775757,
      -1.1524275541305542,
      -0.9927971363067627,
      0.3433406949043274,
      0.3199580907821655,
      0.5548170804977417,
      -0.27651822566986084,
      -0.45427918434143066,
      0.10647760331630707,
      0.03413627669215202,
      0.048709847033023834,
      -0.5948705077171326,
      -0.6906498670578003,
      -1.128510594367981,
      0.28615760803222656,
      0.17865054309368134,
      0.029216602444648743,
      -0.21167981624603271,
      -0.5114967823028564,
      -0.9660150408744812,
      -0.651928722858429,
      0.13660967350006104,
      0.02433798275887966,
      -0.2721047103404999,
      -0.660165011882782,
      -0.06457197666168213,
      0.1395452916622162,
      -0.2825697958469391,
      -0.12734612822532654,
      -0.07994315028190613,
      -0.2512573003768921,
      -0.4692946672439575,
      -0.5805484652519226,
      -0.42428654432296753,
      -0.7821207642555237,
      -0.2158508598804474,
      -0.7513395547866821,
      -1.3232266902923584,
      -1.4876223802566528,
      -0.9426512122154236,
      -0.2691287696361542,
      -0.5149281620979309,
      -0.9797750115394592,
      1.1741831302642822,
      0.1399904042482376,
      0.2482961118221283,
      0.36428454518318176,
      0.2098810374736786,
      0.0390680767595768,
      -0.2396048903465271,
      -0.2553524076938629,
      -0.38305315375328064,
      -16.253149032592773,
      -24.0738582611084,
      -0.15848352015018463,
      -0.3131878674030304,
      -0.4220361113548279,
      -2.4366869926452637,
      -1.546352744102478,
      -0.4307326376438141,
      -0.2979469299316406,
      -0.6138292551040649,
      -0.823168933391571,
      -0.3301340639591217,
      0.2707052230834961,
      -0.3509869873523712,
      -0.2252083420753479,
      0.36259159445762634,
      0.41921132802963257,
      -0.6105073690414429,
      -6.2699198722839355,
      -11.316823959350586,
      0.09433799237012863,
      -0.4030798375606537,
      -0.026000237092375755,
      -0.02306452766060829,
      -0.1375994235277176,
      0.26715904474258423,
      0.2878807783126831,
      -0.012201574631035328,
      0.27038106322288513,
      -0.008109146729111671,
      23.756696701049805,
      -9.744233131408691,
      0.16333933174610138,
      -0.13686248660087585,
      0.15443715453147888,
      -0.0012412875657901168,
      -0.05855946987867355,
      -0.242756649851799,
      -0.05214511603116989,
      -0.12925578653812408,
      0.23500952124595642,
      -0.015063285827636719,
      -0.24926970899105072,
      -0.24251076579093933,
      0.18458376824855804,
      -0.014234950765967369,
      -1.1823683977127075,
      0.606652557849884,
      0.24701988697052002,
      0.6757797002792358,
      0.3257436752319336,
      -0.04475417360663414,
      0.06307810544967651,
      0.01653953269124031,
      -0.0494706965982914,
      -17.32477378845215,
      -26.054744720458984,
      0.1281926929950714,
      0.679095447063446,
      0.07023949176073074,
      -0.016952989622950554,
      -0.22754661738872528,
      0.07143636047840118,
      0.06233911216259003,
      0.18457557260990143,
      0.020482758060097694,
      -0.06055125221610069,
      0.163763165473938,
      0.013765513896942139,
      -0.11516895145177841,
      -0.1277725249528885,
      -0.25105270743370056,
      0.02292361669242382,
      -0.07341086864471436
    ],
    [
      0.12762147188186646,
      0.06583203375339508,
      -0.14144353568553925,
      0.010889152064919472,
      -0.045848116278648376,
      -0.03350994735956192,
      0.04029103368520737,
      0.07336872071027756,
      -0.046775974333286285,
      0.15273773670196533,
      0.04501812905073166,
      0.018556766211986542,
      0.024962224066257477,
      -0.007437192834913731,
      -0.17120780050754547,
      -0.07573381066322327,
      -0.09002292156219482,
      -0.23999503254890442,
      0.13576000928878784,
      -0.27203479409217834,
      0.005619890056550503,
      0.22807681560516357,
      0.030129240825772285,
      0.02878458797931671,
      -0.13322141766548157,
      -0.18824809789657593,
      0.06184105575084686,
      -0.06545580178499222,
      0.0801636278629303,
      0.2695769965648651,
      0.041240714490413666,
      -0.1996651440858841,
      -0.0583687387406826,
      -0.007819395512342453,
      0.041031401604413986,
      -0.014104362577199936,
      -0.006732472218573093,
      0.0024772046599537134,
      -0.0647973120212555,
      -0.014657857827842236,
      -0.006760474294424057,
      0.05430455133318901,
      0.013226298615336418,
      0.04797408729791641,
      -0.07265523821115494,
      0.1199793592095375,
      0.08185672014951706,
      0.01718520000576973,
      -0.14822977781295776,
      0.022235874086618423,
      -0.04746447876095772,
      -0.2655623257160187,
      0.027443021535873413,
      -0.06408129632472992,
      -0.03611402213573456,
      0.15478968620300293,
      -0.5153497457504272,
      -0.227302685379982,
      0.762923538684845,
      -0.029240600764751434,
      -0.057187072932720184,
      0.01164684072136879,
      -0.036437276750802994,
      0.03269835188984871,
      -0.23983332514762878,
      0.002206274541094899,
      0.21800120174884796,
      -0.019671903923153877,
      0.05111728236079216,
      -0.003112922888249159,
      0.383718878030777,
      0.037104588001966476,
      -0.2224246859550476,
      -0.4884278476238251,
      0.017782777547836304,
      0.041492730379104614,
      -0.2100510448217392,
      -0.05308562517166138,
      -0.015737537294626236,
      -0.11834301799535751,
      0.11699260026216507,
      0.021173745393753052,
      -0.005713613238185644,
      -0.2920844256877899,
      0.12932884693145752,
      0.010680862702429295,
      -0.10461552441120148,
      -0.16405576467514038,
      0.14953386783599854,
      -0.19414663314819336,
      0.38048556447029114,
      -0.03117048554122448,
      0.15976892411708832,
      0.045093290507793427,
      0.1949397474527359,
      -0.03879057988524437,
      0.01342389639467001,
      -0.03601737320423126,
      -0.031393419951200485,
      -0.039770521223545074,
      0.4924519658088684,
      0.16053016483783722,
      -0.007393002975732088,
      -0.07476978749036789,
      -0.0015010955976322293,
      -0.03020007163286209,
      0.027874654158949852,
      0.15014028549194336,
      0.01527664065361023,
      0.0011603570310398936,
      -0.01929265260696411,
      -0.13616518676280975,
      -0.10520559549331665,
      0.21892833709716797,
      0.018509019166231155,
      -0.006300977896898985,
      -0.2232932150363922,
      -0.806420087814331,
      -0.031902436167001724,
      -0.00023196364054456353,
      0.06737343221902847,
      0.029065223410725594,
      0.23015911877155304,
      -0.09626588970422745,
      -0.4120662808418274,
      -0.0114666186273098,
      0.18037356436252594,
      0.059041064232587814
    ]
  ],
  "biases": [
    [
      -5.201528549194336,
      -0.10437257587909698,
      -1.7175803184509277,
      -0.10275984555482864,
      -0.11149244755506516,
      -0.175637349486351,
      -0.25604623556137085,
      -0.2458103597164154,
      -0.4694966971874237,
      -6.572393417358398,
      -0.03258194029331207,
      -0.5650765895843506,
      -0.2810862064361572,
      -1.6361581087112427,
      -0.43898630142211914,
      -0.33170467615127563,
      -7.175198554992676,
      0.7188284993171692,
      -6.672206401824951,
      -12.574193000793457,
      -0.14655858278274536,
      0.29942190647125244,
      -1.6168252229690552,
      -0.14223147928714752,
      -0.5252133011817932,
      -5.978947162628174,
      -1.2386265993118286,
      -0.8032153248786926,
      -0.9164338111877441,
      -2.9705541133880615,
      -0.06880196183919907,
      -0.12636925280094147,
      -0.2873448133468628,
      -0.16747339069843292,
      -0.4599493741989136,
      -0.2716098427772522,
      -0.00802256166934967,
      -0.03989651799201965,
      -0.21886789798736572,
      -0.16926103830337524,
      -0.2800167202949524,
      -1.0080864429473877,
      -0.2273932248353958,
      -0.2269633710384369,
      -4.983717441558838,
      -0.1297488659620285,
      -0.44996175169944763,
      -0.6215300559997559,
      -1.4447801113128662,
      -0.7153626084327698,
      -2.644129753112793,
      -0.05981510132551193,
      -0.034783750772476196,
      -1.5722129344940186,
      -0.20911911129951477,
      -0.23681554198265076,
      -1.8386482000350952,
      -1.2432621717453003,
      -9.328781127929688,
      -0.13761548697948456,
      -0.13005611300468445,
      -0.19256719946861267,
      -0.21526110172271729,
      -0.231714129447937,
      -2.94148850440979,
      -0.15242278575897217,
      -13.947978973388672,
      -0.22832772135734558,
      -0.4568794071674347,
      -0.04742616415023804,
      -19.14633560180664,
      -0.46018630266189575,
      -1.6331769227981567,
      -18.72498321533203,
      -0.08208365738391876,
      -0.6846641302108765,
      0.3251384496688843,
      -0.1251438558101654,
      -0.08741797506809235,
      -1.0478551387786865,
      -3.48532772064209,
      -0.1233685314655304,
      -0.2533554434776306,
      -1.032994031906128,
      -6.119988441467285,
      -0.12785695493221283,
      -0.11620358377695084,
      -1.781173825263977,
      -12.249794960021973,
      0.4637490510940552,
      -0.6084346771240234,
      -0.24865691363811493,
      -1.6502851247787476,
      -3.1510651111602783,
      -4.467017650604248,
      -0.11944212019443512,
      -0.6177631616592407,
      -0.14400427043437958,
      -0.4932824671268463,
      -0.041216328740119934,
      -12.586228370666504,
      -0.332535058259964,
      -0.09112688899040222,
      -0.2586318552494049,
      -0.23142561316490173,
      -0.10357361286878586,
      -0.03861990198493004,
      -1.458206295967102,
      -0.10638654232025146,
      -0.09709640592336655,
      -0.17709925770759583,
      -4.625152587890625,
      -0.5706937313079834,
      -0.24064050614833832,
      -0.280035138130188,
      -0.06754031777381897,
      -0.2193884253501892,
      -9.425224304199219,
      -0.12484602630138397,
      -0.9696767926216125,
      -0.412809818983078,
      -0.2502225339412689,
      0.7040543556213379,
      -0.7002753019332886,
      -13.037102699279785,
      -0.28499409556388855,
      0.48494601249694824,
      -0.29186689853668213
    ],
    [
      0.04740877076983452
    ]
  ]
}